tree
version=v3
num_class=1
num_tree_per_iteration=1
label_index=0
max_feature_idx=11
objective=binary sigmoid:1
feature_names=Sleepy_complete Simple_reaction_time_Ex5 new_BM_frequency Choice_reaction_time_Ex5 CASIX4 Olfaction_complete_Ex5_Ex4 ECGage new_smoke TBI_LOC BMIX4 HYPBP1 Coffee_oz_Ex1
feature_infos=[0:1] [1:1075] [0:4] [1:1329] [7.5:99] [0:12] [72:90] [0:2] [0:1] [14.8542690108118:33.3049886621315] [0:1] [0:60]
tree_sizes=1210 980 1050 1164 1319 1424 1045 858 973 1213 1214 1133 776 886 956 849

Tree=0
num_leaves=11
num_cat=0
split_feature=3 11 9 3 3 2 3 6 8 9
split_gain=8.33472 3.72299 2.59503 3.16845 3.03363 1.57994 1.56422 1.13474 1.48537 1.98337
threshold=959.50000000000011 18.000000000000004 25.688000030893853 493.50000000000006 472.50000000000006 2.5000000000000004 475.50000000000006 82.500000000000014 1.0000000180025095e-35 29.142819823195953
decision_type=8 2 8 10 10 8 10 2 10 10
left_child=2 -2 3 4 -1 6 -4 8 9 -8
right_child=1 -3 5 -5 -6 -7 7 -9 -10 -11
leaf_value=-1.2666354703667113 -0.98271586030160685 -1.2311014717141886 -1.2311014717141886 -1.3349241335417394 -1.0523949302234532 -1.2518999966256905 -0.98156985748119296 -1.2311014717141886 -1.2311014717141886 -1.2311014717141886
leaf_weight=0.8745890110731096 1.3993424177169806 0.34983560442924488 0.34983560442924622 4.7227806597948074 0.52475340664386749 0.69967120885848988 0.87458901107311215 0.17491780221462239 0.17491780221462239 0.1749178022146225
leaf_count=5 8 2 2 27 3 4 5 1 1 1
internal_value=0 1.9147 -0.26814 -0.651878 0.291625 0.411366 0.972694 1.41947 1.71619 2.08584
internal_weight=0 1.74918 8.57097 6.12212 1.39934 2.44885 1.74918 1.39934 1.22442 1.04951
internal_count=59 10 49 35 8 14 10 8 7 6
shrinkage=1


Tree=1
num_leaves=9
num_cat=0
split_feature=3 11 1 7 1 1 9 9
split_gain=6.50456 3.15158 2.85051 1.95673 3.96279 3.77882 0.389862 0.0507901
threshold=752.00000000000011 18.000000000000004 851.50000000000011 1.0000000180025095e-35 398.00000000000006 286.00000000000006 25.688000030893853 26.648778758252252
decision_type=8 2 10 2 10 10 10 10
left_child=3 2 -2 4 5 -1 -5 -8
right_child=1 -3 -4 6 -6 -7 7 -9
leaf_value=-0 0.20859407981185304 -0 -0 -0.09312562974151152 -0.069621603811188523 0.21760138097330445 0.0089405218037891133 -0.020216615056765953
leaf_weight=0.51934704184532099 2.1469141989946383 0.51477356255054463 0.32987591624259938 3.3184658885002136 1.6838925927877424 0.97197833657264721 0.19828031957149492 0.69568035006523132
leaf_count=3 11 3 2 20 10 5 1 4
internal_value=0 1.28233 1.74552 -0.364569 0.0538544 1.25203 -0.805805 -0
internal_weight=0 2.99156 2.47679 7.38764 3.17522 1.49133 4.21243 0.893961
internal_count=59 16 13 43 18 8 25 5
shrinkage=0.0975091


Tree=2
num_leaves=10
num_cat=0
split_feature=3 11 9 3 3 1 2 6 5
split_gain=5.06339 2.29832 1.841 2.61603 2.02854 1.09835 1.84894 0.983073 0.180239
threshold=959.50000000000011 18.000000000000004 25.688000030893853 493.50000000000006 472.50000000000006 336.50000000000006 2.5000000000000004 82.500000000000014 3.5000000000000004
decision_type=8 2 8 10 10 10 8 2 10
left_child=2 8 3 4 -1 -4 7 -7 -2
right_child=1 -3 5 -5 -6 6 -8 -9 -10
leaf_value=-0.029779324347495653 0.20037257163055766 -0 -0.019940325581324695 -0.097723193840807854 0.13721151838518056 0.1559024334092097 -0 -0 0
leaf_weight=0.82396408915519426 1.2959536314010631 0.34983560442924488 0.69379664957523468 4.2811687439680099 0.63313816487789154 1.233076557517051 0.50818762183189403 0.16822879016399395 0.43198454380035384
leaf_count=5 6 2 4 27 3 6 3 1 2
internal_value=0 1.36571 -0.243862 -0.59128 0.205539 0.273307 0.747556 1.32677 1.80805
internal_weight=0 2.07777 8.34156 5.73827 1.4571 2.60329 1.90949 1.40131 1.72794
internal_count=59 10 49 35 8 14 10 7 8
shrinkage=0.0975091


Tree=3
num_leaves=11
num_cat=0
split_feature=5 6 9 6 2 5 3 1 2 9
split_gain=3.83067 2.85566 5.07273 1.90214 1.13508 1.1767 1.45273 1.08062 0.304673 0.259698
threshold=6.5000000000000009 80.500000000000014 23.066760068481951 73.500000000000014 2.5000000000000004 9.5000000000000018 475.50000000000006 608.00000000000011 1.5000000000000002 24.193420218852804
decision_type=10 2 8 2 8 8 10 10 10 10
left_child=1 2 8 -4 5 7 -7 -2 -1 -3
right_child=4 9 3 -5 -6 6 -8 -9 -10 -11
leaf_value=0.0098802992651340887 -0.077195538462182856 0 -0 0.22380686111467901 -0.086329961205045283 -0 0.14680394889896098 0.027423965836809942 -0.044217718745779018 -0.045312106735840005
leaf_weight=0.1958557814359668 1.9688967168331151 0.40542186796665169 0.18314485251903567 2.0041859149932861 2.5188652724027634 0.35644283890724165 0.59684726595878601 0.14671039581298817 1.0791971981525419 0.92801003158092499
leaf_count=1 12 2 1 10 15 2 3 1 7 5
internal_value=0 0.725257 1.20316 2.03686 -0.435838 -0 0.750589 -0.41509 -0 -0.112089
internal_weight=0 4.79582 3.46238 2.18733 5.58776 3.0689 0.95329 2.11561 1.27505 1.33343
internal_count=59 26 19 11 33 18 5 13 8 7
shrinkage=0.0975091


Tree=4
num_leaves=13
num_cat=0
split_feature=4 2 4 6 4 9 9 5 9 5 9 6
split_gain=3.27586 2.80759 1.82164 1.66423 1.45378 1.17452 1.06629 0.908983 0.594896 0.607073 0.00815132 0.814656
threshold=89.950000000000017 2.5000000000000004 80.550000000000026 74.500000000000014 89.200000000000017 18.867067135716404 25.378591521542102 4.5000000000000009 27.053083687009202 9.5000000000000018 23.489521711916954 81.500000000000014
decision_type=2 8 2 2 2 10 8 10 10 10 10 2
left_child=1 2 10 -4 5 -5 -3 -2 9 -8 -1 -12
right_child=7 6 3 4 -6 -7 8 -9 -10 -11 11 -13
leaf_value=-0.002696447372516612 0 -0.067676933898849947 -0 -0 -0 0.19734136607657499 0.10756632649922973 -0.089640104171417864 -0 -0 0.10190139523255286 -0.0016195067326183837
leaf_weight=0.57815016806125619 0.39602988958358798 1.6953583806753161 0.2789767682552341 0.13948838412761766 0.18779955804347981 2.182909294962883 0.70016154646873452 2.7150283604860306 0.38623565435409546 0.18543049693107605 0.37855683267116552 0.50944338738918304
leaf_count=4 2 11 2 1 1 11 3 16 2 1 2 3
internal_value=0 0.456999 0.970303 1.39778 1.64918 1.85698 -0.103341 -0.698748 0.252763 0.745513 0 0.0766963
internal_weight=0 7.22251 4.25532 2.78917 2.5102 2.3224 2.96719 3.11106 1.27183 0.885592 1.46615 0.888
internal_count=59 41 24 15 13 12 17 18 6 4 9 5
shrinkage=0.0975091


Tree=5
num_leaves=14
num_cat=0
split_feature=5 4 4 4 3 3 2 5 4 5 3 3 3
split_gain=2.62566 1.81365 1.94057 1.59283 1.27256 1.08726 0.585917 1.04491 0.288533 0.289273 0.0327446 0.00624257 0.0301037
threshold=6.5000000000000009 80.550000000000026 89.950000000000017 88.700000000000017 959.50000000000011 431.50000000000006 2.5000000000000004 9.5000000000000018 72.450000000000017 1.5000000000000002 752.00000000000011 645.00000000000011 685.00000000000011
decision_type=8 2 2 2 10 8 8 10 2 10 10 8 10
left_child=1 8 4 6 5 -3 7 11 9 -1 -4 -2 -13
right_child=3 2 10 -5 -6 -7 -8 -9 -10 -11 -12 12 -14
leaf_value=-0 -0.0077819292218209877 -0 -0.017262395958410021 -0.087217678313021282 -0 0.17897673365480887 -0.033170588719502778 0.11638882795650085 -0.044184273304335359 0.057615735112143698 0 0.023173860679563278 -0
leaf_weight=0.31950165331363567 0.60616284608841042 0.14901052415371063 0.67083105444908131 2.7169101685285568 0.19405195116996757 1.9596022367477417 0.89421339333057392 0.66769659519195546 0.98487527668476094 0.48188076913356787 0.24057765305042267 0.15902563929557811 0.27872678637504578
leaf_count=2 4 1 4 17 1 9 6 3 6 2 1 1 2
internal_value=0 0.57027 0.996283 -0.393039 1.43373 1.65192 0 0.458881 -0 0.0900416 -0 -0 0
internal_weight=0 5.00033 3.21407 5.32274 2.30266 2.10861 2.60583 1.71161 1.78626 0.801382 0.911409 1.04392 0.437752
internal_count=59 26 16 33 11 10 16 10 10 4 5 7 3
shrinkage=0.0975091


Tree=6
num_leaves=10
num_cat=0
split_feature=2 5 3 3 3 4 5 3 3
split_gain=4.99755 2.13225 1.85603 1.69946 0.429286 0.453935 0.392946 0.0282477 0.138031
threshold=1.5000000000000002 1.5000000000000002 440.50000000000006 645.00000000000011 464.50000000000006 81.450000000000017 10.500000000000002 658.50000000000011 859.50000000000011
decision_type=10 10 8 10 8 2 10 8 10
left_child=2 4 -1 6 -2 -6 -3 -5 -9
right_child=1 3 -4 7 5 -7 -8 8 -10
leaf_value=-0 -0 -0.10762254993009382 0.15168338327075678 0.022401415331676666 -0 0.093406183307491245 -0 -0.032120447139858344 0.0043285794318848828
leaf_weight=0.35860604047775324 0.31514790654182223 5.1982652246952057 1.474611908197403 0.16125048696994748 0.1684158891439439 0.72574415802955616 0.89723175764083851 0.88749195635318756 0.20965562760829928
leaf_count=2 2 31 7 1 1 3 5 6 1
internal_value=0 -0.548552 1.08893 -0.779503 0.281972 0.661657 -0.994237 0 -0
internal_weight=0 8.5632 1.83322 7.3539 1.20931 0.89416 6.0955 1.2584 1.09715
internal_count=59 50 9 44 6 4 36 8 7
shrinkage=0.0975091


Tree=7
num_leaves=8
num_cat=0
split_feature=2 1 5 3 1 5 3
split_gain=4.11841 2.86415 2.74168 1.59889 0.791914 0.377566 0.375523
threshold=1.5000000000000002 608.00000000000011 1.5000000000000002 440.50000000000006 267.00000000000006 10.500000000000002 464.50000000000006
decision_type=10 10 10 8 8 10 8
left_child=3 2 6 -1 -5 -4 -2
right_child=1 -3 5 4 -6 -7 -8
leaf_value=-0 -0 0.10688846572059815 -0.10589539803077574 -0 0.15579564220317554 -0 0.058869512466841897
leaf_weight=0.35860604047775324 0.31514790654182223 0.37342354655265803 5.7670425772666931 0.13632035255432118 1.3854079991579056 0.89723175764083851 0.90283358097076416
leaf_count=2 2 2 37 1 6 5 4
internal_value=0 -0.510308 -0.71437 0.965296 1.39696 -0.987629 0.237585
internal_weight=0 8.25568 7.88226 1.88033 1.52173 6.66427 1.21798
internal_count=59 50 48 9 7 42 6
shrinkage=0.0975091


Tree=8
num_leaves=9
num_cat=0
split_feature=2 9 3 9 6 3 5 3
split_gain=3.36463 1.79382 1.39696 0.956148 0.737719 0.50111 0.381843 0.0938227
threshold=1.5000000000000002 25.896236807196605 440.50000000000006 26.423205103281656 85.500000000000014 645.00000000000011 1.5000000000000002 658.50000000000011
decision_type=10 8 8 10 2 10 10 10
left_child=2 4 -1 -3 5 -2 -5 -7
right_child=1 3 -4 6 -6 7 -8 -9
leaf_value=-0 -0.0989090706777771 0.090887294444678288 0.12368395832463744 0 0 0.018037702535939514 -0.050175672969228931 -0.024541239250752828
leaf_weight=0.35860604047775235 4.3490552306175232 0.71681043505668673 1.5422405451536179 0.24061714112758625 0.49989077448844899 0.17368224263191212 1.1393041908740995 0.81136822700500477
leaf_count=2 29 3 7 1 3 1 7 6
internal_value=0 -0.470359 0.860924 0.0647278 -0.763707 -0.873824 -0.103668 -0
internal_weight=0 7.93073 1.90085 2.09673 5.834 5.33411 1.37992 0.98505
internal_count=59 50 9 11 39 36 8 7
shrinkage=0.0975091


Tree=9
num_leaves=12
num_cat=0
split_feature=1 6 9 3 4 1 4 3 9 2 5
split_gain=1.85573 2.05982 2.67014 1.75977 1.98586 1.14896 1.07577 0.803966 0.564288 0.786281 0.0930689
threshold=588.00000000000011 75.500000000000014 21.192428539675802 501.00000000000006 95.250000000000014 333.50000000000006 82.450000000000017 475.50000000000006 20.311745579689802 2.5000000000000004 1.0000000180025095e-35
decision_type=8 2 10 10 2 10 2 10 10 10 10
left_child=3 10 -3 4 7 -6 -5 -1 -9 -10 -2
right_child=1 2 -4 6 5 -7 -8 8 9 -11 -12
leaf_value=-0.059699399124998838 0 -0 0.1927399618815428 0 -0 0.19218842723536325 -0.089373855226124718 -0 0.11768367619023774 -0 -0.029310512061462953
leaf_weight=1.3903328850865362 0.24799114465713623 0.3709745705127715 1.2668776661157606 1.1632063016295431 0.15975078940391527 0.49057061970233917 2.9562064036726952 0.34634585678577401 0.65116705000400543 0.24610251933336255 0.6560678631067276
leaf_count=9 1 2 6 7 1 3 20 2 3 2 3
internal_value=0 0.759262 1.3636 -0.154556 0.247261 1.46872 -0.619038 -0 0.296947 0.745717 -0
internal_weight=0 2.54191 1.63785 7.40368 3.28427 0.650321 4.11941 2.63395 1.24362 0.89727 0.904059
internal_count=59 12 8 47 20 4 27 16 7 5 4
shrinkage=0.0975091


Tree=10
num_leaves=12
num_cat=0
split_feature=1 6 9 3 1 1 9 2 5 9 5
split_gain=1.45768 1.67378 2.26384 1.50569 1.37339 2.46461 2.30045 0.769658 0.526301 0.160092 0.0824487
threshold=588.00000000000011 75.500000000000014 21.192428539675802 501.00000000000006 301.50000000000006 403.50000000000006 26.648778758252252 1.5000000000000002 4.5000000000000009 29.527684346898454 1.0000000180025095e-35
decision_type=8 2 10 10 10 10 10 8 10 10 10
left_child=3 10 -3 4 -1 6 -6 -5 -9 -7 -2
right_child=1 2 -4 7 5 9 -8 8 -10 -11 -12
leaf_value=-0.03551941307487335 0 -0 0.1713888127210747 0 0.20873237242046688 -0.034803984005687461 -0 0 -0.087798232943540791 0 -0.027676168184442806
leaf_weight=0.91512312740087443 0.24799114465713623 0.3709745705127715 1.3288330435752866 0.24999968707561529 0.967102631926537 0.88265877962112405 0.29582087695598602 0.67535854876041446 3.0371174514293671 0.24534121155738833 0.6494816392660141
leaf_count=6 1 2 6 1 5 6 2 4 22 1 3
internal_value=0 0.667281 1.20212 -0.136148 0.219817 0.706522 1.53259 -0.582134 -0.740241 -0 -0
internal_weight=0 2.59728 1.69981 7.26852 3.30605 2.39092 1.26292 3.96248 3.71248 1.128 0.897473
internal_count=59 12 8 47 20 14 7 27 26 7 4
shrinkage=0.0975091


Tree=11
num_leaves=11
num_cat=0
split_feature=1 6 9 3 1 1 9 5 9 5
split_gain=1.15307 1.37689 1.95442 1.23363 1.14925 1.97538 1.91729 0.298604 0.14114 0.0730625
threshold=588.00000000000011 75.500000000000014 21.192428539675802 501.00000000000006 301.50000000000006 403.50000000000006 26.648778758252252 4.5000000000000009 29.527684346898454 1.0000000180025095e-35
decision_type=8 2 10 10 10 10 10 10 10 10
left_child=3 9 -3 4 -1 6 -6 -5 -7 -2
right_child=1 2 -4 7 5 8 -8 -9 -10 -11
leaf_value=-0.033597893142361834 0 -0 0.15439163750471707 0 0.18354562598724994 -0.03291516153462011 -0 -0.064501541422244832 0 -0.026134748445442391
leaf_weight=0.89552254229783956 0.24799114465713623 0.3709745705127715 1.3700961619615553 0.67535854876041446 1.0397652536630633 0.86468976736068703 0.29582087695598591 3.1204078048467636 0.24534121155738833 0.64310614764690399
leaf_count=6 1 2 6 4 5 6 2 23 1 3
internal_value=0 0.588483 1.06922 -0.123588 0.178156 0.629256 1.34483 -0.54322 -0 -0
internal_weight=0 2.63217 1.74107 7.13691 3.34114 2.44562 1.33559 3.79577 1.11003 0.891097
internal_count=59 12 8 47 20 14 7 27 7 4
shrinkage=0.0975091


Tree=12
num_leaves=7
num_cat=0
split_feature=4 1 3 1 1 3
split_gain=5.03733 2.19619 3.01643 0.818726 1.08776 0.258953
threshold=83.750000000000014 851.50000000000011 732.00000000000011 336.50000000000006 304.50000000000006 1246.5000000000002
decision_type=2 10 8 8 8 10
left_child=1 2 -1 4 -2 -3
right_child=3 5 -4 -5 -6 -7
leaf_value=-0 -0.060445767995969388 -0.045054541696774093 0.17122440783615445 -0.096520025672384185 0.054294239961828888 0
leaf_weight=1.0449266359210017 1.4654506966471674 0.85318127274513211 2.007042407989502 3.4472512528300285 0.85466976463794686 0.25
leaf_count=7 10 4 9 24 4 1
internal_value=0 0.686129 1.12362 -0.690173 -0 -0.0453241
internal_weight=0 4.15515 3.05197 5.76737 2.32012 1.10318
internal_count=59 21 16 38 14 5
shrinkage=0.0975091


Tree=13
num_leaves=8
num_cat=0
split_feature=3 9 9 5 5 3 3
split_gain=4.27104 1.76079 1.13698 0.971556 0.801781 0.704616 0.715425
threshold=1246.5000000000002 24.029209254126005 23.340568961797903 7.5000000000000009 10.500000000000002 493.50000000000006 475.50000000000006
decision_type=8 8 8 10 10 10 10
left_child=1 2 5 -4 -2 6 -1
right_child=4 -3 3 -5 -6 -7 -8
leaf_value=-0.028833152564567293 0.12857862895083816 -0.087135942563760657 0.13270390008871111 -0 -0 -0.066307789825646918 0.073110022098564806
leaf_weight=0.81646402925252837 1.6714025139808661 3.7497328743338585 0.63506214320659626 0.25211500376462936 0.17407888174056996 1.6681027263402937 0.71351499855518341
leaf_count=6 7 24 3 2 1 13 3
internal_value=0 -0.432029 0 0.843508 1.11407 -0.259033 0
internal_weight=0 7.83499 4.08526 0.887177 1.84548 3.19808 1.52998
internal_count=59 51 27 5 8 22 9
shrinkage=0.0975091


Tree=14
num_leaves=9
num_cat=0
split_feature=5 9 11 1 9 9 9 9
split_gain=3.20701 1.22522 1.14882 1.00996 0.90958 0.67106 0.11329 0.255917
threshold=3.5000000000000004 27.874369139235654 22.000000000000004 851.50000000000011 18.212064927428504 24.029209254126005 23.819613784097502 19.919454223318954
decision_type=10 10 2 10 8 8 10 10
left_child=1 2 3 4 -1 6 7 -2
right_child=5 -3 -4 -5 -6 -7 -8 -9
leaf_value=-0 0 -0.0062322713232281224 -0 -0 0.14023672012143862 -0.087725118509104028 0.013880987157796581 -0.036770272915412371
leaf_weight=0.17126095294952515 0.24336566030979237 0.54141061007976521 0.34948299825191487 0.64439478516578652 2.3190227150917053 2.8469336032867432 0.18520355224609364 2.1427245438098907
leaf_count=1 1 3 2 3 10 20 1 18
internal_value=0 0.539452 0.805261 1.02003 1.2756 -0.578122 -0 -0.1922
internal_weight=0 4.02557 3.48416 3.13468 2.49028 5.41823 2.57129 2.38609
internal_count=59 19 16 14 11 40 20 19
shrinkage=0.0975091


Tree=15
num_leaves=8
num_cat=0
split_feature=3 5 5 2 3 11 3
split_gain=3.81767 2.97731 1.11415 0.791654 0.684862 0.577512 0.543331
threshold=645.00000000000011 6.5000000000000009 1.0000000180025095e-35 3.5000000000000004 658.50000000000011 1.0000000180025095e-35 685.00000000000011
decision_type=8 10 10 10 8 2 10
left_child=5 2 -2 4 -4 -1 -3
right_child=1 6 3 -5 -6 -7 -8
leaf_value=0 -0 0 -0 -0 0.15929110362189003 -0.073956094713268736 -0.059170642465560572
leaf_weight=0.51111552864313037 0.56021960079670075 0.22957688570022569 0.1119948625564583 0.14021307229995716 2.3772912919521332 4.0554359033703804 1.2998233810067175
leaf_count=3 3 1 1 1 11 31 8
internal_value=0 0.602231 1.15469 1.39748 1.52482 -0.631542 -0.195852
internal_weight=0 4.71912 3.18972 2.6295 2.48929 4.56655 1.5294
internal_count=59 25 16 13 12 34 9
shrinkage=0.0975091


end of trees

feature importances:
Choice_reaction_time_Ex5=36
BMIX4=28
Olfaction_complete_Ex5_Ex4=23
Simple_reaction_time_Ex5=19
new_BM_frequency=12
CASIX4=11
ECGage=10
Coffee_oz_Ex1=5
new_smoke=1
TBI_LOC=1

parameters:
[boosting: gbdt]
[objective: binary]
[metric: auc]
[tree_learner: serial]
[device_type: cpu]
[data: ]
[valid: ]
[num_iterations: 100]
[learning_rate: 0.0975091]
[num_leaves: 21]
[num_threads: 4]
[max_depth: 25]
[min_data_in_leaf: 1]
[min_sum_hessian_in_leaf: 0.001]
[bagging_fraction: 0.338711]
[pos_bagging_fraction: 1]
[neg_bagging_fraction: 1]
[bagging_freq: 3]
[bagging_seed: 3]
[feature_fraction: 0.762063]
[feature_fraction_bynode: 1]
[feature_fraction_seed: 2]
[early_stopping_round: 0]
[first_metric_only: 0]
[max_delta_step: 0]
[lambda_l1: 0.674952]
[lambda_l2: 0.373958]
[min_gain_to_split: 0]
[drop_rate: 0.1]
[max_drop: 50]
[skip_drop: 0.5]
[xgboost_dart_mode: 0]
[uniform_drop: 0]
[drop_seed: 4]
[top_rate: 0.2]
[other_rate: 0.1]
[min_data_per_group: 100]
[max_cat_threshold: 32]
[cat_l2: 10]
[cat_smooth: 10]
[max_cat_to_onehot: 4]
[top_k: 20]
[monotone_constraints: ]
[feature_contri: ]
[forcedsplits_filename: ]
[forcedbins_filename: ]
[refit_decay_rate: 0.9]
[cegb_tradeoff: 1]
[cegb_penalty_split: 0]
[cegb_penalty_feature_lazy: ]
[cegb_penalty_feature_coupled: ]
[verbosity: 1]
[max_bin: 181]
[max_bin_by_feature: ]
[min_data_in_bin: 3]
[bin_construct_sample_cnt: 200000]
[histogram_pool_size: -1]
[data_random_seed: 1]
[output_model: LightGBM_model.txt]
[snapshot_freq: -1]
[input_model: ]
[output_result: LightGBM_predict_result.txt]
[initscore_filename: ]
[valid_data_initscores: ]
[pre_partition: 0]
[enable_bundle: 1]
[max_conflict_rate: 0]
[is_enable_sparse: 1]
[sparse_threshold: 0.8]
[use_missing: 1]
[zero_as_missing: 0]
[two_round: 0]
[save_binary: 0]
[header: 0]
[label_column: ]
[weight_column: ]
[group_column: ]
[ignore_column: ]
[categorical_feature: ]
[predict_raw_score: 0]
[predict_leaf_index: 0]
[predict_contrib: 0]
[num_iteration_predict: -1]
[pred_early_stop: 0]
[pred_early_stop_freq: 10]
[pred_early_stop_margin: 10]
[convert_model_language: ]
[convert_model: gbdt_prediction.cpp]
[num_class: 1]
[is_unbalance: 0]
[scale_pos_weight: 1]
[sigmoid: 1]
[boost_from_average: 1]
[reg_sqrt: 0]
[alpha: 0.9]
[fair_c: 1]
[poisson_max_delta_step: 0.7]
[tweedie_variance_power: 1.5]
[max_position: 20]
[lambdamart_norm: 1]
[label_gain: ]
[metric_freq: 1]
[is_provide_training_metric: 0]
[eval_at: ]
[multi_error_top_k: 1]
[num_machines: 1]
[local_listen_port: 12400]
[time_out: 120]
[machine_list_filename: ]
[machines: ]
[gpu_platform_id: -1]
[gpu_device_id: -1]
[gpu_use_dp: 0]

end of parameters

pandas_categorical:[]
