tree
version=v3
num_class=1
num_tree_per_iteration=1
label_index=0
max_feature_idx=11
objective=binary sigmoid:1
feature_names=Sleepy_complete Simple_reaction_time_Ex5 new_BM_frequency Choice_reaction_time_Ex5 CASIX4 Olfaction_complete_Ex5_Ex4 ECGage new_smoke TBI_LOC BMIX4 HYPBP1 Coffee_oz_Ex1
feature_infos=[0:1] [1:1075] [0:4] [1:1329] [2.5:98.400000000000006] [0:12] [72:90] [0:2] [0:1] [14.8542690108118:32.563293904877703] [0:1] [0:60]
tree_sizes=997 947 931 1035 1249 1050 1013 1200 1030 1129 1128 1399 1215 1231 1152 1049 880 1355 596 773 680 1047 1330 1069 931 972 1020 934 1088 1031 1117 780 1127

Tree=0
num_leaves=9
num_cat=0
split_feature=3 5 9 2 9 9 9 9
split_gain=11.0011 2.18248 5.28633 1.66815 2.05484 1.60043 0.337503 0.183685
threshold=741.50000000000011 6.5000000000000009 25.124080134986503 1.5000000000000002 22.825119804440906 28.975320199793902 21.357594450132453 20.999545171203604
decision_type=8 10 8 10 10 10 10 10
left_child=1 2 -1 -2 -5 -4 7 -3
right_child=3 6 5 4 -6 -7 -8 -9
leaf_value=-1.3079411136659704 -1.2311014717141886 -1.2666354703667113 -1.0112129110065862 -1.2311014717141886 -0.98271586030160674 -1.2311014717141886 -1.3349241335417394 -1.213503268487425
leaf_weight=1.9240958243608461 0.17491780221462327 0.87458901107311215 0.69967120885848988 0.17491780221462239 1.3993424177169798 0.1749178022146225 4.7227806597948074 0.1749178022146225
leaf_count=11 1 5 4 1 8 1 27 1
internal_value=0 -0.603526 0 1.9147 2.2026 1.75813 -0.940847 -0
internal_weight=0 8.57097 2.79868 1.74918 1.57426 0.874589 5.77229 1.04951
internal_count=59 49 16 10 9 5 33 6
shrinkage=1


Tree=1
num_leaves=9
num_cat=0
split_feature=3 1 3 1 1 1 9 9
split_gain=8.66858 4.10489 3.52498 1.54317 1.62572 1.00086 0.32606 0.0167276
threshold=741.50000000000011 355.50000000000006 479.00000000000006 581.50000000000011 996.50000000000011 308.00000000000006 25.124080134986503 22.825119804440906
decision_type=8 10 10 8 10 10 10 10
left_child=1 2 -1 -2 -5 -4 7 -7
right_child=3 -3 5 4 -6 6 -8 -9
leaf_value=-0.057715942131874053 -0 -0.10449392411574455 -0 0.21115256503526469 -0 0.016996518766569872 0.19041695814957019 -0
leaf_weight=1.3286689072847351 0.19817695021629389 5.4925952553749084 0.17491780221462239 1.5621564537286756 0.17491780221462261 0.17660331726074197 0.78236383199691772 0.33247224986553192
leaf_count=8 1 33 1 8 1 1 4 2
internal_value=0 -0.567188 0.220603 1.59979 1.87899 1.29425 1.56588 0
internal_weight=0 8.28762 2.79503 1.93525 1.73707 1.46636 1.29144 0.509076
internal_count=59 49 16 10 9 8 7 3
shrinkage=0.0975091


Tree=2
num_leaves=9
num_cat=0
split_feature=3 1 3 1 2 1 1 2
split_gain=6.90956 3.69178 2.99578 1.24205 1.51353 1.63638 0.870563 1.0423
threshold=741.50000000000011 355.50000000000006 479.00000000000006 581.50000000000011 1.5000000000000002 996.50000000000011 308.00000000000006 2.5000000000000004
decision_type=8 10 10 8 10 10 10 10
left_child=1 2 -1 -2 -5 -6 -4 -8
right_child=3 -3 6 4 5 -7 7 -9
leaf_value=-0.054826839922272295 -0 -0.10093906885745803 -0 -0 0.21245024258060272 -0 0.16521917426473837 -0
leaf_weight=1.2842832952737802 0.19817695021629456 5.1614890098571777 0.17491780221462239 0.19479255378246296 1.5133711695671079 0.17491780221462239 1.1945887506008146 0.16493795812129963
leaf_count=8 1 33 1 1 7 1 6 1
internal_value=0 -0.531368 0.192962 1.36391 1.60433 1.88439 1.16506 1.41299
internal_weight=0 7.98022 2.81873 2.08126 1.88308 1.68829 1.53444 1.35953
internal_count=59 49 16 10 9 8 8 7
shrinkage=0.0975091


Tree=3
num_leaves=10
num_cat=0
split_feature=1 3 3 1 6 2 2 1 6
split_gain=7.06994 3.56987 2.69104 1.98037 2.99245 2.08598 1.59897 1.13547 0.200833
threshold=581.50000000000011 483.50000000000006 447.50000000000006 286.00000000000006 77.500000000000014 3.5000000000000004 1.5000000000000002 996.50000000000011 88.500000000000014
decision_type=8 10 10 10 2 10 8 10 2
left_child=1 2 -1 -4 5 -5 -3 8 -2
right_child=7 6 3 4 -6 -7 -8 -9 -10
leaf_value=-0.033464934155893772 0.17788563230269458 0.01710406963645017 -0 0.29374699249667768 -0 -0 -0.099371016159622391 -0 0
leaf_weight=0.90744431316852514 1.9918715357780472 0.17630255222320546 0.31824177503585804 0.75434575974941231 0.30202366411685944 0.14533698558807373 4.665060743689537 0.17491780221462239 0.44473521411418898
leaf_count=6 9 1 2 5 2 1 30 1 2
internal_value=0 -0.307369 0.478226 1.29595 1.80985 2.53018 -0.83672 1.47976 1.65227
internal_weight=0 7.26876 2.42739 1.51995 1.20171 0.899683 4.84136 2.61152 2.43661
internal_count=59 47 16 10 8 6 31 12 11
shrinkage=0.0975091


Tree=4
num_leaves=12
num_cat=0
split_feature=5 11 4 4 4 6 9 4 6 2 2
split_gain=4.34081 1.45612 1.12542 1.02059 2.70336 0.31332 0.864089 0.249494 0.285198 0.0701478 0.0234326
threshold=7.5000000000000009 1.0000000180025095e-35 70.700000000000017 77.050000000000011 95.250000000000014 79.500000000000014 29.826274789419752 87.950000000000017 88.500000000000014 2.5000000000000004 3.5000000000000004
decision_type=10 2 2 2 2 2 10 2 2 10 10
left_child=2 10 9 -4 5 6 -5 8 -7 -1 -2
right_child=1 -3 3 4 -6 7 -8 -9 -10 -11 -12
leaf_value=-0.025783116973920994 0.01351076219664398 -0.087623864801468429 0.16043984144898807 -0.070032832852126539 0.17684872780933675 0.081302598597253681 0.014564281456089016 -0 -0 0 -0
leaf_weight=0.62934853136539448 0.84657931327819813 3.0959606766700745 1.4837694913148878 1.82776539027691 0.52940988540649403 0.43721267580986006 0.18333737552165971 0.2721902728080749 0.13609513640403748 0.24113218486309049 0.14533698558807373
leaf_count=3 5 21 7 12 3 2 1 2 1 1 1
internal_value=0 -0.549227 0.717945 0.903124 0.267056 -0 -0.345118 0.154859 0.542454 -0 0
internal_weight=0 4.08788 5.74026 4.86978 3.38601 2.8566 2.0111 0.845498 0.573308 0.870481 0.991916
internal_count=59 27 32 28 21 18 13 5 3 4 6
shrinkage=0.0975091


Tree=5
num_leaves=10
num_cat=0
split_feature=3 4 3 9 4 4 9 2 5
split_gain=4.13251 2.95458 2.60395 2.40896 2.39239 1.34624 1.12698 0.259951 0.000925232
threshold=674.50000000000011 93.450000000000017 483.50000000000006 25.784054751284703 70.700000000000017 84.15000000000002 27.613605501062104 2.5000000000000004 3.5000000000000004
decision_type=8 2 10 10 2 2 10 10 10
left_child=1 3 6 -1 8 -6 -3 -5 -2
right_child=4 2 -4 7 5 -7 -8 -9 -10
leaf_value=-0.095202921023980105 0 0.19709717596036849 -0.01018218533134356 0.066886199442652769 0.17891591195371867 -0 -0 -0 -0.0032653449650549282
leaf_weight=4.5060988068580619 0.41357587277889374 0.76294851303100564 0.65966501832008362 0.535121589899063 1.8986422270536425 0.18078221380710591 0.14434053003787994 0.16002348065376282 0.45109762251377111
leaf_count=32 2 4 5 3 8 1 1 1 2
internal_value=0 -0.231159 0.69051 -0.657581 1.0859 1.60309 1.65706 0.396166 -0
internal_weight=0 6.7682 1.56695 5.20124 2.9441 2.07942 0.907289 0.695145 0.864673
internal_count=59 46 10 36 13 9 5 4 4
shrinkage=0.0975091


Tree=6
num_leaves=10
num_cat=0
split_feature=5 3 7 6 4 3 3 5 3
split_gain=3.7131 1.85842 1.76714 0.999155 0.831219 0.566513 1.8214 0.867859 0.450637
threshold=2.5000000000000004 479.00000000000006 1.0000000180025095e-35 76.500000000000014 93.200000000000017 493.50000000000006 472.50000000000006 10.500000000000002 759.00000000000011
decision_type=8 8 2 2 2 10 10 10 10
left_child=1 -1 5 -3 -5 6 -2 -8 -7
right_child=2 3 -4 4 -6 8 7 -9 -10
leaf_value=-0 -0 -0 -0.085170831785541579 0.17302811732403697 -0 -0.055972610100068231 0.18409915630151794 -0 0
leaf_weight=0.47901380062103216 0.55905425548553578 0.1708577126264571 4.6768433526158333 1.3640420138835905 0.12365716695785511 1.339918680489063 0.50739361345767975 0.12723834812641144 0.24989046156406391
leaf_count=3 4 1 30 6 1 9 3 1 1
internal_value=0 0.842759 -0.516049 1.33865 1.57897 0 0.537214 1.50149 -0.241037
internal_weight=0 2.13757 7.46034 1.65856 1.4877 2.7835 1.19369 0.634632 1.58981
internal_count=59 11 48 8 7 18 8 4 10
shrinkage=0.0975091


Tree=7
num_leaves=12
num_cat=0
split_feature=5 1 7 6 11 1 3 3 1 1 1
split_gain=3.02233 1.58178 1.57509 0.857642 0.712693 0.465191 0.425625 1.55291 0.738147 0.413401 0.0155143
threshold=2.5000000000000004 422.50000000000006 1.0000000180025095e-35 76.500000000000014 1.0000000180025095e-35 301.50000000000006 493.50000000000006 472.50000000000006 380.00000000000006 643.00000000000011 295.50000000000006
decision_type=8 8 2 2 2 8 10 10 10 10 10
left_child=1 -1 6 -3 -5 10 7 -2 -9 -8 -4
right_child=2 3 5 4 -6 -7 9 8 -10 -11 -12
leaf_value=-0 -0 -0 -0.011871669054084696 -0 0.1552451190976685 -0.097187402822303398 -0.053215882553947963 0.1639740027969771 -0 0 0
leaf_weight=0.47901380062103216 0.55905425548553578 0.1708577126264571 0.67268788814544667 0.12365716695785511 1.4121210873126981 3.4683493077754974 1.2936555221676824 0.55727159976959229 0.12723834812641144 0.24989046156406391 0.31325878202915192
leaf_count=3 4 1 5 1 6 23 9 3 1 1 2
internal_value=0 0.733002 -0.483018 1.19216 1.41333 -0.83319 0 0.460045 1.33812 -0.208416 -0
internal_weight=0 2.18565 7.24141 1.70664 1.53578 4.4543 2.78711 1.24356 0.68451 1.54355 0.985947
internal_count=59 11 48 8 7 30 18 8 4 10 7
shrinkage=0.0975091


Tree=8
num_leaves=10
num_cat=0
split_feature=5 7 9 9 3 3 6 4 9
split_gain=2.47618 1.40359 1.55146 1.38308 1.36157 1.24016 0.747764 0.622182 0.0202357
threshold=2.5000000000000004 1.0000000180025095e-35 23.026223291309254 27.942915611048253 479.00000000000006 493.50000000000006 76.500000000000014 93.200000000000017 28.975320199793902
decision_type=8 2 10 10 8 10 2 2 10
left_child=4 2 5 -3 -1 -2 -6 -8 -5
right_child=1 3 -4 8 6 -7 7 -9 -10
leaf_value=-0 0.14735729985117912 -0.097214241713829905 -0.055348095684766188 0.018779716007789073 -0 -0 0.14092335126571423 -0 -0
leaf_weight=0.47901380062103216 0.59949825704097859 3.9695355072617531 1.3904247805476186 0.17158834636211384 0.1708577126264571 0.79586030542850494 1.4403017759323118 0.12365716695785511 0.11802592873573305
leaf_count=3 3 28 10 1 1 5 6 1 1
internal_value=0 -0.454213 0 -0.795806 0.639385 0.74537 1.07114 1.27842 0
internal_weight=0 7.04493 2.78578 4.25915 2.21383 1.39536 1.73482 1.56396 0.289614
internal_count=59 48 18 30 11 8 8 7 2
shrinkage=0.0975091


Tree=9
num_leaves=11
num_cat=0
split_feature=9 5 3 1 1 11 6 5 1 1
split_gain=1.62094 2.5448 2.88518 2.82891 1.69941 1.50136 0.90773 0.871618 0.940656 0.575861
threshold=20.999545171203604 2.5000000000000004 511.50000000000006 286.00000000000006 597.00000000000011 26.000000000000004 73.500000000000014 10.500000000000002 383.50000000000006 770.00000000000011
decision_type=8 8 8 10 10 2 2 10 10 10
left_child=-1 6 3 -3 -4 7 -2 8 -5 -6
right_child=1 2 4 5 9 -7 -8 -9 -10 -11
leaf_value=-0.074947366236182533 -0 -0.022170593303643502 -0.090450708071787303 0.20993145682820907 0.086996077710379011 -0 0.14413474171618096 -0 -0 -0
leaf_weight=1.5176555812358845 0.17085771262645622 0.7471173554658902 3.1926320120692258 1.2598337605595586 0.38387458026409138 0.24036405235528932 1.4365620762109754 0.11300694942474354 0.10602901130914676 0.3730752170085907
leaf_count=9 1 5 23 7 2 2 6 1 1 2
internal_value=0 0.244847 -0 0.723872 -0.568409 1.42647 1.24034 1.76326 1.95244 0.155562
internal_weight=0 8.02335 6.41593 2.46635 3.94958 1.71923 1.60742 1.47887 1.36586 0.75695
internal_count=59 50 43 16 27 11 7 9 8 4
shrinkage=0.0975091


Tree=10
num_leaves=11
num_cat=0
split_feature=9 5 3 1 1 11 6 5 1 1
split_gain=1.38367 2.1294 2.27424 2.28819 1.54585 1.22589 0.801785 0.708303 0.760918 0.521062
threshold=20.999545171203604 2.5000000000000004 511.50000000000006 286.00000000000006 597.00000000000011 26.000000000000004 73.500000000000014 10.500000000000002 383.50000000000006 770.00000000000011
decision_type=8 10 8 10 10 2 2 10 10 10
left_child=-1 6 3 -3 -4 7 -2 8 -5 -6
right_child=1 2 4 5 9 -7 -8 -9 -10 -11
leaf_value=-0.071197560671415999 -0 -0.020929006594778414 -0.087092112099736524 0.18140484565500942 0.081788449909375241 -0 0.13176323906986231 -0 -0 -0
leaf_weight=1.46423890441656 0.17085771262645799 0.7369753718376163 3.0158360004425053 1.3683639317750929 0.39189033210277546 0.24036405235528932 1.4523625671863554 0.11300694942474354 0.10602901130914676 0.3730752170085907
leaf_count=9 1 5 23 7 2 2 6 1 1 2
internal_value=0 0.219963 -0 0.611294 -0.532048 1.23077 1.1262 1.52494 1.68844 0.124834
internal_weight=0 7.96876 6.34554 2.56474 3.7808 1.82776 1.62322 1.5874 1.47439 0.764966
internal_count=59 50 43 16 27 11 7 9 8 4
shrinkage=0.0975091


Tree=11
num_leaves=14
num_cat=0
split_feature=7 9 6 1 1 9 5 5 9 1 5 8 5
split_gain=1.37672 1.90687 1.62376 0.936456 1.5869 0.726003 0.714842 0.469875 0.437901 0.461981 0.381901 0.400665 0.0383564
threshold=1.0000000180025095e-35 24.121511688575904 75.500000000000014 373.50000000000006 295.50000000000006 28.975320199793902 7.5000000000000009 7.5000000000000009 18.959827732919003 276.00000000000006 10.500000000000002 1.0000000180025095e-35 9.5000000000000018
decision_type=2 10 2 8 10 10 10 10 8 8 10 10 10
left_child=2 -2 -1 4 -3 6 -6 -5 -4 -10 11 -11 -9
right_child=1 3 8 7 5 -7 -8 12 9 10 -12 -13 -14
leaf_value=-0.020690184980829123 -0.087978511402475326 -0 -0 -0.054918932068923523 0.17784420945113369 -0 -0 0.026389671128745084 -0 0.1188909563001152 -0 -0 -0
leaf_weight=0.77216411381959937 2.4575624316930771 0.45808427035808602 0.14265561103820834 1.2847688496112821 0.80814467370510079 0.1311911940574646 0.10585811734199524 0.14971539378166188 0.13414022326469455 2.4570849984884271 0.10306473821401584 0.099044620990753063 0.19429498165845871
leaf_count=6 17 3 1 9 4 1 1 1 1 11 1 1 2
internal_value=0 -0.266193 0.483465 0.0833849 0.69415 1.32498 1.58053 -0.167662 0.87364 0.967409 1.06282 1.14002 0
internal_weight=0 5.58962 3.70815 3.13206 1.50328 1.04519 0.914003 1.62878 2.93599 2.79333 2.65919 2.55613 0.34401
internal_count=59 38 21 21 9 6 5 12 15 14 13 12 3
shrinkage=0.0975091


Tree=12
num_leaves=12
num_cat=0
split_feature=2 3 8 4 1 3 4 1 1 6 1
split_gain=4.262 1.71005 1.08076 1.04155 1.13798 0.459069 0.600977 0.126775 0.436361 0.560776 0.095042
threshold=1.5000000000000002 827.00000000000011 1.0000000180025095e-35 91.950000000000017 304.50000000000006 983.50000000000011 87.950000000000017 322.00000000000006 427.50000000000006 77.500000000000014 301.50000000000006
decision_type=10 8 10 2 10 10 2 10 10 2 10
left_child=2 3 -1 4 10 6 -3 -5 9 -9 -2
right_child=1 5 -4 7 -6 -7 -8 8 -10 -11 -12
leaf_value=0.21937559508404278 -0 0.10921887679903616 -0 -0.0074553052785020666 -0.090645495355595046 -0 -0 0.094450579636601362 -0 -0 0.043661732850503517
leaf_weight=0.68851173669099797 0.31842833757400546 1.0223837196826933 0.11861643195152284 0.60088357329368636 3.3922960683703423 0.62873321771621693 0.1719205081462859 0.81784925609827019 0.37766407430171961 0.229405477643013 0.10007034242153168
leaf_count=4 3 5 1 4 26 3 1 5 4 2 1
internal_value=0 -0.0841822 1.9074 -0.416078 -0.711209 0.561147 0.856651 0 0.259435 0.62628 0
internal_weight=0 7.65963 0.807128 5.8366 3.81079 1.82304 1.1943 2.0258 1.42492 1.04725 0.418499
internal_count=59 54 5 45 30 9 6 15 11 7 4
shrinkage=0.0975091


Tree=13
num_leaves=12
num_cat=0
split_feature=6 3 9 9 3 5 6 9 9 1 6
split_gain=1.61311 2.33286 1.55515 1.41916 0.916535 0.904601 0.716041 1.36193 0.323728 0.456983 0.195384
threshold=74.500000000000014 503.50000000000006 26.195455180284153 25.673900324788551 827.00000000000011 2.5000000000000004 78.500000000000014 25.288550966782704 22.099693875181256 403.00000000000006 83.500000000000014
decision_type=2 10 10 10 10 10 2 10 10 10 2
left_child=5 3 4 6 -3 -1 7 -2 -8 -10 -6
right_child=1 2 -4 -5 10 -7 8 -9 9 -11 -12
leaf_value=0.0041513708975127201 0.2271645740963367 -0.074466823077091557 0.11385672520817904 -0 0.04707107559408101 -0.073335059826298551 -0 -0 0.084911800594090328 -0 -0
leaf_weight=0.21007345616817508 0.91197364777326639 2.1623029112815866 0.35397927463054646 0.3159918040037154 0.46447893977165206 2.162413701415062 0.40488000959157922 0.13891319930553436 0.6751258373260498 0.22246851027011871 0.386358842253685
leaf_count=1 5 18 2 2 2 18 3 1 3 2 2
internal_value=0 0.426135 -0 1.07194 -0.407581 -0.43975 1.34259 1.98555 0.0940145 0.51599 0
internal_weight=0 6.03647 3.36712 2.66935 3.01314 2.37249 2.35336 1.05089 1.30247 0.897594 0.850838
internal_count=59 40 24 16 22 19 14 6 8 5 4
shrinkage=0.0975091


Tree=14
num_leaves=11
num_cat=0
split_feature=5 9 6 11 11 11 1 1 11 1
split_gain=1.46126 2.65916 1.00916 0.942772 0.523495 0.399676 0.673675 0.371366 0.252541 0.0233183
threshold=4.5000000000000009 22.099693875181256 74.500000000000014 30.000000000000004 10.000000000000002 1.0000000180025095e-35 380.00000000000006 301.50000000000006 6.0000000000000009 996.50000000000011
decision_type=8 10 2 2 2 2 10 10 2 10
left_child=1 8 -2 4 5 -4 7 -7 -1 -8
right_child=2 -3 3 -5 -6 6 9 -9 -10 -11
leaf_value=0 -0.066947615817054273 0.1491890990349741 -0 0.11127489171401628 -0.05227397152473242 -0 -0.014312665730601462 0.11925615120722878 -0.041993202158538502 0
leaf_weight=0.2255128622055047 1.8606287911534316 1.3939647302031515 0.51651419699192169 0.36200454831123346 1.3082931116223333 0.099076613783836143 0.70833999663591385 0.61865393817424763 0.98768674582242955 0.21981470286846161
leaf_count=1 16 7 4 2 11 1 6 3 7 1
internal_value=0 0.70445 -0.0993258 0.0610054 -0 0.125617 0.466572 1.00988 -0 -0
internal_weight=0 2.60716 5.69333 3.8327 3.47069 2.1624 1.64589 0.717731 1.2132 0.928155
internal_count=59 15 44 28 26 15 11 4 8 7
shrinkage=0.0975091


Tree=15
num_leaves=10
num_cat=0
split_feature=3 5 11 3 7 6 6 7 2
split_gain=3.48873 1.97448 0.630988 0.517125 0.103634 0.172663 0.382987 0.217988 8.19908e-07
threshold=568.00000000000011 6.5000000000000009 1.0000000180025095e-35 391.50000000000006 1.0000000180025095e-35 78.500000000000014 83.500000000000014 1.5000000000000002 1.5000000000000002
decision_type=8 10 2 10 2 2 2 2 10
left_child=3 2 -2 8 -3 -6 7 -7 -1
right_child=1 4 -4 -5 5 6 -8 -9 -10
leaf_value=0.0001146468071468372 -0 -0.026253206657508032 0.13685627130745923 -0.054016292053644832 -0 0.099838386359085193 -0 -0 -0
leaf_weight=0.21914744377136128 0.12694488465786102 0.77143488079309441 2.3261098563671112 4.0641301572322845 0.25462374836206442 0.38365773856639857 0.18696725368499759 0.075848296284675584 0.21515902131795883
leaf_count=1 1 5 13 30 3 2 1 1 2
internal_value=0 0.776546 1.28772 -0.416397 -0 0.127124 0.4352 0.831503 0
internal_weight=0 4.12559 2.45305 4.49844 1.67253 0.901097 0.646473 0.459506 0.434306
internal_count=59 26 14 33 12 7 4 3 3
shrinkage=0.0975091


Tree=16
num_leaves=8
num_cat=0
split_feature=4 9 2 2 9 1 1
split_gain=5.16032 1.75032 1.55447 0.932416 0.997945 0.060294 0.0371633
threshold=83.450000000000017 23.354631013915654 1.0000000180025095e-35 1.0000000180025095e-35 20.398333864395152 415.50000000000006 276.00000000000006
decision_type=2 10 10 10 10 10 10
left_child=1 6 -3 -2 5 -5 -1
right_child=3 2 -4 4 -6 -7 -8
leaf_value=0 0.016542261176478834 -0 0.15863341591211128 0.033787050325033791 -0.078823883031648015 -0 -0.018544311486225526
leaf_weight=0.22738829255104095 0.17787098884582508 0.26502536237239871 2.3741103112697601 0.12822730839252461 4.4554567113518715 0.27374450117349625 0.65354462713003159
leaf_count=1 1 2 13 1 34 3 4
internal_value=0 1.00951 1.37767 -0.479056 -0.642259 0 -0
internal_weight=0 3.52007 2.63914 5.0353 4.85743 0.401972 0.880933
internal_count=59 20 15 39 38 4 5
shrinkage=0.0975091


Tree=17
num_leaves=13
num_cat=0
split_feature=1 1 9 2 11 2 9 9 9 9 9 9
split_gain=2.55304 0.808757 1.03122 0.613406 0.599498 0.203832 0.52133 0.604629 0.466487 0.43114 0.073667 0.0508806
threshold=521.50000000000011 710.00000000000011 28.370175299053553 3.5000000000000004 14.000000000000002 1.5000000000000002 24.378956133473803 23.354631013915654 24.685082273714453 20.398333864395152 25.962868206018253 20.271430049432002
decision_type=8 10 10 8 2 10 10 10 10 10 10 10
left_child=4 2 3 -2 5 8 7 9 -1 11 -3 -7
right_child=1 10 -4 -5 -6 6 -8 -9 -10 -11 -12 -13
leaf_value=-0 0.15844467279444233 -0.010813468651360863 -0 -0 -0.063789014003194991 -0 -0.056154873542148931 0.084058207289418915 0.086685280495589892 -0.050005975146603987 0.026820103580730628 0.032737677031878118
leaf_weight=0.24960692971944756 1.4230393916368493 0.56749351322650887 0.19049857556819905 0.10382513701915752 1.7444297447800634 0.0972411930561069 1.323110409080982 0.43172030150890334 0.42168861627578735 1.2647199407219885 0.44674000144004816 0.13126754760742188
leaf_count=2 7 3 1 1 17 1 10 2 2 10 2 1
internal_value=0 0.858967 1.21753 1.47426 -0.225523 0 -0.107051 0 0.394077 -0.0562075 0 0.100367
internal_weight=0 2.7316 1.71736 1.52686 5.66378 3.91935 3.24806 1.92495 0.671296 1.49323 1.01423 0.228509
internal_count=59 14 9 8 45 28 24 14 4 12 5 2
shrinkage=0.0975091


Tree=18
num_leaves=5
num_cat=0
split_feature=3 4 4 3
split_gain=2.67141 2.01831 0.716735 0.484458
threshold=786.00000000000011 74.850000000000009 96.500000000000014 411.50000000000006
decision_type=8 2 2 10
left_child=2 -2 3 -1
right_child=1 -3 -4 -5
leaf_value=0 -0.024365392272202104 0.12361341247689195 0 -0.087018096812737269
leaf_weight=0.66834674030542274 0.63369296491146165 1.111134350299835 0.40296372771263111 5.5149857252836227
leaf_count=4 3 5 3 44
internal_value=0 0.451167 -0.707981 -0.800839
internal_weight=0 1.74483 6.5863 6.18333
internal_count=59 8 51 48
shrinkage=0.0975091


Tree=19
num_leaves=7
num_cat=0
split_feature=3 4 2 4 3 4
split_gain=2.27725 1.76956 1.14013 0.931633 0.00772825 0.228521
threshold=786.00000000000011 74.850000000000009 1.5000000000000002 96.500000000000014 366.00000000000006 92.750000000000014
decision_type=8 2 8 2 10 2
left_child=2 -2 4 -4 -1 -6
right_child=1 -3 3 -5 5 -7
leaf_value=-0 -0.023011418381928297 0.11409124135467709 -0.095678325066239509 0 0.051119405612453206 -0
leaf_weight=0.23976370692252999 0.6278562545776375 1.1173105388879774 4.8791146911680698 0.40296372771263111 0.4856297373771668 0.28266102075576782
leaf_count=1 3 5 43 3 2 2
internal_value=0 0.393321 -0.669372 -0.854103 0 0.0822546
internal_weight=0 1.74517 6.29013 5.28208 1.00805 0.768291
internal_count=59 8 51 46 5 4
shrinkage=0.0975091


Tree=20
num_leaves=6
num_cat=0
split_feature=3 4 4 3 5
split_gain=1.94682 1.55818 0.629958 0.412239 0.607744
threshold=786.00000000000011 74.850000000000009 96.500000000000014 411.50000000000006 1.5000000000000002
decision_type=8 2 2 10 10
left_child=2 -2 3 -1 -5
right_child=1 -3 -4 4 -6
leaf_value=0 -0.021732975300566892 0.10576153799251582 0 0 -0.092001215909613673
leaf_weight=0.65708187222480763 0.62225344777107228 1.1171896159648893 0.40296372771263111 0.56120973825454701 4.3570887967944145
leaf_count=4 3 5 3 3 41
internal_value=0 0.340852 -0.635039 -0.732446 -0.825215
internal_weight=0 1.73944 5.97834 5.57538 4.9183
internal_count=59 8 51 48 44
shrinkage=0.0975091


Tree=21
num_leaves=10
num_cat=0
split_feature=1 1 9 8 4 1 6 1 1
split_gain=3.03776 3.96224 2.29867 2.20015 2.17646 1.10732 0.372264 0.179351 0.0868353
threshold=415.50000000000006 308.00000000000006 25.784054751284703 1.0000000180025095e-35 80.850000000000009 597.00000000000011 82.500000000000014 770.00000000000011 272.00000000000006
decision_type=10 10 10 10 2 10 2 10 10
left_child=1 6 3 4 -3 -2 -1 -7 -8
right_child=5 2 -4 -5 -6 7 8 -9 -10
leaf_value=-0.040754923134517521 -0.076480799174478836 -0 -0 -0 0.23818923368552047 0.049514286615656988 0.034073839286918595 -0 -0
leaf_weight=1.5688292533159258 2.2913793995976452 0.19042664766311768 0.36025328561663617 0.26251237839460362 1.9102185219526286 0.35821902751922602 0.60640496760606755 0.20069009065628049 0.12864096462726593
leaf_count=11 22 1 5 3 10 2 3 1 1
internal_value=0 0.744286 1.49841 1.83863 2.15134 -0.409938 -0 0.100605 0.172179
internal_weight=0 5.02729 2.72341 2.36316 2.10065 2.85029 2.30388 0.558909 0.735046
internal_count=59 34 19 14 11 25 15 3 4
shrinkage=0.0975091


Tree=22
num_leaves=13
num_cat=0
split_feature=3 11 9 8 5 4 9 4 3 9 4 9
split_gain=1.80085 1.29079 1.59056 1.52092 0.34264 0.337974 0.29256 0.136045 0.0926917 0.0640565 0.0203186 0.00475674
threshold=661.50000000000011 6.0000000000000009 27.429849770916004 1.0000000180025095e-35 10.500000000000002 72.450000000000017 18.298660227313153 80.850000000000009 646.50000000000011 21.920318345831504 77.90000000000002 22.880749138466303
decision_type=10 2 10 8 10 2 10 2 8 8 2 10
left_child=1 8 3 4 6 -2 -3 10 -1 -5 -8 -11
right_child=5 2 -4 9 -6 -7 7 -9 -10 11 -12 -13
leaf_value=-0.026288170452953855 0 -0 -0.00085997136727852699 -0.017612985485755767 -0 -0.063859422399085444 0.018820089815182732 0.14830500560529103 0 0.020803411608701715 -0 0
leaf_weight=0.9047729708254334 0.18688811361789687 0.061075314879418197 0.59137630835175503 0.54207098484039273 0.074224106967449077 1.4640666693449018 0.17147417366504702 2.6049239337444305 0.21951454877853405 0.4812302738428117 0.35911768674850464 0.23972423747181887
leaf_count=10 1 1 6 3 1 10 1 17 1 2 3 3
internal_value=0 0.509248 0.739616 0.967999 1.29577 -0.471604 1.34532 1.38735 -0.0129103 0 0 0.176656
internal_weight=0 6.2495 5.12522 4.53384 3.27082 1.65095 3.19659 3.13552 1.12429 1.26303 0.530592 0.720955
internal_count=59 48 37 31 23 11 22 21 11 8 4 5
shrinkage=0.0975091


Tree=23
num_leaves=10
num_cat=0
split_feature=1 1 8 9 1 11 1 9 9
split_gain=2.01313 2.63041 1.74653 2.02969 0.99473 0.601319 0.159768 0.0424452 0.0190333
threshold=415.50000000000006 308.00000000000006 1.0000000180025095e-35 25.784054751284703 597.00000000000011 1.0000000180025095e-35 770.00000000000011 21.920318345831504 23.026223291309254
decision_type=10 8 8 10 10 2 10 8 10
left_child=1 -1 3 5 -2 -3 -6 -4 -9
right_child=4 2 7 -5 6 -7 -8 8 -10
leaf_value=-0.036736571613211776 -0.072276522559024531 -0 -0.016659621949727497 -0 0.046595415765006594 0.17001169684744755 -0 0.019696361680916867 -0
leaf_weight=1.0348042771220205 2.1540041342377667 0.090209439396859006 0.53877945989370313 0.36822053045034397 0.36016994714736927 2.4790965020656586 0.1949201971292496 0.47980751097202312 0.28217523545026774
leaf_count=9 22 1 3 5 2 11 1 2 3
internal_value=0 0.57471 0.965065 1.35078 -0.361118 1.65604 0.0920285 -0 0.117945
internal_weight=0 5.27309 4.23829 2.93753 2.70909 2.56931 0.55509 1.30076 0.761983
internal_count=59 34 25 17 25 12 3 8 5
shrinkage=0.0975091


Tree=24
num_leaves=9
num_cat=0
split_feature=3 5 3 4 4 1 1 1
split_gain=1.47538 1.73382 1.56846 0.626296 0.411367 0.39098 0.25831 0.0670444
threshold=511.50000000000006 2.5000000000000004 462.50000000000006 84.15000000000002 96.500000000000014 295.50000000000006 427.50000000000006 996.50000000000011
decision_type=8 10 10 2 2 10 10 10
left_child=2 7 -1 -4 5 -5 -7 -2
right_child=1 -3 3 4 -6 6 -8 -9
leaf_value=-0.050956557328258684 0.024275714551875785 -0.098660930424810209 -0 -0 0 0.14092373830435809 -0 -0
leaf_weight=1.2890108749270441 0.70774754136800755 3.7668866999447346 0.20573823153972612 0.087683618068694943 0.44368547201156611 0.96719092130660989 0.052576355636119843 0.21644027531147003
leaf_count=10 4 33 1 1 2 6 1 1
internal_value=0 -0.703315 0 0.723152 0.950878 1.20526 1.35077 0
internal_weight=0 4.69107 3.04589 1.75687 1.55114 1.10745 1.01977 0.924188
internal_count=59 38 21 11 10 8 7 5
shrinkage=0.0975091


Tree=25
num_leaves=9
num_cat=0
split_feature=3 5 3 11 1 1 1 1
split_gain=1.27133 1.59752 1.29448 1.36204 0.260503 0.0676671 0.059289 0.0175959
threshold=511.50000000000006 2.5000000000000004 462.50000000000006 10.000000000000002 427.50000000000006 304.50000000000006 996.50000000000011 295.50000000000006
decision_type=8 10 10 2 10 10 10 10
left_child=2 6 -1 4 -4 7 -2 -5
right_child=1 -3 3 5 -6 -7 -8 -9
leaf_value=-0.048449654549011803 0.022920957434580305 -0.095236535669924655 0.14239503442229479 -0 -0 -0.024526798870699206 -0 0.017453479873789951
leaf_weight=1.2451193854212763 0.69904072582721699 3.5464456379413605 0.80646197497844674 0.087683618068695068 0.052576355636119843 0.69551965594291687 0.21644027531147003 0.17532387375831604
leaf_count=10 4 33 4 1 1 4 1 1
internal_value=0 -0.665579 0 0.638968 1.3529 -0 0 0.00188831
internal_weight=0 4.46193 3.06268 1.81757 0.859038 0.958527 0.915481 0.263007
internal_count=59 38 21 11 5 6 5 2
shrinkage=0.0975091


Tree=26
num_leaves=10
num_cat=0
split_feature=6 1 1 11 4 4 6 4 1
split_gain=1.56537 0.568586 1.49211 0.795947 0.954679 0.495111 0.264591 0.252685 0.0809446
threshold=77.500000000000014 295.50000000000006 352.00000000000006 34.000000000000007 96.500000000000014 53.850000000000009 89.500000000000014 70.700000000000017 874.50000000000011
decision_type=2 10 10 2 2 2 2 2 10
left_child=1 7 3 4 -3 -2 -7 -1 -4
right_child=5 2 8 -5 -6 6 -8 -9 -10
leaf_value=0 0 0.17432253648417323 -0.024839404611231273 -0 0 -0.090317928228491343 0 -0.050999611835732019 0
leaf_weight=0.19865222275257144 0.17799703776836429 0.77499541640281711 0.90280936285853364 0.17906294763088215 0.43147572875022888 3.180362313985825 0.17709749191999424 1.0515923313796518 0.19810804724693296
leaf_count=1 1 4 12 1 2 27 2 8 1
internal_value=0 0 0.38831 1.04503 1.31128 -0.765302 -0.863894 -0.290726 -0.0359629
internal_weight=0 3.7367 2.48645 1.38553 1.20647 3.53546 3.35746 1.25024 1.10092
internal_count=59 29 20 7 6 30 29 9 13
shrinkage=0.0975091


Tree=27
num_leaves=9
num_cat=0
split_feature=3 11 8 9 1 7 10 5
split_gain=2.49625 1.94317 1.14872 0.664681 0.540369 0.552036 0.579381 0.438449
threshold=447.50000000000006 18.000000000000004 1.0000000180025095e-35 28.370175299053553 286.00000000000006 1.5000000000000002 1.0000000180025095e-35 2.5000000000000004
decision_type=10 2 10 10 10 2 2 10
left_child=7 2 3 4 -2 6 -6 -1
right_child=1 -3 -4 -5 5 -7 -8 -9
leaf_value=0 -0 -0.0063950006268886968 -0 -0 0 -0 0.15587920906826186 -0.059777295684645182
leaf_weight=0.31468144804239262 0.11114259064197528 0.6272328384220599 0.30929021537303913 0.39558672904968251 0.60136248543858606 0.11123478785157193 3.2728948853909969 1.3211561813950536
leaf_count=2 1 8 5 3 5 2 22 11
internal_value=0 0.819364 1.06177 1.19794 1.30795 1.37051 1.43437 -0.31436
internal_weight=0 5.42874 4.80151 4.49222 4.09663 3.98549 3.87426 1.63584
internal_count=59 46 38 33 30 29 27 13
shrinkage=0.0975091


Tree=28
num_leaves=11
num_cat=0
split_feature=3 6 11 9 1 9 2 5 7 3
split_gain=1.96878 1.703 1.6366 1.20176 0.790032 0.818951 0.435024 0.404537 0.258814 0.0302825
threshold=447.50000000000006 79.500000000000014 18.000000000000004 27.613605501062104 286.00000000000006 22.319410483313604 1.0000000180025095e-35 2.5000000000000004 1.5000000000000002 894.50000000000011
decision_type=10 2 2 10 10 10 10 10 2 10
left_child=7 2 3 4 -2 -6 -7 -1 -8 -3
right_child=1 9 -4 -5 5 6 8 -9 -10 -11
leaf_value=0 -0 -0.015919313777596721 -0 -0 0 -0 0.16521896924139506 -0.05688910796636866 -0 0
leaf_weight=0.31468144804239262 0.1599645130336288 0.76218819618225087 0.43408698588609679 0.27431942895054806 0.60978350043296847 0.070045605301857328 3.0581764169037347 1.2742585539817808 0.040933895856141926 0.17799703776836395
leaf_count=2 2 9 5 3 6 1 18 11 1 1
internal_value=0 0.710499 0.968755 1.17647 1.32316 1.41719 1.60786 -0.282352 1.66211 -0
internal_weight=0 5.5875 4.64731 4.21322 3.9389 3.77894 3.16916 1.58894 3.09911 0.940185
internal_count=59 46 36 31 28 26 20 13 19 10
shrinkage=0.0975091


Tree=29
num_leaves=10
num_cat=0
split_feature=5 3 3 4 9 4 3 8 6
split_gain=1.67108 1.12475 1.86502 1.48633 0.890798 0.535492 0.397726 0.391717 0.268633
threshold=4.5000000000000009 483.50000000000006 462.50000000000006 79.15000000000002 25.784054751284703 98.200000000000017 440.50000000000006 1.0000000180025095e-35 86.500000000000014
decision_type=10 8 10 2 10 2 8 10 2
left_child=6 2 -2 4 -3 -4 -1 8 -8
right_child=1 3 5 -5 -6 -7 7 -9 -10
leaf_value=-0 -0.0088183960598623191 -0 0.13827040133772037 -0.079458682413368939 0.11274567160103925 -0 0.1367523058690783 -0 0
leaf_weight=0.11161740869283708 0.69322927296161641 0.44376287236809758 1.165267616510391 2.359184991568327 0.36181922256946558 0.11114259064197528 1.4559308290481565 0.098850421607494243 0.44229920953512175
leaf_count=1 8 5 5 26 2 1 7 1 3
internal_value=0 0 0.547804 -0.345108 0.28062 1.24536 1.0117 1.11331 1.2107
internal_weight=0 5.13441 1.96964 3.16477 0.805582 1.27641 2.1087 1.99708 1.89823
internal_count=59 47 14 33 7 6 12 11 10
shrinkage=0.0975091


Tree=30
num_leaves=11
num_cat=0
split_feature=11 6 9 9 4 1 8 1 9 4
split_gain=1.44196 0.724472 0.98383 1.23376 1.04993 0.384203 0.275401 0.316037 0.00748945 0.127649
threshold=14.000000000000002 72.500000000000014 22.099693875181256 27.942915611048253 95.750000000000014 276.00000000000006 1.0000000180025095e-35 710.00000000000011 19.690410800439853 96.500000000000014
decision_type=2 2 10 10 2 8 10 10 10 2
left_child=1 -1 8 4 5 -4 7 -2 -3 -10
right_child=6 2 3 -5 -6 -7 -8 -9 9 -11
leaf_value=-0.0048662446457262568 -0.073164746710294659 0 -0 -0 -0 0.11355763273615326 0 0 -0.031917262658526332 0
leaf_weight=0.45432011783123005 1.6440418846905234 0.29602758958935727 0.099780201911927047 0.72561017423868157 0.23725134134292591 3.5574845429509878 0.26481875777244562 0.14840275049209584 0.88734415546059586 0.21304973959922793
leaf_count=2 15 2 1 5 1 21 2 1 8 1
internal_value=0 0.374097 0.512778 0.730386 0.955608 1.10787 -0.473336 -0.615271 -0 -0.0712729
internal_weight=0 6.47087 6.01655 4.62013 3.89452 3.65726 2.05726 1.79244 1.39642 1.10039
internal_count=59 41 39 28 23 22 18 16 11 9
shrinkage=0.0975091


Tree=31
num_leaves=7
num_cat=0
split_feature=3 11 6 9 9 6
split_gain=2.21925 1.2226 1.16292 0.927274 0.733127 0.0993299
threshold=462.50000000000006 18.000000000000004 72.500000000000014 22.099693875181256 28.370175299053553 89.500000000000014
decision_type=8 2 2 10 10 2
left_child=-1 2 -2 -4 5 -5
right_child=1 -3 3 4 -6 -7
leaf_value=-0.071370994493751255 -0.0046095686147843316 -0.028852407037329813 -0 0.10871262256315009 -0 0
leaf_weight=1.8121190480887879 0.45370589196682048 0.69327930733561516 1.1403315812349317 3.7480392418801789 0.46728305518627161 0.17305685579776753
leaf_count=15 2 7 9 21 3 2
internal_value=0 0.390258 0.588688 0.754913 0.949243 1.08157
internal_weight=0 6.6757 5.98242 5.52871 4.38838 3.9211
internal_count=59 44 37 35 26 23
shrinkage=0.0975091


Tree=32
num_leaves=11
num_cat=0
split_feature=11 6 4 5 7 8 5 9 5 4
split_gain=0.979173 0.544775 0.69577 0.53656 0.463952 0.232941 0.198705 0.592386 0.139822 0.242796
threshold=14.000000000000002 72.500000000000014 84.15000000000002 5.5000000000000009 1.5000000000000002 1.0000000180025095e-35 9.5000000000000018 22.319410483313604 1.5000000000000002 96.500000000000014
decision_type=2 2 2 10 2 10 10 10 10 2
left_child=1 -1 3 4 -3 -2 8 -8 -4 -10
right_child=5 2 6 -5 -6 -7 7 -9 9 -11
leaf_value=-0.0043664212217544582 -0.056082305630480125 0.11535162250272313 0 -0 -0 0 -0 0.06935593144683877 -0.043391570764940782 0
leaf_weight=0.45312044024467457 1.6915509458631275 1.6079393327236178 0.24057273566722948 0.62382304668426491 0.12093973904848088 0.25039339065551747 0.42469565570354451 1.1641020551323888 1.6236834526062009 0.21304973959922777
leaf_count=2 16 9 1 4 1 2 4 6 13 1
internal_value=0 0.279333 0.410507 0.80639 1.04801 -0.440963 0 0.307624 -0.0727254 -0.262893
internal_weight=0 6.47193 6.01881 2.3527 1.72888 1.94194 3.6661 1.5888 2.07731 1.83673
internal_count=59 41 39 14 10 18 25 10 15 14
shrinkage=0.0975091


end of trees

feature importances:
Simple_reaction_time_Ex5=62
BMIX4=50
Choice_reaction_time_Ex5=44
CASIX4=34
Olfaction_complete_Ex5_Ex4=28
ECGage=26
Coffee_oz_Ex1=19
new_BM_frequency=16
new_smoke=9
TBI_LOC=9
HYPBP1=1

parameters:
[boosting: gbdt]
[objective: binary]
[metric: auc]
[tree_learner: serial]
[device_type: cpu]
[data: ]
[valid: ]
[num_iterations: 100]
[learning_rate: 0.0975091]
[num_leaves: 21]
[num_threads: 4]
[max_depth: 25]
[min_data_in_leaf: 1]
[min_sum_hessian_in_leaf: 0.001]
[bagging_fraction: 0.338711]
[pos_bagging_fraction: 1]
[neg_bagging_fraction: 1]
[bagging_freq: 3]
[bagging_seed: 3]
[feature_fraction: 0.762063]
[feature_fraction_bynode: 1]
[feature_fraction_seed: 2]
[early_stopping_round: 0]
[first_metric_only: 0]
[max_delta_step: 0]
[lambda_l1: 0.674952]
[lambda_l2: 0.373958]
[min_gain_to_split: 0]
[drop_rate: 0.1]
[max_drop: 50]
[skip_drop: 0.5]
[xgboost_dart_mode: 0]
[uniform_drop: 0]
[drop_seed: 4]
[top_rate: 0.2]
[other_rate: 0.1]
[min_data_per_group: 100]
[max_cat_threshold: 32]
[cat_l2: 10]
[cat_smooth: 10]
[max_cat_to_onehot: 4]
[top_k: 20]
[monotone_constraints: ]
[feature_contri: ]
[forcedsplits_filename: ]
[forcedbins_filename: ]
[refit_decay_rate: 0.9]
[cegb_tradeoff: 1]
[cegb_penalty_split: 0]
[cegb_penalty_feature_lazy: ]
[cegb_penalty_feature_coupled: ]
[verbosity: 1]
[max_bin: 181]
[max_bin_by_feature: ]
[min_data_in_bin: 3]
[bin_construct_sample_cnt: 200000]
[histogram_pool_size: -1]
[data_random_seed: 1]
[output_model: LightGBM_model.txt]
[snapshot_freq: -1]
[input_model: ]
[output_result: LightGBM_predict_result.txt]
[initscore_filename: ]
[valid_data_initscores: ]
[pre_partition: 0]
[enable_bundle: 1]
[max_conflict_rate: 0]
[is_enable_sparse: 1]
[sparse_threshold: 0.8]
[use_missing: 1]
[zero_as_missing: 0]
[two_round: 0]
[save_binary: 0]
[header: 0]
[label_column: ]
[weight_column: ]
[group_column: ]
[ignore_column: ]
[categorical_feature: ]
[predict_raw_score: 0]
[predict_leaf_index: 0]
[predict_contrib: 0]
[num_iteration_predict: -1]
[pred_early_stop: 0]
[pred_early_stop_freq: 10]
[pred_early_stop_margin: 10]
[convert_model_language: ]
[convert_model: gbdt_prediction.cpp]
[num_class: 1]
[is_unbalance: 0]
[scale_pos_weight: 1]
[sigmoid: 1]
[boost_from_average: 1]
[reg_sqrt: 0]
[alpha: 0.9]
[fair_c: 1]
[poisson_max_delta_step: 0.7]
[tweedie_variance_power: 1.5]
[max_position: 20]
[lambdamart_norm: 1]
[label_gain: ]
[metric_freq: 1]
[is_provide_training_metric: 0]
[eval_at: ]
[multi_error_top_k: 1]
[num_machines: 1]
[local_listen_port: 12400]
[time_out: 120]
[machine_list_filename: ]
[machines: ]
[gpu_platform_id: -1]
[gpu_device_id: -1]
[gpu_use_dp: 0]

end of parameters

pandas_categorical:[]
