tree
version=v3
num_class=1
num_tree_per_iteration=1
label_index=0
max_feature_idx=11
objective=binary sigmoid:1
feature_names=Sleepy_complete Simple_reaction_time_Ex5 new_BM_frequency Choice_reaction_time_Ex5 CASIX4 Olfaction_complete_Ex5_Ex4 ECGage new_smoke TBI_LOC BMIX4 HYPBP1 Coffee_oz_Ex1
feature_infos=[0:1] [1:1347] [0:4] [368:1812] [2.5:98] [0:12] [72:90] [0:2] [0:1] [14.6411231134028:33.3049886621315] [0:1] [0:64]
tree_sizes=1300 1312 1049 980 961 967 1001 980 921 1320 1322 1326 945 970 1117 1418 1040 1477 831 914 918 1404 1470 1158 772 772 855 1213 1371 992 871 869 1035 1286 1020 1203 852 855 933 1138 941 1269 975 1307 1234 924 926 1019 1128 1141 1210 729 735

Tree=0
num_leaves=12
num_cat=0
split_feature=3 2 3 6 5 2 9 3 3 3 3
split_gain=9.07476 1.66815 2.05484 1.65242 1.17587 1.4898 1.21894 1.18885 0.99315 0.73706 0.017878
threshold=798.00000000000011 1.0000000180025095e-35 949.00000000000011 74.500000000000014 3.5000000000000004 1.0000000180025095e-35 26.378300029938405 759.00000000000011 515.50000000000011 451.50000000000006 777.00000000000011
decision_type=8 10 10 2 10 8 10 10 10 10 10
left_child=3 -2 -3 8 6 -6 -5 -7 9 -1 -9
right_child=1 2 -4 4 5 7 -8 10 -10 -11 -12
leaf_value=-1.2311014717141886 -1.2311014717141886 -0.98271586030160674 -1.2311014717141886 -1.2666354703667113 -1.213503268487425 -1.3369923708867406 -1.1134817183257713 -1.213503268487425 -1.2314285373594407 -1.1020349108956864 -1.2311014717141886
leaf_weight=0.1749178022146205 0.17491780221462327 1.3993424177169798 0.17491780221462239 0.87458901107311215 0.17491780221462239 5.2475340664386749 0.349835604429245 0.17491780221462239 0.52475340664386749 0.69967120885848999 0.349835604429245
leaf_count=1 1 8 1 5 1 30 2 1 3 4 2
internal_value=0 1.9147 2.2026 -0.379935 -0.60838 -0.792364 0 -0.940847 0.291625 0.957197 0
internal_weight=0 1.74918 1.57426 8.57097 7.17163 5.94721 1.22442 5.77229 1.39934 0.874589 0.524753
internal_count=59 10 9 49 41 34 7 33 8 5 3
shrinkage=1


Tree=1
num_leaves=13
num_cat=0
split_feature=1 1 1 9 9 6 3 9 9 1 9 9
split_gain=8.33125 2.68552 2.24818 2.00316 1.79643 1.12687 1.09749 0.961556 0.731697 1.04863 0.124367 0.00485336
threshold=617.50000000000011 803.50000000000011 414.00000000000006 26.378300029938405 28.163780009574307 75.500000000000014 494.00000000000006 29.016850493996653 25.199465411590303 362.00000000000006 20.319431338894351 20.122189939800752
decision_type=8 10 10 8 10 2 10 10 10 10 8 10
left_child=2 4 3 5 10 6 8 -5 9 -1 11 -2
right_child=1 -3 -4 7 -6 -7 -8 -9 -10 -11 -12 -13
leaf_value=0.16838917085140148 0.0089808509414148596 -0 -0.095416954552587946 0.1651972452654917 -0 -0.075537205486573999 -0.030920695702673407 -0 -0 -0 0.25009491473393131 -0
leaf_weight=0.55096131563186579 0.19817695021629436 0.33965678513050068 3.5340106338262558 0.55938592553138722 0.17491780221462239 1.9768677949905391 0.83384238183498383 0.1647389829158783 0.18717899918556213 0.1749178022146225 1.3656650185585022 0.19817695021629331
leaf_count=3 1 2 21 3 1 12 5 1 1 1 7 1
internal_value=0 1.60614 -0.422827 0 2.03002 -0.2641 0.0301527 1.25058 0.871708 1.24679 2.30206 0
internal_weight=0 2.27659 7.9819 4.44789 1.93694 3.72377 1.7469 0.724125 0.913058 0.725879 1.76202 0.396354
internal_count=59 12 47 26 10 22 10 4 5 4 9 2
shrinkage=0.0975091


Tree=2
num_leaves=10
num_cat=0
split_feature=1 1 1 9 2 6 3 2 9
split_gain=6.69195 2.1972 2.01294 1.67722 1.46035 0.988443 0.895141 1.52943 0.827051
threshold=617.50000000000011 803.50000000000011 414.00000000000006 26.378300029938405 1.0000000180025095e-35 75.500000000000014 494.00000000000006 2.5000000000000004 29.016850493996653
decision_type=8 10 10 8 10 2 10 10 10
left_child=2 4 3 5 -2 6 7 -1 -5
right_child=1 -3 -4 8 -6 -7 -8 -9 -10
leaf_value=0.15059812112034873 -0 -0 -0.091751218469618881 0.14794916199061894 0.19423683596691302 -0.072151893117302676 -0.029217211150749316 -0 -0
leaf_weight=0.59759271144866877 0.17491780221462416 0.33965678513050068 3.3415427207946777 0.60479620099067677 1.9125254005193708 1.8898066878318784 0.81898109614849091 0.36209680140018463 0.1647389829158783
leaf_count=3 1 2 21 3 9 12 5 2 1
internal_value=0 1.39043 -0.395708 0 1.75861 -0.249195 0 0.768693 1.11679
internal_weight=0 2.4271 7.77956 4.43801 2.08744 3.66848 1.77867 0.95969 0.769535
internal_count=59 12 47 26 10 22 10 5 4
shrinkage=0.0975091


Tree=3
num_leaves=9
num_cat=0
split_feature=1 11 3 6 1 2 5 1
split_gain=3.93552 3.06309 1.92073 2.4179 1.54485 2.13939 1.22891 0.0400379
threshold=545.00000000000011 22.000000000000004 855.00000000000011 72.500000000000014 333.50000000000006 2.5000000000000004 1.5000000000000002 975.50000000000011
decision_type=8 2 10 2 10 8 10 10
left_child=4 2 3 -2 5 -1 -6 -4
right_child=1 -3 7 -5 6 -7 -8 -9
leaf_value=0.12021893848489924 -0 -0.032066371814628326 -0.014841634917890457 0.21721472156728008 0 -0.053807362639214575 -0.097816161653954459 0.01759820322676358
leaf_weight=0.72245249152183411 0.23272445797920396 0.82907952368259419 0.58256006240844715 1.4691052585840223 0.36742056906223286 1.1787235736846924 4.4606136828660965 0.1749178022146225
leaf_count=4 1 5 3 7 2 7 29 1
internal_value=0 0.715389 1.30259 1.80033 -0.542603 0 -0.836058 -0
internal_weight=0 3.28839 2.45931 1.70183 6.72921 1.90118 4.82803 0.757478
internal_count=59 17 12 8 42 11 31 4
shrinkage=0.0975091


Tree=4
num_leaves=9
num_cat=0
split_feature=0 9 5 9 9 9 11 2
split_gain=3.44982 2.95458 1.76967 1.83087 0.98687 1.10862 0.428476 0.42268
threshold=1.0000000180025095e-35 24.796083049791452 4.5000000000000009 20.518661731951301 23.003358671571704 24.698371538919453 6.0000000000000009 2.5000000000000004
decision_type=8 8 10 10 10 10 2 10
left_child=2 -2 4 6 -1 -6 7 -4
right_child=1 -3 3 -5 5 -7 -8 -9
leaf_value=-0.018013124112787614 -0 0.18695208006265226 0.10450416192549448 -0.088420105891725026 0.12063722979166545 -0 -0 -0
leaf_weight=0.67526793479919289 0.49134854972362574 1.0483104884624481 0.37807554006576527 5.3317740112543106 1.0326405465602873 0.31777326762676228 0.41685102880001063 0.14551271498203278
leaf_count=4 3 5 2 34 5 2 3 1
internal_value=0 1.09001 -0.371532 -0.657524 0.197194 0.778239 0.098083 0.701053
internal_weight=0 1.53966 8.2979 6.27221 2.02568 1.35041 0.940439 0.523588
internal_count=59 8 51 40 11 7 6 3
shrinkage=0.0975091


Tree=5
num_leaves=9
num_cat=0
split_feature=0 9 3 3 7 2 9 3
split_gain=2.79328 2.50354 1.84632 1.5979 1.2356 0.553902 0.492068 0.181987
threshold=1.0000000180025095e-35 24.796083049791452 798.00000000000011 497.00000000000006 1.0000000180025095e-35 2.5000000000000004 25.018885834654654 830.50000000000011
decision_type=8 8 8 10 2 8 10 8
left_child=2 -2 3 5 -4 6 -1 -6
right_child=1 -3 4 -5 7 -7 -8 -9
leaf_value=0.078007023859581734 -0 0.16614041597533225 0.11382946407180543 -0.093845259412014936 0 -0.039369117630697122 -0 -0.038421924570774514
leaf_weight=0.92350757122039551 0.49134854972362574 1.1080592721700668 0.67534288763999994 4.2220107167959213 0.24750342965126024 0.94862593710422494 0.26291127502918243 0.79816217720508575
leaf_count=5 3 5 3 30 1 6 2 4
internal_value=0 0.954767 -0.345205 -0.62854 0.304579 0 0.465628 -0
internal_weight=0 1.59941 8.07806 6.35706 1.72101 2.13504 1.18642 1.04567
internal_count=59 8 51 43 8 13 7 5
shrinkage=0.0975091


Tree=6
num_leaves=10
num_cat=0
split_feature=4 4 3 2 3 2 3 5 6
split_gain=5.27198 4.29114 1.68411 1.35367 0.600855 0.573675 0.5604 0.623393 0.72133
threshold=94.65000000000002 75.200000000000017 475.50000000000006 1.0000000180025095e-35 798.00000000000011 2.5000000000000004 1051.0000000000002 7.5000000000000009 88.500000000000014
decision_type=2 2 10 8 10 10 10 10 2
left_child=1 5 -2 -3 -5 6 7 8 -1
right_child=2 3 -4 4 -6 -7 -8 -9 -10
leaf_value=0.14414495132215874 -0 0 0.21819413952738981 -0.10340123692844355 -0 -0 -0 -0 -0
leaf_weight=1.174067959189413 0.18593777716159895 0.22932881116867052 0.68922977149486542 5.9588028639554977 0.65808859467506398 0.21222725510597215 0.16806955635547627 0.15016937255859364 0.14021094143390644
leaf_count=5 1 1 4 41 3 1 1 1 1
internal_value=0 -0.44308 1.70694 -0.845926 -0.965764 0.638343 0.858192 1.05293 1.2556
internal_weight=0 8.69097 0.875168 6.84622 6.61689 1.84475 1.63252 1.46445 1.31428
internal_count=59 54 5 45 44 9 8 7 6
shrinkage=0.0975091


Tree=7
num_leaves=9
num_cat=0
split_feature=11 1 5 1 3 3 1 5
split_gain=1.84508 2.82973 3.20662 1.41779 1.30466 0.852288 0.462558 0.748966
threshold=10.000000000000002 414.00000000000006 9.5000000000000018 617.50000000000011 759.00000000000011 563.50000000000011 803.50000000000011 9.5000000000000018
decision_type=2 10 10 10 10 10 10 10
left_child=1 2 5 -3 -2 -1 7 -5
right_child=4 3 -4 6 -6 -7 -8 -9
leaf_value=0.18340992074433318 -0.088914775336737681 -0.075271336014174128 -0.013610243623716822 0.10726929853501956 0.011658199655945929 -0 -0 -0
leaf_weight=1.5442200154066088 3.3169997781515126 2.2746031805872922 0.56016506254672993 0.69992645084857918 0.19118404388427723 0.1158640682697295 0.35547003149986267 0.22318468987941745
leaf_count=7 24 17 3 3 1 1 2 1
internal_value=0 0.163636 1.0288 -0.251588 -0.675689 1.70805 0.230895 0.651568
internal_weight=0 5.77343 2.22025 3.55318 3.50818 1.66008 1.27858 0.923111
internal_count=59 34 11 23 25 8 6 4
shrinkage=0.0975091


Tree=8
num_leaves=9
num_cat=0
split_feature=4 4 2 3 9 3 6 3
split_gain=3.91227 3.24376 1.19248 1.18028 0.751097 0.54315 0.526726 0.485295
threshold=94.65000000000002 75.200000000000017 1.0000000180025095e-35 475.50000000000006 22.808320267248302 1051.0000000000002 88.500000000000014 798.00000000000011
decision_type=2 2 8 10 8 10 2 10
left_child=1 4 -3 -2 -1 6 -6 -4
right_child=3 2 7 -5 5 -7 -8 -9
leaf_value=-0 -0 0 -0.09814913610471046 0.17537671925040738 0.11930921151798443 -0 -0 -0
leaf_weight=0.34775184094905642 0.17749717831611711 0.23985983431339253 5.3027854561805725 0.7995821088552475 1.2047696858644483 0.16806955635547649 0.13328441977500904 0.66004233062267292
leaf_count=2 1 1 41 4 5 1 1 3
internal_value=0 -0.403494 -0.787036 1.39149 0.493502 0.829514 1.03581 -0.911622
internal_weight=0 8.05656 6.20269 0.977079 1.85388 1.50612 1.33805 5.96283
internal_count=59 54 45 5 9 7 6 44
shrinkage=0.0975091


Tree=9
num_leaves=13
num_cat=0
split_feature=1 3 6 5 9 6 9 9 2 3 11 6
split_gain=3.00118 4.83175 3.56503 2.67063 2.96517 2.37929 1.87127 1.35944 0.850002 0.768771 0.851417 0.556708
threshold=291.00000000000006 497.00000000000006 78.500000000000014 8.5000000000000018 25.199465411590303 79.500000000000014 21.224656804812753 20.122189939800752 1.5000000000000002 655.50000000000011 6.0000000000000009 74.500000000000014
decision_type=10 10 2 10 10 2 10 10 8 10 2 2
left_child=7 2 6 4 9 -6 -2 -1 -9 -3 -11 -12
right_child=1 3 -4 -5 5 -7 -8 8 -10 10 11 -13
leaf_value=0.050308836868904382 0 -0.049974057268754174 -0 -0.064287767805733337 0.20966245570993458 -0 0.33920058089439897 0 -0.093114741918420646 -0 -0 0.12961120268086446
leaf_weight=0.44090488553047208 0.42304691672325112 1.2724637985229499 0.28970740735530842 1.5496344417333601 1.2136339992284773 0.28803768008947361 0.85502896457910527 0.24206484854221377 2.0344986245036125 0.34416691958904244 0.13345108926296234 0.61337122321128845
leaf_count=2 2 10 2 11 6 2 6 1 11 2 1 3
internal_value=0 0.804807 2.20441 0.166742 0.686092 1.62627 2.80527 -0.256718 -0.712688 -0 0.479141 1.02944
internal_weight=0 6.98254 1.56778 5.41476 3.86512 1.50167 1.27808 2.71747 2.27656 2.36345 1.09099 0.746822
internal_count=59 45 10 35 24 8 8 14 12 16 6 4
shrinkage=0.0975091


Tree=10
num_leaves=13
num_cat=0
split_feature=1 3 6 8 5 9 6 9 2 3 11 6
split_gain=2.36426 3.57433 2.75204 2.41227 2.2392 2.37466 1.98824 1.18955 0.789603 0.640827 0.750695 0.497649
threshold=291.00000000000006 497.00000000000006 78.500000000000014 1.0000000180025095e-35 8.5000000000000018 25.199465411590303 79.500000000000014 20.122189939800752 1.5000000000000002 655.50000000000011 6.0000000000000009 74.500000000000014
decision_type=10 10 2 10 10 10 2 10 8 10 2 2
left_child=7 2 3 -2 5 9 -7 -1 -9 -3 -11 -12
right_child=1 4 -4 -5 -6 6 -8 8 -10 10 11 -13
leaf_value=0.047567937362720948 0.26819418146650814 -0.047509225031493157 -0 -0 -0.061259527649829802 0.18482116765471576 -0 0 -0.088396990541863465 -0 -0 0.11942701729194075
leaf_weight=0.44231259822845487 1.2818643450736997 1.229573272168637 0.28970740735530842 0.18318708240985856 1.4892457276582716 1.2884898185729978 0.28803768008947361 0.24206484854221377 1.9579706713557239 0.34416691958904244 0.13345108926296234 0.63165868818759918
leaf_count=2 7 10 2 1 11 6 2 1 11 2 1 3
internal_value=0 0.718912 1.85968 2.34514 0.135349 0.612595 1.42924 -0.208844 -0.661653 -0 0.41881 0.942042
internal_weight=0 7.15938 1.75476 1.46505 5.40462 3.91538 1.57653 2.64235 2.20004 2.33885 1.10928 0.76511
internal_count=59 45 10 8 35 24 8 14 12 16 6 4
shrinkage=0.0975091


Tree=11
num_leaves=13
num_cat=0
split_feature=1 3 6 8 5 9 6 9 6 3 11 6
split_gain=1.83282 2.61831 2.16491 1.88021 1.87937 1.93676 1.69904 1.03625 0.734186 0.533473 0.663521 0.447719
threshold=291.00000000000006 497.00000000000006 78.500000000000014 1.0000000180025095e-35 8.5000000000000018 25.199465411590303 79.500000000000014 20.122189939800752 87.500000000000014 655.50000000000011 6.0000000000000009 74.500000000000014
decision_type=10 10 2 10 10 10 2 10 2 10 2 2
left_child=7 2 3 -2 5 9 -7 -1 -9 -3 -11 -12
right_child=1 4 -4 -5 -6 6 -8 8 -10 10 11 -13
leaf_value=0.044997012678212434 0.22595383282399537 -0.045144785520554162 -0 -0 -0.058357278383902908 0.16541106164608746 -0 -0.084011720558208866 0 -0 -0 0.11052520672887638
leaf_weight=0.44330295920372043 1.4340571165084837 1.1894479170441634 0.28970740735530842 0.18318708240985856 1.4323866963386533 1.3402337133884428 0.28803768008947361 1.8826520517468455 0.24206484854221333 0.34416691958904244 0.13345108926296234 0.64534994959831238
leaf_count=2 7 10 2 1 11 6 2 11 1 2 1 3
internal_value=0 0.637406 1.57573 1.98278 0.106079 0.548284 1.27087 -0.163576 -0.613655 -0 0.364018 0.864677
internal_weight=0 7.28003 1.90695 1.61724 5.37307 3.94069 1.62827 2.56802 2.12472 2.31242 1.12297 0.778801
internal_count=59 45 10 8 35 24 8 14 12 16 6 4
shrinkage=0.0975091


Tree=12
num_leaves=9
num_cat=0
split_feature=2 1 0 3 6 1 3 4
split_gain=3.6689 2.4708 0.970534 0.652466 0.567036 0.533959 0.529767 0.516254
threshold=1.5000000000000002 509.00000000000006 inf 485.00000000000006 81.500000000000014 265.50000000000006 477.50000000000006 90.450000000000017
decision_type=10 10 8 8 2 8 10 2
left_child=4 2 3 6 5 -1 -2 -3
right_child=1 7 -4 -5 -6 -7 -8 -9
leaf_value=-0 -0.045530160833721238 0.084557077334321745 0 -0.10363122447315999 0 0.16189093262889051 0.02073268278706222 -0
leaf_weight=0.090579710900784191 1.8712234795093521 0.88920024782419183 0.24743686616420732 4.3726535364985466 0.50762470066547394 0.79199036955833424 0.68333308398723591 0.20859184861183169
leaf_count=1 11 5 1 30 3 4 3 1
internal_value=0 -0.444547 -0.704441 -0.80373 1.09439 1.46042 -0.0507396 0.542799
internal_weight=0 8.27244 7.17465 6.92721 1.39019 0.88257 2.55456 1.09779
internal_count=59 51 45 44 8 5 14 6
shrinkage=0.0975091


Tree=13
num_leaves=9
num_cat=0
split_feature=5 1 5 6 9 3 3 3
split_gain=3.81668 2.04988 1.89643 1.46556 1.0729 0.781513 1.43194 0.268086
threshold=6.5000000000000009 501.50000000000006 10.500000000000002 88.500000000000014 21.224656804812753 485.00000000000006 475.50000000000006 485.00000000000006
decision_type=10 8 10 2 10 10 10 8
left_child=1 5 -2 4 -3 6 -1 -4
right_child=2 3 7 -5 -6 -7 -8 -9
leaf_value=-0.0061283545563472598 -0.1022193505988567 -0 0.055028534275755006 -0 0.16113081804760468 -0.056981220101164284 0.12466536802245157 -0
leaf_weight=0.53653785586357139 3.9761184230446815 0.17035531997680697 0.46852196753025038 0.2441233992576598 1.6804289966821668 1.3773597776889799 0.61212359368801117 0.37020488828420639
leaf_count=3 28 1 2 1 8 10 3 3
internal_value=0 0.452222 -0.745566 1.11536 1.42804 -0 0.347118 0.0137393
internal_weight=0 4.62093 4.81485 2.09491 1.85078 2.52602 1.14866 0.838727
internal_count=59 26 33 10 9 16 6 5
shrinkage=0.0975091


Tree=14
num_leaves=11
num_cat=0
split_feature=5 5 1 6 9 5 9 5 1 9
split_gain=3.18036 1.74022 1.69191 1.10322 1.35342 0.281819 0.120877 0.118107 0.107879 0.261562
threshold=6.5000000000000009 10.500000000000002 425.00000000000006 88.500000000000014 21.224656804812753 5.5000000000000009 22.172281412788852 11.500000000000002 331.00000000000006 29.016850493996653
decision_type=10 10 8 2 10 10 10 10 10 10
left_child=2 -2 5 4 -4 -1 -3 -8 9 -7
right_child=1 6 3 -5 -6 8 7 -9 -10 -11
leaf_value=-0.04389127968176601 -0.098457074912011819 -0 -0 -0 0.13597701969152301 0.067350468909631561 0.051833934188397143 -0 -0 -0
leaf_weight=1.0363859757781027 3.7512252852320671 0.27104738354682911 0.28988499939441759 0.2441233992576598 2.1624952256679535 0.40042197704315169 0.47177121043205261 0.099157504737377153 0.33368433266878128 0.16923904418945313
leaf_count=7 28 2 2 1 11 2 2 1 2 1
internal_value=0 -0.704537 0.396555 0.897969 1.12531 -0.0412375 0 0.35767 0 0.33812
internal_weight=0 4.5932 4.63623 2.6965 2.45238 1.93973 0.841976 0.570929 0.903345 0.569661
internal_count=59 33 26 14 13 12 5 3 5 3
shrinkage=0.0975091


Tree=15
num_leaves=14
num_cat=0
split_feature=2 3 3 5 6 7 0 8 6 3 11 6 3
split_gain=2.82217 0.944694 1.2616 0.931236 1.06961 0.93878 0.80848 0.693843 0.623197 0.146604 0.342855 0.105007 0.101891
threshold=1.5000000000000002 461.50000000000006 497.00000000000006 7.5000000000000009 74.500000000000014 1.5000000000000002 1.0000000180025095e-35 1.0000000180025095e-35 77.500000000000014 644.50000000000011 10.000000000000002 73.500000000000014 949.00000000000011
decision_type=10 8 8 10 2 2 10 10 2 10 2 2 10
left_child=3 -2 7 4 -1 -6 8 -3 11 -10 -11 -4 -8
right_child=1 2 6 -5 5 -7 12 -9 9 10 -12 -13 -14
leaf_value=-0 -0.067156881528613946 0.136800676311231 -0 -0 0.17075288351683268 -0 0.066116912932492458 -0 -0.0066816477662158032 0.074709527673631329 -0 -0.074632237545514304 0
leaf_weight=0.18236929178237948 1.6078899949789045 0.62623693048953999 0.62713552266359407 0.2177678421139716 1.6094842255115507 0.14005908370017994 0.46198733150959009 0.15402670204639435 0.66240381449460961 0.45153936743736262 0.21449905633926392 1.7794606164097784 0.49621644616127009
leaf_count=1 11 3 4 2 9 1 2 1 7 2 2 12 2
internal_value=0 -0.0461268 0.0591885 1.11592 1.32919 1.55633 -0.0378842 1.05094 -0.360264 0 0.36917 -0.644923 0.460458
internal_weight=0 7.0814 5.47351 2.14968 1.93191 1.74954 4.69324 0.780264 3.73504 1.32844 0.666038 2.4066 0.958204
internal_count=59 46 35 13 11 10 31 4 27 11 4 16 4
shrinkage=0.0975091


Tree=16
num_leaves=10
num_cat=0
split_feature=4 1 1 9 1 2 3 4 1
split_gain=2.42983 1.71398 2.55501 2.41749 1.01441 1.01167 1.25073 0.43726 0.0790384
threshold=89.65000000000002 509.00000000000006 331.00000000000006 21.003139883238404 303.50000000000006 3.5000000000000004 677.00000000000011 96.250000000000014 617.50000000000011
decision_type=2 8 10 8 10 8 10 2 10
left_child=1 2 4 -3 -1 6 -5 -2 -8
right_child=7 3 -4 5 -6 -7 8 -9 -10
leaf_value=-0 -0.069571180999330587 -0.007089543887104267 -0.07134016001931974 0.19310525075935883 0.13653504584880455 -0 -0 0 0.023747842690371015
leaf_weight=0.2454868331551554 1.9064368307590489 0.59024779498577151 1.8146434053778646 1.7585919648408896 0.84906886518001556 0.18236929178237904 0.27176161855459191 0.62824812531471241 0.95858190953731515
leaf_count=2 17 4 13 8 4 1 2 4 4
internal_value=0 0.52947 -0 0.944459 0.970626 1.31186 1.45435 -0.498773 0
internal_weight=0 6.67075 2.9092 3.76155 1.09456 3.1713 2.98894 2.53468 1.23034
internal_count=59 38 19 19 6 15 14 21 6
shrinkage=0.0975091


Tree=17
num_leaves=15
num_cat=0
split_feature=2 1 9 9 5 5 6 7 1 5 9 5 5 1
split_gain=1.885 1.15166 1.39881 1.18863 0.693675 0.65569 0.806894 0.667292 0.453934 0.266737 0.214488 0.109234 0.0435991 0.00319564
threshold=1.5000000000000002 594.50000000000011 22.172281412788852 23.392511779296704 9.5000000000000018 7.5000000000000009 74.500000000000014 1.5000000000000002 265.50000000000006 1.5000000000000002 21.003139883238404 10.500000000000002 9.5000000000000018 303.50000000000006
decision_type=10 8 10 8 10 10 2 2 8 10 10 10 10 10
left_child=5 2 10 9 -5 6 -1 8 -8 -3 12 -12 -2 -14
right_child=1 3 -4 4 -6 -7 7 -9 -10 -11 11 -13 13 -15
leaf_value=-0 -0.01912613880674115 0 -0.082184943065086266 0.11691364416106907 -0 -0 -0 -0 0.14915715511633157 -0.046209051085253972 0.060338446205968989 -0 -0 0.0072598674489848993
leaf_weight=0.18236929178237996 0.75925905257463422 0.23877799510955836 2.7103685736656189 1.1922516673803327 0.17704826593399037 0.20629630982875813 0.083588466048240342 0.13349361717700947 1.6172712743282318 0.81377583742141724 0.47146490216255177 0.073016539216041565 0.25321994721889496 0.20253130793571472
leaf_count=1 6 1 23 5 1 2 1 1 8 4 2 1 2 1
internal_value=0 -0.0368717 -0.404424 0.363439 0.945348 0.893973 1.06884 1.26576 1.42368 -0 0 0.483254 -0 0
internal_weight=0 6.89171 4.46986 2.42185 1.3693 2.22302 2.01672 1.83435 1.70086 1.05255 1.75949 0.544481 1.21501 0.455751
internal_count=59 46 35 11 6 13 11 10 9 5 12 3 9 3
shrinkage=0.0975091


Tree=18
num_leaves=8
num_cat=0
split_feature=9 3 4 4 9 11 6
split_gain=2.08363 0.914106 0.806562 0.789882 1.15683 0.40827 0.00281648
threshold=26.378300029938405 759.00000000000011 79.100000000000009 80.950000000000017 29.016850493996653 10.000000000000002 79.500000000000014
decision_type=8 10 2 2 10 2 2
left_child=1 2 -1 -2 5 -5 -3
right_child=3 6 -4 4 -6 -7 -8
leaf_value=-0 -0 -0 -0.090493253465661644 0 -0 0.14902349059136996 0.004923016479310793
leaf_weight=1.4587860517203797 0.24995400011539537 0.2032274156808852 3.87284329906106 0.32667663693428017 0.31425838172435749 0.868141770362854 0.73097026348114014
leaf_count=9 1 1 37 2 2 4 3
internal_value=0 -0.540116 -0.706897 0.50604 0.842343 1.26059 0
internal_weight=0 6.26583 5.33163 1.75903 1.50908 1.19482 0.934198
internal_count=59 50 46 9 8 6 4
shrinkage=0.0975091


Tree=19
num_leaves=9
num_cat=0
split_feature=9 1 2 2 9 11 4 4
split_gain=1.74199 1.2402 0.709813 0.690192 1.0246 0.321563 0.00383949 0.0485364
threshold=26.378300029938405 509.00000000000006 1.5000000000000002 3.5000000000000004 29.016850493996653 10.000000000000002 73.850000000000009 87.200000000000017
decision_type=8 10 8 8 10 2 2 2
left_child=1 2 -1 4 5 -2 -3 -8
right_child=3 6 -4 -5 -6 -7 7 -9
leaf_value=0 0 -0 -0.091125531265439624 -0 -0 0.13530743179222796 0.017876021085885818 -0
leaf_weight=0.71479449421167363 0.32667663693427973 0.19597388803958879 3.7486651316285133 0.2499540001153947 0.31425838172435766 0.8990984708070755 1.1844477057456968 0.18294629454612721
leaf_count=5 2 1 37 1 2 4 5 2
internal_value=0 -0.507796 -0.773026 0.437911 0.759877 1.15383 0 0.0469562
internal_weight=0 6.02683 4.46346 1.78999 1.54003 1.22578 1.56337 1.36739
internal_count=59 50 42 9 8 6 8 7
shrinkage=0.0975091


Tree=20
num_leaves=9
num_cat=0
split_feature=9 1 4 9 4 11 4 4
split_gain=1.45097 1.12068 0.604414 0.914444 0.51183 0.255518 0.00210188 0.0426835
threshold=26.378300029938405 509.00000000000006 80.950000000000017 29.016850493996653 76.600000000000009 10.000000000000002 73.850000000000009 87.200000000000017
decision_type=8 10 2 10 2 2 2 2
left_child=1 4 -2 5 -1 -4 -3 -8
right_child=2 6 3 -5 -6 -7 7 -9
leaf_value=0 -0 -0 0 -0 -0.085892976998394613 0.12373356347374523 0.016510872664480841 -0
leaf_weight=0.70027500391006459 0.24995400011539448 0.19597388803958879 0.32667663693428017 0.31425838172435749 3.5342947617173195 0.92108052968978882 1.1880640536546705 0.18294629454612721
leaf_count=4 1 1 2 2 38 4 5 2
internal_value=0 -0.476138 0.377141 0.687605 -0.739573 1.06221 0 0.0347065
internal_weight=0 5.80155 1.81197 1.56202 4.23457 1.24776 1.56698 1.37101
internal_count=59 50 9 8 42 6 8 7
shrinkage=0.0975091


Tree=21
num_leaves=14
num_cat=0
split_feature=9 6 7 8 9 7 4 6 6 9 9 9 9
split_gain=1.00895 2.47107 1.16564 0.807786 0.736841 1.02728 0.685279 0.483597 0.232216 0.197086 0.06214 0.00287464 0.0317342
threshold=21.920318345831504 75.500000000000014 1.0000000180025095e-35 inf 25.018885834654654 1.5000000000000002 95.250000000000014 74.500000000000014 76.500000000000014 23.003358671571704 26.765397651124903 26.378300029938405 24.324413423661355
decision_type=10 2 2 8 10 2 2 2 2 10 10 10 10
left_child=7 6 8 4 5 -4 -2 -1 9 -3 -6 12 -10
right_child=1 2 3 -5 10 -7 -8 -9 11 -11 -12 -13 -14
leaf_value=0 -0.077633270747852326 -0 0.16905832984910213 -0 -0 -0 0 -0.071100199726426644 -0.015788286240848413 0.066259053335304741 0.024543146140759878 -0.021346111860892966 0.0089158572992837203
leaf_weight=0.432300224900246 1.6122522614896295 0.12212847918272052 1.6369140557944781 0.19597388803958879 0.42844128608703591 0.16296561434864987 0.33202810585498799 1.6626634784042833 0.57992435991764046 0.46530842781066895 0.60688923299312592 0.55776794254779805 0.4305904358625412
leaf_count=2 11 1 9 1 3 2 2 14 4 2 3 3 2
internal_value=0 0.233646 0.644105 1.00987 1.15491 1.51922 -0.497481 -0.492658 0 0.445068 0 -0.146661 -0
internal_weight=0 7.13118 5.1869 3.03118 2.83521 1.79988 1.94428 2.09496 2.15572 0.587437 1.03533 1.56828 1.01051
internal_count=59 43 30 18 17 11 13 16 12 3 6 9 6
shrinkage=0.0975091


Tree=22
num_leaves=15
num_cat=0
split_feature=4 4 3 3 4 4 5 2 7 8 4 11 11 5
split_gain=0.883355 0.736586 0.955282 1.02617 0.618852 0.763739 0.918275 0.567249 0.559532 0.406317 0.268763 0.136335 0.144415 0.176495
threshold=94.65000000000002 80.950000000000017 475.50000000000006 1263.5000000000002 75.950000000000017 72.450000000000017 6.5000000000000009 2.5000000000000004 1.5000000000000002 1.0000000180025095e-35 97.750000000000014 14.000000000000002 6.0000000000000009 2.5000000000000004
decision_type=2 2 8 10 2 2 10 8 2 8 2 2 2 10
left_child=1 4 11 -4 5 -1 -7 9 10 -6 -2 12 -3 -14
right_child=8 2 3 -5 7 6 -8 -9 -10 -11 -12 -13 13 -15
leaf_value=0.041911276146388149 0.10484770179924875 -0 -0.087226048671592518 0 0.10721896795771525 -0.090855049821048112 0 -0 -0 -0 -0 -0 -0 0.074852813768162385
leaf_weight=0.66626955568790514 1.0523325502872465 0.11172012239694584 3.0340914353728299 0.2469480335712432 0.9873406440019602 1.3420978933572767 0.24845479428768147 0.2310895323753358 0.19299815595149983 0.1212681606411935 0.082375958561897153 0.3397528007626533 0.091678507626056671 0.40197353065013885
leaf_count=3 5 1 27 1 4 6 1 2 1 1 1 3 1 2
internal_value=0 -0.0873878 -0.402619 -0.682189 0.116071 -0 -0.539392 0.626374 0.694498 0.914392 0.956509 0 0.373112 0.56885
internal_weight=0 7.82269 4.22616 3.28104 3.59652 2.25682 1.59055 1.3397 1.32771 1.10861 1.13471 0.945125 0.605372 0.493652
internal_count=59 52 35 28 17 10 7 7 7 5 6 7 4 3
shrinkage=0.0975091


Tree=23
num_leaves=11
num_cat=0
split_feature=9 9 3 3 5 1 1 9 7 3
split_gain=0.79134 1.50794 1.68623 0.828012 0.801498 1.06517 0.487998 0.163084 0.134901 0.0108376
threshold=21.920318345831504 24.916551068528602 477.50000000000006 646.50000000000011 2.5000000000000004 299.50000000000006 568.00000000000011 27.783873306195002 1.0000000180025095e-35 777.00000000000011
decision_type=10 10 10 10 10 8 8 10 2 10
left_child=8 2 4 -3 -2 -6 -4 -5 -1 -9
right_child=1 3 6 7 5 -7 -8 9 -10 -11
leaf_value=-0 0 -0.070869982522519789 -0.041945964959582652 0.042313890469228656 -0 0.16353719670951097 0.038193251014319154 0 -0.058390205299552043 -0.010666185485609162
leaf_weight=0.71582612022757519 0.5223391801118854 1.4095100387930872 1.1342630647122862 0.49489761888980838 0.18173684924840891 1.5064709931612015 0.98767025768756833 0.24460311233997345 1.2522592097520826 0.53178669512271881
leaf_count=6 3 9 12 2 2 7 4 1 10 3
internal_value=0 0.215513 0.607409 -0.193709 1.15078 1.43122 -0 0.0179588 -0.437476 -0
internal_weight=0 7.01328 4.33248 2.6808 2.21055 1.68821 2.12193 1.27129 1.96809 0.77639
internal_count=59 43 28 15 12 9 16 6 16 4
shrinkage=0.0975091


Tree=24
num_leaves=7
num_cat=0
split_feature=5 2 1 2 1 3
split_gain=6.40573 1.78162 1.36039 0.44099 0.304795 0.355848
threshold=2.5000000000000004 2.5000000000000004 344.50000000000006 1.5000000000000002 331.00000000000006 451.50000000000006
decision_type=10 10 8 8 10 10
left_child=1 -1 4 -4 -2 -6
right_child=2 -3 3 -5 5 -7
leaf_value=0.15676097957712978 -0.023146270691865024 -0 0 -0.10358629703353572 -0 0.084100637530751574
leaf_weight=1.5548041611909864 0.83741766959428765 0.33823874592781056 0.2672664970159529 4.2297988198697567 0.1657741367816925 0.42237716913223272
leaf_count=7 9 3 2 35 1 2
internal_value=0 1.18872 -0.734193 -0.987967 0 0.495835
internal_weight=0 1.89304 5.92263 4.49707 1.42557 0.588151
internal_count=59 10 49 37 12 3
shrinkage=0.0975091


Tree=25
num_leaves=7
num_cat=0
split_feature=5 1 1 4 1 3
split_gain=5.41974 1.2254 1.18225 0.384679 0.259901 0.324462
threshold=2.5000000000000004 344.50000000000006 420.50000000000006 92.200000000000017 331.00000000000006 451.50000000000006
decision_type=10 8 8 2 10 10
left_child=2 4 -1 -4 -2 -6
right_child=1 -3 3 -5 5 -7
leaf_value=-0 -0.021859302539781938 -0.092529938637459397 0.14334729646966066 -0 -0 0.078540511030295815
leaf_weight=0.26309894025325742 0.82301885634660699 4.2492559105157852 1.5686330944299696 0.075139805674553042 0.1657741367816925 0.43403428792953486
leaf_count=2 9 37 7 1 1 2
internal_value=0 -0.697058 1.07409 1.37479 0 0.452911
internal_weight=0 5.67208 1.90687 1.64377 1.42283 0.599808
internal_count=59 49 10 8 12 3
shrinkage=0.0975091


Tree=26
num_leaves=8
num_cat=0
split_feature=5 1 1 6 4 6 1
split_gain=4.59449 1.09616 1.04962 0.56312 0.342683 0.288953 0.249794
threshold=2.5000000000000004 344.50000000000006 420.50000000000006 87.500000000000014 92.200000000000017 75.500000000000014 331.00000000000006
decision_type=10 8 8 2 2 2 10
left_child=2 5 -1 -3 -4 6 -2
right_child=1 3 4 -5 -6 -7 -8
leaf_value=-0 -0 -0.097063495793158483 0.13203082804156055 0 -0 -0.024252508847595201 0.073469269371528811
leaf_weight=0.26309894025325742 0.14707755669951417 3.8648610785603523 1.5689460635185239 0.16905654966831196 0.075139805674553042 0.82826477661728859 0.44403353333473206
leaf_count=2 2 36 7 1 1 8 2
internal_value=0 -0.660329 0.975299 -0.908363 1.26307 0 0.471538
internal_weight=0 5.45329 1.90718 4.03392 1.64409 1.41938 0.591111
internal_count=59 49 10 37 8 12 4
shrinkage=0.0975091


Tree=27
num_leaves=12
num_cat=0
split_feature=9 11 11 3 7 9 11 9 11 5 1
split_gain=2.4571 0.666738 0.71083 0.445649 0.120147 0.077442 0.212226 0.184529 0.21305 0.0461899 0.147322
threshold=23.475097773043405 1.0000000180025095e-35 22.000000000000004 494.00000000000006 1.5000000000000002 20.122189939800752 22.000000000000004 22.953387298421355 1.0000000180025095e-35 3.5000000000000004 530.50000000000011
decision_type=10 2 2 10 2 10 2 10 2 10 10
left_child=3 -2 4 -1 -3 -5 7 8 -7 10 -4
right_child=1 2 9 5 -6 6 -8 -9 -10 -11 -12
leaf_value=-0.056449326332619468 -0 0.11839559558351234 0.045994418818715327 -0.0028720695151222006 -0 -0 -0 -0 0.072338087280006638 -0 -0
leaf_weight=1.2641163021326067 0.24227983132004727 2.8066324852406983 0.49577763676643349 0.57128802314400651 0.030542695894837268 0.10870544612407662 0.26718876138329489 0.13359901681542397 0.87328469380736351 0.54188361950218678 0.1555253267288208
leaf_count=9 3 18 2 5 1 1 4 2 6 7 1
internal_value=0 0.828746 0.93594 -0.169609 1.19283 0 0.208845 0.44036 0.590856 0 0.212254
internal_weight=0 4.27264 4.03036 3.21818 2.83718 1.95407 1.38278 1.11559 0.98199 1.19319 0.651303
internal_count=59 32 29 27 19 18 13 9 7 10 3
shrinkage=0.0975091


Tree=28
num_leaves=14
num_cat=0
split_feature=9 2 11 11 6 1 9 7 9 3 1 5 5
split_gain=2.06444 0.68044 0.696706 0.865088 0.398309 0.389829 0.565794 0.140569 0.137564 0.0277721 0.144456 0.00388763 0.0271426
threshold=23.475097773043405 3.5000000000000004 1.0000000180025095e-35 22.000000000000004 88.500000000000014 648.50000000000011 20.319431338894351 1.5000000000000002 21.920318345831504 501.50000000000006 397.50000000000006 9.5000000000000018 11.500000000000002
decision_type=10 8 2 2 2 10 8 2 10 10 8 10 10
left_child=5 2 -2 4 7 6 11 -4 -7 10 -5 -1 -13
right_child=1 -3 3 9 -6 8 -8 -9 -10 -11 -12 12 -14
leaf_value=-0 -0 -0 0.13269334613421802 -0 -0 -0 -0.067911043713592245 -0 0.039043423752238203 -0 0.043349541187794403 0.023551908799070626 -0
leaf_weight=0.32512218877673227 0.24227983132004727 0.26812697201967228 2.5225979983806623 0.19226080179214453 0.087176911532878751 0.35245221853256214 1.8049215823411939 0.030542695894837268 0.48406781256198878 0.5051481444388628 0.4974589496850968 0.15793476998806 0.073562249541282654
leaf_count=4 3 2 15 2 1 2 17 1 2 6 2 1 1
internal_value=0 0.739781 0.856213 0.969959 1.26521 -0.168363 -0.4237 1.33586 0 0 0.161584 0 0.0801312
internal_weight=0 4.34559 4.07747 3.83519 2.64032 3.19806 2.36154 2.55314 0.83652 1.19487 0.68972 0.556619 0.231497
internal_count=59 32 30 27 17 27 23 16 4 10 4 6 2
shrinkage=0.0975091


Tree=29
num_leaves=10
num_cat=0
split_feature=4 9 6 11 8 3 11 6 3
split_gain=2.55609 1.40909 0.621745 0.565804 0.599509 0.372342 0.400675 0.398125 0.302149
threshold=88.700000000000017 20.122189939800752 72.500000000000014 1.0000000180025095e-35 inf 440.50000000000006 56.000000000000007 88.500000000000014 455.50000000000006
decision_type=2 10 2 2 8 8 2 2 10
left_child=1 -1 -3 -4 5 -5 7 -7 -2
right_child=8 2 3 4 -6 6 -8 -9 -10
leaf_value=-0.0020323698572445727 0 -0 -0 0 -0 0.12933806735391037 -0 -0 -0.06051784869507669
leaf_weight=0.55606715381145466 0.539118051528931 0.18732802569866169 0.1717848666012286 0.4494260475039481 0.15552532672882069 3.550401598215104 0.09246551245450961 0.087176911532878751 1.7156065590679643
leaf_count=4 4 1 2 3 1 20 1 1 22
internal_value=0 0.671713 0.882415 0.967434 1.04414 1.12211 1.21973 1.27354 -0.43732
internal_weight=0 5.25018 4.69411 4.50678 4.335 4.17947 3.73004 3.63758 2.25472
internal_count=59 33 29 28 26 25 22 21 26
shrinkage=0.0975091


Tree=30
num_leaves=8
num_cat=0
split_feature=9 11 9 0 2 6 1
split_gain=1.04635 1.12012 1.08256 0.781533 0.448811 0.394405 0.410091
threshold=26.057297136975006 18.000000000000004 20.518661731951301 1.0000000180025095e-35 3.5000000000000004 72.500000000000014 265.50000000000006
decision_type=10 2 8 10 10 2 8
left_child=1 2 -1 -2 5 -4 -7
right_child=3 -3 4 -5 -6 6 -8
leaf_value=-0.0011224948888712135 -0.079656972158618014 -0.030592193834862405 -0 0 -0 -0 0.089882259525930999
leaf_weight=0.59777096286416043 1.5306196212768552 0.85327428951859452 0.14618591964244831 0.24915198981761921 0.19566445052623735 0.1398508995771407 4.2129032611846924
leaf_count=7 11 8 1 1 2 1 28
internal_value=0 0.293685 0.524976 -0.476737 0.722262 0.796688 0.858943
internal_weight=0 6.14565 5.29238 1.77977 4.6946 4.49894 4.35275
internal_count=59 47 39 12 32 30 29
shrinkage=0.0975091


Tree=31
num_leaves=8
num_cat=0
split_feature=9 11 9 3 2 2 5
split_gain=0.765011 0.914722 0.926941 1.03467 0.724154 0.528145 0.21192
threshold=26.057297136975006 18.000000000000004 20.518661731951301 436.50000000000006 1.5000000000000002 3.5000000000000004 11.500000000000002
decision_type=10 2 8 8 10 10 10
left_child=1 2 -1 -4 -2 6 -5
right_child=4 -3 3 5 -6 -7 -8
leaf_value=-0.0010557404426149645 0 -0.028928832749104703 -0 0.091693250073063004 -0.075812364115026579 -0 -0
leaf_weight=0.59726678207516659 0.24915198981761921 0.836707454174757 0.4461645334959029 4.0163622610270977 1.4733223915100095 0.19566445052623735 0.074058890342712291
leaf_count=7 1 8 3 26 11 2 1
internal_value=0 0.238654 0.454981 0.642442 -0.432698 0.821143 0.906714
internal_weight=0 6.16622 5.32952 4.73225 1.72247 4.28609 4.09042
internal_count=59 47 39 32 12 29 27
shrinkage=0.0975091


Tree=32
num_leaves=10
num_cat=0
split_feature=2 9 6 4 9 5 6 4 7
split_gain=0.681642 0.916481 0.269337 0.254556 0.872104 0.557545 0.360469 0.223042 0.210458
threshold=1.5000000000000002 26.057297136975006 78.500000000000014 95.250000000000014 23.475097773043405 7.5000000000000009 84.500000000000014 92.200000000000017 1.5000000000000002
decision_type=10 10 2 2 8 10 2 2 2
left_child=2 3 -1 4 6 7 -2 -6 -4
right_child=1 -3 8 -5 5 -7 -8 -9 -10
leaf_value=-0 -0.067097853409860908 -0.072150028139764968 0.082609643448509879 0.053605890657335405 0.067413528166296421 -0 0 -0 -0
leaf_weight=0.2732437141239642 1.7450678832829001 1.4189241975545881 1.1534883603453634 0.4683074802160262 1.7386822551488879 0.47604999691247929 0.35154207609593857 0.12426442280411708 0.088169820606708416
leaf_count=3 16 11 6 2 10 5 3 2 1
internal_value=0 -0.0986095 0.571314 0 -0 0.29066 -0.510123 0.593052 0.740481
internal_weight=0 6.32284 1.5149 4.90391 4.43561 2.339 2.09661 1.86295 1.24166
internal_count=59 49 10 38 36 17 19 12 7
shrinkage=0.0975091


Tree=33
num_leaves=13
num_cat=0
split_feature=11 11 5 8 5 3 3 3 11 5 2 8
split_gain=1.53959 1.84037 0.912002 0.73993 0.979374 0.322927 0.319818 0.278043 0.267958 0.186862 0.154679 0.0437649
threshold=6.0000000000000009 10.000000000000002 7.5000000000000009 1.0000000180025095e-35 1.0000000180025095e-35 426.50000000000006 440.50000000000006 830.50000000000011 26.000000000000004 10.500000000000002 3.5000000000000004 1.0000000180025095e-35
decision_type=2 2 10 10 8 8 8 10 2 10 8 10
left_child=7 6 3 4 -3 -6 -2 -1 10 11 -7 -8
right_child=1 2 -4 -5 5 8 9 -9 -10 -11 -12 -13
leaf_value=-0.059284559954760958 0 -0 -0.051639383272761859 -0 -0 0.10743439898727836 0.13958674971386609 0 -0 -0 -0 0
leaf_weight=1.1584358774125574 0.39491039514541654 0.36720037460327226 1.2049099858850238 0.37382828816771496 0.10541974008083375 2.0430199950933465 1.6792852729558942 0.17686504125595082 0.083458945155143613 0.040106978267431141 0.044937189668416873 0.14707553759217251
leaf_count=10 2 2 12 3 1 12 10 1 2 1 1 2
internal_value=0 0.5147 0 0.371928 0.632959 0.908625 1.17803 -0.410771 0.993309 1.33233 1.06252 1.37564
internal_weight=0 6.48415 4.22277 3.01786 2.64404 2.27684 2.26138 1.3353 2.17142 1.86647 2.08796 1.82636
internal_count=59 48 33 21 18 16 15 11 15 13 13 12
shrinkage=0.0975091


Tree=34
num_leaves=10
num_cat=0
split_feature=11 11 1 5 2 1 11 9 5
split_gain=1.2651 1.69383 1.16463 0.705068 0.503076 0.787552 1.12369 0.375361 0.258124
threshold=6.0000000000000009 10.000000000000002 291.00000000000006 7.5000000000000009 3.5000000000000004 407.50000000000006 26.000000000000004 21.513167169573155 3.5000000000000004
decision_type=2 2 8 10 8 8 2 8 10
left_child=8 2 -2 4 5 -3 -7 -4 -1
right_child=1 3 7 -5 -6 6 -8 -9 -10
leaf_value=0 -0 -0 -0 -0.049065986490811786 -0 0.11420825071481733 -0 0.13908235191143803 -0.056263043048804973
leaf_weight=0.17686504125595082 0.26225286722183261 0.83783788979053564 0.07807519659399953 1.1660642456263302 0.29471324011683453 1.6156637743115423 0.30906410142779334 1.9200064726173878 1.1235023848712442
leaf_count=1 2 7 2 12 2 9 3 11 10
internal_value=0 0.457158 1.08952 0 0.303053 0.510748 0.835796 1.34509 -0.378943
internal_weight=0 6.48368 2.26033 4.22334 3.05728 2.76257 1.92473 1.99808 1.30037
internal_count=59 48 15 33 21 19 12 13 11
shrinkage=0.0975091


Tree=35
num_leaves=12
num_cat=0
split_feature=11 11 1 5 8 5 1 3 5 11 8
split_gain=1.02672 1.51216 1.05381 0.554375 0.521565 0.742084 0.64099 0.239464 0.171761 0.167009 0.0674585
threshold=6.0000000000000009 10.000000000000002 291.00000000000006 7.5000000000000009 1.0000000180025095e-35 1.0000000180025095e-35 407.50000000000006 830.50000000000011 10.500000000000002 26.000000000000004 1.0000000180025095e-35
decision_type=2 2 8 10 10 8 8 10 10 2 10
left_child=7 2 -2 4 5 -3 -7 -1 10 -8 -4
right_child=1 3 8 -5 -6 6 9 -9 -10 -11 -12
leaf_value=-0.053383199099446936 -0 -0 0.13140584895843641 -0.046600478762601094 -0 -0 0.10379513874185152 0 -0 -0 0
leaf_weight=1.0905200056731699 0.26225286722183261 0.36720037460327226 1.7783286496996877 1.1296967845410106 0.37382828816771496 0.64954809471964869 1.6405309848487375 0.17686504125595082 0.040106978267431141 0.051038473844528087 0.14102070778608311
leaf_count=10 2 2 10 12 3 6 9 1 1 1 2
internal_value=0 0.402631 1.00386 0 0.247054 0.487496 0.736962 -0.348611 1.25404 1.01204 1.29422
internal_weight=0 6.43355 2.22171 4.21184 3.08215 2.70832 2.34112 1.26739 1.95946 1.69157 1.91935
internal_count=59 48 15 33 21 18 16 11 13 10 12
shrinkage=0.0975091


Tree=36
num_leaves=8
num_cat=0
split_feature=9 1 3 4 4 3 4
split_gain=1.86413 0.87475 0.451531 0.287898 0.284096 0.19326 0.0731883
threshold=27.200087800451154 803.50000000000011 759.00000000000011 85.65000000000002 72.450000000000017 855.00000000000011 94.65000000000002
decision_type=8 10 10 2 2 10 2
left_child=2 3 4 -2 -1 -4 -6
right_child=1 -3 5 -5 6 -7 -8
leaf_value=0 0.11465824113028274 -0 0.026502695256588275 0 -0.08442424347371244 -0.035612895543211953 -0
leaf_weight=0.31328600645065297 0.80072464793920495 0.2380385249853133 0.75163927674293485 0.77563949674367905 2.9224773477762942 0.45150155574083328 0.88028614223003376
leaf_count=3 4 1 4 5 33 3 6
internal_value=0 0.459254 -0.54035 0.827751 -0.686134 0 -0.757701
internal_weight=0 1.8144 5.31919 1.57636 4.11605 1.20314 3.80276
internal_count=59 10 49 9 42 7 39
shrinkage=0.0975091


Tree=37
num_leaves=8
num_cat=0
split_feature=9 1 3 4 4 3 4
split_gain=1.62648 0.803129 0.405663 0.266548 0.221011 0.171904 0.0502558
threshold=27.200087800451154 803.50000000000011 759.00000000000011 72.450000000000017 85.65000000000002 855.00000000000011 94.65000000000002
decision_type=8 10 10 2 2 10 2
left_child=2 4 3 -1 -2 -4 -5
right_child=1 -3 5 6 -6 -7 -8
leaf_value=0 0.10615154982156348 -0 0.024819498657447942 -0.081442876736536857 0 -0.033850671486598934 -0
leaf_weight=0.31328600645065341 0.81001003086566892 0.2380385249853133 0.74980664998292901 2.7562011927366261 0.77563949674367905 0.44831977039575577 0.88028614223003376
leaf_count=3 4 1 4 33 5 3 6
internal_value=0 0.415282 -0.51441 -0.657089 0.776692 0 -0.729355
internal_weight=0 1.82369 5.1479 3.94977 1.58565 1.19813 3.63649
internal_count=59 10 49 42 9 7 39
shrinkage=0.0975091


Tree=38
num_leaves=9
num_cat=0
split_feature=9 1 2 1 9 6 1 1
split_gain=1.41991 0.738883 0.281694 0.286101 0.180067 0.147182 0.0314871 0.000248635
threshold=27.200087800451154 803.50000000000011 1.5000000000000002 547.50000000000011 32.934141283504609 79.500000000000014 877.00000000000011 617.50000000000011
decision_type=8 10 8 10 10 2 10 8
left_child=2 4 -1 -4 5 -2 7 -5
right_child=1 -3 3 6 -6 -7 -8 -9
leaf_value=0 0.088221230872207845 -0 -0.068135976887908789 -0 -0 0 -0.020486723963292212 0.0017404568333921821
leaf_weight=0.19577326625585545 1.307051435112953 0.2380385249853133 3.4223977345973253 0.62421381846070256 0.079208746552467235 0.20514365285634983 0.33935113251209248 0.40645714104175579
leaf_count=2 6 1 37 6 1 2 2 2
internal_value=0 0.375024 -0.489697 -0.550831 0.7305 0.80716 -0 0
internal_weight=0 1.82944 4.98819 4.79242 1.5914 1.5122 1.37002 1.03067
internal_count=59 10 49 47 9 8 10 8
shrinkage=0.0975091


Tree=39
num_leaves=11
num_cat=0
split_feature=1 4 1 4 2 9 5 5 1 4
split_gain=1.33465 1.06857 0.976139 0.752871 0.339662 0.168795 1.1445 0.642821 0.469696 0.107094
threshold=803.50000000000011 61.20000000000001 580.00000000000011 84.15000000000002 1.5000000000000002 22.808320267248302 8.5000000000000018 5.5000000000000009 362.00000000000006 86.950000000000017
decision_type=8 2 10 2 10 10 10 10 10 2
left_child=2 -2 5 -4 -3 6 -1 9 -8 -7
right_child=1 4 3 -5 -6 7 8 -9 -10 -11
leaf_value=-0.0071066956522538227 0 0 0.12222024523317808 -0 -0.10670033374496206 0.028889202454930381 0.12814323280026216 -0.059296167337893939 -0 -0
leaf_weight=0.6810481548309324 0.3442470878362659 0.099044397473335169 0.93845708668231931 0.21160871908068657 1.6387237459421156 0.85409933328628562 0.61469884216785431 1.5516076758503912 0.12248933874070644 0.28998255729675293
leaf_count=9 2 1 4 3 8 4 3 18 4 3
internal_value=0 -0.638663 0.24299 0.926784 -0.990151 -0 0.23485 -0.150953 1.05543 0.0214937
internal_weight=0 2.08202 5.26399 1.15007 1.73777 4.11393 1.41824 2.69569 0.737188 1.14408
internal_count=59 11 48 7 9 41 16 25 7 7
shrinkage=0.0975091


Tree=40
num_leaves=9
num_cat=0
split_feature=6 1 11 5 11 6 8 8
split_gain=2.44004 1.01544 0.68521 0.49518 0.473478 0.345138 0.287508 0.267747
threshold=80.500000000000014 299.50000000000006 36.000000000000007 11.500000000000002 22.000000000000004 72.500000000000014 1.0000000180025095e-35 1.0000000180025095e-35
decision_type=2 10 2 10 2 2 10 10
left_child=1 -1 3 5 6 -3 -2 -7
right_child=4 2 -4 -5 -6 7 -8 -9
leaf_value=-0.0085583242884005196 -0.093212196990622845 -0 -0 -0 0 0.099298181049821133 0 -0
leaf_weight=0.61363740637898434 2.1641193255782136 0.11382718384266022 0.31711990572512139 0.1695193052291869 0.52441465109586716 3.1773448474705224 0.099044397473335169 0.086918009445071123
leaf_count=7 16 1 5 1 5 21 1 2
internal_value=0 0.426273 0.667671 0.810285 -0.70207 0.904545 -0.877761 0.968847
internal_weight=0 4.47837 3.86473 3.54761 2.78758 3.37809 2.26316 3.26426
internal_count=59 37 30 25 22 24 17 23
shrinkage=0.0975091


Tree=41
num_leaves=13
num_cat=0
split_feature=1 4 1 4 2 1 1 5 11 2 4 11
split_gain=0.824758 0.905443 0.767409 1.0943 0.29123 0.172301 0.371771 0.298692 0.349307 0.343778 0.323447 0.288862
threshold=803.50000000000011 61.20000000000001 547.50000000000011 80.950000000000017 1.5000000000000002 353.50000000000006 299.50000000000006 11.500000000000002 10.000000000000002 2.5000000000000004 82.500000000000014 30.000000000000004
decision_type=8 2 10 2 10 10 10 10 2 10 2 2
left_child=2 -2 5 -4 -3 6 -1 8 9 10 -8 -7
right_child=1 4 3 -5 -6 11 7 -9 -10 -11 -12 -13
leaf_value=-0 0 0 0.11135048751768607 -0 -0.095310968758811371 -0.048912749735409884 -0 -0 -0 -0 0.1152138018305436 0
leaf_weight=0.49013219028711352 0.35178458690643344 0.099044397473335169 1.1851049959659574 0.38618516549468024 1.5624095648527143 1.3804976809769867 0.088316999375819938 0.1695193052291869 0.1522903274744748 0.11306702345609664 0.84850847721099854 0.44208768382668479
leaf_count=6 2 1 5 5 8 19 1 1 2 1 4 4
internal_value=0 -0.523163 0.174479 0.6947 -0.875128 -0 0.0938629 0.473553 0.661725 0.854424 1.02727 -0.263579
internal_weight=0 2.01324 5.25571 1.57129 1.66145 3.68442 1.86183 1.3717 1.20218 1.04989 0.936825 1.82259
internal_count=59 11 48 10 9 38 15 9 8 6 5 23
shrinkage=0.0975091


Tree=42
num_leaves=9
num_cat=0
split_feature=6 5 5 4 5 4 4 4
split_gain=1.5719 1.08777 1.15841 0.627958 0.554574 0.108018 0.0759504 0.0542723
threshold=77.500000000000014 4.5000000000000009 2.5000000000000004 61.20000000000001 10.500000000000002 75.950000000000017 75.200000000000017 92.750000000000014
decision_type=2 10 8 2 10 2 2 2
left_child=1 2 5 -2 -3 6 -1 -7
right_child=3 4 -4 -5 -6 7 -8 -9
leaf_value=0 0 -0.057306130389289903 0.13337935178512214 -0.075313156666025574 0.009785659501041816 0.032614924102914181 -0.037479725652351345 -0
leaf_weight=0.097378544509411524 0.28824366629123721 1.3222690559923647 0.89551107585430123 3.2287790738046169 0.19610141217708577 0.61909441649913788 0.4866010993719101 0.078133493661880493
leaf_count=1 2 13 4 32 1 3 2 1
internal_value=0 0.202033 0.690697 -0.62528 -0.139887 0 -0.231166 0.230329
internal_weight=0 3.69509 2.17672 3.51702 1.51837 1.28121 0.58398 0.697228
internal_count=59 25 11 34 14 7 3 4
shrinkage=0.0975091


Tree=43
num_leaves=13
num_cat=0
split_feature=5 5 3 5 1 3 10 1 1 11 1 3
split_gain=0.755686 0.693033 0.513455 0.342307 0.548509 0.218164 0.236782 0.37125 0.224533 0.109026 0.0798621 0.00535339
threshold=4.5000000000000009 10.500000000000002 798.00000000000011 3.5000000000000004 975.50000000000011 480.50000000000006 1.0000000180025095e-35 975.50000000000011 407.50000000000006 1.0000000180025095e-35 467.00000000000006 586.00000000000011
decision_type=10 10 10 8 10 8 2 10 10 2 8 10
left_child=3 2 -2 5 10 8 -7 9 -1 -8 -5 -3
right_child=1 11 -4 4 -6 6 7 -9 -10 -11 -12 -13
leaf_value=-0 -0.079849491560071345 0.0094419430795945596 0 -0 -0 0 -0 0 0.05530762612765875 -0.073541265408490736 0.089888770714036614 -0
leaf_weight=0.19076845049858168 2.629480181261898 0.19699075818061815 0.32368807494640334 0.030058750882744567 0.22000055015087128 0.24956876784563081 0.38003084808588017 0.2075515389442445 0.47545742988586426 1.1845066323876379 0.79551377892494213 0.18430791795253756
leaf_count=1 32 1 2 1 1 2 4 1 2 6 4 2
internal_value=0 -0.466655 -0.671581 0.0750709 0.507393 -0 -0.265936 -0.435063 0.216469 -0.633293 0.872888 0
internal_weight=0 3.33447 2.95317 3.73346 1.04557 2.68788 2.02166 1.77209 0.666226 1.56454 0.825573 0.381299
internal_count=59 37 34 22 6 16 13 11 3 10 5 3
shrinkage=0.0975091


Tree=44
num_leaves=12
num_cat=0
split_feature=5 5 3 4 11 5 4 5 4 4 3
split_gain=0.634268 0.639798 0.483829 0.372382 1.19056 0.286362 0.503142 0.240991 0.00524285 0.0291323 0.00499102
threshold=4.5000000000000009 10.500000000000002 798.00000000000011 75.950000000000017 10.000000000000002 3.5000000000000004 61.20000000000001 1.0000000180025095e-35 76.600000000000009 91.200000000000017 586.00000000000011
decision_type=10 10 10 2 2 10 2 10 2 2 10
left_child=3 2 -2 5 8 6 -1 -8 -5 -10 -3
right_child=1 10 -4 4 -6 -7 7 -9 9 -11 -12
leaf_value=0 -0.076900385611421387 0.0091099582395434229 0 0 0.10741186958829781 0.0032288296456000017 0 -0.085747470494937431 -0.01770276324448182 0 -0
leaf_weight=0.2950621843338016 2.4857457298785457 0.19784560799598683 0.32368807494640334 0.20755153894424461 0.93185117840766885 0.34008379280567158 0.097378544509410636 0.9576170742511747 0.66896728612482548 0.23385880887508392 0.18430791795253756
leaf_count=2 32 1 2 1 4 2 1 4 6 2 2
internal_value=0 -0.428609 -0.637761 0.0724716 0.403787 -0.00149256 -0.407001 -0.74294 -0 -0.0640804 0
internal_weight=0 3.19159 2.80943 3.73237 2.04223 1.69014 1.35006 1.055 1.11038 0.902826 0.382154
internal_count=59 37 34 22 13 9 7 5 9 8 3
shrinkage=0.0975091


Tree=45
num_leaves=9
num_cat=0
split_feature=4 6 7 6 11 4 9 4
split_gain=1.22958 2.04443 1.18451 0.542828 0.566451 0.445497 0.263771 0.246422
threshold=89.65000000000002 81.500000000000014 1.5000000000000002 72.500000000000014 22.000000000000004 97.100000000000009 16.384720475649704 88.450000000000017
decision_type=2 2 2 2 2 2 8 2
left_child=1 2 3 -1 6 -2 -5 -3
right_child=5 7 -4 4 -6 -7 -8 -9
leaf_value=-0 -0.051239129731548004 -0.038605979232143213 -0 -0 -0 0 0.13347545661353807 0
leaf_weight=0.12690062820911485 1.4329134095460174 1.2329839579761026 0.31912523321807373 0.056237149983645263 0.12617032416164864 0.23581527173519123 3.0615455470979214 0.24874307215213765
leaf_count=1 22 11 3 1 2 1 17 1
internal_value=0 0.576134 0.977073 1.1629 1.24491 -0.161736 1.32967 -0.0543034
internal_weight=0 5.17171 3.68998 3.37085 3.24395 1.66873 3.11778 1.48173
internal_count=59 36 24 21 20 23 18 12
shrinkage=0.0975091


Tree=46
num_leaves=9
num_cat=0
split_feature=4 6 7 6 11 4 1 2
split_gain=0.962622 1.62334 1.00561 0.462264 0.482221 0.406198 0.340834 0.217714
threshold=89.65000000000002 81.500000000000014 1.5000000000000002 72.500000000000014 22.000000000000004 97.100000000000009 291.00000000000006 1.0000000180025095e-35
decision_type=2 2 2 2 2 2 10 10
left_child=1 2 3 -1 6 -2 -5 -3
right_child=5 7 -4 4 -6 -7 -8 -9
leaf_value=-0 -0.048872289950343061 0 -0 0 -0 0 0.12459986394094699 -0.036296951991766226
leaf_weight=0.12690062820911485 1.3768112380057571 0.24874307215213765 0.31912523321807373 0.30771128833293998 0.12617032416164864 0.23581527173519123 2.8956530429422855 1.2086012214422224
leaf_count=1 22 1 3 2 2 1 16 11
internal_value=0 0.504324 0.857032 1.0287 1.10422 -0.130072 1.182 -0.0292913
internal_weight=0 5.2329 3.77556 3.45644 3.32953 1.61263 3.20336 1.45734
internal_count=59 36 24 21 20 23 18 12
shrinkage=0.0975091


Tree=47
num_leaves=10
num_cat=0
split_feature=4 3 4 7 4 9 3 9 0
split_gain=0.756787 1.42197 1.36526 0.583527 0.368509 0.358831 0.372959 0.255126 0.0849612
threshold=89.65000000000002 468.00000000000006 73.850000000000009 1.5000000000000002 97.100000000000009 29.572651208062407 855.00000000000011 18.960758055018555 1.0000000180025095e-35
decision_type=2 10 2 2 2 10 10 10 10
left_child=1 8 -3 5 -2 6 7 -4 -1
right_child=4 2 3 -5 -6 -7 -8 -9 -10
leaf_value=-0.026151397282987671 -0.046579350057943877 -0 -0 -0 0 -0 -0 0.12014693142680113 0
leaf_weight=1.0419204514473674 1.3248078636825082 0.44338801503181446 0.062700271606446978 0.16031669080257405 0.23581527173519123 0.096871189773082622 0.094318158924579523 3.2158928196877241 0.16942583024501787
leaf_count=9 22 3 1 1 1 1 1 19 1
internal_value=0 0.442774 0.751916 0.984354 -0.0994466 1.07758 1.13445 1.19261 -0.103189
internal_weight=0 5.28483 4.07349 3.6301 1.56062 3.46978 3.37291 3.27859 1.21135
internal_count=59 36 26 23 23 22 21 20 10
shrinkage=0.0975091


Tree=48
num_leaves=11
num_cat=0
split_feature=9 4 1 5 4 4 11 6 6 9
split_gain=3.078 1.51892 0.921738 0.830492 0.405064 0.13792 0.678372 0.0557551 0.0455493 0.0185637
threshold=24.366334418290954 89.200000000000017 490.50000000000006 7.5000000000000009 86.950000000000017 94.65000000000002 10.000000000000002 78.500000000000014 82.500000000000014 28.506244449405955
decision_type=8 2 8 10 2 2 2 2 2 10
left_child=2 -2 5 4 -4 -1 -7 9 -9 -3
right_child=1 7 3 -5 -6 6 -8 8 -10 -11
leaf_value=-0.012849465786754288 -0.10170569523519528 -0.012764380484609065 0.14081345363274719 -0 -0 0.082780134418250606 -0 0.034185344962796987 -0 0
leaf_weight=0.73909649811685119 2.1729978844523434 0.70935726910829522 1.5360990762710569 0.18901915475726119 0.081130012869834803 0.73184233903884865 0.41874782368540769 0.45025427639484406 0.062204383313655846 0.22444157302379608
leaf_count=14 15 7 8 2 1 3 5 2 1 1
internal_value=0 -0.559935 0.669824 1.12264 1.34054 0 0.278905 0 0.250798 -0
internal_weight=0 3.61926 3.69593 1.80625 1.61723 1.88969 1.15059 1.44626 0.512459 0.933799
internal_count=59 26 33 11 9 22 8 11 3 8
shrinkage=0.0975091


Tree=49
num_leaves=11
num_cat=0
split_feature=1 4 11 3 11 3 1 3 1 1
split_gain=0.754905 0.760019 0.736375 0.754377 0.545182 0.282328 0.258231 0.279052 0.110855 0.0736424
threshold=877.00000000000011 89.200000000000017 10.000000000000002 586.00000000000011 1.0000000180025095e-35 491.50000000000006 452.50000000000006 461.50000000000006 547.50000000000011 648.50000000000011
decision_type=8 2 2 10 2 10 10 10 10 10
left_child=1 4 3 6 9 -6 7 -3 -4 -1
right_child=-2 2 8 -5 5 -7 -8 -9 -10 -11
leaf_value=-0 0.084555672654475528 -0 -0.028881283220154739 -0 -0 -0.074827540954909302 -0 0.11425982158283653 0 0.028347668462164053
leaf_weight=0.48210687935352359 0.59806115180253971 0.077833190560341214 0.9002212360501286 0.30240215361118306 0.68726894445717368 2.1703052874654531 0.079283699393272303 1.1848239749670026 0.22444157302379608 0.49737492203712463
leaf_count=4 4 2 13 3 5 19 1 5 1 2
internal_value=0 -0.0586197 0.189805 0.648452 -0.399112 -0.613416 0.966559 1.06643 -0.0248694 0
internal_weight=0 6.60606 2.76901 1.64434 3.83706 2.85757 1.34194 1.26266 1.12466 0.979482
internal_count=59 55 25 11 30 24 8 7 14 6
shrinkage=0.0975091


Tree=50
num_leaves=12
num_cat=0
split_feature=1 4 4 4 5 3 6 6 1 1 4
split_gain=0.667043 0.624042 0.445093 0.383244 0.342486 0.372105 0.27903 0.264448 0.0800702 0.138086 0.137572
threshold=877.00000000000011 89.200000000000017 80.500000000000014 97.100000000000009 9.5000000000000018 475.50000000000006 75.500000000000014 80.500000000000014 803.50000000000011 509.00000000000006 74.750000000000014
decision_type=8 2 2 2 10 10 2 2 8 10 2
left_child=1 2 8 4 5 -3 -7 -8 9 -1 -11
right_child=-2 3 -4 -5 -6 6 7 -9 -10 10 -12
leaf_value=-0 0.079603666819115806 -0 -0.068490193617415832 -0 -0 -0 0.10297918804928607 -0 -0.027714604242542955 -0 0.042158659256413579
leaf_weight=0.3158492576330908 0.5966539755463599 0.1658794395625599 1.6799727566540239 0.50149876251816738 0.72593638859689213 0.10378744453191746 1.1657329350709913 0.084813224151730413 0.47734789550304402 0.13704614341258992 1.1611278653144834
leaf_count=5 4 2 17 5 9 2 5 2 2 1 5
internal_value=0 -0.0540902 -0.370244 0.156003 0.418647 0.650573 0.824118 0.945688 -0 0.0753868 0.298894
internal_weight=0 6.51899 3.77134 2.74765 2.24615 1.52021 1.35433 1.25055 2.09137 1.61402 1.29817
internal_count=59 55 30 25 20 11 9 7 13 11 6
shrinkage=0.0975091


Tree=51
num_leaves=7
num_cat=0
split_feature=3 4 6 4 0 8
split_gain=2.01307 0.878661 1.02211 0.524016 0.284006 0.207624
threshold=480.50000000000006 89.65000000000002 81.500000000000014 73.850000000000009 inf 1.0000000180025095e-35
decision_type=10 2 2 2 8 10
left_child=4 2 3 -2 -1 -5
right_child=1 -3 -4 5 -6 -7
leaf_value=-0.072062499611210654 -0 -0 -0 0.11690978455990625 0 -0
leaf_weight=1.7280970700085159 0.1370461434125908 1.1481647621840236 0.62561579979956139 2.2629239540547137 0.13627898693084728 0.054578876122832187
leaf_count=14 1 17 10 14 1 2
internal_value=0 0.50164 0.7679 1.03993 -0.621317 1.15378
internal_weight=0 4.22833 3.08016 2.45455 1.86438 2.3175
internal_count=59 44 27 17 15 16
shrinkage=0.0975091


Tree=52
num_leaves=7
num_cat=0
split_feature=3 4 6 4 0 8
split_gain=1.65328 0.747848 0.889933 0.468794 0.266354 0.185852
threshold=480.50000000000006 89.65000000000002 81.500000000000014 73.850000000000009 inf 1.0000000180025095e-35
decision_type=10 2 2 2 8 10
left_child=4 2 3 -2 -1 -5
right_child=1 -3 -4 5 -6 -7
leaf_value=-0.068750525175522409 -0 -0 -0 0.10782213154432597 0 -0
leaf_weight=1.6564077548682685 0.1370461434125908 1.1481647621840236 0.62561579979956139 2.2467161007225518 0.13627898693084728 0.054578876122832187
leaf_count=14 1 17 10 14 1 2
internal_value=0 0.445918 0.694824 0.952167 -0.585592 1.06221
internal_weight=0 4.21212 3.06396 2.43834 1.79269 2.30129
internal_count=59 44 27 17 15 16
shrinkage=0.0975091


end of trees

feature importances:
Simple_reaction_time_Ex5=75
Choice_reaction_time_Ex5=70
BMIX4=70
CASIX4=66
Olfaction_complete_Ex5_Ex4=56
ECGage=49
Coffee_oz_Ex1=42
new_BM_frequency=33
TBI_LOC=14
new_smoke=13
Sleepy_complete=8
HYPBP1=1

parameters:
[boosting: gbdt]
[objective: binary]
[metric: auc]
[tree_learner: serial]
[device_type: cpu]
[data: ]
[valid: ]
[num_iterations: 100]
[learning_rate: 0.0975091]
[num_leaves: 21]
[num_threads: 4]
[max_depth: 25]
[min_data_in_leaf: 1]
[min_sum_hessian_in_leaf: 0.001]
[bagging_fraction: 0.338711]
[pos_bagging_fraction: 1]
[neg_bagging_fraction: 1]
[bagging_freq: 3]
[bagging_seed: 3]
[feature_fraction: 0.762063]
[feature_fraction_bynode: 1]
[feature_fraction_seed: 2]
[early_stopping_round: 0]
[first_metric_only: 0]
[max_delta_step: 0]
[lambda_l1: 0.674952]
[lambda_l2: 0.373958]
[min_gain_to_split: 0]
[drop_rate: 0.1]
[max_drop: 50]
[skip_drop: 0.5]
[xgboost_dart_mode: 0]
[uniform_drop: 0]
[drop_seed: 4]
[top_rate: 0.2]
[other_rate: 0.1]
[min_data_per_group: 100]
[max_cat_threshold: 32]
[cat_l2: 10]
[cat_smooth: 10]
[max_cat_to_onehot: 4]
[top_k: 20]
[monotone_constraints: ]
[feature_contri: ]
[forcedsplits_filename: ]
[forcedbins_filename: ]
[refit_decay_rate: 0.9]
[cegb_tradeoff: 1]
[cegb_penalty_split: 0]
[cegb_penalty_feature_lazy: ]
[cegb_penalty_feature_coupled: ]
[verbosity: 1]
[max_bin: 181]
[max_bin_by_feature: ]
[min_data_in_bin: 3]
[bin_construct_sample_cnt: 200000]
[histogram_pool_size: -1]
[data_random_seed: 1]
[output_model: LightGBM_model.txt]
[snapshot_freq: -1]
[input_model: ]
[output_result: LightGBM_predict_result.txt]
[initscore_filename: ]
[valid_data_initscores: ]
[pre_partition: 0]
[enable_bundle: 1]
[max_conflict_rate: 0]
[is_enable_sparse: 1]
[sparse_threshold: 0.8]
[use_missing: 1]
[zero_as_missing: 0]
[two_round: 0]
[save_binary: 0]
[header: 0]
[label_column: ]
[weight_column: ]
[group_column: ]
[ignore_column: ]
[categorical_feature: ]
[predict_raw_score: 0]
[predict_leaf_index: 0]
[predict_contrib: 0]
[num_iteration_predict: -1]
[pred_early_stop: 0]
[pred_early_stop_freq: 10]
[pred_early_stop_margin: 10]
[convert_model_language: ]
[convert_model: gbdt_prediction.cpp]
[num_class: 1]
[is_unbalance: 0]
[scale_pos_weight: 1]
[sigmoid: 1]
[boost_from_average: 1]
[reg_sqrt: 0]
[alpha: 0.9]
[fair_c: 1]
[poisson_max_delta_step: 0.7]
[tweedie_variance_power: 1.5]
[max_position: 20]
[lambdamart_norm: 1]
[label_gain: ]
[metric_freq: 1]
[is_provide_training_metric: 0]
[eval_at: ]
[multi_error_top_k: 1]
[num_machines: 1]
[local_listen_port: 12400]
[time_out: 120]
[machine_list_filename: ]
[machines: ]
[gpu_platform_id: -1]
[gpu_device_id: -1]
[gpu_use_dp: 0]

end of parameters

pandas_categorical:[]
