tree
version=v3
num_class=1
num_tree_per_iteration=1
label_index=0
max_feature_idx=11
objective=binary sigmoid:1
feature_names=Sleepy_complete Simple_reaction_time_Ex5 new_BM_frequency Choice_reaction_time_Ex5 CASIX4 Olfaction_complete_Ex5_Ex4 ECGage new_smoke TBI_LOC BMIX4 HYPBP1 Coffee_oz_Ex1
feature_infos=[0:1] [240:1075] [0:4] [60:1295] [35.100000000000001:99] [0:12] [72:90] [0:2] [0:1] [14.8542690108118:39.3445072771772] [0:1] [0:60]
tree_sizes=615 883 867 1194 1116 1039 1139 939 1045 673 674 748 944 1129 1055 1153 1118 1491 674 973 874 1054 1100 1209 751 1068 968 1382 1215 1123 1199 1188 1223 1270 1239 1083 1038 1042 1106 930 747 1050 1027 925 849

Tree=0
num_leaves=5
num_cat=0
split_feature=3 2 5 3
split_gain=24.0397 4.87584 2.78281 1.8496
threshold=780.50000000000011 1.5000000000000002 9.5000000000000018 531.50000000000011
decision_type=8 8 10 10
left_child=1 3 -2 -1
right_child=2 -3 -4 -5
leaf_value=-1.1990828190317442 -0.90592761729041615 -1.2985113154301178 -1.1990828190317442 -1.02400608382814
leaf_weight=0.3559641242027255 2.135784745216371 7.2972645461559305 0.17798206210136402 0.53394618630409241
leaf_count=2 12 41 1 3
internal_value=0 -0.698554 2.72117 0.923242
internal_weight=0 8.18717 2.31377 0.88991
internal_count=59 46 13 5
shrinkage=1


Tree=1
num_leaves=8
num_cat=0
split_feature=3 7 9 3 6 9 1
split_gain=18.1154 2.46019 1.20191 1.77402 0.6521 0.602018 0.0544284
threshold=780.50000000000011 1.5000000000000002 25.688000030893853 523.50000000000011 73.500000000000014 29.016850493996653 338.00000000000006
decision_type=8 2 10 8 2 10 10
left_child=2 -2 4 -4 6 -5 -1
right_child=1 -3 3 5 -6 -7 -8
leaf_value=0.019888848643378598 0.2406560638001255 -0 -0.064739580695378565 0.11416058747667342 -0.10160913461474273 -0 -0.017004470397189664
leaf_weight=0.16844159364700215 2.4328230470418943 0.20498554408550249 1.5159743428230288 0.75170430541038491 4.5670039653778076 0.16844159364700317 0.6737663745880127
leaf_count=1 12 1 9 4 27 1 4
internal_value=0 2.20449 -0.653598 -0 -0.902757 0.852694 -0
internal_weight=0 2.63781 7.84533 2.43612 5.40921 0.920146 0.842208
internal_count=59 13 46 14 32 5 5
shrinkage=0.0975091


Tree=2
num_leaves=8
num_cat=0
split_feature=3 2 7 5 3 1 1
split_gain=14.1959 4.0441 1.92145 2.18318 1.35923 0.0393125 0.379892
threshold=780.50000000000011 1.5000000000000002 1.5000000000000002 9.5000000000000018 531.50000000000011 324.00000000000006 301.50000000000006
decision_type=8 8 2 10 10 10 10
left_child=1 4 3 -2 -1 6 -3
right_child=2 5 -4 -5 -6 -7 -8
leaf_value=-0 0.22619661085049506 -0.047705385410200953 -0 -0 0.14449861604362205 -0.10263570474115828 0.019215393061238862
leaf_weight=0.3364635705947866 2.4668364226818102 1.1248747706413267 0.20498554408550249 0.20035716891288743 0.61393319070339203 5.31693334877491 0.17035457491874684
leaf_count=2 11 7 1 1 3 33 1
internal_value=0 -0.618068 1.85602 2.07577 0.78216 -0.947038 -0
internal_weight=0 7.56256 2.87218 2.66719 0.950397 6.61216 1.29523
internal_count=59 46 13 12 5 41 8
shrinkage=0.0975091


Tree=3
num_leaves=12
num_cat=0
split_feature=5 11 1 2 2 6 1 9 9 1 1
split_gain=7.63456 3.70664 1.35531 1.12842 1.13916 1.325 0.878629 0.773749 0.893986 0.207241 0.0343656
threshold=4.5000000000000009 6.0000000000000009 441.50000000000006 1.5000000000000002 3.5000000000000004 88.500000000000014 648.50000000000011 28.545765808839654 23.638957612801502 347.00000000000006 290.50000000000006
decision_type=8 2 10 10 10 2 10 10 10 10 10
left_child=3 2 9 -1 5 -5 -3 8 -4 10 -2
right_child=1 6 7 4 -6 -7 -8 -9 -10 -11 -12
leaf_value=-0 -0 -0.10156504173348763 -0 0.20570984153164462 -0 -0 0 -0 0.16368941660862005 -0.038531263040767955 0.024875000157785879
leaf_weight=0.16823178529739324 0.15410844981670491 4.8778635859489441 0.14888541400432564 1.8078448176383974 0.14888541400432576 0.14888541400432576 0.47665533423423762 0.16955024003982544 0.84222957491874684 0.95325192809104942 0.1541084498167038
leaf_count=1 1 31 1 9 1 1 2 1 4 6 1
internal_value=0 -0.431388 0.380233 1.52003 1.70949 1.89679 -0.917206 1.07078 1.36228 -0 0
internal_weight=0 7.77665 2.42213 2.27385 2.10562 1.95673 5.35452 1.16067 0.991115 1.26147 0.308217
internal_count=59 47 14 12 11 10 33 6 5 8 2
shrinkage=0.0975091


Tree=4
num_leaves=11
num_cat=0
split_feature=5 11 4 2 11 6 6 5 2 9
split_gain=6.04188 3.26074 1.42881 0.926815 0.984992 1.25865 0.104624 0.112645 0.184246 0.333417
threshold=4.5000000000000009 6.0000000000000009 77.050000000000011 1.5000000000000002 6.0000000000000009 88.500000000000014 76.500000000000014 10.500000000000002 1.0000000180025095e-35 25.583833254847352
decision_type=8 2 2 10 2 2 2 10 10 10
left_child=3 2 -2 -1 -5 -6 -4 8 -8 -10
right_child=1 -3 6 4 5 -7 7 -9 9 -11
leaf_value=-0 0.12826399728600774 -0.085637207728342921 -0.028977550832513663 0 0.20025176613421269 -0 -0 -0 0.087893552403161893 -0
leaf_weight=0.16823178529739324 0.63853250443935516 5.0615038573741913 0.81071196496486642 0.56409490108490012 1.512794494628906 0.14888541400432576 0.14524951577186584 0.30283655226230621 0.40180543065071112 0.14524951577186584
leaf_count=1 3 33 5 3 7 1 1 2 2 1
internal_value=0 -0.399055 0.338582 1.31508 1.48252 1.81405 -0 0 0.32503 0.567761
internal_weight=0 7.50589 2.44439 2.39401 2.22577 1.66168 1.80585 0.995141 0.692304 0.547055
internal_count=59 47 14 12 11 8 11 6 4 3
shrinkage=0.0975091


Tree=5
num_leaves=10
num_cat=0
split_feature=3 5 9 9 2 7 3 3 3
split_gain=5.41748 2.72071 1.4158 1.32887 0.875048 0.839513 0.238819 0.0997839 0.933561
threshold=568.00000000000011 7.5000000000000009 20.347627952858304 22.645647062339702 3.5000000000000004 1.5000000000000002 961.50000000000011 498.00000000000006 470.00000000000006
decision_type=8 10 8 10 10 2 10 10 10
left_child=3 2 -2 7 5 -4 -3 8 -1
right_child=1 6 4 -5 -6 -7 -8 -9 -10
leaf_value=-0 -0 -0.040421338344921322 0.16201192218014215 -0.09128475837731137 -0 -0 0 -0.0014921178218912728 0.11627541574631482
leaf_weight=0.43348814547061809 0.23355220258236051 1.0220331549644468 2.8944075852632531 3.7036955803632736 0.14888541400432576 0.13151349127292622 0.24865207076072679 0.56813669204711925 0.35259552299976349
leaf_count=3 1 7 13 26 1 1 1 4 2
internal_value=0 0.792386 1.24814 -0.642859 1.43504 1.55142 -0.0255244 0 0.292963
internal_weight=0 4.67904 3.40836 5.05792 3.17481 3.02592 1.27069 1.35422 0.786084
internal_count=59 24 16 35 15 14 8 9 5
shrinkage=0.0975091


Tree=6
num_leaves=11
num_cat=0
split_feature=3 4 5 7 5 3 3 5 2 4
split_gain=4.98369 2.13797 2.17408 1.07774 1.42532 0.410433 0.632276 0.686241 0.0412374 0.518287
threshold=641.00000000000011 86.600000000000009 1.0000000180025095e-35 1.0000000180025095e-35 1.5000000000000002 531.50000000000011 473.50000000000006 10.500000000000002 1.5000000000000002 95.750000000000014
decision_type=10 2 10 2 10 10 10 10 10 2
left_child=3 2 -2 5 -5 6 -1 -8 -3 -10
right_child=1 8 -4 4 -6 -7 7 -9 9 -11
leaf_value=-0 -0 0.0021526707446991845 0.16642084127840245 0 -0.10301627950352764 -0.032083272229934671 0.15387080452722601 -0 -0.05769007017998759 0
leaf_weight=0.25980088114738442 0.24896444380283436 0.21467605233192436 1.8683418482542036 0.2350056618452071 4.3727246969938278 0.88604232668876637 0.26558440923690801 0.14016282558441162 1.2237046211957929 0.22028182446956623
leaf_count=2 1 1 8 1 29 6 2 1 7 1
internal_value=0 0.731325 1.32254 -0.654063 -0.881692 0 0.513431 1.07813 -0 -0.150086
internal_weight=0 3.77597 2.11731 6.15932 4.60773 1.55159 0.665548 0.405747 1.65866 1.44399
internal_count=59 18 9 41 30 11 5 3 9 8
shrinkage=0.0975091


Tree=7
num_leaves=9
num_cat=0
split_feature=1 5 5 3 7 3 3 1
split_gain=5.73662 1.28891 1.51249 1.09996 1.09731 1.08556 0.700512 0.610306
threshold=543.00000000000011 1.0000000180025095e-35 7.5000000000000009 491.50000000000006 1.5000000000000002 473.50000000000006 641.00000000000011 380.00000000000006
decision_type=10 10 10 8 2 10 10 10
left_child=3 -2 6 5 -5 -1 -3 -7
right_child=1 2 -4 4 -6 7 -8 -9
leaf_value=-0.043249321316000226 -0 -0 -0 -0.10141756341742696 0 0.14103806751517242 0.15177251009086443 -0
leaf_weight=1.1428135260939596 0.24896444380283389 0.12234271317720492 0.73990196734666813 4.2923465222120285 0.42429751157760609 0.29401850700378407 2.2688449323177338 0.14016282558441162
leaf_count=9 1 1 4 29 2 2 10 1
internal_value=0 0.879037 1.09331 -0.653859 -0.880937 0 1.43602 0.986939
internal_weight=0 3.38005 3.13109 6.29364 4.71664 1.57699 2.39119 0.434181
internal_count=59 16 15 43 31 12 11 3
shrinkage=0.0975091


Tree=8
num_leaves=10
num_cat=0
split_feature=3 4 5 9 4 9 9 3 3
split_gain=3.48219 1.47158 1.73681 1.38196 1.01316 0.932936 0.402093 0.281238 0.0376841
threshold=641.00000000000011 86.600000000000009 1.0000000180025095e-35 21.390540292866053 94.250000000000014 28.545765808839654 21.038350190257304 536.00000000000011 483.50000000000006
decision_type=10 2 10 10 2 10 10 10 10
left_child=3 2 -2 6 -5 -3 -1 -8 -6
right_child=1 5 -4 4 8 -7 7 -9 -10
leaf_value=-0 -0 -0.054021987851937639 0.14063086842502381 -0.097430906292347838 0.026139245772496929 0.072402922047245966 0.09130768368140986 -0 -0
leaf_weight=0.5320753678679464 0.24896444380283436 1.1725382953882215 1.8899122923612592 4.0192768126726151 0.1504424363374709 0.45720911026000965 0.40534566342830658 0.11352516710758208 0.46158604323863983
leaf_count=4 1 7 8 29 1 2 2 1 4
internal_value=0 0.601852 1.08756 -0.57338 -0.820912 -0 0 0.671087 0
internal_weight=0 3.76862 2.13888 5.68225 4.63131 1.62975 1.05095 0.518871 0.612028
internal_count=59 18 9 41 34 9 7 3 5
shrinkage=0.0975091


Tree=9
num_leaves=6
num_cat=0
split_feature=1 4 2 6 2
split_gain=9.56969 1.51987 1.2601 1.38496 0.0512669
threshold=551.50000000000011 98.200000000000017 1.0000000180025095e-35 72.500000000000014 1.5000000000000002
decision_type=8 2 10 2 10
left_child=1 -1 -2 -4 -3
right_child=2 4 3 -5 -6
leaf_value=-0.10231964047790826 -0 0.030898561414412825 -0 0.15255554633876675 -0
leaf_weight=5.8245095387101165 0.23016954958438995 0.13660705089569081 0.21662686765193973 2.5258235931396484 0.16210812330245972
leaf_count=44 1 1 1 11 1
internal_value=0 -0.903632 1.1535 1.35395 0
internal_weight=0 6.12322 2.97262 2.74245 0.298715
internal_count=59 46 13 12 2
shrinkage=0.0975091


Tree=10
num_leaves=6
num_cat=0
split_feature=1 2 2 6 3
split_gain=8.01035 1.35343 1.0941 1.20823 0.0483293
threshold=551.50000000000011 1.5000000000000002 1.0000000180025095e-35 72.500000000000014 510.50000000000006
decision_type=8 8 10 2 10
left_child=1 4 -2 -4 -1
right_child=2 -3 3 -5 -6
leaf_value=0.029916774326789384 -0 -0.099284757489264464 -0 0.13798363548814954 -0
leaf_weight=0.13946124911308189 0.23016954958438995 5.3561246022582054 0.21662686765193973 2.5578213483095169 0.2513149157166481
leaf_count=1 1 43 1 11 2
internal_value=0 -0.865705 1.02772 1.21693 0
internal_weight=0 5.7469 3.00462 2.77445 0.390776
internal_count=59 46 13 12 3
shrinkage=0.0975091


Tree=11
num_leaves=7
num_cat=0
split_feature=1 11 6 7 9 9
split_gain=6.72964 1.25537 0.85222 0.89007 0.328402 0.0455313
threshold=551.50000000000011 50.000000000000007 72.500000000000014 1.5000000000000002 28.239234809643353 22.825119804440906
decision_type=8 2 2 2 10 10
left_child=1 -1 -2 4 -4 -3
right_child=2 5 3 -5 -6 -7
leaf_value=-0.096529007454025484 -0 0.028959439082013573 0.13719619180100626 -0 0 -0
leaf_weight=4.9591299518942824 0.21662686765194061 0.14224545657634724 2.122416853904725 0.19633576273918141 0.47757898271083826 0.29938480257987976
leaf_count=42 1 1 9 1 2 3
internal_value=0 -0.829253 0.920743 1.08375 1.24553 0
internal_weight=0 5.40076 3.01296 2.79633 2.6 0.44163
internal_count=59 46 13 12 11 4
shrinkage=0.0975091


Tree=12
num_leaves=9
num_cat=0
split_feature=3 3 2 1 6 1 1 7
split_gain=2.50934 2.56512 1.62352 0.991322 0.881678 1.12319 0.54754 0.153198
threshold=483.50000000000006 830.50000000000011 1.5000000000000002 390.00000000000006 72.500000000000014 290.50000000000006 425.50000000000006 1.0000000180025095e-35
decision_type=10 10 8 10 2 8 10 2
left_child=4 2 7 -4 -1 -6 -7 -2
right_child=1 -3 3 -5 5 6 -8 -9
leaf_value=-0 0.042771932937506627 0.063785441150455174 0 -0.10691743633396311 -0 0.16091775508846665 -0 -0
leaf_weight=0.21662686765193928 0.4450172185897826 1.0964731276035307 0.76663747429847695 4.0951035097241402 0.23271112889051404 1.1810762882232664 0.091653987765312306 0.24624069035053253
leaf_count=1 2 5 7 32 2 7 1 2
internal_value=0 -0.343085 -0.682723 -0.914822 0.895974 1.16809 1.49644 0.0641314
internal_weight=0 6.64947 5.553 4.86174 1.72207 1.50544 1.27273 0.691258
internal_count=59 48 43 39 11 10 8 4
shrinkage=0.0975091


Tree=13
num_leaves=11
num_cat=0
split_feature=3 3 9 9 6 5 1 9 5 1
split_gain=1.93873 2.2457 1.2921 0.960189 1.15644 0.678026 0.542777 0.141254 0.0174484 0.0357339
threshold=483.50000000000006 830.50000000000011 25.958638845370704 25.583833254847352 72.500000000000014 10.500000000000002 390.00000000000006 29.560480407136357 3.5000000000000004 385.50000000000006
decision_type=10 10 10 10 2 10 10 10 10 10
left_child=3 2 6 4 -1 -6 8 -4 9 -2
right_child=1 -3 7 -5 5 -7 -8 -9 -10 -11
leaf_value=-0 -0 0.060207568366856937 0.040487109723496242 -0 0.16010532443350858 -0 -0.099626497021251231 -0 -0.012355476216959115 0.025402161040378114
leaf_weight=0.21662686765193928 0.14750988781452157 1.0718452036380766 0.44537207484245289 0.31984134018421162 1.145975589752197 0.11430215090513218 3.6158831045031548 0.23975738883018491 0.71278746426105499 0.15258081257343292
leaf_count=1 1 5 2 3 6 1 31 1 7 1
internal_value=0 -0.306648 -0.640052 0.774798 1.10582 1.44657 -0.850912 0 -0 0
internal_weight=0 6.38574 5.31389 1.79675 1.4769 1.26028 4.62876 0.685129 1.01288 0.300091
internal_count=59 48 43 11 8 7 40 3 9 2
shrinkage=0.0975091


Tree=14
num_leaves=10
num_cat=0
split_feature=5 7 6 11 6 5 1 9 11
split_gain=1.69322 1.49081 0.825796 1.19441 0.565849 0.656377 0.478339 0.0806906 0.0212566
threshold=4.5000000000000009 1.0000000180025095e-35 86.500000000000014 50.000000000000007 77.500000000000014 2.5000000000000004 581.00000000000011 26.269092741045451 30.000000000000004
decision_type=10 2 2 2 2 8 10 10 2
left_child=1 -1 3 6 5 -3 -2 -4 -7
right_child=2 4 7 -5 -6 8 -8 -9 -10
leaf_value=0.12569938952885754 -0.089238100272115303 -0 -0 0.017333767335071269 -0.053403102042079979 0.091721048580600775 0 0.031134701708713748 0
leaf_weight=1.0435078889131548 3.5776613876223569 0.34733314812183391 0.22121575474739064 0.17565944790840138 0.82919436693191506 0.62355300784111045 0.39233963191509241 0.41749349236488337 0.36832614243030554
leaf_count=5 35 2 2 1 5 3 2 2 2
internal_value=0 0.491067 -0.400766 -0.605 -0 0.345895 -0.807333 0 0.794126
internal_weight=0 3.21191 4.78437 4.14566 2.16841 1.33921 3.97 0.638709 0.991879
internal_count=59 17 42 38 12 7 37 4 5
shrinkage=0.0975091


Tree=15
num_leaves=11
num_cat=0
split_feature=3 2 10 6 6 3 2 3 6 3
split_gain=4.16258 2.88167 2.52815 2.00428 1.81566 0.936951 1.21842 0.0490779 0.0382202 0.000287935
threshold=498.00000000000006 1.5000000000000002 1.0000000180025095e-35 72.500000000000014 78.500000000000014 798.00000000000011 1.5000000000000002 477.00000000000006 88.500000000000014 444.00000000000006
decision_type=10 10 2 2 2 10 8 8 2 10
left_child=1 -1 7 -4 -5 6 -2 -3 -7 -6
right_child=5 2 3 4 9 8 -8 -9 -10 -11
leaf_value=-0.025371906140192621 0 -0.012091303073439153 -0 0.26679386843807579 0.0018276229027676953 0.020748234508846188 -0.090749328947532723 0.019252000367589572 -0 -0
leaf_weight=0.69466374814510379 0.28766304254531894 0.64553806185722362 0.20932033658027679 1.2797708213329313 0.44566167891025527 0.47019630670547474 3.3055475354194641 0.48289777338504802 0.18421857059001925 0.22542391717433927
leaf_count=4 2 5 1 8 2 2 30 2 1 2
internal_value=0 0.860016 1.28333 1.83792 2.13172 -0.472468 -0.704433 0 0 0
internal_weight=0 3.98328 3.28861 2.16018 1.95086 4.24763 3.59321 1.12844 0.654415 0.671086
internal_count=59 24 20 13 12 35 32 7 3 4
shrinkage=0.0975091


Tree=16
num_leaves=11
num_cat=0
split_feature=3 2 1 3 2 1 5 7 1 4
split_gain=3.29919 2.41564 2.6594 0.842663 1.15433 0.633274 0.327441 1.17044 0.0342414 0.00555528
threshold=498.00000000000006 1.5000000000000002 276.00000000000006 798.00000000000011 1.5000000000000002 380.00000000000006 1.0000000180025095e-35 1.5000000000000002 581.00000000000011 87.200000000000017
decision_type=10 10 8 10 8 10 8 2 10 2
left_child=1 -1 -3 4 9 6 -4 -8 -5 -2
right_child=3 2 5 8 -6 -7 7 -9 -10 -11
leaf_value=-0.023965030084358917 0.0096222588483539304 -0 0 -0 -0.087567394490206202 -0 0.19876618979580946 -0 0.01965423698651882 -0
leaf_weight=0.68612533807754505 0.19652473926544223 0.55527933686971698 0.68914407491684038 0.18421857059001912 3.1148960962891579 0.10535944998264302 1.9612884223461151 0.13840264081954945 0.46885167062282562 0.091138303279876723
leaf_count=4 1 5 3 1 30 1 10 1 2 1
internal_value=0 0.75364 1.13356 -0.429388 -0.662865 1.52217 1.61072 1.8573 0 0
internal_weight=0 4.1356 3.44947 4.05563 3.40256 2.89419 2.78884 2.09969 0.65307 0.287663
internal_count=59 24 20 35 32 15 14 11 3 2
shrinkage=0.0975091


Tree=17
num_leaves=15
num_cat=0
split_feature=6 1 1 9 8 9 5 11 11 9 9 5 1 1
split_gain=1.68016 1.22962 1.95153 2.22389 0.994859 0.650495 0.717425 0.789557 0.217068 0.145422 0.199536 0.096604 0.0923295 0.0748546
threshold=78.500000000000014 385.50000000000006 290.50000000000006 21.038350190257304 1.0000000180025095e-35 25.958638845370704 11.500000000000002 34.000000000000007 14.000000000000002 25.211894648014553 26.269092741045451 1.5000000000000002 508.00000000000006 441.50000000000006
decision_type=2 10 10 10 8 10 10 2 2 10 10 10 8 10
left_child=1 2 11 -4 -2 6 7 -5 12 -3 13 -1 -6 -11
right_child=4 9 3 5 8 -7 -8 -9 -10 10 -12 -13 -14 -15
leaf_value=0.015991053349436821 -0.074803007538398733 -0.031570981423745564 -0 0.2335338374983752 -0 -0 -0 -0 -0 -0 -0 -0.024790119451545717 0.048752200100072335 0.05513861575314645
leaf_weight=0.48275743424892448 2.0094209797680382 0.93014703318476644 0.31235323846340168 1.1761814802885053 0.077388778328895347 0.076999053359031552 0.076672449707984813 0.07598427683114993 0.4180073887109757 0.054788574576377862 0.26297461986541748 0.76417569071054459 0.86375012993812561 0.5114099532365799
leaf_count=2 16 11 2 6 1 1 1 1 2 1 2 6 4 3
internal_value=0 0.510575 0.87538 1.46826 -0.330082 1.94516 2.08249 2.23214 0 -0 0.0850989 -0 0.406274 0.470642
internal_weight=0 4.72444 2.96512 1.71819 3.36857 1.40584 1.32884 1.25217 1.35915 1.75932 0.829173 1.24693 0.941139 0.566199
internal_count=59 36 19 11 23 9 8 7 7 17 6 8 5 4
shrinkage=0.0975091


Tree=18
num_leaves=6
num_cat=0
split_feature=0 5 3 11 3
split_gain=5.70788 1.46671 1.13869 0.749142 0.249262
threshold=1.0000000180025095e-35 10.500000000000002 451.50000000000006 30.000000000000004 477.00000000000006
decision_type=8 8 8 2 10
left_child=1 3 -2 -1 -3
right_child=2 4 -4 -5 -6
leaf_value=-0.10009812192842933 -0 0.053723714844974145 0.14820100307421652 0 -0
leaf_weight=4.6530751287937164 0.22816329449415171 0.44717560708522791 1.368385836482048 0.68608365952968586 0.47698917239904398
leaf_count=38 2 2 7 5 5
internal_value=0 -0.681393 1.21023 -0.892261 0
internal_weight=0 6.26332 1.59655 5.33916 0.924165
internal_count=59 50 9 43 7
shrinkage=0.0975091


Tree=19
num_leaves=9
num_cat=0
split_feature=2 11 5 4 1 4 6 1
split_gain=1.10287 1.47158 1.06883 0.978898 1.14246 0.962511 0.529948 0.00134223
threshold=1.0000000180025095e-35 10.000000000000002 3.5000000000000004 93.200000000000017 515.00000000000011 97.750000000000014 81.500000000000014 414.00000000000006
decision_type=8 2 10 2 8 2 2 8
left_child=-1 3 7 4 -2 6 -5 -3
right_child=1 2 -4 5 -6 -7 -8 -9
leaf_value=0.071543494006679781 -0.068603399661470402 -0 -0.10347623357433346 0.15335360749536747 0.030917184096727467 -0 -0 0.0039283642228547877
leaf_weight=0.45904448628425593 1.9328731186687951 0.42248997092247043 2.6328594572842121 0.57943400740623452 0.75814692676067341 0.26331038028001785 0.099474541842937469 0.45301812887191767
leaf_count=2 17 3 25 3 4 2 1 2
internal_value=0 -0.335445 -0.772576 0 -0.192198 0.811 1.31772 0
internal_weight=0 7.14161 3.50837 3.63324 2.69102 0.942219 0.678909 0.875508
internal_count=59 57 30 27 21 6 4 5
shrinkage=0.0975091


Tree=20
num_leaves=8
num_cat=0
split_feature=0 5 3 1 3 9 1
split_gain=4.46544 1.22542 0.894139 0.79445 0.186146 0.0966871 0.0557555
threshold=1.0000000180025095e-35 10.500000000000002 451.50000000000006 568.00000000000011 477.00000000000006 24.570973360842256 594.50000000000011
decision_type=8 8 8 10 10 10 10
left_child=1 3 -2 -1 -3 -5 -7
right_child=2 4 -4 5 -6 6 -8
leaf_value=-0.098634974859627134 -0 0.046027526249281372 0.13173602114616115 -0.024982099533633076 -0 0.032978322789640246 -0
leaf_weight=3.853045642375946 0.21123816072940796 0.46146893501281727 1.3685185611248016 0.50824026018381097 0.46135353669524193 0.45251291990280151 0.083282023668289185
leaf_count=37 2 2 7 3 5 2 1
internal_value=0 -0.610076 1.08177 -0.818435 0 -0 0.206462
internal_weight=0 5.8199 1.57976 4.89708 0.922822 1.04404 0.535795
internal_count=59 50 9 43 7 6 3
shrinkage=0.0975091


Tree=21
num_leaves=10
num_cat=0
split_feature=5 3 8 9 6 1 1 1 1
split_gain=4.45977 1.15755 1.33136 0.838395 0.837699 0.945842 2.09911 0.392665 0.141744
threshold=1.5000000000000002 444.00000000000006 1.0000000180025095e-35 26.649707979395753 77.500000000000014 390.00000000000006 301.50000000000006 581.00000000000011 619.50000000000011
decision_type=10 8 10 10 2 10 10 10 10
left_child=1 -1 -3 4 5 6 -2 -6 -7
right_child=3 2 -4 -5 7 8 -8 -9 -10
leaf_value=-0 -0 0.20880677776265627 -0 -0.064695738665110858 -0.048571656829616942 -0.023763498262889156 0.17797092736182482 0 0.02822226178036286
leaf_weight=0.15486335754394498 0.3775823041796687 1.4063302949070928 0.1487923562526704 1.2860979959368704 1.3230423368513582 0.90140843018889405 0.81534285843372334 0.41942724585533125 0.41387452185153961
leaf_count=1 3 8 1 10 15 13 4 2 2
internal_value=0 1.65019 1.88196 -0 0.152549 0.564033 1.09033 -0.115857 -0
internal_weight=0 1.70999 1.55512 5.53678 4.25068 2.50821 1.19293 1.74247 1.31528
internal_count=59 10 9 49 39 22 7 17 15
shrinkage=0.0975091


Tree=22
num_leaves=11
num_cat=0
split_feature=5 11 11 2 9 3 4 11 2 7
split_gain=3.56597 1.56793 1.30283 1.01106 0.927387 0.594762 0.781753 0.266004 0.201008 0.14472
threshold=1.5000000000000002 6.0000000000000009 22.000000000000004 2.5000000000000004 26.378300029938405 461.00000000000006 97.750000000000014 50.000000000000007 1.5000000000000002 1.5000000000000002
decision_type=10 2 2 8 8 10 2 2 10 2
left_child=1 -1 -3 4 5 -2 7 8 -7 -10
right_child=3 2 -4 -5 -6 6 -8 -9 9 -11
leaf_value=-0 -0 0.20007497109840933 -0 -0.063049159799822882 -0.028143343184035545 -0 -0 -0 0.10306847743964685 -0
leaf_weight=0.24427510797977439 0.30854853987693864 1.3889618366956709 0.1548633575439452 1.6028297953307626 0.7562497742474078 0.063967190682889252 0.30395454540848721 0.089248955249786252 2.3165771625936036 0.044358085840940371
leaf_count=2 2 7 1 18 6 1 3 1 17 1
internal_value=0 1.4509 1.78628 -0 0.208238 0.539219 0.710765 0.910514 0.974942 1.02286
internal_weight=0 1.7881 1.54383 5.48573 3.8829 3.12665 2.81811 2.51415 2.4249 2.36094
internal_count=59 10 8 49 31 25 23 20 19 18
shrinkage=0.0975091


Tree=23
num_leaves=12
num_cat=0
split_feature=5 11 11 9 11 3 9 3 1 1 1
split_gain=2.97093 1.33822 1.11416 0.633647 0.316825 0.919547 0.175349 0.0762905 0.373548 0.367814 0.200593
threshold=1.5000000000000002 6.0000000000000009 22.000000000000004 26.649707979395753 1.0000000180025095e-35 461.00000000000006 26.269092741045451 491.50000000000006 347.00000000000006 619.50000000000011 380.00000000000006
decision_type=10 2 2 10 2 10 10 10 10 10 10
left_child=1 -1 -3 4 5 -2 -7 8 -6 -9 -10
right_child=3 2 -4 -5 7 6 -8 9 10 -11 -12
leaf_value=-0 -0 0.17945945075746572 -0 -0.059319715718744469 -0 0.10087070756000525 -0 -0.048467500746666746 0.082266178605284193 0 -0
leaf_weight=0.24427510797977439 0.45090337842702849 1.437716022133827 0.1548633575439452 1.2175176441669462 0.44290310144424472 0.98696886748075452 0.05664067342877388 1.4196284785866735 0.43402315676212311 0.36827269196510304 0.091111607849597917
leaf_count=2 4 7 1 10 3 5 1 21 2 2 1
internal_value=0 1.2909 1.5981 -0 0.0982698 0.439846 0.950622 -0 0.0269145 -0.186654 0.645409
internal_weight=0 1.83685 1.59258 5.46797 4.25045 1.49451 1.04361 2.75594 0.968038 1.7879 0.525135
internal_count=59 10 8 49 39 10 6 29 6 23 3
shrinkage=0.0975091


Tree=24
num_leaves=7
num_cat=0
split_feature=2 5 3 4 9 4
split_gain=4.49051 1.41436 0.702333 0.536432 0.435177 0.254591
threshold=1.5000000000000002 1.5000000000000002 444.00000000000006 46.900000000000013 19.561635805901755 91.200000000000017
decision_type=8 10 8 2 10 2
left_child=2 5 -1 -3 -5 -2
right_child=1 3 -4 4 -6 -7
leaf_value=-0 -0 0 0.12976697109977584 0 -0.099187410570231838 0.050009191274449034
leaf_weight=0.15486335754394498 0.45084834843873961 0.1728888303041457 1.4042991548776627 0.29506977647542942 3.9629761427640915 0.59395033121109009
leaf_count=1 3 1 7 2 42 3
internal_value=0 -0.59938 1.12511 -0.855414 -0.935337 0
internal_weight=0 5.47573 1.55916 4.43093 4.25805 1.0448
internal_count=59 51 8 45 44 6
shrinkage=0.0975091


Tree=25
num_leaves=10
num_cat=0
split_feature=0 1 4 9 3 5 5 11 9
split_gain=1.75397 1.53209 0.909067 0.477617 0.299471 0.12945 0.0707495 0.038981 0.0869218
threshold=1.0000000180025095e-35 902.00000000000011 94.850000000000009 25.688000030893853 451.50000000000006 8.5000000000000018 4.5000000000000009 10.000000000000002 24.963498707667753
decision_type=8 10 2 10 8 10 10 2 10
left_child=2 4 3 5 -2 -1 -5 -4 -9
right_child=1 -3 7 6 -6 -7 -8 8 -10
leaf_value=-0.088914116478933825 -0 -0.028062146721770237 -0 0.018648630915928749 0.11518768849371373 -0 -0.019070079484476279 0.039641234444533505 -0
leaf_weight=2.698883775621653 0.07951412349939313 0.14485499262809742 0.16247165203094471 0.39653678238391854 1.443806990981102 0.66187394037842739 0.73896003141999234 0.38808304816484446 0.11641933023929596
leaf_count=27 1 1 2 2 7 7 7 3 2
internal_value=0 0.605233 -0.433156 -0.632431 1.08589 -0.805891 -0 0.00639498 0.210767
internal_weight=0 1.66818 5.16323 4.49625 1.52332 3.36076 1.1355 0.666974 0.504502
internal_count=59 9 50 43 8 34 9 7 5
shrinkage=0.0975091


Tree=26
num_leaves=9
num_cat=0
split_feature=5 9 6 9 11 6 0 0
split_gain=1.48891 1.18245 1.40377 0.948788 0.389585 0.103418 0.0566394 0.0121552
threshold=1.5000000000000002 19.561635805901755 86.500000000000014 23.638957612801502 1.0000000180025095e-35 86.500000000000014 1.0000000180025095e-35 1.0000000180025095e-35
decision_type=10 10 2 10 2 2 10 10
left_child=3 5 4 6 -3 -2 -1 -4
right_child=1 2 7 -5 -6 -7 -8 -9
leaf_value=-0.021935656348718195 0.044701014381369669 -0 -0 0.09427728470974274 -0.10579803989622012 -0 0 0.012164971695534392
leaf_weight=0.74524277448654208 0.32570409774780262 0.52617941796779677 0.13080297037959088 1.1733146756887434 2.9805353563278913 0.11476787924766541 0.24698786437511444 0.40700224041938782
leaf_count=5 2 5 2 6 35 1 1 2
internal_value=0 -0.457465 -0.698484 0.442664 -0.95772 0.231431 -0 0
internal_weight=0 4.48499 4.04452 2.16555 3.50671 0.440472 0.992231 0.537805
internal_count=59 47 44 12 40 3 6 4
shrinkage=0.0975091


Tree=27
num_leaves=14
num_cat=0
split_feature=9 9 1 9 11 3 3 11 11 1 1 1 1
split_gain=2.52357 2.09446 1.28176 0.841294 1.07907 0.568818 0.237881 0.22251 0.177195 0.212752 0.101008 0.0964772 2.18853e-05
threshold=25.211894648014553 26.649707979395753 335.50000000000006 21.390540292866053 1.0000000180025095e-35 1044.0000000000002 444.00000000000006 22.000000000000004 6.0000000000000009 324.00000000000006 543.00000000000011 581.00000000000011 697.00000000000011
decision_type=10 10 10 10 2 10 10 2 2 10 10 10 10
left_child=3 2 -2 6 11 -6 -1 -4 -8 -10 -11 -5 -3
right_child=1 12 7 4 5 -7 8 -9 9 10 -12 -13 -14
leaf_value=-0 -0 -0.00046565427833998346 0.17222049134784162 -0 -0.10183111344709325 0 -0 -0 -0 0.075676479314695497 -0 0.033716017812662813 0
leaf_weight=0.37173655629158009 0.21112641692161596 0.58569896593689907 1.5571692585945127 0.42581570893526111 2.0900310873985295 0.16720813512802113 0.12997816503047932 0.033485472202300914 0.12108178064227082 0.86639101803302754 0.047811605036258698 0.43298478424549103 0.1644522100687027
leaf_count=3 2 6 9 4 22 1 1 1 2 4 1 2 1
internal_value=0 0.910453 1.44131 -0.207446 -0.545723 -0.897287 0.0977459 1.71844 0.407932 0.554522 0.708207 0 -0
internal_weight=0 2.55193 1.80178 4.65304 3.11604 2.25724 1.537 1.59065 1.16526 1.03528 0.914203 0.8588 0.750151
internal_count=59 19 12 40 29 23 11 10 8 7 5 6 7
shrinkage=0.0975091


Tree=28
num_leaves=12
num_cat=0
split_feature=3 9 9 11 6 6 9 11 7 5 2
split_gain=2.12861 1.97139 1.16727 1.02818 0.949963 0.976363 0.878161 0.193501 0.186492 0.0965912 0.0173462
threshold=480.00000000000006 23.638957612801502 26.649707979395753 50.000000000000007 80.500000000000014 72.500000000000014 21.390540292866053 22.000000000000004 1.5000000000000002 6.5000000000000009 1.5000000000000002
decision_type=10 10 10 2 2 2 10 2 2 10 10
left_child=3 6 4 -1 5 -3 9 8 -7 -2 -5
right_child=1 2 -4 10 -6 7 -8 -9 -10 -11 -12
leaf_value=-0.083383419850193236 0.049755613706767871 -0 -0 0.017322249960440517 -0 0.15890821460921484 -0.069038874138236603 -0 -0 -0 -0
leaf_weight=1.9886034205555918 0.4921690672636031 0.16440206766128662 0.53871932253241528 0.17569170892238606 0.20865759998559941 2.2459215186536321 1.1217096969485281 0.033485472202300914 0.031393315643072017 0.087163303047418594 0.098075702786445604
leaf_count=15 2 1 5 1 4 13 13 1 1 2 1
internal_value=0 0.534513 0.984287 -0.515087 1.23338 1.40216 -0.0161179 1.56529 1.59814 0.367751 0
internal_weight=0 4.92362 3.22258 2.26237 2.68386 2.4752 1.70104 2.3108 2.27731 0.579332 0.273767
internal_count=59 42 25 17 20 16 17 15 14 4 2
shrinkage=0.0975091


Tree=29
num_leaves=11
num_cat=0
split_feature=3 9 4 9 6 6 9 4 11 4
split_gain=1.71013 1.58052 1.0872 0.977122 0.817372 0.84615 0.776038 0.21683 0.173766 0.0893621
threshold=480.00000000000006 23.638957612801502 98.200000000000017 26.649707979395753 80.500000000000014 72.500000000000014 21.390540292866053 97.750000000000014 22.000000000000004 87.950000000000017
decision_type=10 10 2 10 2 2 10 2 2 2
left_child=2 6 -1 4 5 -3 9 8 -7 -2
right_child=1 3 -4 -5 -6 7 -8 -9 -10 -11
leaf_value=-0.08100938656317315 0.046852868722400506 -0 0.016729349097415306 -0 -0 0.1445418577718679 -0.065949355897773343 -0 -0 -0
leaf_weight=1.9955123066902165 0.49472774565219862 0.16440206766128662 0.17734940350055683 0.53871932253241528 0.20865759998559941 2.2718968577682981 1.0794465206563471 0.042979188263416179 0.033485472202300914 0.087163303047418594
leaf_count=16 2 1 1 5 4 13 13 1 1 2
internal_value=0 0.476447 -0.470779 0.875038 1.1021 1.25919 -0 1.41143 1.45087 0.341078
internal_weight=0 4.92148 2.17286 3.26014 2.72142 2.51276 1.66134 2.34836 2.30538 0.581891
internal_count=59 42 17 25 20 16 17 15 14 4
shrinkage=0.0975091


Tree=30
num_leaves=12
num_cat=0
split_feature=11 1 1 2 1 1 4 4 9 11 6
split_gain=1.82269 1.12871 0.39864 0.535374 0.338743 0.543686 0.550643 0.314087 0.305907 0.0937377 0.0143108
threshold=18.000000000000004 361.00000000000006 338.00000000000006 2.5000000000000004 521.50000000000011 902.00000000000011 90.450000000000017 97.750000000000014 26.649707979395753 34.000000000000007 88.500000000000014
decision_type=2 10 8 10 10 10 2 2 10 2 2
left_child=1 2 -1 7 -3 6 -6 8 -4 -2 -7
right_child=9 4 3 -5 5 10 -8 -9 -10 -11 -12
leaf_value=0 -0.048873038321114413 -0.020216240116121345 0.15905067822296962 0 0.088669671545040629 -0.015668335605900158 -0 -0 -0 0 0
leaf_weight=0.6068941913545135 0.95107561908662275 0.84121134318411372 1.5671792924404142 0.31916410475969303 1.2959146052598955 0.18029735982418049 0.66575966775417317 0.056381888687610522 0.051638420671224483 0.38146702945232391 0.18837390840053561
leaf_count=6 11 13 7 3 7 1 4 1 1 4 1
internal_value=0 0.635429 1.10162 1.3011 0 0.325493 0.596195 1.48923 1.56146 -0.37434 -0
internal_weight=0 5.77281 2.60126 1.99436 3.17156 2.33035 1.96167 1.6752 1.61882 1.33254 0.368671
internal_count=59 44 18 12 26 13 11 9 8 15 2
shrinkage=0.0975091


Tree=31
num_leaves=12
num_cat=0
split_feature=11 3 3 4 9 1 2 3 4 9 11
split_gain=1.57021 1.22042 1.4272 0.353816 0.368686 0.31133 0.602966 0.139575 0.186962 0.252076 0.0849565
threshold=18.000000000000004 693.50000000000011 455.50000000000006 97.750000000000014 20.896623131096753 338.00000000000006 2.5000000000000004 961.50000000000011 91.200000000000017 20.896623131096753 34.000000000000007
decision_type=2 10 8 2 8 8 10 10 2 10 2
left_child=1 2 -1 4 -4 -6 -7 8 9 -3 -2
right_child=10 7 3 -5 5 6 -8 -9 -10 -11 -12
leaf_value=-0 -0.046379003019640271 0 -0 -0 0 0.14430601207843449 0 0.013836639378136036 0 -0.069327548172041648 0
leaf_weight=0.45109310373663886 0.92590053565800157 0.13978189229965188 0.092920444905758681 0.098576899617910274 0.56915074586868319 2.5263963211327796 0.33780319802463044 0.64773264527320851 0.1644522100687027 0.72997915744781483 0.38146702945232391
leaf_count=5 11 1 1 2 5 14 5 4 1 6 4
internal_value=0 0.580717 0.859625 1.08592 1.14006 1.19512 1.33247 -0 -0.290703 -0.495992 -0.352666
internal_weight=0 5.75789 4.07594 3.62485 3.52627 3.43335 2.8642 1.68195 1.03421 0.869761 1.30737
internal_count=59 44 32 27 25 24 19 12 8 7 15
shrinkage=0.0975091


Tree=32
num_leaves=12
num_cat=0
split_feature=11 6 2 9 4 4 11 4 9 9 9
split_gain=1.34366 0.376594 0.497849 0.413203 0.457329 0.345263 0.0769875 0.0740528 0.00872321 0.136795 0.00322774
threshold=18.000000000000004 75.500000000000014 3.5000000000000004 20.896623131096753 74.450000000000017 97.750000000000014 34.000000000000007 72.450000000000017 25.688000030893853 26.649707979395753 20.896623131096753
decision_type=2 2 8 8 2 2 2 2 10 10 10
left_child=1 8 3 -3 7 -6 -2 -5 10 -10 -1
right_child=6 2 -4 4 5 -7 -8 -9 9 -11 -12
leaf_value=0 -0.043994930825462165 -0 -0 0.023766830904522123 0.10998532645702649 -0 0 -0.012727797582390362 0.040379495717569623 -0 -0.00548214115131887
leaf_weight=0.13978189229965188 0.9023754559457301 0.16471546143293458 0.22348558902740467 0.71127784252166781 2.6090414021164183 0.098576899617910274 0.38146702945232391 0.18832430243492129 0.47460918128490448 0.5078556127846241 0.64719114638864994
leaf_count=1 11 2 3 4 17 2 4 1 2 4 8
internal_value=0 0.527002 0.690211 0.788767 0.866997 1.05808 -0.332097 0 0 0.0801938 -0
internal_weight=0 5.76486 3.99542 3.77194 3.60722 2.70762 1.28384 0.899602 1.76944 0.982465 0.786973
internal_count=59 44 29 26 24 19 15 5 15 6 9
shrinkage=0.0975091


Tree=33
num_leaves=13
num_cat=0
split_feature=3 4 7 10 3 5 11 3 6 11 6 4
split_gain=1.14506 0.714914 0.661927 0.591421 0.634865 0.516022 0.436079 0.406067 0.243895 0.233071 0.230837 0.000253876
threshold=641.00000000000011 65.15000000000002 1.0000000180025095e-35 1.0000000180025095e-35 470.00000000000006 6.5000000000000009 14.000000000000002 581.50000000000011 88.500000000000014 56.000000000000007 74.500000000000014 75.050000000000011
decision_type=8 2 2 2 10 10 2 10 2 2 2 2
left_child=2 -2 3 -1 -5 9 7 8 10 -3 -6 -7
right_child=1 5 -4 4 6 11 -8 -9 -10 -11 -12 -13
leaf_value=-0 -0 0.1246152834102663 -0.053398928880282512 -0 -0 0.0017582861675603486 -0 -0 -0 -0 0.1403187694234603 -0
leaf_weight=0.527552410960198 0.46463653445243863 1.4741095602512362 1.5207559280097482 0.29175486788153654 0.047328781336545722 0.40682880580425246 0.14162327349185933 0.10554929822683325 0.054728399962186806 0.055629234760999569 0.89939086139202107 0.40677738934755325
leaf_count=5 2 8 21 4 1 2 3 2 1 1 4 5
internal_value=0 0.698921 -0 0.195892 0.598241 0.913846 0.90195 1.08893 1.25379 1.20958 1.34975 0
internal_weight=0 2.80798 3.58868 2.06793 1.54038 2.34334 1.24862 1.107 1.00145 1.52974 0.94672 0.813606
internal_count=59 18 41 20 15 16 11 8 6 9 5 7
shrinkage=0.0975091


Tree=34
num_leaves=12
num_cat=0
split_feature=9 2 5 11 11 6 4 11 7 2 1
split_gain=0.899098 1.25124 0.892273 0.745839 0.499068 0.260601 0.201371 0.175083 0.142747 0.0482071 0.0337477
threshold=23.187736622583504 2.5000000000000004 6.5000000000000009 1.0000000180025095e-35 34.000000000000007 75.500000000000014 86.950000000000017 10.000000000000002 1.0000000180025095e-35 3.5000000000000004 619.50000000000011
decision_type=10 10 10 2 2 2 2 2 2 10 10
left_child=3 2 4 8 5 -2 7 -4 9 -1 -3
right_child=1 10 6 -5 -6 -7 -8 -9 -10 -11 -12
leaf_value=0.048638158583787165 0 -0.017349878670432521 0.056685378950727061 -0.06661620084529675 -0 0.13889808282971425 -0.016212542571041506 -0 -0 -0 0
leaf_weight=0.49371264874935133 0.25604748725891191 0.72378087416291215 0.64995250105857827 1.2322328072041271 0.1192651204764842 1.636465076357126 0.72659136168658733 0.13789074495434761 0.17489202320575714 0.040716078132390976 0.1344773918390274
leaf_count=2 3 9 3 16 2 9 10 2 1 1 1
internal_value=0 0.497376 0.788912 -0.111436 1.1796 1.29803 0 0.383588 0.1517 0.429635 -0.0285727
internal_weight=0 4.38447 3.52621 1.94155 2.01178 1.89251 1.51443 0.787843 0.709321 0.534429 0.858258
internal_count=59 39 29 20 14 12 15 5 4 3 10
shrinkage=0.0975091


Tree=35
num_leaves=11
num_cat=0
split_feature=3 1 1 10 1 3 11 2 3 5
split_gain=0.897771 1.07357 0.517686 0.216055 0.155628 0.326434 0.451241 0.529774 0.18311 0.135886
threshold=641.00000000000011 902.00000000000011 475.50000000000006 1.0000000180025095e-35 390.00000000000006 470.00000000000006 14.000000000000002 1.5000000000000002 581.50000000000011 6.5000000000000009
decision_type=8 10 8 2 10 10 2 10 10 10
left_child=3 2 -2 -1 5 -5 7 -7 -9 -4
right_child=1 -3 9 4 -6 6 -8 8 -10 -11
leaf_value=-0.03814495402341022 -0 -0 0.11574390762804858 -0 -0 -0 -0 0.10566931648468261 -0 0
leaf_weight=1.0378672108054163 0.18140024691820225 0.22923098504543293 1.6566008031368258 0.33056344464421306 0.62591727264225472 0.17489202320575703 0.26082357019186009 1.0277969092130659 0.055451620370149501 0.67059714719653118
leaf_count=12 4 1 9 4 13 1 5 5 1 4
internal_value=0 0.603642 0.875098 -0 0 0.264562 0.504644 0.756203 1.00201 1.00443
internal_weight=0 2.73783 2.5086 3.51331 2.47544 1.84953 1.51896 1.25814 1.08325 2.3272
internal_count=59 18 17 41 29 16 12 7 6 13
shrinkage=0.0975091


Tree=36
num_leaves=10
num_cat=0
split_feature=1 1 10 1 6 1 6 3 1
split_gain=0.825477 1.31303 1.05272 1.40477 0.9913 0.966762 0.964379 0.460553 0.000489842
threshold=351.50000000000006 543.00000000000011 1.0000000180025095e-35 301.50000000000006 82.500000000000014 902.00000000000011 74.500000000000014 498.00000000000006 375.00000000000006
decision_type=8 10 2 10 2 10 2 10 10
left_child=2 4 -1 -4 -2 6 -3 -5 -6
right_child=1 5 3 7 8 -7 -8 -9 -10
leaf_value=-0 -0.08220825773389441 -0 -0 0.15745016169432161 0.0023725833881210593 -0.014297879947554356 0.1010307957103862 -0 -0
leaf_weight=0.36321260780096015 2.1428154818713669 0.32949601486325342 0.32396060414612304 1.1283393651247022 0.45341870188713057 0.18406639993190757 1.8938511982560156 0.08174525387585152 0.12326895445585252
leaf_count=3 27 3 4 5 2 1 11 2 1
internal_value=0 -0 0.663193 1.03696 -0.507772 0.430484 0.752361 1.47717 0
internal_weight=0 5.12692 1.89726 1.53405 2.7195 2.40741 2.22335 1.21008 0.576688
internal_count=59 45 14 11 30 15 14 7 3
shrinkage=0.0975091


Tree=37
num_leaves=10
num_cat=0
split_feature=1 1 6 10 1 1 6 3 1
split_gain=0.642987 1.0295 0.924646 0.903323 1.21893 0.854406 0.874152 0.40028 0.000439081
threshold=351.50000000000006 543.00000000000011 82.500000000000014 1.0000000180025095e-35 301.50000000000006 902.00000000000011 74.500000000000014 498.00000000000006 375.00000000000006
decision_type=8 10 2 2 10 10 2 10 10
left_child=3 2 -2 -1 -5 6 -3 -6 -4
right_child=1 5 8 4 7 -7 -8 -9 -10
leaf_value=-0 -0.07913116628007523 -0 0.0022467369941347459 -0 0.14268493211446892 -0.013802944235463552 0.094287595408018662 -0 -0
leaf_weight=0.36321260780096015 2.0293977819383149 0.32949601486325342 0.45309035480022414 0.32396060414612304 1.1605556458234785 0.18541592359542841 1.8599130138754842 0.08174525387585152 0.12326895445585252
leaf_count=3 27 3 2 4 5 1 11 2 1
internal_value=0 -0 -0.469973 0.575624 0.926795 0.367556 0.688339 1.33615 0
internal_weight=0 4.98058 2.60576 1.92947 1.56626 2.37482 2.18941 1.2423 0.576359
internal_count=59 45 30 14 11 15 14 7 3
shrinkage=0.0975091


Tree=38
num_leaves=11
num_cat=0
split_feature=2 1 11 1 5 4 11 4 4 4
split_gain=1.15902 1.23443 0.586501 0.280453 0.24183 0.207901 0.540237 0.196747 0.224633 0.0746613
threshold=2.5000000000000004 902.00000000000011 34.000000000000007 619.50000000000011 11.500000000000002 83.450000000000017 22.000000000000004 98.200000000000017 86.600000000000009 77.050000000000011
decision_type=8 8 2 10 10 2 2 2 2 2
left_child=1 2 4 -2 7 6 -3 8 9 -1
right_child=3 5 -4 -5 -6 -7 -8 -9 -10 -11
leaf_value=0.026402634638647244 -0.056142797078919289 -0.087171849584703018 -0 0 -0 0 0 -0 0.11355146542240056 -0
leaf_weight=0.64437889307737461 1.4526109080761669 0.58640655875205971 0.27201545611023886 0.20971706509590135 0.095367848873138317 0.228493332862854 0.22428525984287265 0.074514135718345531 2.1168637853115797 0.8864729106426239
leaf_count=4 17 3 5 2 1 1 1 1 14 10
internal_value=0 0.407347 0.690489 -0.399551 0.804761 -0.117159 -0.438029 0.849562 0.885466 0
internal_weight=0 5.1288 4.08961 1.66233 3.8176 1.03919 0.810692 3.72223 3.64772 1.53085
internal_count=59 40 35 19 30 5 4 29 28 14
shrinkage=0.0975091


Tree=39
num_leaves=9
num_cat=0
split_feature=1 1 9 8 9 2 1 1
split_gain=0.994959 0.985209 1.06918 0.174855 0.0977411 0.162805 0.0715903 0.0569319
threshold=447.00000000000006 290.50000000000006 26.649707979395753 1.0000000180025095e-35 25.211894648014553 2.5000000000000004 581.00000000000011 551.50000000000011
decision_type=10 8 10 10 10 8 10 10
left_child=1 -1 3 -3 6 7 -2 -6
right_child=4 2 -4 -5 5 -7 -8 -9
leaf_value=-0 -0.027050779815358351 0.12572711926924224 -0 -0 -0 -0 0 0.050414366059549125
leaf_weight=0.31297958083450828 0.85766548290848754 2.6467908462509522 0.27818990126252163 0.040820449590682872 0.04533071070909489 0.1851996257901192 0.59994756430387497 0.7269369475543499
leaf_count=4 12 25 5 1 1 2 5 4
internal_value=0 0.874403 1.06359 1.25827 0 0.236619 -0.112538 0.455051
internal_weight=0 3.27878 2.9658 2.68761 2.41508 0.957467 1.45761 0.772268
internal_count=59 35 31 26 24 7 17 5
shrinkage=0.0975091


Tree=40
num_leaves=7
num_cat=0
split_feature=6 1 1 6 8 1
split_gain=0.907771 0.768264 0.790811 0.288938 0.156247 0.00627936
threshold=78.500000000000014 447.00000000000006 290.50000000000006 72.500000000000014 1.0000000180025095e-35 581.00000000000011
decision_type=2 10 8 2 10 10
left_child=1 2 -1 -4 -5 -2
right_child=5 -3 3 4 -6 -7
leaf_value=-0 -0.0074678954249203849 0 -0 0.11584202816414614 -0 0
leaf_weight=0.2303093392401937 0.69659890234470345 1.2189307641237972 0.07937332242727313 2.6888265926390891 0.040820449590682872 0.83583291620016098
leaf_count=3 12 11 2 23 1 7
internal_value=0 0.707467 0.950962 1.10373 1.15865 -0
internal_weight=0 4.25826 3.03933 2.80902 2.72965 1.53243
internal_count=59 40 29 26 24 19
shrinkage=0.0975091


Tree=41
num_leaves=10
num_cat=0
split_feature=4 1 2 4 1 1 8 1 11
split_gain=0.59681 0.834277 0.329114 0.366367 0.326896 0.330963 0.193909 0.0969776 0.134093
threshold=94.850000000000009 301.50000000000006 2.5000000000000004 91.600000000000009 375.00000000000006 305.50000000000006 1.0000000180025095e-35 581.00000000000011 6.0000000000000009
decision_type=2 10 8 2 10 8 10 8 2
left_child=2 -2 3 4 5 -1 -3 8 -6
right_child=1 6 -4 -5 7 -7 -8 -9 -10
leaf_value=-0 -0 0.13730321116524258 -0.015306905464931162 -0 0 0.090083295584733089 -0 0.028606475180376414 -0.030888041923772064
leaf_weight=0.12284422665834482 0.20095444843173016 0.99551715329289403 0.77111954055726517 0.41076629981398566 0.43166229128837608 1.2014643624424934 0.040820449590682976 0.75088892877101887 0.96402832120656956
leaf_count=1 2 7 13 5 3 6 1 5 16
internal_value=0 1.02328 0.0622566 0.274379 0.422629 0.772573 1.33712 0 -0.0096583
internal_weight=0 1.23729 4.65277 3.88165 3.47089 1.32431 1.03634 2.14658 1.39569
internal_count=59 10 49 36 31 7 8 24 19
shrinkage=0.0975091


Tree=42
num_leaves=10
num_cat=0
split_feature=2 5 1 1 6 1 5 4 1
split_gain=0.765277 1.19956 1.28816 0.79084 0.510415 0.673546 0.273228 0.282972 0.197605
threshold=1.5000000000000002 4.5000000000000009 414.00000000000006 351.50000000000006 73.500000000000014 324.00000000000006 10.500000000000002 75.800000000000026 770.00000000000011
decision_type=8 10 8 8 2 10 10 2 8
left_child=3 2 4 -1 -2 -6 7 -3 -4
right_child=1 6 8 -5 5 -7 -8 -9 -10
leaf_value=-0 -0 0 0 0.09732902903601727 -0 0.15736690732065828 0 -0.081499552817936291 -0.053435894726939694
leaf_weight=0.31853273510932889 0.12543745338916812 0.16502234339714128 0.94281744211912133 0.87193338200449955 0.12284422665834428 0.57118906080722809 0.52821232005953778 2.5438874438405037 0.42601250112056738
leaf_count=2 1 2 8 5 1 3 4 31 2
internal_value=0 -0.232993 0.112135 0.536596 1.03472 1.29395 -0.640663 -0.754588 -0.156413
internal_weight=0 5.42542 2.1883 1.19047 0.819471 0.694033 3.23712 2.70891 1.36883
internal_count=59 52 15 7 5 4 37 33 10
shrinkage=0.0975091


Tree=43
num_leaves=9
num_cat=0
split_feature=11 1 5 2 3 3 5 2
split_gain=2.09847 1.30122 1.04127 0.771969 0.930382 0.748634 0.292057 0.242849
threshold=10.000000000000002 324.00000000000006 7.5000000000000009 3.5000000000000004 444.00000000000006 961.50000000000011 10.500000000000002 2.5000000000000004
decision_type=2 10 10 8 10 8 10 10
left_child=5 -2 3 4 -3 6 7 -1
right_child=1 2 -4 -5 -6 -7 -8 -9
leaf_value=-0.099840663670896793 -0.011794420158288342 -0 -0 -0 0.14231001529348211 0 -0 0
leaf_weight=2.0905684605240835 0.63713860884308848 0.18847586959600568 0.35382783040404309 0.19282791018486009 1.8928258493542669 0.3572075068950652 0.61427070200443257 0.18215893954038609
leaf_count=15 9 2 8 2 13 3 4 3
internal_value=0 0.468344 0.833328 1.08648 1.25998 -0.599474 -0.79266 -0.940469
internal_weight=0 3.2651 2.62796 2.27413 2.0813 3.24421 2.887 2.27273
internal_count=59 34 25 17 15 25 22 18
shrinkage=0.0975091


Tree=44
num_leaves=8
num_cat=0
split_feature=11 1 5 3 2 3 5
split_gain=1.66511 1.09192 0.899499 0.695022 0.673456 0.815827 0.256524
threshold=10.000000000000002 324.00000000000006 7.5000000000000009 961.50000000000011 3.5000000000000004 444.00000000000006 10.500000000000002
decision_type=2 10 10 8 8 10 10
left_child=3 -2 4 6 5 -3 -1
right_child=1 2 -4 -5 -6 -7 -8
leaf_value=-0.087397141536252471 -0.011126332312875216 -0 -0 0 -0 0.12956328100560058 -0
leaf_weight=2.1756998375058183 0.63224647566676173 0.18847586959600568 0.35382783040404309 0.3572075068950652 0.19282791018486009 1.9120460189878938 0.61427070200443257
leaf_count=18 9 2 8 3 2 13 4
internal_value=0 0.394437 0.738396 -0.558092 0.977132 1.14077 -0.752531
internal_weight=0 3.27942 2.64718 3.14718 2.29335 2.10052 2.78997
internal_count=59 34 25 25 17 15 22
shrinkage=0.0975091


end of trees

feature importances:
Simple_reaction_time_Ex5=80
Choice_reaction_time_Ex5=59
BMIX4=49
Coffee_oz_Ex1=41
Olfaction_complete_Ex5_Ex4=40
new_BM_frequency=35
ECGage=35
CASIX4=33
new_smoke=13
Sleepy_complete=5
TBI_LOC=5
HYPBP1=5

parameters:
[boosting: gbdt]
[objective: binary]
[metric: auc]
[tree_learner: serial]
[device_type: cpu]
[data: ]
[valid: ]
[num_iterations: 100]
[learning_rate: 0.0975091]
[num_leaves: 21]
[num_threads: 4]
[max_depth: 25]
[min_data_in_leaf: 1]
[min_sum_hessian_in_leaf: 0.001]
[bagging_fraction: 0.338711]
[pos_bagging_fraction: 1]
[neg_bagging_fraction: 1]
[bagging_freq: 3]
[bagging_seed: 3]
[feature_fraction: 0.762063]
[feature_fraction_bynode: 1]
[feature_fraction_seed: 2]
[early_stopping_round: 0]
[first_metric_only: 0]
[max_delta_step: 0]
[lambda_l1: 0.674952]
[lambda_l2: 0.373958]
[min_gain_to_split: 0]
[drop_rate: 0.1]
[max_drop: 50]
[skip_drop: 0.5]
[xgboost_dart_mode: 0]
[uniform_drop: 0]
[drop_seed: 4]
[top_rate: 0.2]
[other_rate: 0.1]
[min_data_per_group: 100]
[max_cat_threshold: 32]
[cat_l2: 10]
[cat_smooth: 10]
[max_cat_to_onehot: 4]
[top_k: 20]
[monotone_constraints: ]
[feature_contri: ]
[forcedsplits_filename: ]
[forcedbins_filename: ]
[refit_decay_rate: 0.9]
[cegb_tradeoff: 1]
[cegb_penalty_split: 0]
[cegb_penalty_feature_lazy: ]
[cegb_penalty_feature_coupled: ]
[verbosity: 1]
[max_bin: 181]
[max_bin_by_feature: ]
[min_data_in_bin: 3]
[bin_construct_sample_cnt: 200000]
[histogram_pool_size: -1]
[data_random_seed: 1]
[output_model: LightGBM_model.txt]
[snapshot_freq: -1]
[input_model: ]
[output_result: LightGBM_predict_result.txt]
[initscore_filename: ]
[valid_data_initscores: ]
[pre_partition: 0]
[enable_bundle: 1]
[max_conflict_rate: 0]
[is_enable_sparse: 1]
[sparse_threshold: 0.8]
[use_missing: 1]
[zero_as_missing: 0]
[two_round: 0]
[save_binary: 0]
[header: 0]
[label_column: ]
[weight_column: ]
[group_column: ]
[ignore_column: ]
[categorical_feature: ]
[predict_raw_score: 0]
[predict_leaf_index: 0]
[predict_contrib: 0]
[num_iteration_predict: -1]
[pred_early_stop: 0]
[pred_early_stop_freq: 10]
[pred_early_stop_margin: 10]
[convert_model_language: ]
[convert_model: gbdt_prediction.cpp]
[num_class: 1]
[is_unbalance: 0]
[scale_pos_weight: 1]
[sigmoid: 1]
[boost_from_average: 1]
[reg_sqrt: 0]
[alpha: 0.9]
[fair_c: 1]
[poisson_max_delta_step: 0.7]
[tweedie_variance_power: 1.5]
[max_position: 20]
[lambdamart_norm: 1]
[label_gain: ]
[metric_freq: 1]
[is_provide_training_metric: 0]
[eval_at: ]
[multi_error_top_k: 1]
[num_machines: 1]
[local_listen_port: 12400]
[time_out: 120]
[machine_list_filename: ]
[machines: ]
[gpu_platform_id: -1]
[gpu_device_id: -1]
[gpu_use_dp: 0]

end of parameters

pandas_categorical:[]
