tree
version=v3
num_class=1
num_tree_per_iteration=1
label_index=0
max_feature_idx=11
objective=binary sigmoid:1
feature_names=Sleepy_complete Simple_reaction_time_Ex5 new_BM_frequency Choice_reaction_time_Ex5 CASIX4 Olfaction_complete_Ex5_Ex4 ECGage new_smoke TBI_LOC BMIX4 HYPBP1 Coffee_oz_Ex1
feature_infos=[0:1] [1:1075] [0:4] [1:1295] [2.5:99] [0:12] [72:90] [0:2] [0:1] [14.6411231134028:39.3445072771772] [0:1] [0:64]
tree_sizes=1194 1063 1059 1049 1326 1252 927 1097 943 1133 1140 1058 1060 846 923 997 984 981 1027 1033 883 930 863 865 857 940 1025 1044 1093 1109 1124 1007 923 929 920 1025 937 941 1027 1268 1200 1283 1091 1172 1175 774 860 863 1104 1041 1187 913 913 878 1025 1099 934 968 971 971 1122 1013 1027 753 1035 1014 1037 924 845 778 595 668 927 1035 912 930 925 924 1290 1121 969 1087 926 835 783 863 864 837 1043 1005 828 650 1030 565 632 570 589 599 517 587 589 588 1020 936 919 935 1085 853 752 601 752 749 745 745 908 932 1119 836 919 836 607 599 700 821 970 898 853 948 846 946 1191 755 1008 1158 1086 578 668 862 665 665 669 650 655 821 754 766 669 921

Tree=0
num_leaves=11
num_cat=0
split_feature=3 9 2 3 5 2 3 3 11 5
split_gain=7.40658 2.61142 1.6615 2.04763 1.21787 0.893605 0.19535 1.76907 1.13494 0.0683237
threshold=655.50000000000011 23.659356047209453 3.5000000000000004 1120.5000000000002 9.5000000000000018 1.5000000000000002 460.50000000000006 492.50000000000006 22.000000000000004 3.5000000000000004
decision_type=8 10 8 10 10 8 10 10 2 10
left_child=4 9 3 -3 5 -1 -6 8 -8 -2
right_child=1 2 -4 -5 6 -7 7 -9 -10 -11
leaf_value=-1.2237754316221157 -1.2064275342407116 -0.97673708406186988 -1.2237754316221157 -1.2237754316221157 -1.2449849552889989 -1.3114572599466234 -1.0459036878304944 -1.2449849552889989 -1.2237754316221157 -1.2449849552889989
leaf_weight=0.52685952186584373 0.17561984062194946 1.4049587249755853 0.17561984062194835 0.17561984062194835 0.7024793624877933 5.092975378036499 0.5268595218658445 0.70247936248779297 0.17561984062194824 0.70247936248779297
leaf_count=3 1 8 1 1 4 29 3 4 1 4
internal_value=0 1.30174 1.90236 2.18957 -0.533876 -0.76709 0 0.28493 1.31541 -0
internal_weight=0 2.6343 1.7562 1.58058 7.72727 5.61983 2.10744 1.40496 0.702479 0.878099
internal_count=59 15 10 9 44 32 12 8 4 5
shrinkage=1


Tree=1
num_leaves=10
num_cat=0
split_feature=1 1 9 11 3 3 3 1 9
split_gain=6.97767 1.94401 1.97412 0.920502 0.813507 2.45292 0.346534 0.0173953 0.016274
threshold=542.00000000000011 593.50000000000011 23.659356047209453 10.000000000000002 477.00000000000006 460.50000000000006 564.50000000000011 447.50000000000006 21.504814879496553
decision_type=8 10 10 2 10 10 10 10 10
left_child=3 2 8 4 5 -1 -6 -8 -2
right_child=1 -3 -4 -5 6 -7 7 -9 -10
leaf_value=-0.018168697657164994 0.016754183387279301 -0 0.20541444093250841 -0.079684153933961624 -0.064845641902270088 0.16772826585735731 0.017347897381404218 -0 -0
leaf_weight=0.68156424164771967 0.17728012800216841 0.342815801501274 1.5897258520126341 4.2707555592060089 1.5175440460443499 0.55200792849063873 0.17561984062194813 0.5015878826379776 0.52075847983360291
leaf_count=4 1 2 8 25 9 3 1 3 3
internal_value=0 1.26348 1.59133 -0.519802 -0 0.448611 -0.436753 0 0
internal_weight=0 2.63058 2.28776 7.69908 3.42832 1.23357 2.19475 0.677208 0.698039
internal_count=59 14 12 45 20 7 13 4 4
shrinkage=0.0975091


Tree=2
num_leaves=10
num_cat=0
split_feature=1 1 9 5 2 1 3 11 9
split_gain=5.67606 1.61451 1.44591 1.03532 0.844529 0.364057 2.07994 0.016274 0.0152207
threshold=542.00000000000011 593.50000000000011 23.659356047209453 9.5000000000000018 1.5000000000000002 360.00000000000006 460.50000000000006 10.000000000000002 21.504814879496553
decision_type=8 10 10 10 8 10 10 2 10
left_child=3 2 8 4 7 6 -5 -1 -2
right_child=1 -3 -4 5 -6 -7 -8 -9 -10
leaf_value=0.016754183387279385 0.016179436806020586 -0 0.1759281987824424 -0.017281103968171459 -0.082664625664246275 -0.03096362647435439 0.14951202775286562 -0 -0
leaf_weight=0.17728012800216575 0.17888036370277571 0.342815801501274 1.7297201156616209 0.67553222179412864 4.8693593740463257 0.83451980352401733 0.59972465038299561 0.33593100309371948 0.52075847983360291
leaf_count=1 1 2 8 4 30 5 3 2 3
internal_value=0 1.09721 1.38817 -0.489979 -0.712685 0 0.38322 0 0
internal_weight=0 2.77217 2.42936 7.49235 5.38257 2.10978 1.27526 0.513211 0.699639
internal_count=59 14 12 45 33 12 7 3 4
shrinkage=0.0975091


Tree=3
num_leaves=10
num_cat=0
split_feature=1 9 5 2 1 2 1 5 6
split_gain=9.62648 2.9387 2.44552 0.799811 0.791572 0.71753 0.629246 0.41327 0.0152207
threshold=581.00000000000011 24.324413423661355 2.5000000000000004 1.5000000000000002 360.00000000000006 2.5000000000000004 347.00000000000006 6.5000000000000009 78.500000000000014
decision_type=8 10 10 8 10 10 10 10 2
left_child=2 -2 5 8 6 -1 -5 -3 -4
right_child=1 7 3 4 -6 -7 -8 -9 -10
leaf_value=0.13650806927402404 -0 0.22489662122196971 0.016179436806020638 -0.052217442397521921 -0.10034399176417973 -0 0.038343527067774011 0 -0
leaf_weight=0.30467875301837821 0.35770235955715302 1.7112240791320803 0.17888036370277394 1.2433587014675138 4.6432149708271027 0.17536899447441101 0.69595751166343678 0.42780601978301991 0.33896955847740173
leaf_count=2 2 8 1 8 29 1 4 2 2
internal_value=0 1.64204 -0.487285 -0.705647 -0.806213 0.846886 -0 2.06143 0
internal_weight=0 2.49673 7.58043 7.10038 6.58253 0.480048 1.93932 2.13903 0.51785
internal_count=59 12 47 44 41 3 12 10 3
shrinkage=0.0975091


Tree=4
num_leaves=13
num_cat=0
split_feature=4 8 5 6 4 5 2 9 4 4 4 4
split_gain=3.90255 2.0927 2.47907 1.20801 0.878642 0.540667 0.474369 0.680132 0.464139 0.273417 0.304919 0.000263734
threshold=85.100000000000009 inf 4.5000000000000009 73.500000000000014 76.350000000000009 9.5000000000000018 1.0000000180025095e-35 24.570973360842256 94.65000000000002 91.700000000000017 86.65000000000002 95.250000000000014
decision_type=2 8 10 2 2 10 10 10 2 2 2 2
left_child=1 2 -1 9 6 -6 -4 -8 -5 10 -2 -10
right_child=3 -3 4 8 5 -7 7 -9 11 -11 -12 -13
leaf_value=0.18150917830957899 -0 -0.02157159406956765 -0 -0.090716893573043217 -0.056306441581365364 0.0073941119009843593 -0 0.13761288947367203 0 -0 0.082420971915064964 -0.0016286105352800984
leaf_weight=1.6572212278842924 0.14355798065662362 0.70120203495025613 0.15042972564697299 3.1582591980695724 1.3623067587614057 0.20219595730304707 0.14967094361782074 0.62726369500160217 0.32572199404239643 0.44589145481586456 0.43550235033035278 0.5714564323425293
leaf_count=8 1 4 1 20 9 1 1 3 2 3 2 4
internal_value=0 0.694739 1.00426 -0.503931 0.0301444 -0.146488 0.803261 1.06852 -0.765138 0 0.535627 -0
internal_weight=0 4.85029 4.14909 5.08039 2.49187 1.5645 0.927364 0.776935 4.05544 1.02495 0.57906 0.897178
internal_count=59 27 23 32 15 10 5 4 26 6 3 6
shrinkage=0.0975091


Tree=5
num_leaves=12
num_cat=0
split_feature=3 5 9 2 2 4 9 9 9 9 4
split_gain=4.63916 3.1857 2.19938 1.5274 0.843624 0.425992 0.423075 0.330577 0.103541 0.000418732 0.0151202
threshold=752.00000000000011 2.5000000000000004 24.324413423661355 1.5000000000000002 2.5000000000000004 94.65000000000002 25.768222303172255 21.248300853431001 21.125297583001053 24.982808819107955 96.200000000000017
decision_type=8 10 10 8 10 2 10 10 10 10 2
left_child=1 4 -2 6 -1 7 -3 8 -5 10 -7
right_child=2 3 -4 5 -6 9 -8 -9 -10 -11 -12
leaf_value=0.14896319258916843 -0 -0 0.17051236763869818 -0.027934042110734993 -0 0.016123690097632086 0.073001244663912973 -0.096750813385794832 0.0071326028296039533 -0.0020492229447979945 -0
leaf_weight=0.59633983671665092 0.35358087718486908 0.32813617587089527 1.6564341336488722 0.85008046030998208 0.16665197908878326 0.1790352314710616 0.4411109983921051 4.3459492772817612 0.20284853875637052 0.57412861287593842 0.14340545237064362
leaf_count=3 2 2 7 6 1 1 2 29 1 4 1
internal_value=0 -0.27754 1.29684 -0.567608 1.11791 -0.763736 0.171859 -0.864682 -0 -0 0
internal_weight=0 7.82769 2.01002 7.06469 0.762992 6.29545 0.769247 5.39888 1.05293 0.896569 0.322441
internal_count=59 50 9 46 4 42 4 36 7 6 2
shrinkage=0.0975091


Tree=6
num_leaves=9
num_cat=0
split_feature=2 3 4 8 3 3 3 5
split_gain=5.4855 3.37188 2.03362 1.51265 1.40898 2.14959 1.25224 1.02451
threshold=1.5000000000000002 785.00000000000011 91.450000000000017 inf 483.00000000000006 451.50000000000006 983.50000000000011 9.5000000000000018
decision_type=8 8 2 8 10 10 10 10
left_child=3 2 -2 -1 5 -4 7 -3
right_child=1 6 4 -5 -6 -7 -8 -9
leaf_value=0.18829491663619152 -0.10134790913928055 0.13546630523777545 -0 -0 -0.051072055936570708 0.18330044420734273 -0 -0
leaf_weight=1.2941270321607576 4.4911809563636771 1.2863235771656043 0.43498180806636849 0.1929912418127061 1.2186159044504163 0.50943143665790558 0.39915587007999409 0.20576524734497056
leaf_count=6 29 6 3 1 8 3 2 1
internal_value=0 -0.295329 -0.677096 1.59043 0 0.858686 0.639956 1.08084
internal_weight=0 8.54545 6.65421 1.48712 2.16303 0.944413 1.89124 1.49209
internal_count=59 52 43 7 14 6 9 7
shrinkage=0.0975091


Tree=7
num_leaves=11
num_cat=0
split_feature=2 1 3 8 3 3 3 6 1 1
split_gain=4.49479 2.99498 1.88753 1.28892 1.14655 0.717096 0.300602 0.747372 0.890899 0.761283
threshold=1.5000000000000002 648.50000000000011 477.00000000000006 inf 983.50000000000011 630.00000000000011 451.50000000000006 77.500000000000014 290.50000000000006 389.00000000000006
decision_type=8 8 10 8 10 8 10 2 10 10
left_child=3 2 6 -1 5 -3 -2 8 -8 -10
right_child=1 4 -4 -5 -6 -7 7 -9 9 -11
leaf_value=0.16796772114968392 -0.025645400117268999 -0 -0.098447213856377794 -0 -0 0.12144940314190118 -0 -0 0.16331417119740127 -0
leaf_weight=1.3512646257877337 0.82461521029472284 0.17221839725971275 4.2947843968868256 0.1929912418127061 0.39915587007999409 1.3353023678064346 0.2088641971349714 0.41690599173307413 0.55905507504940033 0.13211904466152191
leaf_count=6 6 1 29 1 2 6 1 3 3 1
internal_value=0 -0.276092 -0.649336 1.41309 0.587793 1.01399 0 0.35881 0.870351 1.32003
internal_weight=0 8.34302 6.43634 1.54426 1.90668 1.50752 2.14156 1.31694 0.900038 0.691174
internal_count=59 52 43 7 9 7 14 8 5 4
shrinkage=0.0975091


Tree=8
num_leaves=9
num_cat=0
split_feature=2 3 4 3 3 3 3 5
split_gain=3.73342 2.44146 1.74855 1.11934 0.938193 1.56611 0.935372 0.732338
threshold=1.5000000000000002 785.00000000000011 91.450000000000017 376.00000000000006 483.00000000000006 451.50000000000006 983.50000000000011 9.5000000000000018
decision_type=8 8 2 8 10 10 10 10
left_child=3 2 -2 -1 5 -4 7 -3
right_child=1 6 4 -5 -6 -7 -8 -9
leaf_value=-0 -0.095388383146974787 0.1097141424486679 -0 0.15176730045603332 -0.043457492858056286 0.14680783263769143 -0 -0
leaf_weight=0.1929912418127048 4.0493278801441184 1.3719534873962409 0.42779088020324729 1.3875095993280411 1.1075487434864042 0.6010143905878067 0.39915587007999409 0.19703051447868336
leaf_count=1 29 6 3 6 8 3 2 1
internal_value=0 -0.262046 -0.615422 1.26909 0 0.677526 0.481332 0.87218
internal_weight=0 8.15382 6.18568 1.5805 2.13635 1.02881 1.96814 1.56898
internal_count=59 52 43 7 14 6 9 7
shrinkage=0.0975091


Tree=9
num_leaves=11
num_cat=0
split_feature=3 2 5 9 9 2 4 3 2 3
split_gain=2.6115 5.29751 1.96124 1.10694 1.10104 1.24789 0.96281 0.417778 0.139205 0.00253523
threshold=489.00000000000006 2.5000000000000004 5.5000000000000009 27.566828743935105 25.084504119799053 1.5000000000000002 75.200000000000017 467.00000000000006 1.5000000000000002 477.00000000000006
decision_type=10 10 10 10 10 10 2 10 10 10
left_child=1 3 4 -1 8 -6 -4 -3 -2 -9
right_child=2 7 6 -5 5 -7 -8 9 -10 -11
leaf_value=0.18691860393915807 0 -0.054941960709159625 0 -0 -0 0.14352646806586689 -0.086418921984665026 0.006455177202578666 -0.033194680010438779 -0
leaf_weight=2.1157849431037912 0.2440472543239596 1.2385019436478613 0.35091179609298734 0.14234730601310719 0.23256906867027261 0.88066220283508301 3.0558425113558769 0.20452544093132008 0.82722645998001099 0.21257114410400391
leaf_count=10 1 8 2 1 1 4 24 1 5 2
internal_value=0 0.813656 -0.152779 1.74796 0.379925 0.994317 -0.676682 -0.215379 -0 0
internal_weight=0 3.91373 5.59126 2.25813 2.1845 1.11323 3.40675 1.6556 1.07127 0.417097
internal_count=59 22 37 11 11 5 26 11 6 3
shrinkage=0.0975091


Tree=10
num_leaves=11
num_cat=0
split_feature=3 1 5 9 9 2 1 2 9 9
split_gain=2.13876 3.71675 2.35951 1.92316 1.49076 1.23779 0.986978 0.417046 0.258348 0.299299
threshold=483.00000000000006 307.00000000000006 5.5000000000000009 25.531999032817655 24.324413423661355 1.0000000180025095e-35 490.00000000000006 1.5000000000000002 21.504814879496553 21.125297583001053
decision_type=8 10 10 10 10 10 10 10 10 10
left_child=1 -1 4 6 8 -6 -3 -4 9 -2
right_child=2 3 7 -5 5 -7 -8 -9 -10 -11
leaf_value=-0.024309075476588646 -0 0.21361632701500372 0 -0 -0 0.13619225766917856 -0 -0.080216827173375874 -0.043332590601091063 0.058080703272960735
leaf_weight=0.80032661557197504 0.33038947731256602 1.4973148405551908 0.64576926827430758 0.25195991992950428 0.23256906867027247 1.3621284514665604 0.10739973932504644 2.7771461606025696 0.9112662374973296 0.48240779340267181
leaf_count=6 2 7 3 2 1 6 1 24 5 2
internal_value=0 0.894822 -0.0447175 1.6497 0.422192 1.04479 2.00997 -0.67218 -0 0.0618008
internal_weight=0 2.657 6.74168 1.85667 3.31876 1.5947 1.60471 3.42292 1.72406 0.812797
internal_count=59 16 43 10 16 7 8 27 9 4
shrinkage=0.0975091


Tree=11
num_leaves=10
num_cat=0
split_feature=3 1 5 9 9 3 1 9 9
split_gain=1.64076 3.02515 2.00836 1.58125 1.25972 1.11147 0.807495 0.225272 0.267982
threshold=483.00000000000006 307.00000000000006 5.5000000000000009 25.531999032817655 24.324413423661355 518.50000000000011 490.00000000000006 21.504814879496553 21.125297583001053
decision_type=8 10 10 10 10 8 10 10 10
left_child=1 -1 4 6 7 -6 -3 8 -2
right_child=2 3 -4 -5 5 -7 -8 -9 -10
leaf_value=-0.022956612280507958 -0 0.18620575267555456 -0.062535255849417021 -0 -0 0.12595358607001136 -0 -0.040970395956419055 0.054567923212862225
leaf_weight=0.78753271698951666 0.33038947731256602 1.5993530601263044 3.2679504454135895 0.25195991992950428 0.23256906867027247 1.3596823662519455 0.10739973932504644 0.89236041903495789 0.48721282184123993
leaf_count=6 2 7 27 2 1 6 1 5 2
internal_value=0 0.769274 -0.0397751 1.43556 0.376615 0.951775 1.75224 -0 0.0379173
internal_weight=0 2.74625 6.57016 1.95871 3.30221 1.59225 1.70675 1.70996 0.817602
internal_count=59 16 43 10 16 7 8 9 4
shrinkage=0.0975091


Tree=12
num_leaves=10
num_cat=0
split_feature=3 6 1 6 2 1 4 7 4
split_gain=2.39435 2.16653 2.27425 1.22529 0.945649 0.757747 0.709086 0.695423 0.00148253
threshold=537.50000000000011 75.500000000000014 355.00000000000006 81.500000000000014 3.5000000000000004 332.50000000000006 94.65000000000002 1.5000000000000002 96.200000000000017
decision_type=8 2 8 2 10 8 2 2 2
left_child=6 5 -3 4 7 -2 -1 -4 -8
right_child=1 2 3 -5 -6 -7 8 -9 -10
leaf_value=-0.079796953842744461 0.0082087403372700964 -0.0058346216038579757 0.17534191638154253 -0 -0 -0.072748345482431129 0.0035847562049392471 -0 -0
leaf_weight=2.6023685112595554 0.20014511048793848 0.58704011142253909 2.1956569105386747 0.51559069752693165 0.14509551227092732 1.1684778034687042 0.72295986115932453 0.099833160638809093 0.43715383857488632
leaf_count=21 1 4 12 4 1 9 3 1 3
internal_value=0 0.458291 0.899848 1.27842 1.53919 -0.245313 -0.557183 1.68882 0
internal_weight=0 4.91184 3.54322 2.95618 2.44059 1.36862 3.76248 2.29549 1.16011
internal_count=59 32 22 18 14 10 27 13 6
shrinkage=0.0975091


Tree=13
num_leaves=8
num_cat=0
split_feature=5 3 6 5 6 6 1
split_gain=6.64439 1.86484 1.19032 0.517125 0.43937 0.466062 0.259888
threshold=1.0000000180025095e-35 644.50000000000011 72.500000000000014 8.5000000000000018 87.500000000000014 73.500000000000014 547.50000000000011
decision_type=8 10 2 10 2 2 10
left_child=2 4 -1 6 5 -2 -3
right_child=1 3 -4 -5 -6 -7 -8
leaf_value=-0 -0 -0 0.17982937687062356 -0 0 -0.088258999892624965 0.085599513875138852
leaf_weight=0.16361436247825523 0.72729013860225744 0.10697712004184699 1.5042483955621717 0.37687385082244873 0.29651799052953709 4.6204885914921761 0.79656495153903972
leaf_count=1 5 1 7 3 2 36 4
internal_value=0 -0.445192 1.59552 0.274921 -0.727634 -0.796039 0.708995
internal_weight=0 6.92471 1.66786 1.28042 5.6443 5.34778 0.903542
internal_count=59 51 8 8 43 41 5
shrinkage=0.0975091


Tree=14
num_leaves=9
num_cat=0
split_feature=5 1 6 6 6 5 6 6
split_gain=5.49271 1.61931 1.032 0.465019 0.495143 0.283859 0.176981 0.225085
threshold=1.0000000180025095e-35 547.50000000000011 72.500000000000014 73.500000000000014 87.500000000000014 8.5000000000000018 75.500000000000014 85.500000000000014
decision_type=8 10 2 2 2 10 2 2
left_child=2 3 -1 -2 -5 6 -3 -8
right_child=1 5 -4 4 -6 -7 7 -9
leaf_value=-0 0 -0 0.16262190824275533 -0.08501551167202559 0 -0 0.078622517102747799 -0
leaf_weight=0.16361436247825523 0.62080259621143419 0.10648754239082314 1.5387858897447584 4.4895446673035622 0.29651799052953709 0.27704069018363942 0.81488573551177979 0.10344844311475754
leaf_count=1 4 1 7 37 2 2 4 1
internal_value=0 -0.412396 1.43709 -0.688071 -0.787732 0.227826 0.514896 0.651088
internal_weight=0 6.70873 1.7024 5.40687 4.78606 1.30186 1.02482 0.918334
internal_count=59 51 8 43 39 8 6 5
shrinkage=0.0975091


Tree=15
num_leaves=9
num_cat=0
split_feature=5 3 11 6 6 6 6 7
split_gain=2.37302 2.01972 1.13665 0.6426 0.315932 1.23691 0.295877 0.0848537
threshold=4.5000000000000009 477.00000000000006 6.0000000000000009 73.500000000000014 80.500000000000014 76.500000000000014 73.500000000000014 1.0000000180025095e-35
decision_type=10 8 2 2 2 2 2 2
left_child=1 -1 4 -4 5 6 7 -2
right_child=2 -3 3 -5 -6 -7 -8 -9
leaf_value=-0.003955210431957709 0.050349312353947587 0.12272967873777994 0 -0.082267546765852267 -0.0023741688010897734 0.1173066109321408 -0.042778341190836712 -0
leaf_weight=0.53697513043880496 0.081706404685974329 2.1728536188602448 0.55897665768861804 2.6332173943519592 0.58696498721837997 0.70400762557983387 0.97297349572181691 0.085547104477882385
leaf_count=3 1 10 4 25 5 4 6 1
internal_value=0 0.808629 -0.248098 -0.64811 0.0528944 0.381719 -0 0.26018
internal_weight=0 2.70983 5.62339 3.19219 2.4312 1.84423 1.14023 0.167254
internal_count=59 13 46 29 17 12 8 2
shrinkage=0.0975091


Tree=16
num_leaves=9
num_cat=0
split_feature=1 1 11 9 9 5 3 3
split_gain=2.61014 2.67883 1.34389 0.862256 1.49238 0.600313 0.76848 0.274712
threshold=648.50000000000011 862.50000000000011 10.000000000000002 22.607003700737604 20.387833523798452 4.5000000000000009 983.50000000000011 537.50000000000011
decision_type=8 10 2 8 10 10 10 10
left_child=2 -2 3 4 -1 7 -7 -5
right_child=1 -3 -4 5 -6 6 -8 -9
leaf_value=-0 0.15672972730635296 -0.0093054094904415473 -0.076380029887502532 -0 0.15405855568282528 -0.07306900290401025 0 0.059916300035103252
leaf_weight=0.36547868698835317 1.5515292882919323 0.45379257202148426 2.3263572007417679 0.2098678350448612 0.55427371710538864 2.0460228025913243 0.24655626714229573 0.4793543666601181
leaf_count=3 7 2 23 1 3 17 1 2
internal_value=0 0.983893 -0.217728 0.000660925 0.798405 -0.105826 -0.470551 0.211313
internal_weight=0 2.00532 6.22791 3.90155 0.919752 2.9818 2.29258 0.689222
internal_count=59 9 50 27 6 21 18 3
shrinkage=0.0975091


Tree=17
num_leaves=9
num_cat=0
split_feature=1 1 11 9 9 5 1 9
split_gain=2.07884 2.35263 1.22537 0.694745 1.31659 0.497026 0.30073 0.250012
threshold=648.50000000000011 862.50000000000011 10.000000000000002 22.607003700737604 20.387833523798452 4.5000000000000009 581.00000000000011 25.084504119799053
decision_type=8 10 2 8 10 10 10 10
left_child=2 -2 3 4 -1 7 -7 -5
right_child=1 -3 -4 5 -6 6 -8 -9
leaf_value=-0 0.14337460830688831 -0.008818876222553361 -0.07344301708145505 -0 0.14099678727972337 -0.061015745019017999 0 0.056264760724089549
leaf_weight=0.36547868698835317 1.5646833926439296 0.45281919836997975 2.2046364098787308 0.2098678350448612 0.57981502264738083 1.616183076053858 0.57914261519908894 0.48467579483985906
leaf_count=3 7 2 23 1 3 15 3 2
internal_value=0 0.878457 -0.192517 0.00771376 0.716692 -0.072944 -0.431563 0.183228
internal_weight=0 2.0175 6.0398 3.83516 0.945294 2.88987 2.19533 0.694544
internal_count=59 9 50 27 6 21 18 3
shrinkage=0.0975091


Tree=18
num_leaves=10
num_cat=0
split_feature=11 6 5 5 5 6 3 6 3
split_gain=1.15967 1.13345 0.511819 0.96133 0.536166 0.504172 0.60531 0.637674 0.341808
threshold=10.000000000000002 85.500000000000014 1.0000000180025095e-35 8.5000000000000018 10.500000000000002 75.500000000000014 467.00000000000006 79.500000000000014 440.00000000000006
decision_type=2 2 10 10 10 2 10 2 10
left_child=2 -2 -1 8 5 -5 -7 -8 -4
right_child=1 -3 3 4 -6 6 7 -9 -10
leaf_value=0.066218511182437781 -0.086228388250191412 0 0 -0 -0 -0 0.15700381074567807 -0 -0.071172707875274771
leaf_weight=0.67280250787734974 3.407423242926598 0.2306716889142989 0.16238659620285112 0.19636983424425103 0.39906150102615351 0.14862263202667236 0.55117639154195786 0.1168389767408371 1.9104669392108917
leaf_count=3 28 1 1 2 3 1 3 1 16
internal_value=0 -0.674191 0 -0.0868036 0.253915 0.685272 0.985146 1.29995 -0.598091
internal_weight=0 3.63809 4.15773 3.48492 1.41207 1.01301 0.816638 0.668015 2.07285
internal_count=59 29 30 27 10 7 5 4 17
shrinkage=0.0975091


Tree=19
num_leaves=10
num_cat=0
split_feature=11 2 5 5 5 6 1 6 1
split_gain=0.987518 1.05768 0.447383 0.801256 0.450738 0.438994 0.531706 0.560124 0.321487
threshold=10.000000000000002 1.0000000180025095e-35 1.0000000180025095e-35 8.5000000000000018 10.500000000000002 75.500000000000014 303.50000000000006 79.500000000000014 273.50000000000006
decision_type=2 10 10 10 10 2 10 2 10
left_child=2 -2 -1 8 5 -5 -7 -8 -4
right_child=1 -3 3 4 -6 6 7 -9 -10
leaf_value=0.062204726296119464 0 -0.081950696502670506 0 -0 -0 -0 0.14304297235212263 -0 -0.068105071855126403
leaf_weight=0.6706118881702422 0.23067168891429932 3.2626501023769379 0.16238659620285067 0.19636983424425103 0.39906150102615351 0.14862263202667236 0.5808604434132576 0.1168389767408371 1.8231486417353151
leaf_count=3 1 28 1 2 3 1 3 1 16
internal_value=0 -0.625072 0 -0.076559 0.200797 0.608152 0.888321 1.18098 -0.563918
internal_weight=0 3.49332 4.0979 3.42729 1.44175 1.04269 0.846322 0.697699 1.98554
internal_count=59 29 30 27 10 7 5 4 17
shrinkage=0.0975091


Tree=20
num_leaves=8
num_cat=0
split_feature=4 4 4 5 9 5 9
split_gain=0.883556 1.14774 0.753987 1.09634 0.590174 0.366595 0.295311
threshold=88.300000000000026 75.200000000000017 89.450000000000017 3.5000000000000004 28.934263858216553 6.5000000000000009 23.659356047209453
decision_type=2 2 2 10 8 10 10
left_child=1 6 4 -4 5 -2 -1
right_child=2 -3 3 -5 -6 -7 -8
leaf_value=-0.021262627814188539 -0 -0.087468423413268367 0.045369687126334754 -0.064234409940667467 -0 0.1210040081397613 0.04501662645374456
leaf_weight=0.58958807587623563 0.094834886491298787 2.6603207364678383 0.49597810208797488 1.840664707124233 0.21403468400239961 0.70251071453094482 0.7966386079788208
leaf_count=3 1 23 2 20 2 4 4
internal_value=0 -0.541006 0 -0.139883 0.71132 1.0499 0
internal_weight=0 4.04655 3.34802 2.33664 1.01138 0.797346 1.38623
internal_count=59 30 29 22 7 5 7
shrinkage=0.0975091


Tree=21
num_leaves=9
num_cat=0
split_feature=6 3 5 9 1 1 6 9
split_gain=2.64781 2.97895 2.51852 2.41433 0.921315 0.742099 0.6447 0.127209
threshold=77.500000000000014 497.00000000000006 2.5000000000000004 24.570973360842256 290.50000000000006 984.50000000000011 84.500000000000014 25.084504119799053
decision_type=2 10 10 10 10 10 2 10
left_child=1 3 5 4 -1 6 -2 -3
right_child=2 7 -4 -5 -6 -7 -8 -9
leaf_value=-0 0.1055566551688711 -0.030440912161717681 -0.079660484847306243 -0 0.21142922135699152 -0 -0 0
leaf_weight=0.10186300426721606 1.2172682881355283 0.93128629401326157 3.0794032737612724 0.3445635437965392 1.5114968940615652 0.24986648559570299 0.18726557493209828 0.29195553436875343
leaf_count=1 6 10 24 4 10 1 1 2
internal_value=0 0.846909 -0.22744 1.5398 1.99924 0.485405 0.828241 -0
internal_weight=0 3.18117 4.7338 1.95792 1.61336 1.6544 1.40453 1.22324
internal_count=59 27 32 15 11 8 7 12
shrinkage=0.0975091


Tree=22
num_leaves=8
num_cat=0
split_feature=3 5 9 3 4 2 3
split_gain=1.63863 3.18946 3.12852 1.5496 1.25388 0.789176 0.0444602
threshold=497.00000000000006 2.5000000000000004 24.570973360842256 447.50000000000006 71.65000000000002 1.0000000180025095e-35 497.00000000000006
decision_type=8 10 10 10 2 10 10
left_child=2 4 3 -1 -2 -5 -3
right_child=1 6 -4 5 -6 -7 -8
leaf_value=-0 -0 -0 -0.02715915141008193 -0 0.11224984949151309 0.18250336714657925 -0.083531987200947691
leaf_weight=0.26193838939070774 0.53539168834686268 0.39166432619094882 0.86083380877971649 0.10796432942152012 1.3259641528129575 1.6363882683217523 2.785568792372942
leaf_count=3 3 2 8 1 6 10 26
internal_value=0 -0.124278 0.718014 1.40574 0.668469 1.71814 -0.800253
internal_weight=0 5.03859 2.86712 2.00629 1.86136 1.74435 3.17723
internal_count=59 37 22 14 9 11 28
shrinkage=0.0975091


Tree=23
num_leaves=8
num_cat=0
split_feature=3 5 9 1 1 3 1
split_gain=1.24782 2.74617 2.54602 1.45581 0.872922 0.53598 0.0330308
threshold=497.00000000000006 2.5000000000000004 24.570973360842256 290.50000000000006 984.50000000000011 447.50000000000006 258.50000000000006
decision_type=8 10 10 10 10 10 10
left_child=2 4 3 -1 -2 -5 -3
right_child=1 6 -4 5 -6 -7 -8
leaf_value=-0 0.089047655505926485 -0 -0.02566925146168084 -0 -0 0.16051072189188018 -0.080430760162949616
leaf_weight=0.29021723940968591 1.6327690184116361 0.39166432619094882 0.84453490376472462 0.088532403111457714 0.24986648559570299 1.7317954972386358 2.6330589801073074
leaf_count=3 8 2 8 1 1 10 26
internal_value=0 -0.112939 0.613391 1.22267 0.595653 1.53496 -0.769583
internal_weight=0 4.90736 2.95508 2.11055 1.88264 1.82033 3.02472
internal_count=59 37 22 14 9 11 28
shrinkage=0.0975091


Tree=24
num_leaves=8
num_cat=0
split_feature=9 2 4 2 1 3 5
split_gain=1.28443 1.53776 1.07546 0.803877 0.792089 0.312781 0.146577
threshold=21.390540292866053 2.5000000000000004 95.250000000000014 1.5000000000000002 411.00000000000006 497.00000000000006 4.5000000000000009
decision_type=10 10 2 8 10 10 10
left_child=1 4 3 -2 5 -1 -4
right_child=2 -3 6 -5 -6 -7 -8
leaf_value=0.14765540445727579 0 -0.030834604060780552 0.040264099676612576 -0.095399622318050034 -0 -0 -0
leaf_weight=0.81941559910774253 0.45193481445312528 0.71037553623318661 0.48568731546401966 2.8667081259191036 0.59681509435176849 0.060038894414901726 0.41791284084320074
leaf_count=4 3 6 2 35 4 1 4
internal_value=0 0.281033 -0.51576 -0.788892 0.939051 1.39055 0
internal_weight=0 2.18665 4.22224 3.31864 1.47627 0.879454 0.9036
internal_count=59 15 44 38 9 5 6
shrinkage=0.0975091


Tree=25
num_leaves=9
num_cat=0
split_feature=9 9 4 4 5 11 5 4
split_gain=1.06585 1.11987 0.971774 0.660619 0.417632 0.240521 0.130808 0.122301
threshold=21.390540292866053 20.259265015144205 95.250000000000014 89.450000000000017 1.5000000000000002 18.000000000000004 4.5000000000000009 88.700000000000017
decision_type=10 10 2 2 10 2 10 2
left_child=1 7 4 5 -2 -3 -4 -1
right_child=2 3 6 -5 -6 -7 -8 -9
leaf_value=-0.033067904818270655 0 0.13079953590924404 0.03802848191958047 -0 -0.082593716790959587 -0 -0 0
leaf_weight=0.71077771484851859 0.15869688987731967 0.8307484984397886 0.48605883121490473 0.18891993910074237 2.9857530035078526 0.054703861474990845 0.41791284084320074 0.40933911502361298
leaf_count=4 1 4 2 3 37 1 4 3
internal_value=0 0.240983 -0.48051 0.935153 -0.752602 1.23703 0 -0.0404978
internal_weight=0 2.19449 4.04842 1.07437 3.14445 0.885452 0.903972 1.12012
internal_count=59 15 44 8 38 5 6 7
shrinkage=0.0975091


Tree=26
num_leaves=10
num_cat=0
split_feature=9 9 4 4 5 6 11 5 4
split_gain=0.882227 0.955241 0.87074 0.591569 0.392965 0.372357 0.216357 0.116784 0.109491
threshold=21.390540292866053 20.259265015144205 95.250000000000014 89.450000000000017 1.5000000000000002 87.500000000000014 18.000000000000004 4.5000000000000009 88.700000000000017
decision_type=10 10 2 2 10 2 2 10 2
left_child=1 8 4 6 -2 -6 -3 -4 -1
right_child=2 3 7 -5 5 -7 -8 -9 -10
leaf_value=-0.031252589148997437 0 0.12120526780533625 0.035931775927187479 -0 -0.089781729954463818 0 -0 -0 0
leaf_weight=0.7009575814008715 0.15869688987732011 0.83826142549514748 0.48607826232910151 0.18891993910074237 2.5538278445601468 0.28902803361415846 0.054703861474990845 0.41791284084320074 0.40933911502361298
leaf_count=4 1 4 2 3 35 2 1 4 3
internal_value=0 0.207743 -0.444638 0.855321 -0.713167 -0.809851 1.1435 0 -0.0250395
internal_weight=0 2.19218 3.90554 1.08189 3.00155 2.84286 0.892965 0.903991 1.1103
internal_count=59 15 44 8 38 37 5 6 7
shrinkage=0.0975091


Tree=27
num_leaves=10
num_cat=0
split_feature=3 11 9 5 5 11 9 9 1
split_gain=2.68624 2.0083 0.720057 0.613529 0.429305 0.318638 0.299155 0.260269 0.197316
threshold=489.00000000000006 18.000000000000004 27.755518590265456 6.5000000000000009 9.5000000000000018 10.000000000000002 22.607003700737604 21.125297583001053 360.00000000000006
decision_type=10 2 8 10 10 2 10 10 10
left_child=5 2 3 7 -5 -1 -6 -2 -9
right_child=1 -3 -4 4 6 -7 -8 8 -10
leaf_value=-0 -0 -0.023398487433905206 -0 -0.0072628034087990215 0.094078249613194803 -0.078365786711515187 -0 -0 0.15328236181760924
leaf_weight=1.0952368117868903 0.047847401350737402 0.77037333697080612 0.63601611182093609 0.6815853603184221 0.40231110155582422 1.4861984625458715 0.1253308393061161 0.035045526921749004 1.8983246125280855
leaf_count=8 1 8 5 9 2 11 3 1 11
internal_value=0 0.615234 0.95413 1.12908 0 -0.546551 0.68532 1.47982 1.53234
internal_weight=0 4.59683 3.82646 3.19044 1.20923 2.58144 0.527642 1.98122 1.93337
internal_count=59 40 32 27 14 19 5 13 12
shrinkage=0.0975091


Tree=28
num_leaves=11
num_cat=0
split_feature=2 3 11 6 5 5 6 1 7 9
split_gain=2.24646 2.4501 1.80977 2.03265 0.251731 0.249087 0.245869 0.235944 0.241498 0.234807
threshold=2.5000000000000004 489.00000000000006 18.000000000000004 81.500000000000014 11.500000000000002 9.5000000000000018 87.500000000000014 303.50000000000006 1.5000000000000002 31.784754766165005
decision_type=8 10 2 2 10 10 2 10 2 10
left_child=1 6 3 4 7 -2 -1 -3 9 -9
right_child=5 2 -4 -5 -6 -7 -8 8 -10 -11
leaf_value=-0.057084907041368968 -0.070701169264648839 -0 -0 -0 -0 -0 0 0.16272100525788347 -0 -0
leaf_weight=0.85317389667034116 1.6456939615309241 0.040540255606176127 0.4529367797076701 0.40638011693954457 0.044529955834150203 0.76243744418024995 0.17366009950637817 2.6995067745447168 0.04026062786579121 0.038054652512073406
leaf_count=5 18 1 4 5 1 6 1 16 1 1
internal_value=0 0.536989 0.95715 1.23563 1.53181 -0.540481 -0.353156 1.56781 1.60141 1.63563
internal_weight=0 4.74904 3.72221 3.26927 2.86289 2.40813 1.02683 2.81836 2.77782 2.73756
internal_count=59 35 29 25 20 24 6 19 18 17
shrinkage=0.0975091


Tree=29
num_leaves=11
num_cat=0
split_feature=3 4 11 6 4 6 5 9 5 9
split_gain=1.7839 1.52012 1.87123 1.21016 1.22087 0.297717 0.371568 0.283065 0.246551 0.216607
threshold=489.00000000000006 77.90000000000002 18.000000000000004 81.500000000000014 96.200000000000017 87.500000000000014 9.5000000000000018 20.259265015144205 11.500000000000002 31.784754766165005
decision_type=10 2 2 2 2 2 10 10 10 10
left_child=5 -2 3 4 7 6 -1 -3 9 -9
right_child=1 2 -4 -5 -6 -7 -8 8 -10 -11
leaf_value=-0.081314962437204513 -0.025521088694997834 -0 -0.0061026771053068387 -0 -0 0 0 0.15387338503986342 -0 -0
leaf_weight=1.5777629166841514 0.71685363724827755 0.052771355956794497 0.59932941570878018 0.30198189988732327 0.24042042344808567 0.17366009950637806 0.72046755999326695 2.6768152751028547 0.044529955834150203 0.038054652512073406
leaf_count=13 6 1 7 4 2 1 5 18 1 1
internal_value=0 0.468445 0.76796 1.08876 1.28181 -0.491683 -0.607352 1.46636 1.5089 1.54577
internal_weight=0 4.67076 3.9539 3.35457 3.05259 2.47189 2.29823 2.81217 2.7594 2.71487
internal_count=59 40 34 27 23 19 18 21 20 19
shrinkage=0.0975091


Tree=30
num_leaves=11
num_cat=0
split_feature=4 1 8 0 4 11 6 6 6 4
split_gain=1.12517 1.19417 0.90598 0.593879 0.359013 0.221935 0.18195 0.584353 0.169682 0.000946305
threshold=81.950000000000017 389.00000000000006 inf 1.0000000180025095e-35 94.65000000000002 18.000000000000004 77.500000000000014 82.500000000000014 85.500000000000014 96.200000000000017
decision_type=2 10 8 8 2 2 2 2 2 2
left_child=1 2 5 4 8 -1 -3 -8 -2 -6
right_child=3 6 -4 -5 9 -7 7 -9 -10 -11
leaf_value=0.14138487197324145 -0.066171005138178196 -0.028844006220819594 -0 0.033727315107068861 0.0031783219387139963 -0 0.075421961123501802 -0 -0 -0
leaf_weight=1.3452107161283491 1.8558710999786865 0.74039141833782174 0.18491904437541973 0.63773721456527699 0.51673091948032368 0.044504806399345509 0.74390354752540555 0.42293330654501921 0.5046514719724654 0.44009755179285998
leaf_count=7 25 5 1 3 3 1 3 4 3 4
internal_value=0 0.578925 1.12962 -0.0765031 -0.367369 1.38691 0 0.234103 -0.559888 0
internal_weight=0 3.48186 1.57463 3.95509 3.31735 1.38972 1.90723 1.16684 2.36052 0.956828
internal_count=59 21 9 38 35 8 12 7 28 7
shrinkage=0.0975091


Tree=31
num_leaves=10
num_cat=0
split_feature=6 6 11 8 6 3 1 9 2
split_gain=0.998925 1.79487 1.10326 0.822828 0.683213 0.612542 0.360362 0.208294 0.0840073
threshold=76.500000000000014 82.500000000000014 18.000000000000004 inf 73.500000000000014 447.50000000000006 428.00000000000006 31.784754766165005 2.5000000000000004
decision_type=2 2 2 8 2 8 10 10 10
left_child=4 2 3 5 8 -2 -3 -7 -1
right_child=1 6 -4 -5 -6 7 -8 -9 -10
leaf_value=0.026470087758409602 -0 0 -0 -0 -0.062864347621139419 0.13490341349619117 -0.049597785760910812 -0 -0
leaf_weight=0.76602104306221019 0.13629815727472427 0.38714200258254994 0.34586134552955616 0.18491904437541953 1.5151853188872335 2.53808405995369 1.1045569926500318 0.044065527617931255 0.28792501613497734
leaf_count=4 2 2 6 1 15 14 10 1 4
internal_value=0 0.453984 0.883303 1.09508 -0.186158 1.23975 -0.108992 1.34724 0
internal_weight=0 4.74093 3.24923 2.90337 2.56913 2.71845 1.4917 2.58215 1.05395
internal_count=59 36 24 18 23 17 12 15 8
shrinkage=0.0975091


Tree=32
num_leaves=9
num_cat=0
split_feature=5 11 9 11 4 8 9 9
split_gain=0.851041 1.30818 0.98865 0.669416 0.465114 0.242417 0.167956 0.193447
threshold=3.5000000000000004 1.0000000180025095e-35 27.755518590265456 1.0000000180025095e-35 81.950000000000017 inf 25.221769465958104 22.319410483313604
decision_type=10 2 8 2 2 8 10 10
left_child=2 6 3 -1 -3 -5 7 -2
right_child=1 4 -4 5 -6 -7 -8 -9
leaf_value=-0 -0 0 -0 0.10701678575700092 -0.071478342461297237 -0 -0 0.07645861062582289
leaf_weight=0.47350336611270977 0.090775005519389884 1.0233267620205881 0.40580040216445912 1.9884107261896136 2.0827774256467819 0.070407040417194255 0.097201116383075603 0.96624343097209919
leaf_count=3 1 8 2 11 28 1 1 4
internal_value=0 -0.0451451 0.534162 0.815688 -0.495671 1.03441 0.550198 0.663816
internal_weight=0 4.26032 2.93812 2.53232 3.1061 2.05882 1.15422 1.05702
internal_count=59 42 17 15 36 12 6 5
shrinkage=0.0975091


Tree=33
num_leaves=9
num_cat=0
split_feature=7 4 4 5 11 4 2 6
split_gain=1.96839 1.62081 1.57293 1.56318 0.934752 0.504422 0.47914 0.235671
threshold=1.0000000180025095e-35 90.950000000000017 88.700000000000017 7.5000000000000009 44.000000000000007 67.15000000000002 2.5000000000000004 83.500000000000014
decision_type=2 2 2 10 2 2 10 2
left_child=2 5 4 7 6 -2 -1 -3
right_child=1 3 -4 -5 -6 -7 -8 -9
leaf_value=0.15407683781503992 0 0.14296252873219531 -0 -0 -0 -0.074342069165249727 -0 -0
leaf_weight=1.8999176695942885 0.64531953632831607 0.77233387529849984 0.79983850568532933 0.4941772129386664 0.17045077681541432 2.1378286760300398 0.086133122444152721 0.047284018248319626
leaf_count=10 3 4 10 6 1 22 2 1
internal_value=0 -0.000539771 0.898841 0.627801 1.29803 -0.550168 1.48413 1.36637
internal_weight=0 4.09694 2.95634 1.3138 2.1565 2.78315 1.98605 0.819618
internal_count=59 36 23 11 13 25 12 5
shrinkage=0.0975091


Tree=34
num_leaves=9
num_cat=0
split_feature=7 4 5 4 9 4 2 6
split_gain=1.57555 1.3462 1.37697 1.30806 0.804676 0.467025 0.411034 0.209125
threshold=1.0000000180025095e-35 90.950000000000017 7.5000000000000009 88.700000000000017 29.580582187519255 67.15000000000002 2.5000000000000004 83.500000000000014
decision_type=2 2 10 2 10 2 10 2
left_child=3 5 7 4 6 -2 -1 -3
right_child=1 2 -4 -5 -6 -7 -8 -9
leaf_value=0.13828955193284601 0 0.13129773298138636 -0 -0 -0 -0.071295856224664084 -0 -0
leaf_weight=1.9502617195248617 0.64531953632831607 0.79114533960819211 0.4941772129386664 0.79983850568532933 0.17045077681541432 2.0331281591206789 0.086133122444152721 0.047284018248319626
leaf_count=10 3 4 6 10 1 22 2 1
internal_value=0 -0 0.55537 0.797675 1.15772 -0.518252 1.33002 1.25296
internal_weight=0 4.01105 1.33261 3.00668 2.20685 2.67845 2.03639 0.838429
internal_count=59 36 11 23 13 25 12 5
shrinkage=0.0975091


Tree=35
num_leaves=10
num_cat=0
split_feature=5 6 11 1 2 6 1 1 11
split_gain=1.14155 1.06354 0.572353 0.523715 0.264274 0.209022 0.291619 0.24206 0.105342
threshold=7.5000000000000009 79.500000000000014 56.000000000000007 281.50000000000006 3.5000000000000004 85.500000000000014 755.00000000000011 490.00000000000006 14.000000000000002
decision_type=10 2 2 8 8 2 10 8 2
left_child=1 2 3 -1 -5 6 -3 -7 -2
right_child=8 5 -4 4 -6 7 -8 -9 -10
leaf_value=-0 -0.035481728928559247 -0.050364513675093356 -0 0.1101473757782238 -0 -0 0 0.057884579099951275 0
leaf_weight=0.15704324841499406 1.0447782929986713 1.1190181039273741 0.17772164940834034 2.711737042292953 0.075154412537813076 0.18028585612773884 0.22534680366516105 0.60334210097789764 0.67483866773545731
leaf_count=2 13 10 1 16 2 1 1 3 10
internal_value=0 0.518786 0.858621 0.974281 1.07799 -0 -0.249168 0.297335 -0.198524
internal_weight=0 5.24965 3.12166 2.94393 2.78689 2.12799 1.34436 0.783628 1.71962
internal_count=59 36 21 20 18 15 11 4 23
shrinkage=0.0975091


Tree=36
num_leaves=9
num_cat=0
split_feature=9 3 9 9 4 11 1 3
split_gain=1.87861 1.20598 1.14946 0.905441 0.444208 0.40844 0.133781 0.084539
threshold=22.900339238196903 581.50000000000011 29.580582187519255 23.581400232807404 98.200000000000017 22.000000000000004 330.50000000000006 546.00000000000011
decision_type=10 8 10 8 2 2 8 10
left_child=4 3 5 7 6 -3 -1 -2
right_child=1 2 -4 -5 -6 -7 -8 -9
leaf_value=0 0.087944001007015507 0.14637356743591956 -0 -0.046807964215158378 0 -0 -0.060377306012385355 -0
leaf_weight=0.41847985982894975 0.4203681647777554 1.7797888964414599 0.66846880130469788 1.1182120461016893 0.24941866099834431 0.07707565277814854 1.6417869627475736 0.033410031348466873
leaf_count=3 2 9 4 18 1 1 20 1
internal_value=0 0.683578 1.06611 -0 -0.269461 1.41154 -0.51238 0.823692
internal_weight=0 4.09732 2.52533 1.57199 2.30969 1.85686 2.06027 0.453778
internal_count=59 35 14 21 24 10 23 3
shrinkage=0.0975091


Tree=37
num_leaves=9
num_cat=0
split_feature=9 3 9 9 4 11 1 3
split_gain=1.59521 1.00533 0.997672 0.796586 0.409767 0.369479 0.121509 0.077048
threshold=22.900339238196903 581.50000000000011 29.580582187519255 23.581400232807404 98.200000000000017 22.000000000000004 330.50000000000006 546.00000000000011
decision_type=10 8 10 8 2 2 8 10
left_child=4 3 5 7 6 -3 -1 -2
right_child=1 2 -4 -5 -6 -7 -8 -9
leaf_value=0 0.081907968716194504 0.13638319280662675 -0 -0.04450445383695234 0 -0 -0.057711935739364471 -0
leaf_weight=0.41847985982894903 0.43416345119476291 1.7526408955454829 0.66846880130469788 1.0825997460633516 0.24941866099834431 0.07707565277814854 1.5710255037993193 0.033410031348466873
leaf_count=3 2 9 4 18 1 1 20 1
internal_value=0 0.635811 0.986139 -0 -0.239642 1.31156 -0.486687 0.765529
internal_weight=0 4.04836 2.49819 1.55017 2.23892 1.82972 1.98951 0.467573
internal_count=59 35 14 21 24 10 23 3
shrinkage=0.0975091


Tree=38
num_leaves=10
num_cat=0
split_feature=2 9 11 5 6 5 1 4 9
split_gain=1.47261 1.79042 0.911554 0.762505 0.571652 0.373938 0.266843 0.187286 0.00844586
threshold=2.5000000000000004 23.373246118604602 30.000000000000004 7.5000000000000009 73.500000000000014 9.5000000000000018 398.00000000000006 93.65000000000002 22.319410483313604
decision_type=8 10 2 10 2 10 8 2 10
left_child=1 6 3 4 -3 -2 8 -6 -1
right_child=5 2 -4 -5 7 -7 -8 -9 -10
leaf_value=0.013508629257092345 -0.057928662920659228 -0 -0 -0 0.14474698772301506 0 -0.040848285949029471 -0 -0
leaf_weight=0.44378310441970792 1.2766367420554159 0.1108747422695172 0.23415282927453507 0.17727499641478053 2.2472309693694119 0.50253556668758381 1.1052781585603952 0.036005791276693233 0.033528104424476624
leaf_count=2 16 1 4 4 12 4 14 1 1
internal_value=0 0.570989 1.02539 1.20187 1.34628 -0.311272 -0 1.45025 0.0922773
internal_weight=0 4.38813 2.80554 2.57139 2.39411 1.77917 1.58259 2.28324 0.477311
internal_count=59 39 22 18 14 20 17 13 3
shrinkage=0.0975091


Tree=39
num_leaves=13
num_cat=0
split_feature=1 2 5 9 9 9 11 1 9 1 11 8
split_gain=2.19611 1.2318 1.17652 0.813495 0.780122 0.772618 0.277518 0.25029 0.332575 0.226725 0.218457 0.210736
threshold=501.50000000000006 2.5000000000000004 8.5000000000000018 22.607003700737604 26.966718783655804 31.784754766165005 18.000000000000004 364.50000000000006 19.083673183572753 290.50000000000006 26.000000000000004 1.0000000180025095e-35
decision_type=10 8 10 10 10 10 2 10 10 8 2 10
left_child=3 2 5 6 11 10 7 8 -1 -10 -2 -5
right_child=1 -3 -4 4 -6 -7 -8 -9 9 -11 -12 -13
leaf_value=-0 0.15243721287445808 -0 -0 -0.091018039332881176 0 -0 -0 -0 -0 0.088118541587795363 -0 0
leaf_weight=0.15557488799095143 1.9111135974526416 0.29235337674617762 0.24723839759826649 1.869011294096709 0.44636325910687441 0.13945333659648884 0.45107923448085774 0.19745875149965275 0.088230632245540286 0.96502602100372314 0.039085578173398861 0.13665517792105664
leaf_count=1 10 2 2 23 4 1 4 4 1 4 1 2
internal_value=0 0.853006 1.12271 -0.182699 -0.583881 1.36548 0.0535298 0.399348 0.580953 0.779308 1.51949 -0.855979
internal_weight=0 2.62924 2.33689 4.3094 2.45203 2.08965 1.85737 1.40629 1.20883 1.05326 1.9502 2.00567
internal_count=59 16 14 43 29 12 14 10 6 5 11 25
shrinkage=0.0975091


Tree=40
num_leaves=12
num_cat=0
split_feature=1 2 5 5 2 6 1 11 1 6 1
split_gain=1.7666 1.08741 1.04915 0.582995 0.667979 0.184325 0.197055 0.16768 0.163522 0.151636 0.0553671
threshold=501.50000000000006 2.5000000000000004 8.5000000000000018 9.5000000000000018 1.0000000180025095e-35 87.500000000000014 360.00000000000006 26.000000000000004 360.00000000000006 78.500000000000014 364.50000000000006
decision_type=10 8 10 8 8 2 10 2 10 2 10
left_child=3 2 7 4 -1 6 -6 -2 9 -5 -8
right_child=1 -3 -4 8 5 -7 10 -9 -10 -11 -12
leaf_value=0 0.12628311670709111 -0 -0 0.053184916910141294 -0.091159133446343479 0 0 -0 -0 -0 -0.020825046388428088
leaf_weight=0.24884940683841736 2.0311129689216627 0.29235337674617762 0.24723839759826649 0.71016129851341225 1.6350674871355302 0.092462375760078333 0.23570010066032387 0.039085578173398861 0.32225302420556545 0.12557459995150566 0.83990705572068691
leaf_count=1 11 2 2 3 15 1 1 1 6 2 14
internal_value=0 0.761381 1.02309 -0.168983 -0.454122 -0.657745 -0.710882 1.25771 0.0693493 0.375855 -0
internal_weight=0 2.60979 2.31744 4.20998 3.05199 2.80314 2.71067 2.0702 1.15799 0.835736 1.07561
internal_count=59 16 14 43 32 31 30 12 11 5 15
shrinkage=0.0975091


Tree=41
num_leaves=13
num_cat=0
split_feature=1 2 5 5 2 4 8 1 1 1 1 4
split_gain=1.39384 0.960867 0.937321 0.489401 0.619291 0.44281 0.172786 0.174346 0.141409 0.139864 0.0487692 0.0332129
threshold=501.50000000000006 2.5000000000000004 8.5000000000000018 9.5000000000000018 1.0000000180025095e-35 91.700000000000017 1.0000000180025095e-35 360.00000000000006 360.00000000000006 290.50000000000006 364.50000000000006 74.000000000000014
decision_type=10 8 10 8 8 2 10 10 10 8 10 2
left_child=3 2 5 4 -1 11 7 -6 9 -5 -9 -2
right_child=1 -3 -4 8 6 -7 -8 10 -10 -11 -12 -13
leaf_value=0 0 -0 -0 -0 -0.087047505442489986 0 0 0 -0 0.050076751891965809 -0.019658670892264918 0.14228093956430443
leaf_weight=0.24884940683841736 0.27410438656807068 0.29235337674617762 0.24723839759826649 0.12557459995150544 1.566506931558252 0.40039397403597826 0.092462375760078333 0.23570010066032387 0.32225302420556545 0.70420633256435394 0.8258947990834713 1.3835140243172643
leaf_count=1 2 2 2 2 15 3 1 1 6 3 14 7
internal_value=0 0.678422 0.932265 -0.14436 -0.416506 1.15883 -0.622537 -0.676051 0.0449703 0.346465 -0 1.35112
internal_weight=0 2.5976 2.30525 4.12145 2.96941 2.05801 2.72056 2.6281 1.15203 0.829781 1.06159 1.65762
internal_count=59 16 14 43 32 12 31 30 11 5 15 9
shrinkage=0.0975091


Tree=42
num_leaves=11
num_cat=0
split_feature=1 1 4 8 8 1 9 5 2 4
split_gain=1.22623 1.49509 0.623546 0.592557 0.2704 0.223745 0.15879 0.25964 0.325646 0.171033
threshold=697.00000000000011 515.00000000000011 88.700000000000017 inf 1.0000000180025095e-35 398.00000000000006 24.253298071060453 8.5000000000000018 2.5000000000000004 96.200000000000017
decision_type=10 8 2 8 10 10 10 10 10 2
left_child=1 5 3 -3 -2 6 7 8 9 -1
right_child=4 2 -4 -5 -6 -7 -8 -9 -10 -11
leaf_value=0.089440221661411246 -0.074488759927783824 0.12050712503853558 -0 -0 0 -0.037947376612144534 -0 -0 -0 -0
leaf_weight=0.71566566824913047 0.97009634971618641 1.8923417702317245 0.51936433091759671 0.14245691895484913 0.13158363103866577 1.0925384499132631 0.40969982556998719 0.22838599979877472 0.16148904338479042 0.066059745848178864
leaf_count=3 5 11 4 1 1 18 9 4 2 1
internal_value=0 0.365949 0.875675 1.09133 -0.590159 -0 0.0289813 0.322184 0.56473 0.803282
internal_weight=0 5.228 2.55416 2.0348 1.10168 2.67384 1.5813 1.1716 0.943214 0.781725
internal_count=59 53 16 12 6 37 19 10 6 4
shrinkage=0.0975091


Tree=43
num_leaves=12
num_cat=0
split_feature=3 3 8 11 2 5 1 11 5 11 1
split_gain=1.13106 1.68431 0.537764 0.335629 0.295388 0.224651 0.165582 0.262307 0.245262 0.15954 0.135386
threshold=685.00000000000011 644.50000000000011 inf 14.000000000000002 1.5000000000000002 9.5000000000000018 398.00000000000006 14.000000000000002 7.5000000000000009 26.000000000000004 307.00000000000006
decision_type=10 8 8 2 10 10 10 2 10 2 10
left_child=1 6 5 4 -2 9 7 8 10 -3 -1
right_child=3 2 -4 -5 -6 -7 -8 -9 -10 -11 -12
leaf_value=-0 0 0.12205186148358248 -0 0 -0.078146756148153376 -0 -0.033845059036438932 -0 -0 -0 0.072557176659541867
leaf_weight=0.07064572721719764 0.13158363103866566 1.7603036984801286 0.14245691895484935 0.27354225516319264 1.2462913766503332 0.057448610663414112 1.0004447270184753 0.55459922552108754 0.17432991601526737 0.039085578173398861 0.78725235909223557
leaf_count=2 1 10 1 2 8 1 16 9 4 1 4
internal_value=0 0.385602 1.01019 -0.449734 -0.65225 1.15184 -0 0 0.431901 1.21044 0.641901
internal_weight=0 4.58657 1.99929 1.65142 1.37788 1.85684 2.58727 1.58683 1.03223 1.79939 0.857898
internal_count=59 48 13 11 9 12 35 19 10 11 6
shrinkage=0.0975091


Tree=44
num_leaves=12
num_cat=0
split_feature=3 3 8 4 4 8 1 11 5 4 1
split_gain=0.905266 1.48854 0.495381 0.355708 0.310466 0.275715 0.145857 0.214048 0.22013 0.126549 0.14913
threshold=685.00000000000011 644.50000000000011 inf 91.700000000000017 95.250000000000014 1.0000000180025095e-35 389.00000000000006 14.000000000000002 7.5000000000000009 96.200000000000017 307.00000000000006
decision_type=10 8 8 2 2 10 8 2 10 2 10
left_child=1 6 3 -3 5 -2 7 8 9 10 -1
right_child=4 2 -4 -5 -6 -7 -8 -9 -10 -11 -12
leaf_value=-0 -0.074291047946569669 0.11557234071666588 -0 -0 0 0 -0.032060097052211113 -0 -0 -0 0.078411356016241884
leaf_weight=0.07064572721719764 1.2120236456394193 1.7016743272542947 0.14245691895484935 0.096534188836813084 0.26859796047210682 0.13158363103866566 0.97528040967881668 0.55459922552108754 0.17432991601526737 0.070276781916618347 0.72379262745380402
leaf_count=2 8 10 1 2 2 1 16 9 4 1 3
internal_value=0 0.343507 0.944488 1.08564 -0.410347 -0.612761 -0 0 0.38921 0.592046 0.692757
internal_weight=0 4.50959 1.94067 1.79821 1.61221 1.34361 2.56892 1.59364 1.03905 0.864715 0.794438
internal_count=59 48 13 12 11 9 35 19 10 6 5
shrinkage=0.0975091


Tree=45
num_leaves=7
num_cat=0
split_feature=9 4 5 9 6 6
split_gain=1.07952 0.899802 0.411697 0.180581 0.158508 0.047894
threshold=24.195844767986753 79.750000000000014 9.5000000000000018 25.531999032817655 77.500000000000014 87.500000000000014
decision_type=10 2 10 10 2 2
left_child=2 5 -1 4 -3 -2
right_child=1 3 -4 -5 -6 -7
leaf_value=-0.068339474618110088 0.092439184591536286 0.045618525180209687 0 -0.032174127903511977 -0 0
leaf_weight=1.9221636373549702 1.0848751999437811 0.48239235579967521 0.62520810961723317 1.0190111771225927 0.59697947651147842 0.11426131799817074
leaf_count=21 6 2 5 17 6 2
internal_value=0 0.3146 -0.495119 -0 0.141073 0.896098
internal_weight=0 3.29752 2.54737 2.09838 1.07937 1.19914
internal_count=59 33 26 25 8 8
shrinkage=0.0975091


Tree=46
num_leaves=8
num_cat=0
split_feature=1 6 6 4 1 1 11
split_gain=1.33536 0.535622 0.37895 0.178307 0.436094 0.24516 0.132776
threshold=581.00000000000011 76.500000000000014 79.500000000000014 89.200000000000017 330.50000000000006 377.50000000000006 30.000000000000004
decision_type=8 2 2 2 10 10 2
left_child=1 3 -2 -1 -5 6 -6
right_child=2 -3 -4 4 5 -7 -8
leaf_value=-0.026174148355117968 0.090468758947930786 -0.066026374654141212 -0 -0 0.088466495735109341 -0 -0
leaf_weight=0.89396322891116176 1.0091610327363012 1.9364335741847754 0.62232898548245419 0.36612584255635722 0.72062291204929341 0.1173863224685192 0.051694709807634354
leaf_count=11 6 27 5 4 3 2 1
internal_value=0 -0.342663 0.636179 0 0.230976 0.643359 0.818641
internal_weight=0 4.08623 1.63149 2.14979 1.25583 0.889704 0.772318
internal_count=59 48 11 21 10 6 4
shrinkage=0.0975091


Tree=47
num_leaves=8
num_cat=0
split_feature=1 9 4 1 3 1 3
split_gain=1.18925 0.826953 0.412831 0.0514553 0.291598 0.320192 0.1156
threshold=581.00000000000011 24.324413423661355 89.200000000000017 377.50000000000006 467.00000000000006 330.50000000000006 583.50000000000011
decision_type=8 10 2 8 10 10 10
left_child=2 -2 -1 4 -4 -6 -7
right_child=1 -3 3 -5 5 6 -8
leaf_value=-0.061513331240813103 -0 0.09426126228850315 -0 -0.017275022019879162 -0 0.079545854246874798 -0
leaf_weight=1.8673877846449616 0.33498841896653164 1.2708378061652181 0.39182466268539445 0.74745731242001034 0.17861630208790302 0.74347807466983795 0.051694709807634354
leaf_count=27 3 8 4 10 2 4 1
internal_value=0 0.598894 -0.33172 -0 0.0966738 0.477936 0.732934
internal_weight=0 1.60583 3.98046 2.11307 1.36561 0.973789 0.795173
internal_count=59 11 48 21 11 7 5
shrinkage=0.0975091


Tree=48
num_leaves=11
num_cat=0
split_feature=1 1 4 5 4 9 4 9 5 11
split_gain=1.67859 1.47042 0.986657 0.380311 0.934221 0.579282 0.522833 0.501981 0.218252 0.0775525
threshold=332.50000000000006 290.50000000000006 60.000000000000007 3.5000000000000004 80.500000000000014 19.561635805901755 94.65000000000002 25.768222303172255 8.5000000000000018 44.000000000000007
decision_type=10 8 2 10 2 10 2 10 10 2
left_child=1 -1 -3 6 7 -6 -2 -5 -9 -4
right_child=3 2 9 4 5 -7 -8 8 -10 -11
leaf_value=-0 -0.084431683687586107 -0 0.13040481923950256 -0 0 -0.059347577341562374 0 0.11893516180119859 -0 -0
leaf_weight=0.52285214141011271 1.1328154318034647 0.204509258270264 1.8665216788649557 0.17977103777229819 0.2463998049497608 1.9823240283876657 0.2040874809026717 0.54076600074768078 0.057785201817750931 0.017354551702737697
leaf_count=6 6 1 10 3 1 26 1 3 1 1
internal_value=0 0.702339 1.09325 -0.219142 -0 -0.335852 -0.595586 0.745642 1.08394 1.31926
internal_weight=0 2.61124 2.08839 4.34395 3.00705 2.22872 1.3369 0.778322 0.598551 1.88388
internal_count=59 18 12 41 34 27 7 7 4 11
shrinkage=0.0975091


Tree=49
num_leaves=10
num_cat=0
split_feature=3 6 2 1 4 3 6 1 3
split_gain=1.72352 1.09753 0.769074 0.703277 0.4544 0.374891 0.232245 0.229808 0.0206788
threshold=474.50000000000006 78.500000000000014 1.5000000000000002 290.50000000000006 92.200000000000017 667.50000000000011 78.500000000000014 411.00000000000006 646.50000000000011
decision_type=10 2 8 8 2 10 2 10 10
left_child=1 3 6 -1 5 8 -2 -5 -4
right_child=2 -3 4 7 -6 -7 -8 -9 -10
leaf_value=-0 0.054912936162970487 -0 -0.013542218701811914 0.13066846323723397 0 -0.090912994533681291 -0 -0 0.0028822218267805545
leaf_weight=0.17871100828051578 0.4688674360513686 0.7635187841951846 0.67095782794058401 1.5747154280543325 0.91849726811051358 1.7312081195414064 0.23946163058280945 0.051271487027406797 0.22620900347828865
leaf_count=3 3 7 14 8 8 11 2 1 2
internal_value=0 0.706546 -0.240016 1.08532 -0.505198 -0.696172 0.179966 1.2786 -0
internal_weight=0 2.56822 4.2552 1.8047 3.54687 2.62837 0.708329 1.62599 0.897167
internal_count=59 19 40 12 35 27 5 9 16
shrinkage=0.0975091


Tree=50
num_leaves=12
num_cat=0
split_feature=3 6 1 3 4 4 6 8 1 6 1
split_gain=1.40605 0.963046 0.636641 0.387003 0.545084 0.433156 0.428479 0.278983 0.209004 0.203109 0.251366
threshold=474.50000000000006 78.500000000000014 290.50000000000006 685.00000000000011 79.100000000000009 94.65000000000002 82.500000000000014 1.0000000180025095e-35 411.00000000000006 73.500000000000014 581.00000000000011
decision_type=10 2 8 10 2 2 2 10 10 2 10
left_child=1 2 -1 4 6 7 -2 -5 -4 -6 -11
right_child=3 -3 8 5 9 -7 -8 -9 -10 10 -12
leaf_value=-0 0.10485015985854908 -0 0.12207938815910546 -0.081888007742484087 0 0 -0 0 -0 -0.055231186738924846 0
leaf_weight=0.17871100828051578 0.38036592304706607 0.7635187841951846 1.5487604811787603 1.479686878621578 0.30997046828269947 0.2040874809026717 0.16126133687794209 0.11575250327587117 0.051271487027406797 1.3585959095507858 0.17155282199382771
leaf_count=3 2 7 8 10 3 1 3 1 1 19 1
internal_value=0 0.642832 1.00358 -0.21377 0 -0.523288 0.696138 -0.7226 1.192 -0.213988 -0.399893
internal_weight=0 2.54226 1.77874 4.18127 2.38175 1.79953 0.541627 1.59544 1.60003 1.84012 1.53015
internal_count=59 19 12 40 28 12 5 11 9 23 20
shrinkage=0.0975091


Tree=51
num_leaves=9
num_cat=0
split_feature=3 9 9 0 7 2 8 7
split_gain=1.52794 1.08505 0.479373 0.413321 0.413126 0.367067 0.214264 0.203522
threshold=564.50000000000011 23.247980724143357 29.580582187519255 1.0000000180025095e-35 1.0000000180025095e-35 2.5000000000000004 1.0000000180025095e-35 1.5000000000000002
decision_type=10 10 10 8 2 8 8 2
left_child=3 -2 5 4 -1 6 7 -3
right_child=1 2 -4 -5 -6 -7 -8 -9
leaf_value=-0 -0 0.12514699112013089 -0 0 -0.087613266729588232 -0 0 -0
leaf_weight=1.059560444206 0.50516399927437339 1.6364462226629259 0.14618456363677967 0.3304340094327925 1.3503681831061838 0.10625745728611936 0.21101531758904468 0.048187732696533314
leaf_count=11 8 8 1 3 22 2 3 1
internal_value=0 0.56381 0.900987 -0.426178 -0.593005 1.03126 1.12917 1.22874
internal_weight=0 2.65326 2.14809 2.74036 2.40993 2.00191 1.89565 1.68463
internal_count=59 23 15 36 33 14 12 9
shrinkage=0.0975091


Tree=52
num_leaves=9
num_cat=0
split_feature=3 9 9 0 2 6 8 6
split_gain=1.22974 0.952651 0.428534 0.386462 0.329044 0.240192 0.176689 0.115253
threshold=564.50000000000011 23.247980724143357 29.580582187519255 1.0000000180025095e-35 2.5000000000000004 73.500000000000014 1.0000000180025095e-35 85.500000000000014
decision_type=10 10 10 8 8 2 8 2
left_child=3 -2 4 5 6 -1 -3 -7
right_child=1 2 -4 -5 -6 7 -8 -9
leaf_value=0 -0 0.11047007984402486 -0 0 -0 -0.082131751410228757 0 -0
leaf_weight=0.49214563518762666 0.50516399927437339 1.678252264857292 0.14618456363677967 0.3304340094327925 0.10625745728611956 1.3520451150834558 0.21101531758904468 0.49531885981559742
leaf_count=4 8 9 1 3 2 26 3 3
internal_value=0 0.497313 0.821992 -0.398193 0.94774 -0.565941 1.042 -0.706669
internal_weight=0 2.64687 2.14171 2.66994 1.99553 2.33951 1.88927 1.84736
internal_count=59 23 15 36 14 33 12 29
shrinkage=0.0975091


Tree=53
num_leaves=8
num_cat=0
split_feature=5 1 2 2 1 8 1
split_gain=0.834849 1.22141 0.297067 0.167744 0.110921 0.100966 0.0413976
threshold=3.5000000000000004 435.50000000000006 1.5000000000000002 2.5000000000000004 593.50000000000011 1.0000000180025095e-35 697.00000000000011
decision_type=10 10 8 10 10 8 10
left_child=3 -2 -3 5 -4 -1 -6
right_child=1 2 4 -5 6 -7 -8
leaf_value=0.07241206451004005 -0.08568465983544428 0.055213497642826091 -0.028397770660175292 -0 0.021351685306833835 -0 -0
leaf_weight=1.270055383443832 1.4618773404508831 0.55487538874149356 0.93382831662893284 0.2288692705333232 0.48942086473107338 0.049882981926202885 0.24802246689796448
leaf_count=6 27 3 14 3 3 1 2
internal_value=0 -0.220176 0.0168871 0.576003 -0 0.689664 0
internal_weight=0 3.68802 2.22615 1.54881 1.67127 1.31994 0.737443
internal_count=59 49 22 10 19 7 5
shrinkage=0.0975091


Tree=54
num_leaves=10
num_cat=0
split_feature=10 6 5 9 5 2 9 6 5
split_gain=0.661807 1.44341 0.624138 0.341382 0.302482 0.243405 0.124116 0.0614266 0.0616674
threshold=1.0000000180025095e-35 77.500000000000014 3.5000000000000004 21.125297583001053 7.5000000000000009 3.5000000000000004 29.394206035698804 72.500000000000014 10.500000000000002
decision_type=2 2 10 10 10 10 10 2 10
left_child=2 3 -1 -2 -3 6 7 -5 -9
right_child=1 4 -4 5 -6 -7 -8 8 -10
leaf_value=0 -0 -0.040414575261212386 -0.082447676070245821 -0 0 -0 -0 0.10534789039762039 -0
leaf_weight=0.66895035654306401 0.12804657965898592 1.6172048309817908 1.1033418364822862 0.018865125253796463 0.34086507465690363 0.081093076616525553 0.038928087800741085 1.7383771194145081 0.018511626869439968
leaf_count=5 2 16 12 1 4 2 1 15 1
internal_value=0 0.229674 -0.448662 0.82541 -0.130262 0.932815 1.00678 1.04388 1.06215
internal_weight=0 3.98189 1.77229 2.02382 1.95807 1.89578 1.81468 1.77575 1.75689
internal_count=59 42 17 22 20 20 18 17 16
shrinkage=0.0975091


Tree=55
num_leaves=11
num_cat=0
split_feature=4 10 6 1 2 6 6 5 9 5
split_gain=1.63119 0.942938 0.699736 0.783228 0.689362 0.319685 0.235555 0.111582 0.101797 0.0911003
threshold=69.550000000000011 1.0000000180025095e-35 79.500000000000014 347.00000000000006 3.5000000000000004 72.500000000000014 83.500000000000014 3.5000000000000004 31.784754766165005 10.500000000000002
decision_type=2 2 2 10 8 2 2 10 10 10
left_child=6 7 3 -3 5 -5 -1 -2 9 -7
right_child=1 2 -4 4 -6 8 -8 -9 -10 -11
leaf_value=-0.099511547560638403 0 -0 -0 -0 -0 0.1397721431158139 -0 -0.029396749672079538 -0 -0
leaf_weight=0.97325380891561475 0.27142011374235125 0.60970531683415252 0.60405239742249239 0.069144511595368052 0.16938393563032161 1.61581071652472 0.47866074740886688 0.8876514844596386 0.02115176245570172 0.018511626869439968
leaf_count=6 3 9 8 2 4 11 3 11 1 1
internal_value=0 0.316077 0.634904 0.854915 1.12814 1.30534 -0.799657 -0.0448504 1.38546 1.41082
internal_weight=0 4.26683 3.10776 2.50371 1.894 1.72462 1.45191 1.15907 1.65547 1.63432
internal_count=59 50 36 28 19 15 9 14 13 12
shrinkage=0.0975091


Tree=56
num_leaves=9
num_cat=0
split_feature=4 2 6 1 6 10 3 1
split_gain=1.37651 0.805478 0.658808 0.352776 0.202138 0.105011 0.0439908 0.0299768
threshold=69.550000000000011 2.5000000000000004 81.500000000000014 347.00000000000006 83.500000000000014 1.0000000180025095e-35 785.00000000000011 350.50000000000006
decision_type=2 8 2 8 2 2 10 8
left_child=4 2 3 -2 -1 -5 -7 -3
right_child=1 7 -4 5 -6 6 -8 -9
leaf_value=-0.093994324308448479 0 0 -0 0 -0 0.11793080353750153 0 -0.016108445781865849
leaf_weight=0.95290311798453309 0.50579807721078485 0.57856321241706576 0.33339658472686995 0.41812514699995529 0.47866074740886688 1.2064005360007284 0.48882673680782329 0.72999858856201183
leaf_count=6 5 8 6 6 3 8 4 13
internal_value=0 0.273109 0.588238 0.777609 -0.755586 0.932452 1.04686 -0.00947693
internal_weight=0 4.26111 2.95255 2.61915 1.43156 2.11335 1.69523 1.30856
internal_count=59 50 29 23 9 18 12 21
shrinkage=0.0975091


Tree=57
num_leaves=9
num_cat=0
split_feature=3 3 0 2 9 9 1 3
split_gain=1.06902 2.19189 0.734561 0.72611 0.462641 0.37287 0.282877 0.00391641
threshold=501.50000000000006 472.50000000000006 1.0000000180025095e-35 1.5000000000000002 28.934263858216553 24.880309890215901 402.50000000000006 564.50000000000011
decision_type=10 8 10 10 10 10 10 10
left_child=1 -1 3 7 -5 6 -3 -2
right_child=2 5 -4 4 -6 -7 -8 -9
leaf_value=-0.024481233831220438 -0 0.12725722258770419 0.01738705363660744 -0.086202818825112382 0 -0 -0 0.0072182600365856492
leaf_weight=0.86257088743150268 0.27179864794015962 1.7206461727619169 0.45591814815998072 2.4000844070687894 0.16743743419647206 0.095623486675321931 0.065191909670829662 0.34072601795196533
leaf_count=13 2 8 3 26 1 3 1 2
internal_value=0 0.505872 -0.260016 -0.524922 -0.761428 1.13624 1.23323 0
internal_weight=0 2.74403 3.63596 3.18005 2.56752 1.88146 1.78584 0.612525
internal_count=59 25 34 31 27 12 9 4
shrinkage=0.0975091


Tree=58
num_leaves=9
num_cat=0
split_feature=3 3 0 2 9 9 1 3
split_gain=0.80701 1.91893 0.645819 0.663368 0.436434 0.337592 0.257066 0.00356179
threshold=501.50000000000006 472.50000000000006 1.0000000180025095e-35 1.5000000000000002 28.934263858216553 24.880309890215901 402.50000000000006 564.50000000000011
decision_type=10 8 10 10 10 10 10 10
left_child=1 -1 3 7 -5 6 -3 -2
right_child=2 5 -4 4 -6 -7 -8 -9
leaf_value=-0.023131220049963673 -0 0.11878713855881567 0.016497314120170053 -0.082676713180388814 0 -0 -0 0.0068846245203992677
leaf_weight=0.84654985368251823 0.27179864794015962 1.6916970610618589 0.45392381399869913 2.2804831471294169 0.16743743419647206 0.095623486675321931 0.065191909670829662 0.34053535759449005
leaf_count=13 2 8 3 26 1 3 1 2
internal_value=0 0.449398 -0.218946 -0.485209 -0.722215 1.05346 1.14804 0
internal_weight=0 2.69906 3.51418 3.06025 2.44792 1.85251 1.75689 0.612334
internal_count=59 25 34 31 27 12 9 4
shrinkage=0.0975091


Tree=59
num_leaves=9
num_cat=0
split_feature=3 3 0 2 4 1 1 3
split_gain=0.598948 1.68514 0.563452 0.605108 0.357911 0.208261 0.040523 0.00323935
threshold=501.50000000000006 472.50000000000006 1.0000000180025095e-35 1.5000000000000002 95.250000000000014 402.50000000000006 258.50000000000006 564.50000000000011
decision_type=10 8 10 10 2 10 8 10
left_child=1 -1 3 7 -5 6 -3 -2
right_child=2 5 -4 4 -6 -7 -8 -9
leaf_value=-0.021848134407888936 -0 -0 0.015653229158878557 -0.078795231545886676 0 -0 0.10282120287051559 0.0065664584822578368
leaf_weight=0.83160614222288165 0.27179864794015962 0.012573775835334922 0.45201607793569554 2.1172176515683536 0.21826854348182667 0.065191909670829662 1.7402289621531963 0.34035046398639679
leaf_count=13 2 1 3 25 2 1 10 2
internal_value=0 0.397362 -0.179465 -0.447007 -0.684319 0.979273 1.04226 0
internal_weight=0 2.6496 3.39965 2.94764 2.33549 1.81799 1.7528 0.612149
internal_count=59 25 34 31 27 12 11 4
shrinkage=0.0975091


Tree=60
num_leaves=11
num_cat=0
split_feature=5 9 9 11 3 9 1 6 1 2
split_gain=1.6285 1.0558 1.26725 0.345732 0.273392 0.37604 0.253181 0.167793 0.0953031 0.0264097
threshold=1.0000000180025095e-35 26.966718783655804 23.373246118604602 18.000000000000004 497.00000000000006 22.607003700737604 300.50000000000006 73.500000000000014 307.00000000000006 1.5000000000000002
decision_type=10 8 10 2 8 10 10 2 8 10
left_child=-1 2 4 7 5 6 -2 -4 -9 -3
right_child=1 9 3 -5 -6 -7 -8 8 -10 -11
leaf_value=-0.056042907640812586 -0 0 -0 -0 -0.020210163705634589 -0 0.078515747347068718 -0 0.13483920291537191 -0.015050285519021829
leaf_weight=0.79059994220733631 0.12182493880391145 0.2315298169851302 0.036420814692974875 0.080410105176269883 0.77395546250045277 0.25933442264795287 0.94211092591285694 0.020325331017375325 2.0708445254713297 0.73461665026843548
leaf_count=4 2 1 1 5 15 2 4 1 14 10
internal_value=0 0.55568 0.773417 1.25493 0 0.363354 0.646034 1.32804 1.36302 -0
internal_weight=0 5.27137 4.30523 2.208 2.09723 1.32327 1.06394 2.12759 2.09117 0.966146
internal_count=59 55 44 21 23 8 6 16 15 11
shrinkage=0.0975091


Tree=61
num_leaves=10
num_cat=0
split_feature=5 1 6 4 6 4 7 4 3
split_gain=1.38324 0.564857 0.530183 0.124475 0.132161 0.110958 0.0534069 0.019037 0.010515
threshold=1.0000000180025095e-35 300.50000000000006 82.500000000000014 91.700000000000017 73.500000000000014 69.550000000000011 1.5000000000000002 94.65000000000002 556.50000000000011
decision_type=10 10 2 2 2 2 2 2 10
left_child=-1 -2 3 4 -3 -6 -7 -5 -9
right_child=1 2 -4 7 5 6 -8 8 -10
leaf_value=-0.052829135353748467 -0 -0 -0 -0 -0 0.090492618210729375 -0 0.018655931961218786 -0
leaf_weight=0.78019490838050831 0.57753627654165018 0.051041998900473451 0.67967745475471009 0.42570083308964962 0.040935702621937131 3.0106621170416479 0.019539237022399791 0.43335734307765961 0.027582505717873573
leaf_count=4 8 2 8 6 1 26 1 2 1
internal_value=0 0.498047 0.622838 0.754358 0.865434 0.893552 0.916859 0 0.151002
internal_weight=0 5.26603 4.6885 4.00882 3.12218 3.07114 3.0302 0.886641 0.46094
internal_count=59 55 47 39 30 28 27 9 3
shrinkage=0.0975091


Tree=62
num_leaves=10
num_cat=0
split_feature=2 9 9 3 4 6 4 1 1
split_gain=1.1054 1.10693 0.815133 0.718634 0.278005 0.135384 0.105484 0.0906323 0.0867587
threshold=2.5000000000000004 23.373246118604602 26.966718783655804 497.00000000000006 81.450000000000017 73.500000000000014 97.200000000000017 300.50000000000006 322.00000000000006
decision_type=10 10 10 8 2 2 2 10 10
left_child=1 3 5 4 -1 -3 8 -6 -7
right_child=-2 2 -4 -5 7 6 -8 -9 -10
leaf_value=-0 -0.03331070242871817 -0 -0 -0.053910495131891695 -0 -0 -0 0.068723589735038226 0.11846020866986223
leaf_weight=0.16971404850482963 1.2015656279399989 0.036420814692974875 0.63824818469583977 1.0719945188611744 0.048441518098115921 0.022163186222314724 0.027582505717873462 0.92510423064231873 1.9431069195270536
leaf_count=1 17 1 7 14 1 1 1 4 12
internal_value=0 0.471785 0.865241 -0 0.427011 1.1343 1.16775 0.641572 1.19366
internal_weight=0 4.88278 2.66752 2.21525 1.14326 2.02927 1.99285 0.973546 1.96527
internal_count=59 42 22 20 6 15 14 5 13
shrinkage=0.0975091


Tree=63
num_leaves=7
num_cat=0
split_feature=1 8 2 5 6 3
split_gain=0.754354 0.521703 0.466293 0.29556 0.229655 0.449147
threshold=303.50000000000006 1.0000000180025095e-35 3.5000000000000004 10.500000000000002 80.500000000000014 896.50000000000011
decision_type=8 8 8 10 2 10
left_child=-1 2 3 4 5 -2
right_child=1 -3 -4 -5 -6 -7
leaf_value=-0.0029235862047539084 0.092871309098358043 -0 -0 -0 0 -0
leaf_weight=0.63586066663265217 3.4726745281368498 0.56739225983619679 0.23358088545501221 0.12950068898499001 0.41285991668701161 0.14705634117126454
leaf_count=10 27 6 4 3 8 1
internal_value=0 0.534908 0.655396 0.744621 0.798641 0.872508
internal_weight=0 4.96306 4.39567 4.16209 4.03259 3.61973
internal_count=59 49 43 39 36 28
shrinkage=0.0975091


Tree=64
num_leaves=10
num_cat=0
split_feature=1 11 11 1 3 3 9 3 9
split_gain=0.636401 0.551392 0.308074 0.440386 0.353079 0.375957 0.182659 0.189706 0.0871109
threshold=303.50000000000006 1.0000000180025095e-35 56.000000000000007 398.00000000000006 583.50000000000011 434.50000000000006 25.221769465958104 564.50000000000011 31.784754766165005
decision_type=8 2 2 10 10 8 10 10 10
left_child=-1 -2 3 4 5 -3 -5 -8 -7
right_child=1 2 -4 6 -6 8 7 -9 -10
leaf_value=-0.0027483746113683457 -0 -0 -0 -0.0022960046725743854 -0 0.11959201148097663 -0 0.049783387733374526 -0
leaf_weight=0.63436048105359066 0.92328581772744645 0.095795623958111364 0.15059025585651389 0.65923401154577721 0.1039915271103381 1.824484998360276 0.17069672048091877 1.0523787960410116 0.021978268399834744
leaf_count=10 11 1 1 15 2 10 2 6 1
internal_value=0 0.470656 0.625513 0.690337 1.01448 1.10807 0 0.337661 1.2042
internal_weight=0 5.00244 4.07915 3.92856 2.04625 1.94226 1.88231 1.22308 1.84646
internal_count=59 49 38 37 14 12 23 8 11
shrinkage=0.0975091


Tree=65
num_leaves=10
num_cat=0
split_feature=1 11 2 11 6 1 3 3 1
split_gain=0.550071 0.474666 0.360227 0.324458 0.362788 0.276312 0.364945 0.386119 0.0098891
threshold=303.50000000000006 1.0000000180025095e-35 3.5000000000000004 56.000000000000007 79.500000000000014 442.50000000000006 583.50000000000011 434.50000000000006 593.50000000000011
decision_type=8 2 8 2 2 10 10 8 10
left_child=-1 -2 3 4 5 6 7 -3 -7
right_child=1 2 -4 -5 -6 8 -8 -9 -10
leaf_value=-0.0025835678671781021 -0 -0 -0 -0 0 -0 -0 0.11949879376723481 0.010582318368020396
leaf_weight=0.63295262865722168 0.92328581772744645 0.095795623958112947 0.21272461116313923 0.15059025585651389 0.61754884850233771 0.44811259955167759 0.1039915271103381 1.9604058116674419 0.46566769480705261
leaf_count=10 11 1 3 1 12 7 2 10 2
internal_value=0 0.422732 0.568449 0.651828 0.721406 0.847854 1.04264 1.13305 0
internal_weight=0 4.97812 4.05484 3.84211 3.69152 3.07397 2.16019 2.0562 0.91378
internal_count=59 49 38 35 34 22 13 11 9
shrinkage=0.0975091


Tree=66
num_leaves=10
num_cat=0
split_feature=5 11 11 11 4 9 5 10 6
split_gain=0.610011 0.431053 0.158253 0.362866 0.257645 0.151893 0.158656 0.0486964 0.0218016
threshold=4.5000000000000009 14.000000000000002 14.000000000000002 1.0000000180025095e-35 96.200000000000017 20.259265015144205 10.500000000000002 1.0000000180025095e-35 76.500000000000014
decision_type=10 2 2 2 2 10 10 2 2
left_child=1 -1 3 8 5 -5 7 -7 -2
right_child=2 -3 -4 4 -6 6 -8 -9 -10
leaf_value=-0.087933657500323337 -0.014470563867688042 0 -0.011360941304275615 -0 -0 -0 -0 0.073588894431830393 0
leaf_weight=0.96541039645671822 0.61597966775298185 0.59429252147674561 0.71065685246139765 0.090178398415446157 0.18250489234924305 0.023424306884407664 0.080290348269045242 1.5982678681612015 0.66258689388632763
leaf_count=8 5 4 13 4 3 1 2 11 8
internal_value=0 -0.58342 0 0.198923 0.464342 0.593905 0.66424 0.733803 -0
internal_weight=0 1.5597 3.96389 3.25323 1.97467 1.79216 1.70198 1.62169 1.27857
internal_count=59 12 47 34 21 18 14 12 13
shrinkage=0.0975091


Tree=67
num_leaves=9
num_cat=0
split_feature=3 1 3 9 1 11 4 9
split_gain=0.975237 1.91861 0.39149 0.257172 0.185509 0.161568 0.109163 0.183495
threshold=497.00000000000006 593.50000000000011 472.50000000000006 21.390540292866053 290.50000000000006 44.000000000000007 86.65000000000002 23.373246118604602
decision_type=8 10 10 8 10 2 2 10
left_child=2 3 -1 -2 -4 -6 7 -3
right_child=1 6 4 -5 5 -7 -8 -9
leaf_value=-0 -0 -0 -0 -0.10260424093684478 0.076678271478405668 -0 -0 0.049949310110352779
leaf_weight=0.34216967597603787 0.25465705431997854 0.1678764149546621 0.10294372402131546 2.2974406275898218 1.140901446342468 0.07462264597415913 0.16106694936752308 0.91998904198408127
leaf_count=7 6 2 2 30 5 1 1 5
internal_value=0 -0.445594 0.312104 -0.960719 0.590273 0.698354 0.169955 0.326716
internal_weight=0 3.80103 1.66064 2.5521 1.31847 1.21552 1.24893 1.08787
internal_count=59 44 15 36 8 6 8 7
shrinkage=0.0975091


Tree=68
num_leaves=8
num_cat=0
split_feature=3 1 3 9 1 4 9
split_gain=0.813429 1.72649 0.348938 0.240536 0.169863 0.0963063 0.169443
threshold=497.00000000000006 593.50000000000011 472.50000000000006 21.390540292866053 290.50000000000006 86.65000000000002 23.373246118604602
decision_type=8 10 10 8 10 2 10
left_child=2 3 -1 -2 -4 6 -3
right_child=1 5 4 -5 -6 -7 -8
leaf_value=-0 -0 -0 -0 -0.099469816911569461 0.063669614731378693 -0 0.047198396606145866
leaf_weight=0.34216967597603787 0.25465705431997854 0.1678764149546621 0.10294372402131546 2.1576239494606853 1.1933252960443494 0.16106694936752308 0.90142362564802159
leaf_count=7 6 2 2 30 6 1 5
internal_value=0 -0.417601 0.27249 -0.926919 0.546241 0.143566 0.299399
internal_weight=0 3.64265 1.63844 2.41228 1.29627 1.23037 1.0693
internal_count=59 44 15 36 8 8 7
shrinkage=0.0975091


Tree=69
num_leaves=7
num_cat=0
split_feature=1 1 6 9 9 1
split_gain=0.305632 0.467378 0.165388 0.301008 0.0505269 0.00854955
threshold=515.00000000000011 350.50000000000006 77.500000000000014 29.580582187519255 28.934263858216553 300.50000000000006
decision_type=10 8 2 10 10 10
left_child=1 5 4 -4 -2 -1
right_child=2 -3 3 -5 -6 -7
leaf_value=-0 -0.021567533640979332 -0.06154967094726068 0.055564900082862766 -0 0 0.0081440760743514435
leaf_weight=0.53826834075152896 0.65899311378598247 1.736262406222522 1.0623178556561468 0.24810488522052757 0.17459407448768616 0.85164586454629887
leaf_count=10 5 29 6 2 1 6
internal_value=0 -0.326628 0 0.313345 -0.00254598 0
internal_weight=0 3.12618 2.14401 1.31042 0.833587 1.38991
internal_count=59 45 14 8 6 16
shrinkage=0.0975091


Tree=70
num_leaves=5
num_cat=0
split_feature=11 6 1 3
split_gain=0.275417 0.365347 0.20422 0.0887417
threshold=18.000000000000004 75.500000000000014 515.00000000000011 477.00000000000006
decision_type=2 2 10 10
left_child=1 3 -3 -1
right_child=-2 2 -4 -5
leaf_value=0 -0.045711803414693941 -0 0.04573018325053798 -0.042813420571430928
leaf_weight=0.36297123692929728 1.1420423239469526 1.2301166849210861 1.3625429756939409 1.0596374720335004
leaf_count=5 14 17 9 14
internal_value=0 0 0.244755 -0.32317
internal_weight=0 4.01527 2.59266 1.42261
internal_count=59 45 26 19
shrinkage=0.0975091


Tree=71
num_leaves=6
num_cat=0
split_feature=4 6 4 11 2
split_gain=0.332753 0.487633 0.181528 0.181294 0.0721503
threshold=94.65000000000002 85.500000000000014 96.200000000000017 6.0000000000000009 1.5000000000000002
decision_type=2 2 2 2 8
left_child=1 3 -2 -1 -5
right_child=2 -3 -4 4 -6
leaf_value=-0 0.038817027085827668 0 -0 -0 -0.069615021136685856
leaf_weight=1.2845537140965468 0.79398460686206784 0.42920831404626358 0.35427260771393776 0.38199234008789096 1.8273956570774315
leaf_count=18 4 3 5 3 26
internal_value=0 -0.297747 0.0483533 -0.473881 -0.637498
internal_weight=0 3.92315 1.14826 3.49394 2.20939
internal_count=59 50 9 47 29
shrinkage=0.0975091


Tree=72
num_leaves=9
num_cat=0
split_feature=2 5 8 1 3 3 7 6
split_gain=0.299558 0.679652 0.47195 0.178653 0.0759337 0.0703928 0.0313863 0.00894251
threshold=2.5000000000000004 6.5000000000000009 inf 281.50000000000006 474.50000000000006 983.50000000000011 1.5000000000000002 75.500000000000014
decision_type=8 10 8 8 10 10 2 2
left_child=1 2 3 -1 7 -3 -5 -2
right_child=4 5 -4 6 -6 -7 -8 -9
leaf_value=-0 -0 -0.023556630482648333 -0 0.078245274270024159 -0.026095671665931706 0 -0 0.0097859604943566578
leaf_weight=0.079022303223611132 0.44259011931717374 0.8321682550013062 0.23919589072465888 2.2487540738657121 0.71300691552460194 0.23767821490764615 0.01392251532524813 0.51389878243207932
leaf_count=1 5 16 2 17 13 1 1 3
internal_value=0 0.285107 0.58372 0.737922 -0.030628 -0 0.792847 0
internal_weight=0 3.65074 2.58089 2.3417 1.6695 1.06985 2.26268 0.956489
internal_count=59 38 21 19 21 17 18 8
shrinkage=0.0975091


Tree=73
num_leaves=10
num_cat=0
split_feature=4 11 6 4 6 5 2 4 4
split_gain=0.561098 0.774991 0.321829 0.180436 0.119532 0.0964257 0.0496228 0.0088254 0.00341569
threshold=83.500000000000014 14.000000000000002 85.500000000000014 88.700000000000017 85.500000000000014 9.5000000000000018 1.0000000180025095e-35 89.450000000000017 94.65000000000002
decision_type=2 2 2 2 2 10 10 2 2
left_child=1 2 5 4 -2 6 -1 -5 -9
right_child=3 -3 -4 7 -6 -7 -8 8 -10
leaf_value=-0 -0.045465191085653493 -0 -0 0.0099256279098532425 0 -0 0.092673541125045084 -0.0060093945812202121 0
leaf_weight=0.017692923545837735 1.1297515723854306 0.63964385073631991 0.1249053832143544 0.47778594866394986 0.18325600773096076 0.035192221403121837 1.6074377205222843 0.52534893434494712 0.52478125132620335
leaf_count=1 15 8 2 3 2 1 11 10 6
internal_value=0 0.442037 0.782438 -0.0915481 -0.350615 0.898889 0.932985 0 -0
internal_weight=0 2.42487 1.78523 2.84092 1.31301 1.66032 1.62513 1.52792 1.05013
internal_count=59 23 15 36 17 13 12 19 16
shrinkage=0.0975091


Tree=74
num_leaves=9
num_cat=0
split_feature=9 5 8 6 1 6 7 9
split_gain=0.328559 0.1868 0.174685 0.135361 0.0667826 0.0273686 0.0216177 0.000968653
threshold=25.084504119799053 6.5000000000000009 inf 72.500000000000014 228.50000000000003 81.500000000000014 1.5000000000000002 22.857879364506001
decision_type=8 10 8 2 10 2 2 8
left_child=1 2 3 -1 -2 6 -5 -3
right_child=4 7 -4 5 -6 -7 -8 -9
leaf_value=-0 0 -0.0030636724672109851 -0 0.058506114156750472 -0.023778951159990902 0 -0 0
leaf_weight=0.093774423003197924 0.13612167537212361 0.60727989487349954 0.13557025790214527 1.969794284552336 1.3508089091628788 0.2433627527207135 0.013841442763805278 0.64296082314103853
leaf_count=1 1 10 1 11 22 4 1 8
internal_value=0 0.270211 0.413844 0.49468 -0.138679 0.552787 0.590529 -0
internal_weight=0 3.70658 2.45634 2.32077 1.48693 2.227 1.98364 1.25024
internal_count=59 36 18 17 23 16 12 18
shrinkage=0.0975091


Tree=75
num_leaves=9
num_cat=0
split_feature=1 3 5 9 9 5 11 2
split_gain=0.332056 0.426546 0.287598 0.274367 0.20502 0.159168 0.122879 0.10975
threshold=398.00000000000006 785.00000000000011 7.5000000000000009 27.566828743935105 27.755518590265456 2.5000000000000004 26.000000000000004 2.5000000000000004
decision_type=8 10 10 10 10 10 2 10
left_child=2 5 3 7 6 -2 -3 -1
right_child=1 4 -4 -5 -6 -7 -8 -9
leaf_value=0.080201191241479758 0 0.048561988600135657 -0 -0 -0 -0.05618391971623031 -0 -0
leaf_weight=1.0607306137681005 0.46902751922607455 0.94820201024413087 0.55517582828178991 0.14635279960930336 0.36374050378799433 1.4901457699015734 0.10386009514331818 0.04874400608241547
leaf_count=6 3 6 12 4 2 23 1 2
internal_value=0 -0.094102 0.369837 0.599864 0.00442015 -0.443886 0.379203 0.761769
internal_weight=0 3.37498 1.811 1.25583 1.4158 1.95917 1.05206 1.10947
internal_count=59 35 24 12 9 26 7 8
shrinkage=0.0975091


Tree=76
num_leaves=9
num_cat=0
split_feature=1 5 9 1 9 9 5 2
split_gain=0.265499 0.248049 0.245713 0.242014 0.118804 0.121703 0.112346 0.0989107
threshold=398.00000000000006 7.5000000000000009 27.566828743935105 581.00000000000011 25.307068770879756 23.373246118604602 2.5000000000000004 2.5000000000000004
decision_type=8 10 10 10 10 10 10 10
left_child=1 2 7 6 5 -5 -2 -1
right_child=3 -3 -4 4 -6 -7 -8 -9
leaf_value=0.074015294036282195 0 -0 -0 -0 -0 0.0429618051340638 -0.046826266511349496 -0
leaf_weight=1.0681513920426366 0.46902751922607455 0.55517582828178991 0.14635279960930336 0.12834521196782567 0.55139989405870438 0.8649933598935603 1.2808702075853942 0.04874400608241547
leaf_count=6 3 12 4 2 4 5 21 2
internal_value=0 0.32964 0.544994 -0.0862156 0 0.294771 -0.356076 0.700706
internal_weight=0 1.81842 1.26325 3.29464 1.54474 0.993339 1.7499 1.1169
internal_count=59 24 12 35 11 7 24 8
shrinkage=0.0975091


Tree=77
num_leaves=9
num_cat=0
split_feature=1 3 5 9 9 4 11 1
split_gain=0.212391 0.339222 0.214066 0.220527 0.151259 0.136669 0.106971 0.041118
threshold=398.00000000000006 785.00000000000011 7.5000000000000009 27.566828743935105 27.755518590265456 67.15000000000002 26.000000000000004 307.00000000000006
decision_type=8 10 10 10 10 2 2 10
left_child=2 5 3 7 6 -2 -3 -1
right_child=1 4 -4 -5 -6 -7 -8 -9
leaf_value=-0 0 0.04370673043579789 -0 -0 -0 -0.051910040015652685 -0 0.065475830430465384
leaf_weight=0.023073889315128212 0.46902751922607455 0.91133160144090641 0.55517582828178991 0.14635279960930336 0.35959570854902256 1.3898580214008687 0.10386009514331818 1.0989340748637912
leaf_count=1 3 6 12 4 2 23 1 7
internal_value=0 -0.0815432 0.292806 0.495037 0 -0.40332 0.329979 0.64533
internal_weight=0 3.23367 1.82354 1.26836 1.37479 1.85889 1.01519 1.12201
internal_count=59 35 24 12 9 26 7 8
shrinkage=0.0975091


Tree=78
num_leaves=13
num_cat=0
split_feature=3 10 5 11 6 11 11 5 5 9 2 3
split_gain=0.595008 0.448271 0.468496 0.462577 0.314685 0.238339 0.224232 0.219205 0.152195 0.186194 0.0318049 0.0314437
threshold=685.00000000000011 1.0000000180025095e-35 7.5000000000000009 56.000000000000007 74.500000000000014 1.0000000180025095e-35 6.0000000000000009 2.5000000000000004 3.5000000000000004 27.755518590265456 2.5000000000000004 514.50000000000011
decision_type=8 2 10 2 2 2 2 10 10 10 10 10
left_child=1 2 3 6 8 -2 -1 -6 -3 11 -8 -10
right_child=5 4 -4 -5 7 -7 10 -9 9 -11 -12 -13
leaf_value=-0 0 -0 -0 -0 0 -0.083308340682229448 0.10146502585529024 -0.054040535755697956 0.054530381324945226 -0 -0 -0
leaf_weight=0.072686761617660411 0.10741804540157308 0.28201027959585223 0.28220181539654721 0.16637028753757466 0.45641847699880583 0.73181628063321102 1.1605852246284483 1.30637074355036 0.86544017493724801 0.16227038204669952 0.010071553289890178 0.022251555696129799
leaf_count=1 2 3 6 1 3 7 5 22 4 3 1 1
internal_value=0 0.0712516 0.47924 0.727094 -0 -0.684728 0.932238 -0.372763 0.102088 0.345501 1.0272 0.531323
internal_weight=0 4.78668 1.69192 1.40971 3.09476 0.839234 1.24334 1.76279 1.33197 1.04996 1.17066 0.887692
internal_count=59 50 14 8 36 9 7 25 11 8 6 5
shrinkage=0.0975091


Tree=79
num_leaves=11
num_cat=0
split_feature=4 5 11 1 4 6 1 11 1 1
split_gain=0.940111 0.347542 0.384465 0.315289 0.258399 0.289134 0.0817199 0.0496185 0.0134175 0.00878489
threshold=77.90000000000002 7.5000000000000009 56.000000000000007 862.50000000000011 91.700000000000017 87.500000000000014 322.00000000000006 1.0000000180025095e-35 364.50000000000006 442.50000000000006
decision_type=2 10 2 10 2 2 10 2 10 10
left_child=-1 2 3 4 5 6 -2 -3 -6 -10
right_child=1 7 -4 -5 8 -7 -8 -9 9 -11
leaf_value=-0.082763884941551805 -0 0 -0 -0 -0 -0 0.088459770845351129 -0.019927506260878251 0.014165162004165415 -0
leaf_weight=0.85045199654996384 0.030922070145608216 0.20354717411100839 0.33641281723976124 0.28641390800476063 0.41270932368934127 0.11182681471109381 1.7312784260138867 0.86064711399376381 0.67811830341815948 0.03123132511973381
leaf_count=9 1 2 2 3 4 1 13 19 4 1
internal_value=0 0.107103 0.317934 0.464251 0.572191 0.778312 0.87911 -0.0367762 0 0.111291
internal_weight=0 4.68311 3.61891 3.2825 2.99609 1.87403 1.7622 1.06419 1.12206 0.70935
internal_count=59 50 29 27 24 15 14 21 9 5
shrinkage=0.0975091


Tree=80
num_leaves=9
num_cat=0
split_feature=4 2 11 10 6 1 6 6
split_gain=0.817178 0.249966 0.303151 0.203294 0.207051 0.128169 0.045338 0.0246985
threshold=77.90000000000002 2.5000000000000004 56.000000000000007 1.0000000180025095e-35 74.500000000000014 322.00000000000006 74.500000000000014 78.500000000000014
decision_type=2 10 2 2 2 10 2 2
left_child=-1 2 3 5 -5 -2 -7 -6
right_child=1 -3 -4 4 7 6 -8 -9
leaf_value=-0.079000284735146031 -0 -0.0034165285579390988 -0 0.036259896645921177 -0.018018313458446587 -0 0.074515212633578215 0
leaf_weight=0.82329990342259396 0.065169291570782995 0.64595558680593956 0.33641281723976124 1.023938871920109 0.7519935481250285 0.021533250808715709 1.2698716968297956 0.53553606569766998
leaf_count=9 2 13 2 7 12 1 7 6
internal_value=0 0.0789297 0.252891 0.379838 0 0.674137 0.741085 -0.0909647
internal_weight=0 4.65041 4.00446 3.66804 2.31147 1.35657 1.2914 1.28753
internal_count=59 50 37 35 25 10 8 18
shrinkage=0.0975091


Tree=81
num_leaves=11
num_cat=0
split_feature=3 1 0 7 3 1 11 11 11 4
split_gain=0.41865 0.231974 0.26389 0.291505 0.178535 0.248055 0.0775424 0.119789 0.0719868 0.0307044
threshold=537.50000000000011 347.00000000000006 inf 1.5000000000000002 589.00000000000011 411.00000000000006 14.000000000000002 1.0000000180025095e-35 6.0000000000000009 81.200000000000017
decision_type=10 10 8 2 10 10 2 2 2 2
left_child=1 2 3 -1 5 8 7 -6 -2 -10
right_child=4 -3 -4 -5 6 -7 -8 -9 9 -11
leaf_value=-0.079820013396834574 -0 0 0 0 0 -0 0 -0.042277966191698518 -0 0.062610099280768369
leaf_weight=1.6984198438003666 0.045449614524841531 0.60724393604323257 0.13700915873050681 0.23403877019882191 0.13968940079212169 0.21384713053703308 0.61586611159145832 0.7543462309986354 0.018265234306454655 0.87396496534347534
leaf_count=18 1 10 1 3 3 5 7 6 1 4
internal_value=0 -0.443968 -0.583979 -0.689714 0 0.327637 -0.0885753 -0.269833 0.560327 0.618133
internal_weight=0 2.67671 2.06947 1.93246 2.66143 1.15153 1.5099 0.894036 0.93768 0.89223
internal_count=59 32 22 21 27 11 16 9 6 5
shrinkage=0.0975091


Tree=82
num_leaves=9
num_cat=0
split_feature=5 2 1 1 1 4 4 6
split_gain=0.729054 0.225414 0.303241 0.196149 0.494938 0.103101 0.0958058 0.0469812
threshold=3.5000000000000004 1.5000000000000002 350.50000000000006 338.00000000000006 984.50000000000011 90.15000000000002 92.200000000000017 82.500000000000014
decision_type=10 8 8 8 10 2 2 2
left_child=3 -2 -3 6 5 7 -1 -5
right_child=1 2 -4 4 -6 -7 -8 -9
leaf_value=-0.030427813346343414 0 -0 -0.084516464030231789 0.07121168227949104 -0 0 0 -0
leaf_weight=0.60991881042718921 0.33490384370088611 0.74224569182843003 1.4952901885844765 1.2034575790166853 0.24990694224834431 0.38816923648118962 0.22442916035652161 0.023671248927712329
leaf_count=4 3 14 25 7 1 3 1 1
internal_value=0 -0.545152 -0.649322 0.00686279 0.296081 0.589477 -0 0.704359
internal_weight=0 2.57244 2.23754 2.69955 1.86521 1.6153 0.834348 1.22713
internal_count=59 42 39 17 12 11 5 8
shrinkage=0.0975091


Tree=83
num_leaves=8
num_cat=0
split_feature=9 11 3 9 6 3 3
split_gain=0.713098 0.191623 0.190086 0.480137 0.376563 0.0654868 0.027875
threshold=24.880309890215901 6.0000000000000009 472.50000000000006 21.390540292866053 81.500000000000014 537.50000000000011 685.00000000000011
decision_type=10 2 8 10 2 8 10
left_child=2 -2 -1 -4 -5 -3 -7
right_child=1 5 3 4 -6 6 -8
leaf_value=0 -0 -0 0 -0.086845986549285548 0 0.047008500819008106 -0
leaf_weight=0.64958026632666621 0.52165586873888958 0.062551462557166482 0.60102867707610164 1.9683044641278686 0.33563602529466141 0.99608248472213745 0.023581793531775475
leaf_count=9 8 4 7 19 5 6 1
internal_value=0 0.130012 -0.454415 -0.552605 -0.743779 0.393131 0.456596
internal_weight=0 1.60387 3.55455 2.90497 2.30394 1.08222 1.01966
internal_count=59 19 40 31 24 11 7
shrinkage=0.0975091


Tree=84
num_leaves=7
num_cat=0
split_feature=2 5 4 4 4 7
split_gain=0.415801 0.553149 0.487869 0.315746 0.156919 0.0159709
threshold=2.5000000000000004 4.5000000000000009 79.100000000000009 93.200000000000017 81.950000000000017 1.0000000180025095e-35
decision_type=8 10 2 2 2 2
left_child=1 2 -1 -2 5 -3
right_child=3 4 -4 -5 -6 -7
leaf_value=-0 -0.062595720085800541 0.012682155509519606 0.079107328492189891 0 -0.033134004218186498 -0
leaf_weight=0.24954234808683429 1.3628232870250938 0.57017833366990078 1.2250778079032896 0.2438704092055558 1.0230962559580801 0.36418077535927296
leaf_count=3 19 4 6 3 20 4
internal_value=0 0.0644843 0.552642 -0.449379 -0.0434161 0
internal_weight=0 3.43208 1.47462 1.60669 1.95746 0.934359
internal_count=59 37 9 22 28 8
shrinkage=0.0975091


Tree=85
num_leaves=8
num_cat=0
split_feature=2 5 4 4 9 3 9
split_gain=0.344883 0.465417 0.44857 0.293505 0.280487 0.0522279 0.0148459
threshold=2.5000000000000004 4.5000000000000009 79.100000000000009 93.200000000000017 21.390540292866053 1120.5000000000002 21.125297583001053
decision_type=8 10 2 2 10 10 10
left_child=1 2 -1 -2 6 -6 -3
right_child=3 4 -4 -5 5 -7 -8
leaf_value=-0 -0.059586833337879785 -0 0.074646852720266901 0 -0.044410606604209667 0 0.012880071271005263
leaf_weight=0.24954234808683429 1.3134603342041371 0.16347673162817944 1.1955419331789015 0.2438704092055558 1.241754737216979 0.047421623021364094 0.4769071638584137
leaf_count=3 19 3 6 3 22 1 2
internal_value=0 0.0469259 0.508974 -0.417496 -0.0325531 -0.412453 0
internal_weight=0 3.37464 1.44508 1.55733 1.92956 1.28918 0.640384
internal_count=59 37 9 22 28 23 5
shrinkage=0.0975091


Tree=86
num_leaves=8
num_cat=0
split_feature=2 5 4 4 9 3 9
split_gain=0.287271 0.38745 0.412814 0.272628 0.245883 0.0490781 0.0132902
threshold=2.5000000000000004 4.5000000000000009 79.100000000000009 93.200000000000017 21.390540292866053 1120.5000000000002 21.125297583001053
decision_type=8 10 2 2 10 10 10
left_child=1 2 -1 -2 6 -6 -3
right_child=3 4 -4 -5 5 -7 -8
leaf_value=-0 -0.056698032865468331 -0 0.070499312428055641 0 -0.042238430030874012 0 0.012196029808430724
leaf_weight=0.24954234808683429 1.2672115424647925 0.16347673162817944 1.1659563034772871 0.2438704092055558 1.1997006763704119 0.047421623021364094 0.47558656334877009
leaf_count=3 19 3 6 3 22 1 2
internal_value=0 0.0369548 0.468129 -0.386953 -0.0119069 -0.389713 0
internal_weight=0 3.30168 1.4155 1.51108 1.88619 1.24712 0.639063
internal_count=59 37 9 22 28 23 5
shrinkage=0.0975091


Tree=87
num_leaves=8
num_cat=0
split_feature=9 1 5 5 1 9 11
split_gain=0.367668 0.358858 0.374535 0.351141 0.174472 0.0216351 0.0204828
threshold=23.465193784338904 697.00000000000011 9.5000000000000018 9.5000000000000018 303.50000000000006 31.784754766165005 34.000000000000007
decision_type=10 10 10 10 8 10 2
left_child=3 2 4 -1 -2 6 -6
right_child=1 -3 -4 -5 5 -7 -8
leaf_value=-0.05229553608485564 -0 -0 -0 0 0.062612056898186774 -0 -0
leaf_weight=1.3215658059343698 0.11044141836464529 0.42719842866063112 0.27931962348520745 0.68887915927916754 2.4906303524039695 0.012889433652162441 0.012098580598831066
leaf_count=19 5 3 4 6 19 1 2
internal_value=0 0.249709 0.424155 -0.239305 0.567012 0.62783 0.635183
internal_weight=0 3.33258 2.90538 2.01044 2.62606 2.51562 2.50273
internal_count=59 34 31 25 27 22 21
shrinkage=0.0975091


Tree=88
num_leaves=10
num_cat=0
split_feature=10 4 5 9 3 4 5 4 3
split_gain=0.268713 0.429315 0.892955 0.275091 0.0534634 0.0701682 0.0871599 0.00938481 0.00280337
threshold=1.0000000180025095e-35 91.450000000000017 8.5000000000000018 25.221769465958104 451.50000000000006 98.200000000000017 11.500000000000002 92.200000000000017 489.00000000000006
decision_type=2 2 10 10 10 2 10 2 10
left_child=3 2 -2 -1 -3 6 -6 -5 -4
right_child=1 4 8 7 5 -7 -8 -9 -10
leaf_value=-0 -0.074878309689520584 -0 -0 0.059983378835132641 0.039687049944295998 -0 -0 -0 0.0053921457816438687
leaf_weight=0.38319381792098273 1.9129811399616308 0.18286653049290169 0.12042666971683492 1.0002968609333034 0.93978891801089026 0.11017062515020359 0.094780787825584398 0.0058476869016886859 0.54278603196144093
leaf_count=9 23 4 2 5 7 1 1 1 6
internal_value=0 -0.0880263 -0.392989 0.365505 0.0633953 0.199264 0.30435 0.608288 0
internal_weight=0 3.9038 2.57619 1.38934 1.32761 1.14474 1.03457 1.00614 0.663213
internal_count=59 44 31 15 13 9 8 6 8
shrinkage=0.0975091


Tree=89
num_leaves=10
num_cat=0
split_feature=9 1 1 7 11 2 2 11 9
split_gain=0.237958 0.282084 0.239143 0.16234 0.159598 0.152721 0.149091 0.0167715 0.0168891
threshold=23.465193784338904 697.00000000000011 303.50000000000006 1.0000000180025095e-35 6.0000000000000009 3.5000000000000004 1.5000000000000002 34.000000000000007 31.784754766165005
decision_type=10 10 8 2 2 8 10 2 10
left_child=3 2 -2 -1 -5 7 -6 8 -4
right_child=1 -3 5 4 6 -7 -8 -9 -10
leaf_value=0 -0 -0 0.053748362331381222 0 0 -0 -0.057951617658084924 -0 -0
leaf_weight=0.34477660618722428 0.21860292740166265 0.41676480695605272 2.4645160511136068 0.30386488139629358 0.098384477198123821 0.11491162842139592 1.1949540763162074 0.012131949886679538 0.011982112191617378
leaf_count=7 6 3 19 3 1 3 14 2 1
internal_value=0 0.20701 0.36973 -0.189465 -0.352893 0.476501 -0.492902 0.538069 0.544641
internal_weight=0 3.23891 2.82214 1.94198 1.5972 2.60354 1.29334 2.48863 2.4765
internal_count=59 34 31 25 18 25 15 22 20
shrinkage=0.0975091


Tree=90
num_leaves=8
num_cat=0
split_feature=6 9 4 4 1 1 1
split_gain=0.436173 0.236715 0.156154 0.193566 0.0892802 0.0224616 0.00969494
threshold=80.500000000000014 27.755518590265456 95.250000000000014 74.000000000000014 290.50000000000006 364.50000000000006 442.50000000000006
decision_type=2 10 2 2 8 10 10
left_child=1 2 3 -1 -5 -4 -7
right_child=-2 -3 5 4 -6 6 -8
leaf_value=0 -0 -0 -0 -0 0.080133677041384535 0.018041110427611827 -0
leaf_weight=0.34652460366487536 1.4080868307501075 0.32595577836036671 0.40487264096736897 0.038500579074025487 3.1473707025870681 0.56540387123823166 0.025852983817458156
leaf_count=3 13 4 3 2 30 3 1
internal_value=0 0.570629 0.628929 0.732389 0.801862 0 0.152549
internal_weight=0 4.85448 4.52853 3.5324 3.18587 0.996129 0.591257
internal_count=59 46 42 35 32 7 4
shrinkage=0.0975091


Tree=91
num_leaves=6
num_cat=0
split_feature=2 6 9 5 1
split_gain=0.451489 0.515771 0.219849 0.225359 0.0806258
threshold=2.5000000000000004 84.500000000000014 29.580582187519255 10.500000000000002 307.00000000000006
decision_type=8 2 10 10 8
left_child=1 2 3 4 -1
right_child=-2 -3 -4 -5 -6
leaf_value=-0 -0 -0 -0 -0 0.071382921734265442
leaf_weight=0.040131615474820026 0.72072445740923263 0.67642928287386883 0.29910182952880848 0.11069179326295842 4.3792408658191562
leaf_count=2 16 6 3 2 30
internal_value=0 0.506057 0.623309 0.676048 0.717364
internal_weight=0 5.5056 4.82917 4.53006 4.41937
internal_count=59 43 37 34 32
shrinkage=0.0975091


Tree=92
num_leaves=10
num_cat=0
split_feature=6 5 4 4 9 1 1 1 1
split_gain=0.348213 0.259065 0.137701 0.187436 0.205254 0.147038 0.0165249 0.00010528 0.0166305
threshold=79.500000000000014 10.500000000000002 74.000000000000014 94.100000000000009 19.083673183572753 290.50000000000006 648.50000000000011 364.50000000000006 442.50000000000006
decision_type=2 10 2 2 10 8 8 10 10
left_child=1 2 -1 4 -4 -6 -2 -5 -9
right_child=6 -3 3 7 5 -7 -8 8 -10
leaf_value=-0 -0.011173006429492276 -0 -0 -0 -0 0.078996499034648421 0.0041167476778213993 0.013150539553196599 -0
leaf_weight=0.35012918710708607 0.70239856652915444 0.18069156259298316 0.095988102257252517 0.31238143146038044 0.065354527905583715 2.8441596231423318 0.96849023550748836 0.54617247730493546 0.10540288500487804
leaf_count=3 10 2 2 2 3 26 6 3 2
internal_value=0 0.491122 0.552885 0.601687 0.721633 0.773621 -0 0 0.0101321
internal_weight=0 4.50028 4.31959 3.96946 3.0055 2.90951 1.67089 0.963957 0.651575
internal_count=59 43 41 38 31 29 16 7 5
shrinkage=0.0975091


Tree=93
num_leaves=5
num_cat=0
split_feature=6 1 1 5
split_gain=0.471362 0.669104 0.346145 0.704804
threshold=83.500000000000014 332.50000000000006 648.50000000000011 1.0000000180025095e-35
decision_type=2 8 10 10
left_child=1 -1 3 -3
right_child=-2 2 -4 -5
leaf_value=0 0 0 0 -0.097872545474881598
leaf_weight=0.87731020618230093 0.65319766849279393 0.69363848865032274 0.61185584962368 2.2941956790164113
leaf_count=12 7 4 3 33
internal_value=0 -0.446714 -0.64187 -0.768079
internal_weight=0 4.477 3.59969 2.98783
internal_count=59 52 40 37
shrinkage=0.0975091


Tree=94
num_leaves=6
num_cat=0
split_feature=6 1 4 0 1
split_gain=0.421124 0.610737 0.417464 0.31585 0.0651276
threshold=83.500000000000014 332.50000000000006 94.65000000000002 inf 648.50000000000011
decision_type=2 8 2 8 10
left_child=1 -1 3 4 -3
right_child=-2 2 -4 -5 -6
leaf_value=0 0 -0.085749050230225513 0 0 -0
leaf_weight=0.87731020618230093 0.65319766849279393 2.4883851874619736 0.39008438959717734 0.13154518604278553 0.46031340956687922
leaf_count=12 7 33 4 1 2
internal_value=0 -0.412748 -0.606719 -0.728378 -0.804114
internal_weight=0 4.34764 3.47033 3.08024 2.9487
internal_count=59 52 40 36 35
shrinkage=0.0975091


Tree=95
num_leaves=5
num_cat=0
split_feature=6 1 5 1
split_gain=0.369355 0.548151 0.283459 0.663525
threshold=83.500000000000014 332.50000000000006 1.0000000180025095e-35 648.50000000000011
decision_type=2 8 10 10
left_child=1 -1 -3 -4
right_child=-2 2 3 -5
leaf_value=0 0 -0 -0.091541451330622997 0
leaf_weight=0.87731020618230093 0.65319766849279393 1.0991914272308352 2.0645085363648836 0.21194644272327409
leaf_count=12 7 6 33 1
internal_value=0 -0.375959 -0.56622 -0.748677
internal_weight=0 4.25296 3.37565 2.27645
internal_count=59 52 40 34
shrinkage=0.0975091


Tree=96
num_leaves=5
num_cat=0
split_feature=3 6 6 6
split_gain=0.0052364 0.141762 0.0395284 0.0196782
threshold=477.00000000000006 85.500000000000014 75.500000000000014 85.500000000000014
decision_type=10 2 2 2
left_child=2 -2 -1 -4
right_child=1 -3 3 -5
leaf_value=-0 -0.023924449196093628 0 0.022027040071427927 -0
leaf_weight=0.54948323592543613 1.9889947483316066 0.49449956417083729 0.8793617021292448 0.041750814765691757
leaf_count=7 38 4 9 1
internal_value=0 -0.0130503 0.0507445 0.184905
internal_weight=0 2.48349 1.4706 0.921113
internal_count=59 42 17 10
shrinkage=0.0975091


Tree=97
num_leaves=5
num_cat=0
split_feature=4 4 4 6
split_gain=0.0640266 0.127478 0.0177036 0.00697909
threshold=75.200000000000017 88.300000000000026 90.15000000000002 77.500000000000014
decision_type=2 2 2 2
left_child=3 -2 -3 -1
right_child=1 2 -4 -5
leaf_value=-0 -0.026033744673476869 0.013470623772914386 -0 0.020868087962265341
leaf_weight=0.015056829899549816 1.5575143885798755 0.55367795098572947 0.85371851176023483 0.95359347760677315
leaf_count=1 23 7 21 7
internal_value=0 -0.0552783 0 0.200223
internal_weight=0 2.96491 1.4074 0.96865
internal_count=59 51 28 8
shrinkage=0.0975091


Tree=98
num_leaves=4
num_cat=0
split_feature=9 9 6
split_gain=0.128075 0.311868 0.081255
threshold=22.319410483313604 24.982808819107955 85.500000000000014
decision_type=10 10 2
left_child=-1 -2 -3
right_child=1 2 -4
leaf_value=-0.024435441541515605 0.040968340619837208 -0.024878838420815851 0
leaf_weight=0.87686418043449554 1.6733040353283288 0.87423069309443213 0.48381531238555914
leaf_count=17 23 15 4
internal_value=0 0.120596 -0
internal_weight=0 3.03135 1.35805
internal_count=59 42 19
shrinkage=0.0975091


Tree=99
num_leaves=5
num_cat=0
split_feature=3 1 5 5
split_gain=0.993538 0.20561 0.16698 0.337385
threshold=720.00000000000011 332.50000000000006 1.0000000180025095e-35 8.5000000000000018
decision_type=8 10 8 10
left_child=1 -1 -2 -4
right_child=2 -3 3 -5
leaf_value=-0 -0 -0.07393842809088659 0.057047614976695991 -0
leaf_weight=0.70962302014231715 0.60968027636408839 2.0375154931098223 1.1552258282899854 0.26301664859056462
leaf_count=13 4 34 6 2
internal_value=0 -0.615118 0.0890514 0.322177
internal_weight=0 2.74714 2.02792 1.41824
internal_count=59 47 12 8
shrinkage=0.0975091


Tree=100
num_leaves=5
num_cat=0
split_feature=1 1 9 1
split_gain=0.760595 0.169965 0.0876406 0.0499518
threshold=547.50000000000011 332.50000000000006 23.659356047209453 607.50000000000011
decision_type=8 10 10 8
left_child=1 -1 -2 -4
right_child=2 -3 3 -5
leaf_value=-0 -0 -0.069298436537080718 -0 0.033243854529254789
leaf_weight=0.70962302014231715 0.92675919458270095 1.8231103387661276 0.37263945490121808 0.81265727803111076
leaf_count=13 8 30 3 5
internal_value=0 -0.568591 0.0115608 0.237529
internal_weight=0 2.53273 2.11206 1.1853
internal_count=59 43 16 8
shrinkage=0.0975091


Tree=101
num_leaves=5
num_cat=0
split_feature=3 1 5 5
split_gain=0.784223 0.163208 0.129517 0.299983
threshold=720.00000000000011 332.50000000000006 1.0000000180025095e-35 8.5000000000000018
decision_type=8 10 8 10
left_child=1 -1 -2 -4
right_child=2 -3 3 -5
leaf_value=-0 -0 -0.06813293810835816 0.0528185738743173 -0
leaf_weight=0.70962302014231715 0.60814072564244237 1.8559506996534763 1.1113980561494825 0.26301664859056484
leaf_count=13 4 34 6 2
internal_value=0 -0.561111 0.0518132 0.278742
internal_weight=0 2.56557 1.98256 1.37441
internal_count=59 47 12 8
shrinkage=0.0975091


Tree=102
num_leaves=10
num_cat=0
split_feature=5 9 11 6 11 3 9 11 1
split_gain=0.485852 0.679871 0.177962 0.171641 0.0627149 0.023203 0.121794 0.00240229 0.0078189
threshold=7.5000000000000009 23.247980724143357 1.0000000180025095e-35 73.500000000000014 30.000000000000004 983.50000000000011 20.387833523798452 44.000000000000007 515.00000000000011
decision_type=10 10 2 2 2 10 10 2 10
left_child=1 7 -3 -4 -5 6 -2 8 -1
right_child=5 2 3 4 -6 -7 -8 -9 -10
leaf_value=-0.0094936439723975162 0 -0 -0 0.090045268597844785 -0 0 -0.03169478233151915 0 0
leaf_weight=0.70430836360901616 0.36413634940981843 0.12419184343889345 0.066619882360100635 1.7816277099773286 0.023346283473074325 0.24142740666866289 0.99842584319412708 0.24968717992305761 0.21659264527261257
leaf_count=12 4 4 2 11 2 1 18 1 4
internal_value=0 0.459045 0.7757 0.845127 0.90269 -0 -0.115593 -0 -0.0430727
internal_weight=0 3.16637 1.99579 1.87159 1.80497 1.60399 1.36256 1.17059 0.920901
internal_count=59 36 19 15 13 23 22 17 16
shrinkage=0.0975091


Tree=103
num_leaves=9
num_cat=0
split_feature=5 9 11 6 11 3 9 11
split_gain=0.410913 0.593467 0.16157 0.158315 0.057987 0.0167795 0.110915 0.00187059
threshold=7.5000000000000009 23.247980724143357 1.0000000180025095e-35 73.500000000000014 30.000000000000004 983.50000000000011 20.387833523798452 44.000000000000007
decision_type=10 10 2 2 2 10 10 2
left_child=1 7 -3 -4 -5 6 -2 -1
right_child=5 2 3 4 -6 -7 -8 -9
leaf_value=-0.0037139277096159594 0 -0 -0 0.084846590542288894 -0 0 -0.030015351971881533 0
leaf_weight=0.91548485402017843 0.36413634940981843 0.12419184343889345 0.066619882360100635 1.7318927776068447 0.023346283473074325 0.24142740666866289 0.97368849441409122 0.24968717992305761
leaf_count=16 4 4 2 11 2 1 18 1
internal_value=0 0.422828 0.724139 0.792222 0.849475 -0 -0.0990069 -0
