tree
version=v3
num_class=1
num_tree_per_iteration=1
label_index=0
max_feature_idx=11
objective=binary sigmoid:1
feature_names=Sleepy_complete Simple_reaction_time_Ex5 new_BM_frequency Choice_reaction_time_Ex5 CASIX4 Olfaction_complete_Ex5_Ex4 ECGage new_smoke TBI_LOC BMIX4 HYPBP1 Coffee_oz_Ex1
feature_infos=[0:1] [1:1347] [0:4] [1:1812] [7.5:99] [0:12] [72:90] [0:2] [0:1] [15.894779189005:39.3445072771772] [0:1] [0:64]
tree_sizes=805 1373 962 1304 1194 1262 1251 973 1325 1235 957 944 1109 948 1255 782 782 865

Tree=0
num_leaves=7
num_cat=0
split_feature=5 2 9 5 3 3
split_gain=16.674 4.76445 2.48046 1.13494 0.834822 1.77963
threshold=3.5000000000000004 1.5000000000000002 20.297478922030802 7.5000000000000009 477.00000000000006 470.00000000000006
decision_type=8 8 8 10 8 10
left_child=2 3 -1 -2 5 -3
right_child=1 4 -4 -5 -6 -7
leaf_value=-1.2237754316221157 -1.0459036878304941 -1.2864401931755223 -0.946726967680802 -1.2237754316221157 -1.31678622769306 -1.1067287124156451
leaf_weight=0.17561984062194702 0.52685952186584373 1.4049587249755866 1.7561984062194824 0.17561984062194824 5.9710745811462402 0.35123968124389637
leaf_count=1 3 8 10 1 34 2
internal_value=0 -0.480949 2.52629 1.31541 -0.780752 -0
internal_weight=0 8.42975 1.93182 0.702479 7.72727 1.7562
internal_count=59 48 11 4 44 10
shrinkage=1


Tree=1
num_leaves=14
num_cat=0
split_feature=1 9 6 11 3 1 9 6 1 6 10 3 1
split_gain=9.31091 1.57267 1.75982 2.10802 1.4452 1.72808 1.52908 1.58315 1.48352 1.295 0.35276 0.450871 0.00359897
threshold=648.50000000000011 20.297478922030802 76.500000000000014 34.000000000000007 481.50000000000006 305.00000000000006 24.988055647129205 78.500000000000014 545.00000000000011 73.500000000000014 1.0000000180025095e-35 655.50000000000011 369.50000000000006
decision_type=8 8 2 2 10 10 10 2 10 2 2 10 10
left_child=4 -2 -3 -4 5 -1 7 -7 9 12 11 -10 -6
right_child=1 2 3 -5 8 6 -8 -9 10 -11 -12 -13 -14
leaf_value=-0.043709223649107128 -0 -0 0.25998647834028332 -0 0.007711977341700235 0.19553527124175307 -0 -0 -0 -0.10078724163938076 -0 0.099760875289717665 -0
leaf_weight=1.0176166892051681 0.17561984062194946 0.16668318212032307 1.5674827992916105 0.16668318212032307 0.20139893889427171 0.7672815769910809 0.33920556306838989 0.20139893889427185 0.16668318212032296 4.509382575750351 0.50004954636096965 0.39380492269992823 0.16668318212032318
leaf_count=6 1 1 8 1 1 4 2 1 1 27 3 2 1
internal_value=0 1.84721 2.08972 2.35521 -0.343977 0.102739 0.937111 1.4963 -0.621578 -0.864225 0 0.614416 0
internal_weight=0 2.07647 1.90085 1.73417 8.26351 2.3255 1.30789 0.968681 5.938 4.87746 1.06054 0.560488 0.368082
internal_count=59 11 10 9 48 13 7 5 35 29 6 3 2
shrinkage=0.0975091


Tree=2
num_leaves=9
num_cat=0
split_feature=5 2 9 1 3 3 5 1
split_gain=10.2798 3.66982 1.51075 1.0265 1.00158 1.32272 0.770557 0.00797023
threshold=3.5000000000000004 1.5000000000000002 20.297478922030802 648.50000000000011 477.00000000000006 470.00000000000006 7.5000000000000009 713.50000000000011
decision_type=8 8 8 10 8 10 10 10
left_child=2 6 -1 4 5 -3 -2 -5
right_child=1 3 -4 7 -6 -7 -8 -9
leaf_value=-0 0.13970144023273978 -0.057901725645803134 0.19702646341484628 0.011577631692491238 -0.10122983585727112 0.093589588527769274 -0 -0
leaf_weight=0.17561984062194769 0.62624081969261247 1.3315896391868589 2.1674827635288239 0.1913979947566985 5.0821193754673004 0.4090537130832671 0.16593490540981293 0.16668318212032318
leaf_count=1 3 8 10 1 32 2 1 1
internal_value=0 -0.418942 1.80635 -0.714086 -0.823361 -0 1.0487 0
internal_weight=0 7.97302 2.3431 7.18084 6.82276 1.74064 0.792176 0.358081
internal_count=59 48 11 44 42 10 4 2
shrinkage=0.0975091


Tree=3
num_leaves=13
num_cat=0
split_feature=1 9 6 9 1 3 8 2 5 3 6 6
split_gain=5.83185 1.99716 1.41339 1.5401 1.33975 2.06062 1.25135 1.25884 1.20166 1.08419 0.0312336 0.000457871
threshold=587.50000000000011 22.953387298421355 89.500000000000014 27.821323076758404 397.50000000000006 464.50000000000006 1.0000000180025095e-35 1.0000000180025095e-35 9.5000000000000018 584.00000000000011 76.500000000000014 87.500000000000014
decision_type=8 8 2 10 10 10 10 8 10 10 2 2
left_child=1 4 3 8 5 -1 7 11 -2 -7 -8 -3
right_child=2 6 -4 -5 -6 9 10 -9 -10 -11 -12 -13
leaf_value=-0 0.18426557144241973 0.0027225199183465876 -0 -0 -0.035862273895092098 0.18903699380825018 0.023634215753849122 -0.10537197741475572 -0 -0 -0 -0
leaf_weight=0.47949407994747095 1.9932221919298192 0.2133849263191222 0.23559062182903279 0.21791838109493245 0.92919783294200875 0.78161290287971485 0.15769711136817921 4.7693071216344833 0.15695840120315541 0.14736805856227875 0.15983135998249054 0.19597603380680084
leaf_count=3 10 1 1 1 6 4 1 28 1 1 1 1
internal_value=0 -0.432263 1.20145 1.44325 0.113302 0.819926 -0.771722 -0.924648 1.69497 1.58152 0 0
internal_weight=0 7.83387 2.60369 2.3681 2.33767 1.40848 5.4962 5.17867 2.15018 0.928981 0.317528 0.409361
internal_count=59 46 13 12 14 8 32 30 11 5 2 2
shrinkage=0.0975091


Tree=4
num_leaves=11
num_cat=0
split_feature=0 5 9 8 4 11 5 4 4 4
split_gain=3.95715 2.51164 1.91404 1.85436 1.10763 0.758023 0.521571 0.395553 0.100686 0.608657
threshold=1.0000000180025095e-35 1.5000000000000002 27.821323076758404 1.0000000180025095e-35 65.550000000000011 1.0000000180025095e-35 9.5000000000000018 88.700000000000017 95.250000000000014 79.100000000000009
decision_type=10 10 10 10 2 2 10 2 2 2
left_child=1 2 -1 4 -3 8 -7 -5 9 -6
right_child=-2 3 -4 7 5 6 -8 -9 -10 -11
leaf_value=0.14893511399359335 0.16618909268043555 0.0050816047994699876 -0 0.093404173712010208 0.0046694255288548345 -0.10478708249724961 -0 -0 0.016500027424197865 -0.060503093889121395
leaf_weight=0.88718287646770366 0.84079474210739213 0.20786310732364463 0.42352427542209625 0.39708699285984023 0.20884762704372395 4.6830907464027405 0.9432883709669112 0.15983135998249054 0.17798861861228932 1.4239538311958311
leaf_count=4 4 1 2 2 1 28 6 1 1 9
internal_value=0 -0.208198 0.781209 -0.472183 -0.656344 -0.764101 -0.941475 0.578881 -0 -0.205665
internal_weight=0 9.51266 1.31071 8.20195 7.64503 7.43717 5.62638 0.556918 1.81079 1.6328
internal_count=59 55 6 49 46 45 34 3 11 10
shrinkage=0.0975091


Tree=5
num_leaves=12
num_cat=0
split_feature=0 3 9 8 9 4 3 3 9 3 3
split_gain=3.23538 2.32267 1.23059 1.32559 1.01157 0.616911 0.316761 1.59532 0.511685 0.00147078 0.00124377
threshold=1.0000000180025095e-35 777.50000000000011 23.659356047209453 1.0000000180025095e-35 26.833024828006803 75.800000000000026 485.00000000000006 464.50000000000006 23.619361239709104 899.00000000000011 639.50000000000011
decision_type=10 8 8 10 10 2 10 10 10 10 10
left_child=1 2 6 -4 5 9 7 -1 -8 -3 -10
right_child=-2 4 3 -5 -6 -7 8 -9 10 -11 -12
leaf_value=-0.010830087640430858 0.14898840797263671 -0 -0.097880965716694648 0 -0 0.13393199848042767 -0.057986466764341146 0.12848550074211681 -0 0.0049007471065821975 0.0045030540480672197
leaf_weight=0.63142950832843536 0.88700670003891069 0.41852529346942968 3.9454250633716583 0.32877759635448445 0.36910320818424208 0.92279896140098561 1.4364971965551374 0.64610634744167328 0.12800373136997212 0.20829609036445615 0.20924271643161771
leaf_count=4 4 2 25 2 2 4 10 3 1 1 1
internal_value=0 -0.174094 -0.483003 -0.806959 0.597306 0.975251 0 0.337572 -0.244667 0 0
internal_weight=0 9.24421 7.32548 4.2742 1.91872 1.54962 3.05128 1.27754 1.77374 0.626821 0.337246
internal_count=59 55 46 27 9 7 19 7 12 3 2
shrinkage=0.0975091


Tree=6
num_leaves=12
num_cat=0
split_feature=3 6 3 3 5 4 4 5 4 6 4
split_gain=2.73871 2.85321 0.988976 2.8484 0.944145 0.907153 0.591499 0.835055 0.335682 0.225354 0.319109
threshold=777.50000000000011 78.500000000000014 492.50000000000006 453.50000000000006 6.5000000000000009 96.200000000000017 79.750000000000014 2.5000000000000004 98.200000000000017 74.500000000000014 74.000000000000014
decision_type=8 2 10 10 10 2 2 10 2 2 2
left_child=1 2 3 8 -2 -5 9 -8 -1 -4 -11
right_child=4 -3 6 5 -6 -7 7 -9 -10 10 -12
leaf_value=-0.047992797375585712 0.13734438509246585 -0.087817802868803363 -0 0.17993157063518436 -0 -0 0.0023594796030490671 -0.070881907294768176 0.0034323257499812095 -0 0.094940830989317923
leaf_weight=1.0087366551160797 1.4802714884281165 2.8231632262468338 0.13822153210639987 1.1188674718141554 0.18705315887928001 0.12903606891632069 0.21420948207378421 1.9571826979517934 0.21175290644168843 0.12287010997533798 0.4054054319858551
leaf_count=6 6 19 1 6 1 1 1 14 1 1 2
internal_value=0 -0.0961407 0.24416 0.683431 1.15742 1.60462 -0 -0.394988 -0 0.432235 0.682072
internal_weight=0 8.12945 5.30628 2.46839 1.66732 1.2479 2.83789 2.17139 1.22049 0.666497 0.528276
internal_count=59 52 33 14 7 7 19 15 7 4 3
shrinkage=0.0975091


Tree=7
num_leaves=9
num_cat=0
split_feature=1 1 6 1 2 11 3 3
split_gain=5.55248 2.72277 2.19376 2.92022 1.3812 1.21746 0.984725 1.07432
threshold=587.50000000000011 362.00000000000006 77.500000000000014 290.50000000000006 1.5000000000000002 26.000000000000004 453.50000000000006 584.00000000000011
decision_type=8 10 2 10 10 2 10 10
left_child=1 2 3 -1 -3 -2 -5 -8
right_child=5 4 -4 6 -6 -7 7 -9
leaf_value=-0.0087866639231123332 0.16200582266342289 0.0033096410444465839 -0.045566319383378434 -0 -0.094716588976165153 -0 0.20411802823784958 -0
leaf_weight=0.61370679736137379 1.9143754541873945 0.21203684806823719 0.9929217770695683 0.13613475859165181 4.2033653035759926 0.18705315887928001 1.2633565068244932 0.12591102719306935
leaf_count=4 8 1 6 1 31 1 6 1
internal_value=0 -0.257147 0.296487 0.936377 -0.783277 1.43526 1.64115 1.86005
internal_weight=0 7.54743 3.13203 2.13911 4.4154 2.10143 1.5254 1.38927
internal_count=59 50 18 12 32 9 8 7
shrinkage=0.0975091


Tree=8
num_leaves=13
num_cat=0
split_feature=3 3 6 5 7 9 6 3 7 2 11 4
split_gain=1.80384 2.69281 1.42098 0.991976 0.823472 0.755647 0.636459 0.502719 0.481877 0.431388 0.25928 0.345764
threshold=474.00000000000006 453.50000000000006 78.500000000000014 5.5000000000000009 1.5000000000000002 27.667418381959056 76.500000000000014 533.00000000000011 1.5000000000000002 1.5000000000000002 18.000000000000004 95.750000000000014
decision_type=10 8 2 10 2 10 2 10 2 10 2 2
left_child=1 9 3 7 5 -3 -5 -2 -9 -1 11 -8
right_child=2 4 -4 6 -6 -7 10 8 -10 -11 -12 -13
leaf_value=0.0031912975966924832 -0 0.15675224047826938 -0.076855371060527575 -0.057410928440689672 -0 -0 0.085548431376214693 0.11839255278377693 -0 -0.052521525920719479 -0 -0
leaf_weight=0.21230998635292089 0.16597689688205752 1.91000384092331 2.2386831343173981 1.5558669418096545 0.15505680441856373 0.12688657641410817 0.4254024177789687 0.94607493281364419 0.12591102719306946 1.1402337402105329 0.3106866255402565 0.15624721348285675
leaf_count=1 1 8 17 13 1 1 2 4 1 7 2 1
internal_value=0 0.64674 -0.184445 0.0548044 1.29803 1.4611 -0.1231 0.772292 1.00627 -0.0703462 0.0899257 0.531075
internal_weight=0 3.54449 5.92485 3.68617 2.19195 2.03689 2.4482 1.23796 1.07199 1.35254 0.892336 0.58165
internal_count=59 18 41 24 10 9 18 6 5 8 5 3
shrinkage=0.0975091


Tree=9
num_leaves=12
num_cat=0
split_feature=2 4 3 1 5 9 5 1 4 3 3
split_gain=3.88481 2.13619 1.174 0.790029 0.640344 0.622506 0.469307 0.317394 0.0243567 0.0153411 0.331751
threshold=1.5000000000000002 93.250000000000014 518.50000000000011 580.50000000000011 9.5000000000000018 27.667418381959056 1.5000000000000002 648.50000000000011 79.100000000000009 470.00000000000006 492.50000000000006
decision_type=10 2 10 8 10 10 10 8 2 10 10
left_child=8 3 5 4 6 -3 -2 -5 -1 -6 -11
right_child=1 2 -4 7 9 -7 -8 -9 -10 10 -12
leaf_value=0 0 0.14653976915465367 -0 0.060892483911574986 -0.0089454448267023024 -0 -0.087759021969356865 -0.0019599255488221144 0.1790787616664313 0.062377701518965586 -0
leaf_weight=0.38328067958355017 0.65498717129230311 0.88578821718692757 0.35006523877382267 0.43858195841312375 0.61719998717308011 0.1212596520781517 3.4326469898223877 0.92224246263504051 0.7784145027399062 0.45381490886211401 0.37376293540000921
leaf_count=2 3 4 3 2 4 1 27 4 4 2 3
internal_value=0 -0.105599 0.778313 -0.403592 -0.578078 1.26863 -0.765449 0 1.58593 0 0.0763242
internal_weight=0 8.25035 1.35711 6.89324 5.53241 1.00705 4.08763 1.36082 1.1617 1.44478 0.827578
internal_count=59 53 8 45 39 5 30 6 6 9 5
shrinkage=0.0975091


Tree=10
num_leaves=9
num_cat=0
split_feature=2 3 3 9 8 1 6 1
split_gain=3.337 1.38223 3.3341 2.13583 1.37484 1.11553 0.592273 0.283006
threshold=1.5000000000000002 492.50000000000006 464.50000000000006 24.916551068528602 1.0000000180025095e-35 587.50000000000011 83.500000000000014 755.00000000000011
decision_type=10 10 10 10 10 10 2 10
left_child=-1 2 6 4 -4 -3 -2 -7
right_child=1 5 3 -5 -6 7 -8 -9
leaf_value=0.14169954561503204 -0.074761340467913495 -0.082533198861522147 0.17479834074599648 -0 -0 0.057419690504291639 0 -0
leaf_weight=1.2033927515149123 1.7073174938559512 2.9879881665110593 1.6108152419328692 0.46801190823316557 0.19152130186557759 0.44218192994594557 0.23701944947242728 0.43947340548038483
leaf_count=6 11 25 7 4 1 2 1 2
internal_value=0 -0.0944042 0.189383 1.04134 1.51625 -0.551998 -0.521793 0
internal_weight=0 8.08433 4.21469 2.27035 1.80234 3.86964 1.94434 0.881655
internal_count=59 53 24 12 8 29 12 4
shrinkage=0.0975091


Tree=11
num_leaves=9
num_cat=0
split_feature=3 3 1 11 9 1 8 3
split_gain=2.39699 2.91311 1.74986 1.70064 1.64061 0.907061 0.73188 0.548682
threshold=492.50000000000006 453.50000000000006 587.50000000000011 22.000000000000004 27.667418381959056 755.00000000000011 1.0000000180025095e-35 376.00000000000006
decision_type=10 8 10 2 10 10 10 10
left_child=1 7 -2 4 6 -4 -3 -1
right_child=2 3 5 -5 -6 -7 -8 -9
leaf_value=0 -0.081347002267231669 0.1852136251812404 0.094733237248909613 -0 -0 -0 0 -0.058178208482074424
leaf_weight=0.22662271559238423 2.9643785431981087 2.0328044891357435 0.68903979659080483 0.67812851071357716 0.26961093395948399 0.43947340548038483 0.43826496601104725 1.3960314244031904
leaf_count=1 26 9 3 4 2 2 2 10
internal_value=0 0.57308 -0.387236 1.10251 1.42345 0.253137 1.67179 -0.20192
internal_weight=0 5.04146 4.09289 3.41881 2.74068 1.12851 2.47107 1.62265
internal_count=59 28 31 17 13 5 11 11
shrinkage=0.0975091


Tree=12
num_leaves=11
num_cat=0
split_feature=3 6 6 2 3 2 1 3 1 1
split_gain=4.83784 2.58855 1.16397 1.48453 0.686427 0.580736 0.580073 0.100508 0.100166 0.308242
threshold=649.50000000000011 77.500000000000014 73.500000000000014 1.5000000000000002 1120.5000000000002 3.5000000000000004 545.00000000000011 830.50000000000011 290.50000000000006 340.00000000000006
decision_type=8 2 2 10 10 10 8 8 10 10
left_child=2 7 8 -4 5 6 -3 -2 -1 -10
right_child=1 4 3 -5 -6 -7 -8 -9 9 -11
leaf_value=-0 0 -0 0.027596394169240722 -0.088542746754918855 0 -0 0.18127145835197189 -0.03056267644253588 0.06558250505436676 -0
leaf_weight=0.30668184161186107 0.2378649562597287 0.080284498631954304 0.14620915055274952 4.8180610239505768 0.46466197073459614 0.0871629863977431 1.8249669969081879 0.6491243839263916 0.5288778692483902 0.23294972628355023
leaf_count=2 1 1 1 34 2 1 9 3 3 2
internal_value=0 0.922434 -0.511198 -0.729161 1.42542 1.6495 1.75491 -0 0 0.296969
internal_weight=0 3.34407 6.03278 4.96427 2.45708 1.99241 1.90525 0.886989 1.06851 0.761828
internal_count=59 17 42 35 13 11 10 4 7 5
shrinkage=0.0975091


Tree=13
num_leaves=9
num_cat=0
split_feature=3 6 9 5 9 9 1 3
split_gain=3.92685 2.1631 2.14529 1.53363 1.3035 1.15498 0.462501 0.0890734
threshold=649.50000000000011 77.500000000000014 25.124080134986503 6.5000000000000009 21.192428539675802 29.442261173011556 545.00000000000011 830.50000000000011
decision_type=8 2 10 10 8 10 8 8
left_child=2 7 -1 5 -3 -4 -6 -2
right_child=1 4 3 -5 6 -7 -8 -9
leaf_value=-0.082526276381927263 0 -0 0.1694417855745797 -0.019034244958461573 -0 -0 0.1543347640155307 -0.028862356056195092
leaf_weight=4.3680788427591315 0.2378649562597287 0.2170951664447788 0.53792686760425545 0.71598135679960251 0.080284498631954526 0.19088578224182129 2.2199092656373978 0.64270101487636566
leaf_count=33 1 1 3 5 1 1 11 3
internal_value=0 0.825286 -0.468485 0.241927 1.27933 1.20398 1.50233 -0
internal_weight=0 3.39785 5.81287 1.44479 2.51729 0.728813 2.30019 0.880566
internal_count=59 17 42 9 13 4 12 4
shrinkage=0.0975091


Tree=14
num_leaves=12
num_cat=0
split_feature=9 6 1 1 9 6 5 9 9 9 1
split_gain=2.61367 1.86118 1.05849 1.05164 0.310649 0.234031 0.556642 0.404139 0.0256121 0.00874336 0.166279
threshold=23.728631858810555 77.500000000000014 993.00000000000011 545.00000000000011 22.910705281896604 73.500000000000014 6.5000000000000009 24.604345616010253 25.618536566196703 22.953387298421355 648.50000000000011
decision_type=8 2 8 8 10 2 10 10 10 10 10
left_child=2 5 4 8 -1 6 -2 -7 -3 -6 -11
right_child=1 3 -4 -5 9 7 -8 -9 -10 10 -12
leaf_value=-0.087135342876683008 0.086321677732380947 -0.002013263277720691 0.0097007360327536398 0.15152771870947301 0 0 -0 -0.05950471587505738 0.021087121851269892 -0.035387460397005931 0
leaf_weight=2.8074879422783843 0.41488148272037623 0.57686159014701877 0.46867057681083674 1.4260446801781652 0.24474436044692985 0.23786495625972737 0.36612197756767273 1.1743675395846365 0.16502179205417633 0.95492124557495073 0.23189666867256165
leaf_count=21 2 5 2 7 1 1 3 7 1 8 1
internal_value=0 0.550303 -0.481822 1.13857 -0.695261 -0 0.230888 -0.310729 0 -0 -0.0748461
internal_weight=0 4.36116 4.70772 2.16793 4.23905 2.19324 0.781003 1.41223 0.741883 1.43156 1.18682
internal_count=59 26 33 13 31 13 5 8 6 10 9
shrinkage=0.0975091


Tree=15
num_leaves=7
num_cat=0
split_feature=5 3 6 7 11 6
split_gain=3.63331 1.23031 0.818473 0.903706 0.512957 0.0190898
threshold=1.0000000180025095e-35 671.50000000000011 80.500000000000014 1.5000000000000002 50.000000000000007 74.500000000000014
decision_type=10 8 2 2 2 2
left_child=-1 4 3 -3 5 -2
right_child=1 2 -4 -5 -6 -7
leaf_value=0.12944029058300549 -0 0.1044419135098828 -0.026283858825457029 -0 0 -0.077791154354171513
leaf_weight=1.1389685869216917 1.17400936037302 1.0709827691316602 0.67986590415239323 0.24349717795848835 0.59034026414155949 3.8977066650986671
leaf_count=5 9 5 4 1 4 31
internal_value=0 -0.347279 0.0714864 0.668259 -0.601892 -0.704089
internal_weight=0 7.6564 1.99435 1.31448 5.66206 5.07172
internal_count=59 54 10 6 44 40
shrinkage=0.0975091


Tree=16
num_leaves=7
num_cat=0
split_feature=5 1 9 1 4 5
split_gain=3.13001 1.22151 1.19316 1.08778 0.791058 0.103312
threshold=1.0000000180025095e-35 549.00000000000011 23.920366350694454 713.50000000000011 98.200000000000017 4.5000000000000009
decision_type=10 8 10 10 2 10
left_child=-1 4 -3 -4 5 -2
right_child=1 2 3 -5 -6 -7
leaf_value=0.11945677248806789 -0 -0.033346093304013447 0.12682045963683836 -0 0 -0.077114621233696598
leaf_weight=1.1447020918130872 0.9322681501507758 0.7193450778722762 0.91419705748558011 0.23685942590236664 0.36490900814533217 4.3284053206443787
leaf_count=5 6 4 4 1 2 37
internal_value=0 -0.328849 0.107456 0.845899 -0.584068 -0.709662
internal_weight=0 7.49598 1.8704 1.15106 5.62558 5.26067
internal_count=59 54 9 5 45 43
shrinkage=0.0975091


Tree=17
num_leaves=8
num_cat=0
split_feature=5 1 1 9 2 6 6
split_gain=2.68243 1.03186 1.01099 0.716963 0.297279 0.266907 0.061059
threshold=1.0000000180025095e-35 549.00000000000011 607.50000000000011 18.796010714575555 2.5000000000000004 85.500000000000014 74.500000000000014
decision_type=10 8 8 8 8 2 2
left_child=-1 3 5 -2 -4 -3 -5
right_child=1 2 4 6 -6 -7 -8
leaf_value=0.11076297881158723 0 0.10581435932258647 -0.050757926077281038 -0 0 -0 -0.074927961511288416
leaf_weight=1.1435290724039076 0.38017188012599934 0.68717087805271115 0.86360691487789132 1.1296114251017568 0.24134294688701641 0.082898750901222243 3.9014821350574493
leaf_count=5 2 3 4 9 1 1 34
internal_value=0 -0.307512 0.0658458 -0.549444 -0.160424 0.926804 -0.675107
internal_weight=0 7.28628 1.87502 5.41127 1.10495 0.77007 5.03109
internal_count=59 54 9 45 5 4 43
shrinkage=0.0975091


end of trees

feature importances:
Choice_reaction_time_Ex5=35
Simple_reaction_time_Ex5=28
BMIX4=24
ECGage=21
Olfaction_complete_Ex5_Ex4=18
CASIX4=13
new_BM_frequency=10
Coffee_oz_Ex1=6
TBI_LOC=5
new_smoke=3
Sleepy_complete=2
HYPBP1=1

parameters:
[boosting: gbdt]
[objective: binary]
[metric: auc]
[tree_learner: serial]
[device_type: cpu]
[data: ]
[valid: ]
[num_iterations: 100]
[learning_rate: 0.0975091]
[num_leaves: 21]
[num_threads: 4]
[max_depth: 25]
[min_data_in_leaf: 1]
[min_sum_hessian_in_leaf: 0.001]
[bagging_fraction: 0.338711]
[pos_bagging_fraction: 1]
[neg_bagging_fraction: 1]
[bagging_freq: 3]
[bagging_seed: 3]
[feature_fraction: 0.762063]
[feature_fraction_bynode: 1]
[feature_fraction_seed: 2]
[early_stopping_round: 0]
[first_metric_only: 0]
[max_delta_step: 0]
[lambda_l1: 0.674952]
[lambda_l2: 0.373958]
[min_gain_to_split: 0]
[drop_rate: 0.1]
[max_drop: 50]
[skip_drop: 0.5]
[xgboost_dart_mode: 0]
[uniform_drop: 0]
[drop_seed: 4]
[top_rate: 0.2]
[other_rate: 0.1]
[min_data_per_group: 100]
[max_cat_threshold: 32]
[cat_l2: 10]
[cat_smooth: 10]
[max_cat_to_onehot: 4]
[top_k: 20]
[monotone_constraints: ]
[feature_contri: ]
[forcedsplits_filename: ]
[forcedbins_filename: ]
[refit_decay_rate: 0.9]
[cegb_tradeoff: 1]
[cegb_penalty_split: 0]
[cegb_penalty_feature_lazy: ]
[cegb_penalty_feature_coupled: ]
[verbosity: 1]
[max_bin: 181]
[max_bin_by_feature: ]
[min_data_in_bin: 3]
[bin_construct_sample_cnt: 200000]
[histogram_pool_size: -1]
[data_random_seed: 1]
[output_model: LightGBM_model.txt]
[snapshot_freq: -1]
[input_model: ]
[output_result: LightGBM_predict_result.txt]
[initscore_filename: ]
[valid_data_initscores: ]
[pre_partition: 0]
[enable_bundle: 1]
[max_conflict_rate: 0]
[is_enable_sparse: 1]
[sparse_threshold: 0.8]
[use_missing: 1]
[zero_as_missing: 0]
[two_round: 0]
[save_binary: 0]
[header: 0]
[label_column: ]
[weight_column: ]
[group_column: ]
[ignore_column: ]
[categorical_feature: ]
[predict_raw_score: 0]
[predict_leaf_index: 0]
[predict_contrib: 0]
[num_iteration_predict: -1]
[pred_early_stop: 0]
[pred_early_stop_freq: 10]
[pred_early_stop_margin: 10]
[convert_model_language: ]
[convert_model: gbdt_prediction.cpp]
[num_class: 1]
[is_unbalance: 0]
[scale_pos_weight: 1]
[sigmoid: 1]
[boost_from_average: 1]
[reg_sqrt: 0]
[alpha: 0.9]
[fair_c: 1]
[poisson_max_delta_step: 0.7]
[tweedie_variance_power: 1.5]
[max_position: 20]
[lambdamart_norm: 1]
[label_gain: ]
[metric_freq: 1]
[is_provide_training_metric: 0]
[eval_at: ]
[multi_error_top_k: 1]
[num_machines: 1]
[local_listen_port: 12400]
[time_out: 120]
[machine_list_filename: ]
[machines: ]
[gpu_platform_id: -1]
[gpu_device_id: -1]
[gpu_use_dp: 0]

end of parameters

pandas_categorical:[]
