tree
version=v3
num_class=1
num_tree_per_iteration=1
label_index=0
max_feature_idx=11
objective=binary sigmoid:1
feature_names=Sleepy_complete Simple_reaction_time_Ex5 new_BM_frequency Choice_reaction_time_Ex5 CASIX4 Olfaction_complete_Ex5_Ex4 ECGage new_smoke TBI_LOC BMIX4 HYPBP1 Coffee_oz_Ex1
feature_infos=[0:1] [1:1347] [0:4] [1:1812] [7.5:98.400000000000006] [0:12] [72:90] [0:2] [0:1] [14.6411231134028:39.3445072771772] [0:1] [0:64]
tree_sizes=1509 1353 1644 1986 1690 2337 2006 1798 1823 1716 2024 1759

Tree=0
num_leaves=14
num_cat=0
split_feature=5 1 3 6 1 1 5 1 3 3 1 5 1
split_gain=10.8809 5.55722 3.57537 6.69133 8.6744 5.54222 3.24898 2.41687 3.12435 1.02522 0.405028 0.315615 0.145878
threshold=2.5000000000000004 493.50000000000006 500.00000000000006 77.500000000000014 300.50000000000006 545.50000000000011 8.5000000000000018 768.50000000000011 645.50000000000011 469.00000000000006 407.50000000000006 3.5000000000000004 580.50000000000011
decision_type=10 8 8 2 10 10 10 10 10 10 10 10 10
left_child=1 10 3 4 -2 11 -6 8 -7 -8 -1 -4 -10
right_child=2 -3 5 -5 6 7 9 -9 12 -11 -12 -13 -14
leaf_value=-0.97336833018155877 -1.1003946044502282 -0.79755654852367541 -1.0079579203999789 -1.1163161511892814 -0.73651704668426587 -1.0602720811949504 -1.0079579203999789 -1.0868193507634525 -1.0051307638410278 -0.90340607688846486 -1.0602720811949504 -1.1099980008935151 -0.84597686285217755
leaf_weight=1.371214523911479 1.5671023130416886 2.9383168369531631 0.97943894565105682 2.5465412586927414 1.7629901021718977 0.78355115652084284 0.97943894565105472 1.175326734781265 0.97943894565105472 1.3712145239114759 0.78355115652084351 11.165603980422018 1.7629901021718977
leaf_count=7 8 15 5 13 9 4 5 6 5 7 4 57 9
internal_value=0 1.25045 -0.34212 0.137482 0.8067 -0.613685 1.62674 0.200296 0.716712 0.484902 0 -0.980472 1.30368
internal_weight=0 5.09308 25.0736 8.22729 5.68075 16.8463 4.11364 4.70131 3.52598 2.35065 2.15477 12.145 2.74243
internal_count=154 26 128 42 29 86 21 24 18 12 11 62 14
shrinkage=1


Tree=1
num_leaves=13
num_cat=0
split_feature=3 2 9 9 3 9 3 3 9 3 9 9
split_gain=12.3091 9.11107 3.88017 4.829 3.10235 2.06266 1.90449 1.59531 1.06378 2.46817 0.210862 0.111357
threshold=766.00000000000011 1.5000000000000002 21.920318345831504 26.718205309490052 504.50000000000006 27.429849770916004 469.00000000000006 530.50000000000011 24.798970265146853 486.50000000000006 19.919454223318954 20.204685658046902
decision_type=8 8 8 10 10 10 8 10 10 10 10 10
left_child=1 7 11 -4 6 -6 10 -1 9 -8 -3 -2
right_child=2 4 3 -5 5 -7 8 -9 -10 -11 -12 -13
leaf_value=0.025526180115706357 0.028801670863121447 -0 0.20557128694136187 -0 -0.10722812595650745 0 0.16253044452657522 0.27368738688493982 -0.0091531384330052947 -0 -0.065766228700854731 -0.016531944023580651
leaf_weight=1.4154443591833179 0.803899005055427 0.77944409847259599 4.0864941775798798 1.0051135420799253 10.446685820817946 1.1557202786207188 1.4137401282787334 0.78598901629447915 1.3167238831520078 1.6178274750709531 3.8523660749197006 1.3647173494100568
leaf_count=7 4 4 20 5 55 6 7 4 7 8 20 7
internal_value=0 -0.365818 1.12624 1.60046 -0.595465 -0.943691 -0.073249 1.47275 0.31298 0.694925 -0.571247 0
internal_weight=0 22.7839 7.26022 5.09161 20.5825 11.6024 8.9801 2.20143 4.34829 3.03157 4.63181 2.16862
internal_count=154 118 36 25 107 61 46 11 22 15 24 11
shrinkage=0.0984825


Tree=2
num_leaves=16
num_cat=0
split_feature=5 5 9 2 9 9 9 9 2 5 9 7 9 2 9
split_gain=9.82125 3.59555 3.4442 2.48152 0.860557 1.36512 1.35686 1.17614 1.85964 2.33223 0.808421 1.21654 0.591549 0.506939 0.0825925
threshold=7.5000000000000009 2.5000000000000004 23.354631013915654 1.5000000000000002 23.517243843139404 24.639803745206354 25.137003482792355 29.142819823195953 2.5000000000000004 5.5000000000000009 21.272876459660853 1.0000000180025095e-35 26.003804769771403 2.5000000000000004 21.767419059674953
decision_type=10 10 8 8 10 10 10 10 8 10 8 2 10 8 10
left_child=1 2 14 -3 10 -6 -7 8 9 -8 11 -5 -4 -12 -1
right_child=-2 3 12 4 5 6 7 -9 -10 -11 13 -13 -14 -15 -16
leaf_value=0.023364214018583324 -0.074949289523274842 0.11361855794801097 0.22345395260926371 0.090383767153316544 0.093221714313523357 -0.084677251762810268 0.20446126371163509 -0.045986528706897602 -0 -0 -0.097207032255147444 -0.041917700400354849 0.012041620759650479 -0 -0
leaf_weight=1.4309897124767368 9.7473674267530424 2.0664203912019703 2.1969855278730397 1.0055353045463562 1.8287297636270521 1.4537409096956251 1.2283801436424266 0.75012728571891774 1.1336185485124586 0.78756985068321217 1.882774204015732 1.8341927826404572 0.85883176326751709 0.75242707133293141 0.98531833291053761
leaf_count=7 52 10 10 5 9 8 6 4 6 4 10 10 4 4 5
internal_value=0 0.455494 1.16496 0.146642 -0 0.205922 -0 0.25462 0.628827 1.23285 -0.31718 0 1.8792 -0.714234 0
internal_weight=0 20.1956 5.47213 14.7235 12.6571 7.18217 5.35344 3.8997 3.14957 2.01595 5.47493 2.83973 3.05582 2.6352 2.41631
internal_count=154 102 26 76 66 37 28 20 16 10 29 15 14 14 12
shrinkage=0.0984825


Tree=3
num_leaves=20
num_cat=0
split_feature=3 9 9 6 3 4 3 4 9 3 9 6 4 9 4 3 9 4 3
split_gain=6.1437 3.79968 4.35534 2.29187 3.25849 3.14953 2.19214 1.52845 1.07286 2.08527 1.02587 0.783527 0.681537 0.574146 0.454902 0.323304 0.283682 0.196262 0.0444363
threshold=766.00000000000011 23.426502858098303 26.718205309490052 77.500000000000014 504.50000000000006 85.100000000000009 442.00000000000006 79.950000000000003 25.784054751284703 486.50000000000006 19.452277905791753 79.500000000000014 82.200000000000017 21.435013928550802 85.100000000000009 639.00000000000011 24.798970265146853 91.950000000000017 934.00000000000011
decision_type=8 8 10 2 10 2 10 2 10 10 8 2 2 10 2 10 8 2 10
left_child=3 11 -3 4 6 7 17 15 9 -8 -7 -2 -9 -11 16 -5 -6 -1 -13
right_child=1 2 -4 5 14 10 8 12 -10 13 -12 18 -14 -15 -16 -17 -18 -19 -20
leaf_value=-0.062504842614163544 0.054414417025235993 0.20651303435325011 -0 -0.083552316826041861 -0.053390495771024137 0 0.14987446621376505 0.1318126267137571 -0 0.055404314813355275 -0.11841942329635109 -0.066197809931968055 0 -0.047340025321399311 -0.081544825329155343 -0 0.022720002776038885 0 -0
leaf_weight=0.93591210246086642 1.2035131007432931 2.7783080488443379 0.99457612633705117 1.326183602213858 0.77541933953762021 0.72219401597976673 2.7738339304924011 0.83019976317882571 0.92373478412628163 1.1992319822311399 5.7769013792276382 0.95824572443962075 1.313490569591522 0.75580230355262734 3.4052949249744415 0.75899508595466592 0.81040477752685569 0.72935083508491505 0.82169826328754414
leaf_count=5 6 12 5 7 4 4 13 4 5 6 32 5 7 4 19 4 4 4 4
internal_value=0 0.788379 1.45114 -0.289817 0 -0.626859 0.429036 0 0.767417 0.963446 -1.0626 -0 0.632063 0 -0.615521 -0.556684 -0 -0.338876 -0.472189
internal_weight=0 6.75634 3.77288 23.0369 12.309 10.728 7.31787 4.22887 5.6526 4.72887 6.4991 2.98346 2.14369 1.95503 4.99112 2.08518 1.58582 1.66526 1.77994
internal_count=154 32 17 122 64 58 37 22 28 23 36 15 11 10 27 11 8 9 9
shrinkage=0.0984825


Tree=4
num_leaves=16
num_cat=0
split_feature=5 11 3 3 3 3 11 3 3 3 3 11 3 11 5
split_gain=6.93234 5.07693 2.77206 2.58881 1.0895 1.68574 1.4851 0.877311 0.589895 0.913218 0.904516 0.45553 0.335348 0.238369 0.0148577
threshold=6.5000000000000009 22.000000000000004 766.00000000000011 667.00000000000011 500.00000000000006 469.00000000000006 6.0000000000000009 934.00000000000011 504.50000000000006 530.50000000000011 480.50000000000006 10.000000000000002 477.00000000000006 34.000000000000007 7.5000000000000009
decision_type=10 2 8 10 8 10 2 10 10 10 10 2 10 2 10
left_child=1 2 3 8 5 11 14 -4 10 -10 -1 -2 -7 -3 -6
right_child=4 13 7 -5 6 12 -8 -9 9 -11 -12 -13 -14 -15 -16
leaf_value=0.0023000116509635073 -0.089521451735849245 -0.085473711766855129 0.17784087135731319 -0.077575817087684823 0.0063494482119550461 0.10223424629029905 -0.097458963929857909 0.030592717175510611 -0.047883576607914785 0.048885076065941058 0.16984868256588664 -0 0 -0 -0.0088587028157289579
leaf_weight=1.5374907702207603 1.7390326261520361 1.4529110044240945 3.3317060321569452 1.2491716444492338 0.95471869409084453 0.90037743747234367 5.4892300218343735 1.7919713854789732 0.75555865466594685 3.3269238024950027 1.3198246806859968 1.6619048863649366 1.3024557530879972 1.6196781694889066 1.2906240522861478
leaf_count=7 10 8 15 7 5 4 32 8 4 17 6 9 7 8 7
internal_value=0 0.50387 0.791491 0.32188 -0.460544 -0.000360231 -0.710809 1.41163 0.61555 0.157929 1.0401 -0.542472 0.548709 -0.533079 -0
internal_weight=0 16.3852 13.3126 8.18897 13.3383 5.60377 7.73457 5.12368 6.9398 4.08248 2.85732 3.40094 2.20283 3.07259 2.24534
internal_count=154 80 64 41 74 30 44 23 34 21 13 19 11 16 12
shrinkage=0.0984825


Tree=5
num_leaves=23
num_cat=0
split_feature=1 1 4 1 4 1 4 4 4 10 4 4 1 4 7 4 4 1 1 4 7 4
split_gain=6.03092 2.43256 1.21217 1.19017 0.882549 0.750358 0.967879 0.73394 0.696199 0.690619 1.11366 0.840728 0.634835 0.511346 0.456831 0.390078 0.404836 0.30615 0.255038 0.224058 0.193958 7.05834e-05
threshold=593.50000000000011 804.50000000000011 93.450000000000017 512.50000000000011 94.200000000000017 391.00000000000006 89.450000000000017 80.800000000000026 80.800000000000026 1.0000000180025095e-35 85.100000000000009 88.300000000000026 365.50000000000006 73.850000000000009 1.0000000180025095e-35 70.40000000000002 87.200000000000017 337.50000000000006 697.00000000000011 89.200000000000017 1.0000000180025095e-35 97.350000000000009
decision_type=8 10 2 10 2 10 2 2 2 2 2 2 10 2 2 2 2 8 8 2 2 2
left_child=2 15 3 5 -4 6 8 -5 -1 -10 -11 -12 -8 -7 -3 -2 18 -13 -17 -9 -6 -22
right_child=1 14 4 7 20 13 12 19 9 10 11 17 -14 -15 -16 16 -18 -19 -20 -21 21 -23
leaf_value=-0.07129569319657203 0.014128850250401679 0 0.09373204138963763 0.059242357448159651 -0.046847900688259232 -0 -0.098434039377376839 -0.062534730395816848 -0.039788446081283693 0.11598010846432646 -0.064200015781928133 0.080402609819241341 0 -0.09808384328020131 -0.067033171764185051 0.21811115762282551 0.014012875522281665 -0 0.051010894004753365 0 -0 0.00083032505258179138
leaf_weight=1.085705071687707 1.9468916654586772 0.89135111868381467 0.96456499397754591 1.5464039444923394 0.82152047753334079 0.78615374863147636 2.1095298975706105 0.9189706444740291 0.71710452437400807 1.2537478506565092 1.0282949954271319 1.0053786784410472 0.70506183803081501 5.2676039636135101 0.9529086798429488 1.3628562986850741 1.4241569787263868 0.74119891226291679 1.5499113053083418 0.69561751186847687 0.82405480742454496 0.95650620758533467
leaf_count=6 9 4 5 7 5 4 12 5 4 6 6 5 4 30 5 6 7 4 7 4 4 5
internal_value=0 0.689237 -0.317426 -0.432672 0.0822922 -0.555092 -0.249651 0 -0 0.150344 0.407706 0 -0.727523 -0.883128 -0.028542 0.999153 1.23393 0.466639 1.54437 -0.312435 -0.00844147 0
internal_weight=0 8.12808 21.4274 17.8608 3.56665 14.6998 8.64602 3.16099 5.83143 4.74572 4.02862 2.77487 2.81459 6.05376 1.84426 6.28382 4.33692 1.74658 2.91277 1.61459 2.60208 1.78056
internal_count=154 38 116 97 19 81 47 16 31 25 21 15 16 34 9 29 20 9 13 9 14 9
shrinkage=0.0984825


Tree=6
num_leaves=20
num_cat=0
split_feature=11 1 1 4 1 1 1 11 4 4 11 1 4 11 4 4 1 1 4
split_gain=4.19585 2.7077 3.58479 2.01473 1.75973 1.72695 0.944306 0.798253 0.787169 0.766504 0.639017 1.23044 0.627983 0.596176 1.28713 1.05295 0.456131 0.380164 0.234616
threshold=18.000000000000004 512.50000000000011 419.50000000000006 96.500000000000014 804.50000000000011 347.00000000000006 580.50000000000011 14.000000000000002 82.200000000000017 81.65000000000002 1.0000000180025095e-35 404.50000000000006 86.65000000000002 1.0000000180025095e-35 88.700000000000017 85.65000000000002 553.00000000000011 941.00000000000011 86.300000000000026
decision_type=2 10 10 2 10 10 10 2 2 2 2 10 2 2 2 2 10 10 2
left_child=1 2 5 -2 6 7 16 13 -9 -4 -7 -12 -8 14 -1 -15 18 -6 -3
right_child=3 4 9 -5 17 10 12 8 -10 -11 11 -13 -14 15 -16 -17 -18 -19 -20
leaf_value=-0.052294434118951766 -0.098499308135599706 0.092418779254599015 0 0.018796982070745556 -0.062254355933263776 -0 0.21225821964609759 -0 0.11605202463373154 -0.10466724075879721 0.11272753429680316 -0 0.026018115305820124 0 0.10556517247949679 -0.098523967507527385 -0 0.021559813520835389 0
leaf_weight=0.85218888521195324 5.3395264595746985 0.89843499660491877 0.69764995574951116 0.80898462235927571 0.81307920813560464 0.79238107800483693 1.3881839960813525 0.82352255284786213 0.83329027891159069 3.2477890253067017 3.1981729120016098 0.88476307690143563 1.2731604427099226 1.8994336724281313 0.86570708453655232 1.9886777698993678 0.99113543331623055 0.81279870867729187 0.68947915732860565
leaf_count=5 31 4 4 4 4 4 6 4 4 20 16 5 6 9 4 11 5 4 4
internal_value=0 0.186788 -0 -0.740763 0.713057 0.229567 0.999297 -0 0.498373 -0.859734 0.694424 0.854463 1.50138 -0.258723 0 -0.498144 0.225117 -0 0.602003
internal_weight=0 22.9498 16.0836 6.14851 6.86627 12.1381 5.24039 7.26282 1.65681 3.94544 4.87532 4.08294 2.66134 5.60601 1.7179 3.88811 2.57905 1.62588 1.58791
internal_count=154 119 86 35 33 62 25 37 8 24 25 21 12 29 9 20 13 8 8
shrinkage=0.0984825


Tree=7
num_leaves=17
num_cat=0
split_feature=2 9 9 2 9 9 9 9 9 8 9 9 9 9 10 7
split_gain=2.23164 0.836676 1.51034 0.731301 0.907812 1.01871 0.607166 1.49525 1.22803 0.227971 0.514371 1.44114 0.894966 0.299408 0.0687171 0.0387937
threshold=1.5000000000000002 29.142819823195953 28.106081881975452 2.5000000000000004 22.339615033291803 22.953387298421355 21.435013928550802 19.651793035751556 23.096130034955053 1.0000000180025095e-35 23.854218564093504 25.137003482792355 25.583833254847352 26.307153419071302 1.0000000180025095e-35 1.0000000180025095e-35
decision_type=8 10 8 8 10 10 10 10 8 10 10 10 10 10 2 2
left_child=14 2 3 6 -5 -6 7 15 -8 10 -10 -12 -13 -14 -1 -2
right_child=1 -3 -4 4 5 -7 8 -9 9 -11 11 12 13 -15 -16 -17
leaf_value=0 -0 -0.081016559800016721 0.084289013013562453 -0.092217035557045385 0.068825546143500699 -0.037282148210356726 -0.068622568103030537 0.082107467067741885 0.035162762609317319 0.042985858527477404 -0.074919119086684624 0.10025743328033171 -0.056000925976858816 0 0.10249683753028468 -0.033262428647918021
leaf_weight=1.0274361670017269 0.7494926154613627 1.3895753771066655 1.7429892420768727 2.0689317286014548 1.067830294370651 3.308537170290947 2.7167915105819676 2.7673238217830658 2.1924028843641263 1.1675649583339698 2.8010502457618713 0.85536096990108512 0.8895213454961779 1.7195480614900587 1.9688254743814468 0.68381799757480621
leaf_count=5 4 8 8 13 5 18 16 14 10 6 16 4 5 9 9 4
internal_value=0 -0.0700647 -0.00103556 -0.0947924 -0.380452 -0 0 0.342491 -0.0943339 0.0120868 -0 -0.191139 0.0914335 -0 0.832802 -0.171779
internal_weight=0 26.1207 24.7312 22.9882 6.4453 4.37637 16.5429 4.20063 12.3422 9.62545 8.45788 6.26548 3.46443 2.60907 2.99626 1.43331
internal_count=154 140 132 124 36 23 88 22 66 50 44 34 18 14 14 8
shrinkage=0.0984825


Tree=8
num_leaves=18
num_cat=0
split_feature=1 3 3 1 2 3 2 1 1 2 3 3 1 1 1 1 1
split_gain=3.8584 2.51851 2.01352 2.83911 2.11282 1.64216 1.63543 0.736713 0.514504 0.733005 0.386779 0.170071 0.0418363 1.02505 0.02031 0.0160763 0.606387
threshold=593.50000000000011 934.00000000000011 504.50000000000006 290.50000000000006 1.5000000000000002 766.00000000000011 2.5000000000000004 362.00000000000006 987.50000000000011 2.5000000000000004 734.00000000000011 442.00000000000006 365.50000000000006 332.50000000000006 322.00000000000006 391.00000000000006 362.00000000000006
decision_type=8 8 10 8 8 10 8 10 8 8 10 10 10 10 8 10 10
left_child=2 10 3 -1 -4 15 11 14 -3 -10 -2 -5 13 -13 -8 16 -6
right_child=1 8 4 6 5 -7 7 -9 9 -11 -12 12 -14 -15 -16 -17 -18
leaf_value=-0.09483547725596049 0 -0.036459156884433776 0.039004843605950926 0 -0.072441192635488025 0.0036136829094342046 0.015143494177594034 -0.076920160908761845 0.074077920765840508 -0 0.17106582259207628 0.11133036301418804 0.11010193850354168 -0 -0 -0.10003232248455531 0
leaf_weight=2.1452090889215514 0.94794954359531347 1.4556420594453809 1.145568147301671 0.6742386668920507 1.3435298204421982 0.85941907763481218 0.82814250886440366 1.2398489266633985 1.8070068508386614 0.99012652039527871 1.6732476502656934 0.85896609723567985 1.9654716253280635 1.6936283260583875 0.78037308156490337 6.8794783502817154 1.1175041049718855
leaf_count=13 5 7 5 4 9 4 4 7 8 5 7 4 9 9 4 44 6
internal_value=0 0.571019 -0.278895 0 -0.56947 -0.740864 0.317858 -0.120678 0 0.330765 1.33996 0.678833 0.752578 0.214588 0.00898352 -0.879878 -0.236992
internal_weight=0 6.87397 21.5314 10.1859 11.3455 10.1999 8.04067 2.84836 4.25278 2.79713 2.6212 5.1923 4.51807 2.55259 1.60852 9.34051 2.46103
internal_count=154 32 122 54 68 63 41 15 20 13 12 26 22 13 8 59 15
shrinkage=0.0984825


Tree=9
num_leaves=17
num_cat=0
split_feature=1 3 1 4 4 3 3 1 7 4 1 3 3 4 4 1
split_gain=4.80125 2.66012 3.07649 2.06434 1.21645 1.28056 1.1962 1.6293 0.863522 0.995687 0.692352 0.864252 0.439811 0.390987 0.1646 0.123565
threshold=593.50000000000011 504.50000000000006 290.50000000000006 81.65000000000002 93.450000000000017 452.50000000000006 469.00000000000006 362.00000000000006 1.5000000000000002 94.950000000000017 452.50000000000006 766.00000000000011 486.50000000000006 74.750000000000014 76.600000000000009 357.50000000000006
decision_type=10 10 8 2 2 8 8 8 2 2 10 10 10 2 2 8
left_child=1 2 -1 10 6 -6 15 -8 9 -5 -3 -12 14 -2 -9 -4
right_child=13 3 4 8 5 -7 7 12 -10 -11 11 -13 -14 -15 -16 -17
leaf_value=-0.093023020980942908 0 0.07083065617912869 -0.069488041875172699 -0.11049225117250921 0.18990492111484236 0 0.09695792896337474 -0 0 0 -0.08029283612932013 0.0035631117420577389 -0.059838686951051621 0.10384332211251676 0.043847285764150423 -0
leaf_weight=2.1879304721951529 1.0135724544525135 1.046472936868666 1.1633474379777877 5.9841971546411514 0.92616917192936021 1.0711415708065033 2.4398541897535333 1.9436364918947222 0.62504496425390232 0.6474834382534026 1.4608905017375948 0.83536884188652016 0.99363613128662076 3.7037649303674698 1.0941835045814512 0.77091442048549663
leaf_count=14 5 5 7 41 4 5 11 9 4 4 9 4 6 17 5 4
internal_value=0 -0.210972 0.0555001 -0.586217 0.329122 1.06316 0.0757713 0.344181 -0.885556 -0.993589 0 -0.238047 -0 0.890239 0.139145 -0.490304
internal_weight=0 23.1903 12.5908 10.5995 10.4029 1.99731 8.40557 6.47131 7.25673 6.63168 3.34273 2.29626 4.03146 4.71734 3.03782 1.93426
internal_count=154 132 65 67 51 9 42 31 49 45 18 13 20 22 14 11
shrinkage=0.0984825


Tree=10
num_leaves=20
num_cat=0
split_feature=2 6 2 6 9 9 9 9 9 6 9 9 9 9 9 9 9 9 6
split_gain=2.05717 1.83711 1.18941 2.03904 0.992911 0.85449 0.982723 0.778233 0.837367 0.800706 0.832376 0.818619 0.368825 0.243499 0.227363 0.13338 0.595971 0.0226522 0.000707734
threshold=1.5000000000000002 75.500000000000014 2.5000000000000004 77.500000000000014 23.354631013915654 21.435013928550802 21.081837098313802 24.029209254126005 25.137003482792355 75.500000000000014 29.142819823195953 26.307153419071302 24.639803745206354 25.784054751284703 23.517243843139404 22.880749138466303 21.515237866234951 25.700192748485552 74.500000000000014
decision_type=8 2 8 2 8 10 8 8 8 2 8 10 10 10 10 10 8 8 2
left_child=1 -1 4 15 5 6 -2 14 12 13 11 -11 18 -10 -6 16 -4 -17 -9
right_child=2 -3 3 -5 7 -7 -8 8 9 10 -12 -13 -14 -15 -16 17 -18 -19 -20
leaf_value=0.14751876953702853 -0.014702183708514357 -0 -0 -0.10208389682968519 0 -0.056732204029902006 0.098156763230337729 0.001171168332094628 0.0052761616692584999 0 -0 0.14019626669887242 -0.06879959881293457 -0.050445519440014353 0.11522934709433587 -0.020464951765600179 0.085911893736668035 0 -0.0021108404022047622
leaf_weight=1.6201970875263243 2.9594267234206266 1.3968848586082456 0.98232420533895393 3.1274033710360527 0.92438095808028942 3.5988886281847954 0.8856075257062912 0.80529023706912972 0.78011439740657873 1.0605690628290183 0.76705309748649586 1.4714098572731016 1.2090323418378828 0.88267728686332703 1.1667229831218717 1.1150611191987987 0.88639236986637115 0.7075507938861848 1.2449989095330236
leaf_count=7 17 7 6 21 4 23 4 4 4 5 4 7 8 6 5 6 4 4 8
internal_value=0 0.784651 -0.0848504 -0.44548 0.018638 -0.216892 0 0.250079 0.0261636 0.347626 0.648956 0.933274 -0.269297 -0 0.816905 0 0.236221 -0.120674 -0
internal_weight=0 3.01708 24.5749 6.81873 17.7562 7.44392 3.84503 10.3122 8.22115 4.96182 3.29903 2.53198 3.25932 1.66279 2.0911 3.69133 1.86872 1.82261 2.05029
internal_count=154 14 140 41 99 44 21 55 46 26 16 12 20 10 9 20 10 10 12
shrinkage=0.0984825


Tree=11
num_leaves=17
num_cat=0
split_feature=11 5 4 10 4 4 9 5 4 4 9 5 4 5 9 4
split_gain=6.90234 2.29192 1.83697 1.7746 2.02795 1.34544 1.1654 2.64143 1.09844 0.940464 0.401903 0.367591 0.172217 0.165355 0.128206 0.0766123
threshold=18.000000000000004 3.5000000000000004 75.800000000000026 1.0000000180025095e-35 75.800000000000026 88.300000000000026 23.247980724143357 9.5000000000000018 89.850000000000009 84.450000000000017 20.204685658046902 5.5000000000000009 93.450000000000017 8.5000000000000018 25.035062262050705 66.600000000000009
decision_type=2 10 2 2 2 2 10 10 2 2 8 10 2 8 10 2
left_child=1 2 15 10 -5 9 8 -8 -7 11 -3 -6 -10 -13 -12 -1
right_child=-2 3 -4 4 5 6 7 -9 12 -11 14 13 -14 -15 -16 -17
leaf_value=0.021466796345510158 -0.096492395610664944 0 0.11605372681351113 0.11865863797404171 -0.052453897882668167 0.074467564721345775 0.13262850969290582 -0.033189435889030297 -0.07279002737517587 -0.086737853440814694 -0.090933579302546655 0.0502318121730898 -0 -0 -0 -0.013021083212201473
leaf_weight=1.1679912060499256 5.4803159907460204 0.64458860456943279 4.0879670828580856 1.8235224187374122 0.75848315656184995 0.96681403368711505 2.4657143652439122 0.66193546354770649 1.2394932731986044 1.8655947297811506 1.8873992934823038 1.1452946662902828 0.75135601311922062 0.79431873559951793 0.74048657715320576 1.0724994987249372
leaf_count=5 36 4 19 8 4 5 12 4 8 13 12 6 4 5 4 5
internal_value=0 0.269538 0.781819 0.0221349 0.23182 0.0023278 0.363872 0.790245 -0 -0.341017 -0.579213 0 -0.508798 0.268147 -0.753325 0
internal_weight=0 22.0735 6.32846 15.745 12.4725 10.649 6.08531 3.12765 2.95766 4.56369 3.27247 2.6981 1.99085 1.93961 2.62789 2.24049
internal_count=154 118 29 89 69 61 33 16 17 28 20 15 12 11 16 10
shrinkage=0.0984825


end of trees

feature importances:
BMIX4=47
CASIX4=36
Simple_reaction_time_Ex5=35
Choice_reaction_time_Ex5=33
Olfaction_complete_Ex5_Ex4=12
new_BM_frequency=11
Coffee_oz_Ex1=9
ECGage=7
new_smoke=5
HYPBP1=3
TBI_LOC=1

parameters:
[boosting: gbdt]
[objective: binary]
[metric: auc]
[tree_learner: serial]
[device_type: cpu]
[data: ]
[valid: ]
[num_iterations: 100]
[learning_rate: 0.0984825]
[num_leaves: 25]
[num_threads: 4]
[max_depth: 39]
[min_data_in_leaf: 4]
[min_sum_hessian_in_leaf: 0.001]
[bagging_fraction: 0.827927]
[pos_bagging_fraction: 1]
[neg_bagging_fraction: 1]
[bagging_freq: 1]
[bagging_seed: 3]
[feature_fraction: 0.45368]
[feature_fraction_bynode: 1]
[feature_fraction_seed: 2]
[early_stopping_round: 0]
[first_metric_only: 0]
[max_delta_step: 0]
[lambda_l1: 0.633939]
[lambda_l2: 0.0364375]
[min_gain_to_split: 0]
[drop_rate: 0.1]
[max_drop: 50]
[skip_drop: 0.5]
[xgboost_dart_mode: 0]
[uniform_drop: 0]
[drop_seed: 4]
[top_rate: 0.2]
[other_rate: 0.1]
[min_data_per_group: 100]
[max_cat_threshold: 32]
[cat_l2: 10]
[cat_smooth: 10]
[max_cat_to_onehot: 4]
[top_k: 20]
[monotone_constraints: ]
[feature_contri: ]
[forcedsplits_filename: ]
[forcedbins_filename: ]
[refit_decay_rate: 0.9]
[cegb_tradeoff: 1]
[cegb_penalty_split: 0]
[cegb_penalty_feature_lazy: ]
[cegb_penalty_feature_coupled: ]
[verbosity: 1]
[max_bin: 122]
[max_bin_by_feature: ]
[min_data_in_bin: 3]
[bin_construct_sample_cnt: 200000]
[histogram_pool_size: -1]
[data_random_seed: 1]
[output_model: LightGBM_model.txt]
[snapshot_freq: -1]
[input_model: ]
[output_result: LightGBM_predict_result.txt]
[initscore_filename: ]
[valid_data_initscores: ]
[pre_partition: 0]
[enable_bundle: 1]
[max_conflict_rate: 0]
[is_enable_sparse: 1]
[sparse_threshold: 0.8]
[use_missing: 1]
[zero_as_missing: 0]
[two_round: 0]
[save_binary: 0]
[header: 0]
[label_column: ]
[weight_column: ]
[group_column: ]
[ignore_column: ]
[categorical_feature: ]
[predict_raw_score: 0]
[predict_leaf_index: 0]
[predict_contrib: 0]
[num_iteration_predict: -1]
[pred_early_stop: 0]
[pred_early_stop_freq: 10]
[pred_early_stop_margin: 10]
[convert_model_language: ]
[convert_model: gbdt_prediction.cpp]
[num_class: 1]
[is_unbalance: 0]
[scale_pos_weight: 1]
[sigmoid: 1]
[boost_from_average: 1]
[reg_sqrt: 0]
[alpha: 0.9]
[fair_c: 1]
[poisson_max_delta_step: 0.7]
[tweedie_variance_power: 1.5]
[max_position: 20]
[lambdamart_norm: 1]
[label_gain: ]
[metric_freq: 1]
[is_provide_training_metric: 0]
[eval_at: ]
[multi_error_top_k: 1]
[num_machines: 1]
[local_listen_port: 12400]
[time_out: 120]
[machine_list_filename: ]
[machines: ]
[gpu_platform_id: -1]
[gpu_device_id: -1]
[gpu_use_dp: 0]

end of parameters

pandas_categorical:[]
