tree
version=v3
num_class=1
num_tree_per_iteration=1
label_index=0
max_feature_idx=11
objective=binary sigmoid:1
feature_names=Sleepy_complete Simple_reaction_time_Ex5 new_BM_frequency Choice_reaction_time_Ex5 CASIX4 Olfaction_complete_Ex5_Ex4 ECGage new_smoke TBI_LOC BMIX4 HYPBP1 Coffee_oz_Ex1
feature_infos=[0:1] [1:1075] [0:4] [1:1329] [7.5:98.400000000000006] [0:12] [72:90] [0:2] [0:1] [14.6411231134028:33.738952304877699] [0:1] [0:64]
tree_sizes=1706 1820 1848 1830 1740 1395 1989 1776 1446 1852 1444 2047 1689 1134 1522 1549 1618 887 1647 1058 1737 1532 1836 1656 1353 1716 1637 1698 1487 1240 1624 1385

Tree=0
num_leaves=16
num_cat=0
split_feature=1 6 1 1 6 3 1 5 5 1 3 1 1 1 1
split_gain=17.7514 5.77859 3.00526 4.27246 2.64799 2.30982 2.06254 1.77498 1.64958 1.02006 2.55266 0.711091 0.636252 0.486471 0.308423
threshold=586.50000000000011 80.500000000000014 373.50000000000006 290.50000000000006 75.500000000000014 509.00000000000006 697.00000000000011 9.5000000000000018 7.5000000000000009 336.50000000000006 487.50000000000006 539.00000000000011 348.00000000000006 557.50000000000011 357.50000000000006
decision_type=8 2 10 8 2 10 10 10 10 10 8 8 10 10 10
left_child=2 -2 3 -1 7 8 -3 12 -4 10 -6 -7 -5 -13 -11
right_child=1 6 5 4 9 11 -8 -9 -10 14 -12 13 -14 -15 -16
leaf_value=-1.0958380155428109 -0.77150522998136573 -0.90340607688846486 -0.96020355479292874 -1.0051307638410278 -0.86477426253235701 -1.1189908499809913 -1.0761052231044201 -1.0079579203999789 -1.0945515386233753 -1.0945515386233753 -1.0602720811949504 -1.0051307638410278 -0.80976801276285593 -1.0761052231044201 -1.0079579203999789
leaf_weight=3.5259802043438002 3.5259802043437949 1.3712145239114764 2.3506534695625301 0.97943894565105516 1.1753267347812648 7.0519604086875889 0.97943894565105427 1.3712145239114759 1.3712145239114759 1.3712145239114764 0.78355115652084351 0.97943894565105505 1.5671023130416868 0.97943894565105438 0.78355115652084351
leaf_count=18 18 7 12 5 6 36 5 7 7 7 4 5 8 5 4
internal_value=0 1.58034 -0.350282 0 0.42186 -0.684912 0.0659821 1.01625 -0 -0 0.346945 -0.957805 1.50606 -0.0199759 -0.596584
internal_weight=0 5.87663 24.2901 11.5574 8.0314 12.7327 2.35065 3.91776 3.72187 4.11364 1.95888 9.01084 2.54654 1.95888 2.15477
internal_count=154 30 124 59 41 65 12 20 19 21 10 46 13 10 11
shrinkage=1


Tree=1
num_leaves=18
num_cat=0
split_feature=2 3 3 9 3 3 2 9 3 3 3 9 9 2 9 9 3
split_gain=9.37094 4.53632 4.43499 3.78545 6.397 3.29372 3.33801 3.1528 1.89949 2.77223 1.4941 0.920344 0.641282 0.496295 0.410243 0.326162 0.274143
threshold=1.5000000000000002 734.00000000000011 556.00000000000011 25.109029380331553 497.00000000000006 451.50000000000006 2.5000000000000004 20.024929616571104 480.50000000000006 513.50000000000011 583.50000000000011 22.848789956960854 26.035341778283904 2.5000000000000004 22.900339238196903 25.646092055435002 432.50000000000006
decision_type=8 8 8 10 10 10 10 10 10 10 10 10 10 8 10 10 10
left_child=2 3 -1 4 5 14 -7 -3 16 -10 15 -9 -13 -12 -2 -11 -5
right_child=1 7 -4 8 -6 6 -8 11 9 10 13 12 -14 -15 -16 -17 -18
leaf_value=0 -0.098294750423603985 0.23554655497158844 0.29161225287920794 -0 -0.12417522739507392 0.14887193288896358 -0.01479624489542988 -0.030282476827976208 0.16489064732520492 -0 0.096646574995920179 0.085864378541694542 -0 -0 -0 -0.081747117090886473 -0.083557197387668578
leaf_weight=1.1802264302969008 1.910922691226012 0.85380622744560142 1.4316816329956052 0.78452071547508173 8.5117369294166547 2.1825352609157567 1.3558910042047498 1.4648153334856031 1.4055628031492231 0.7528997361660007 1.402175232768059 1.8816154897212984 0.82720960676670063 0.75691880285739876 0.79715667665004719 1.3148879110813139 1.3353847563266752
leaf_count=6 10 4 7 4 45 11 7 7 7 4 7 9 4 4 4 7 7
internal_value=0 -0.184011 1.7849 -0.393531 -0.69728 0 0.702461 0.62502 0.103885 0.473349 0 0.0954469 0.545448 0.636392 -0.746569 -0.536169 -0.575177
internal_weight=0 27.538 2.61191 22.5106 14.7582 6.24651 3.53843 5.02745 7.75235 5.63244 4.22688 4.17364 2.70883 2.15909 2.70808 2.06779 2.11991
internal_count=154 141 13 117 77 32 18 24 40 29 22 20 13 11 14 11 11
shrinkage=0.0984825


Tree=2
num_leaves=18
num_cat=0
split_feature=5 9 2 9 9 9 9 9 9 9 9 9 9 0 5 9 9
split_gain=6.53087 6.04412 5.16882 2.75851 2.90161 2.32533 0.896946 3.18045 0.855935 0.800668 1.42966 0.564864 1.18612 0.485893 0.348384 0.422431 0.0177439
threshold=4.5000000000000009 22.979211833504753 1.5000000000000002 24.195844767986753 24.613604088566305 24.984494731561252 24.613604088566305 25.109029380331553 28.273052064337652 25.583833254847352 25.259212022841954 26.307153419071302 29.753503610249002 1.0000000180025095e-35 1.5000000000000002 21.513167169573155 20.024929616571104
decision_type=10 8 10 10 8 10 10 10 10 10 10 10 10 10 8 10 10
left_child=1 14 5 13 -5 -2 -3 -8 9 10 -6 -9 -13 -4 15 -1 -16
right_child=2 6 3 4 8 -7 7 11 -10 -11 -12 12 -14 -15 16 -17 -18
leaf_value=0 0 0.2206392092783758 -0.090799353935317767 0.13193383227494979 -0.073667514894482242 0.18728522558692567 -0.0484228975670047 0.23763915746099448 0.026683081422450704 -0.071837530109077452 0.084579350779404927 -0 0.13521603873344545 -0 0.019756374938003189 -0.078458568138970841 -0
leaf_weight=1.4168880134820949 1.3920925855636626 1.9518091529607779 8.7455451786518097 1.2069487869739504 1.1220007687807094 1.2760064899921415 0.75227215886116061 0.84902314841747317 0.80930282175540913 4.2196340560913086 1.0230557322502134 0.95516550540924039 0.82355381548404683 0.78483082354068834 0.81796063482761361 1.1592091321945188 0.75214391946792603
leaf_count=7 7 9 47 6 6 6 4 4 4 22 5 5 4 4 4 6 4
internal_value=0 0.730661 -0.267308 -0.484943 -0 0.946156 1.43917 0.771994 -0.304851 -0.478227 0 1.37349 0.489575 -0.854125 -0.0334912 -0.358856 0.101773
internal_weight=0 9.47803 20.5794 17.9113 8.38094 2.6681 5.33182 3.38001 7.17399 6.36469 2.14506 2.62774 1.77872 9.53038 4.1462 2.5761 1.5701
internal_count=154 47 107 94 43 13 26 17 37 33 11 13 9 51 21 13 8
shrinkage=0.0984825


Tree=3
num_leaves=18
num_cat=0
split_feature=9 4 3 4 3 4 3 4 3 3 9 6 6 3 6 6 4
split_gain=4.79378 4.44984 3.74421 3.69579 6.96644 5.28069 2.94339 3.72749 2.0649 3.02494 0.925494 0.634819 0.508921 0.279422 0.269266 0.225851 0.150288
threshold=24.984494731561252 84.200000000000017 520.50000000000011 93.450000000000017 505.50000000000006 76.800000000000026 734.00000000000011 68.750000000000014 509.00000000000006 480.50000000000006 26.895168374590554 79.500000000000014 76.500000000000014 650.00000000000011 85.500000000000014 73.500000000000014 85.950000000000017
decision_type=8 2 8 2 10 2 8 2 10 10 8 2 2 10 2 2 2
left_child=3 2 -2 5 -5 6 -1 -8 9 16 12 -4 -10 -12 15 -7 -3
right_child=1 8 11 4 -6 14 7 -9 10 -11 13 -13 -14 -15 -16 -17 -18
leaf_value=-0.069104806648521033 -0 -0.04333179428051117 0.23363894704980973 0.22470463808301155 -0.070292515618331691 -0 -0 0.18735967701412287 0.055594820358072991 0.18172126508913372 -0.095236459868726364 0.013098333852604388 -0.038857706826076428 -0 -0 -0.094991519816631662 0.0024333923088520511
leaf_weight=1.0814753025770252 0.96916717290878163 0.73667965829372417 2.0820762962102894 1.4300338327884667 1.1784233450889585 0.97122071683406563 1.0675286799669268 1.8164123743772504 1.1947318762540815 1.2946891784667967 1.8482723981142046 0.83223797380924203 0.71237497031688679 0.82168073952198017 0.93350611627101954 9.9410994052886945 0.973301202058792
leaf_count=6 5 4 9 7 7 5 5 8 6 6 10 4 4 4 5 54 5
internal_value=0 0.519995 1.38873 -0.302046 0.697552 -0.508181 0.382575 1.00993 0 0.704018 -0.347653 1.95727 0 -0.740268 -0.859974 -0.909508 -0
internal_weight=0 11.4652 3.88348 18.4197 2.60846 15.8112 3.96542 2.88394 7.58173 3.00467 4.57706 2.91431 1.90711 2.66995 11.8458 10.9123 1.70998
internal_count=154 57 18 97 14 83 19 13 39 15 24 13 10 14 64 59 9
shrinkage=0.0984825


Tree=4
num_leaves=17
num_cat=0
split_feature=3 3 3 5 5 5 11 8 3 3 3 11 3 11 5 3
split_gain=9.72604 3.30769 2.51838 2.26176 2.02565 1.85954 1.77813 1.61944 1.24611 0.415906 1.92977 0.946588 0.25941 0.160624 0.114494 0.084391
threshold=757.00000000000011 487.50000000000006 444.00000000000006 7.5000000000000009 3.5000000000000004 7.5000000000000009 6.0000000000000009 1.0000000180025095e-35 459.00000000000006 650.00000000000011 682.00000000000011 6.0000000000000009 593.50000000000011 14.000000000000002 9.5000000000000018 530.50000000000011
decision_type=8 10 10 10 10 10 2 10 10 10 10 2 10 2 10 8
left_child=1 2 13 -2 12 6 -4 9 -7 11 -11 -6 -3 14 -1 -9
right_child=3 4 5 -5 7 8 -8 15 -10 10 -12 -13 -14 -15 -16 -17
leaf_value=0.003949261565161016 0.14770762801761103 0.053889602635366546 -0 -0 -0 -0.071757536040208722 0.16091212893656195 0.031732883463290437 0.075399179860187543 0.061753819675539473 -0.091172343113612775 -0.10558359760310483 -0 -0.068459674585438834 -0.038332427084220584 -0
leaf_weight=0.96224518120289404 4.8694822788238517 1.1996703296899789 0.7734927982091907 0.84702166914939869 1.6799666285514776 1.1074321717023852 2.3440589755773544 0.7763838022947317 1.0534164011478422 1.0678779035806667 1.7531074881553648 7.46481092274189 0.89977501332759835 1.0691717863082884 0.70869261026382446 1.0652817338705063
leaf_count=5 21 6 4 4 9 6 11 4 5 5 10 43 5 6 4 6
internal_value=0 -0.207166 0.26666 1.23497 -0.485843 0.715056 1.20465 -0.64044 0 -0.779763 -0.115596 -0.914326 0.227674 -0.366836 -0 0
internal_weight=0 23.9254 8.01851 5.7165 15.9069 5.2784 3.11755 13.8074 2.16085 11.9658 2.82099 9.14478 2.09945 2.74011 1.67094 1.84167
internal_count=154 129 41 25 88 26 15 77 11 67 15 52 11 15 9 10
shrinkage=0.0984825


Tree=5
num_leaves=13
num_cat=0
split_feature=1 4 1 1 4 4 4 1 1 1 4 1
split_gain=7.23302 4.08299 1.99284 3.42631 1.92025 2.36623 1.34069 1.45977 1.39999 0.781387 0.525941 0.00405254
threshold=586.50000000000011 86.300000000000026 290.50000000000006 373.50000000000006 88.700000000000017 94.100000000000009 96.850000000000009 539.00000000000011 557.50000000000011 936.50000000000011 86.750000000000014 317.00000000000006
decision_type=8 2 10 10 2 2 2 10 10 8 2 10
left_child=2 9 -1 4 10 -6 7 -5 -9 -2 11 -4
right_child=1 -3 3 6 5 -7 -8 8 -10 -11 -12 -13
leaf_value=-0.10559336368017957 0.17214610717491388 -0.033226632526349768 -0 -0.078042984661719647 0.12878187246290854 -0 0.033314401546839276 0.098004699119275535 -0.061327605583376223 0.049426094794751407 -0.070155145395386059 0.0066301488889678392
leaf_weight=3.0960226804018083 2.9762849956750861 1.4708860516548155 0.92433416843414595 8.8929438889026589 2.9617051929235458 1.5999835133552549 0.77086447179317552 0.96878114342689603 1.0066760033369062 2.9592862278223038 1.0872492194175718 0.85768987238407135
leaf_count=18 13 7 5 51 14 8 4 5 6 13 6 4
internal_value=0 0.841223 -0.297571 -0.136826 0.344177 0.774829 -0.498329 -0.616732 0 1.23972 -0.123452 0
internal_weight=0 7.40646 22.1663 19.0702 7.43096 4.56169 11.6393 10.8684 1.97546 5.93557 2.86927 1.78202
internal_count=154 33 121 103 37 22 66 62 11 26 15 9
shrinkage=0.0984825


Tree=6
num_leaves=20
num_cat=0
split_feature=1 1 1 4 4 1 4 4 1 4 11 1 11 4 11 1 4 4 4
split_gain=3.70582 2.71028 2.13537 2.13514 1.5098 1.01096 1.62703 1.13964 0.745751 0.724636 0.687135 0.595676 0.576954 0.351415 0.286635 0.0422391 0.0415839 0.085386 0.00909611
threshold=539.00000000000011 443.50000000000006 290.50000000000006 86.300000000000026 69.550000000000011 373.50000000000006 88.700000000000017 94.100000000000009 411.50000000000006 85.100000000000009 1.0000000180025095e-35 697.00000000000011 10.000000000000002 93.65000000000002 10.000000000000002 557.50000000000011 85.100000000000009 91.600000000000009 85.950000000000017
decision_type=8 8 10 2 2 8 2 2 10 2 2 8 2 2 2 10 2 2 2
left_child=1 2 10 4 -2 6 9 -8 13 12 -1 15 -4 14 -7 -5 -10 18 -18
right_child=3 -3 5 11 -6 8 7 -9 16 -11 -12 -13 -14 -15 -16 -17 17 -19 -20
leaf_value=0 0 -0.10393897359695255 -0 0.027821140703091923 0.12563446346044402 -0 0.11928328748901071 0 0.02941665038403006 -0.072236729427080412 -0.098508810983544567 -0.072964739815562105 0.07628257356301113 0 -0.088881290576582214 -0 -0.020495096119049639 0.027821274897390523 -0
leaf_weight=0.6958608478307825 2.2426602691411954 3.1857348829507819 1.020316019654272 0.78799363970756542 3.9389669746160507 0.87970806658268141 2.6307095140218735 1.8253466933965681 0.78728306293487582 1.1985380500555036 2.5835480391979218 1.005833253264427 1.0255250036716459 0.65521690249443043 1.707422688603401 0.74499157071113586 0.62045250833034538 0.79097601771354653 0.80611510574817646
leaf_count=4 10 20 5 4 17 5 12 9 4 7 16 5 5 4 10 4 4 4 5
internal_value=0 -0.207611 -0.0122137 0.567953 0.893113 0.12069 0.384889 0.785677 -0.104424 -0 -0.763764 -0 0.170025 -0.48848 -0.657382 0.12251 0.102431 0 -0.115015
internal_weight=0 20.4128 17.227 8.72045 6.18163 13.9476 7.70044 4.45606 6.24717 3.24438 3.27941 2.53882 2.04584 3.24235 2.58713 1.53299 3.00483 2.21754 1.42657
internal_count=154 114 94 40 27 74 38 21 36 17 20 13 10 19 15 8 17 13 9
shrinkage=0.0984825


Tree=7
num_leaves=17
num_cat=0
split_feature=2 2 7 9 9 9 9 9 9 9 9 9 9 9 9 9
split_gain=3.41495 1.44728 1.29176 1.79822 0.852999 0.489739 2.73871 0.461135 0.164382 0.148164 0.566933 0.429834 0.421518 0.140472 0.082926 0.29355
threshold=1.5000000000000002 2.5000000000000004 1.0000000180025095e-35 25.109029380331553 20.857436012199255 23.370157272742755 24.613604088566305 22.848789956960854 26.895168374590554 26.035341778283904 22.848789956960854 21.440418569074154 26.983824134976256 19.656181603455455 24.320992325957352 22.718162103896052
decision_type=10 8 2 10 10 8 10 10 10 10 8 10 10 10 10 10
left_child=14 2 3 4 -2 13 -7 -6 -8 10 11 -3 -11 -4 15 -1
right_child=1 9 5 -5 7 6 8 -9 -10 12 -12 -13 -14 -15 -16 -17
leaf_value=0.051892781975027592 0.062655388621846456 -0.045666200142853532 -0 0.085682196497279484 -0.075824321700951117 0.10834488824272408 -0.064759929144993386 -0 -0 0.029740096933017837 -0.10003179974840028 0.023131491602124642 -0.057905641332767446 -0.054951493922721084 0.11040574996228665 -0
leaf_weight=1.181271269917491 1.1444317698478732 1.7505309134721749 0.69262567162513633 3.481703907251358 1.3741267919540407 1.5376579910516746 2.2714204937219624 2.1369897127151489 1.6378282606601713 0.752460017800331 2.3709174394607544 0.7902417629957198 0.97471649944782235 3.3590390831232071 2.4581553339958191 0.82145425677299488
leaf_count=6 6 10 4 17 9 7 12 12 9 4 14 4 6 19 11 4
internal_value=0 -0.114965 0.000401527 0.325276 -0 -0.211606 -0 -0.325138 -0.459628 -0.514729 -0.622391 -0.00019647 -0 -0.473533 0.829814 0.1478
internal_weight=0 24.2747 17.6358 8.13725 4.65555 9.49857 5.44691 3.51112 3.90925 6.63887 4.91169 2.54077 1.72718 4.05166 4.46088 2.00273
internal_count=154 133 95 44 27 51 28 21 21 38 28 14 10 23 21 10
shrinkage=0.0984825


Tree=8
num_leaves=14
num_cat=0
split_feature=2 3 1 3 1 1 1 1 1 1 1 1 1
split_gain=7.10202 4.51387 3.65897 1.58343 0.933834 1.10191 0.865087 0.909995 0.202527 0.140414 0.0547227 0.0265093 0.00956754
threshold=1.5000000000000002 487.50000000000006 290.50000000000006 492.50000000000006 586.50000000000011 365.00000000000006 353.50000000000006 327.00000000000006 351.50000000000006 365.00000000000006 299.50000000000006 728.50000000000011 303.00000000000006
decision_type=10 10 8 8 8 10 10 10 10 10 10 10 10
left_child=3 2 -2 -1 5 12 7 10 -5 -8 -4 -6 -3
right_child=1 4 6 8 11 -7 9 -9 -10 -11 -12 -13 -14
leaf_value=0 -0.092910085576443702 0 0.031247568749871227 0 0 -0.10346575371237814 -0.040842927304608256 0.1474722375557565 0.17025510749749606 0.0082530331798072176 0 -0.014376007756285409 -0.0072656787138444352
leaf_weight=1.2184337377548242 2.2905219644308099 0.67931698262691276 3.1921210139989853 0.80695517361164126 0.87801660597324493 8.6594265475869161 0.71579878032207522 1.3728105574846265 2.0579062700271606 1.5346554815769193 1.2706892639398573 1.2076189815998075 2.0072221904993057
leaf_count=6 15 4 14 4 4 57 4 6 9 8 6 6 11
internal_value=0 -0.36158 0.0804257 1.04204 -0.749415 -0.864045 0.451425 0.655139 1.44486 -0 0.245109 -0 -0.0239046
internal_weight=0 23.8082 10.3766 4.0833 13.4316 11.346 8.08608 5.83562 2.86486 2.25045 4.46281 2.08564 2.68654
internal_count=154 135 53 19 82 72 38 26 13 12 20 10 15
shrinkage=0.0984825


Tree=9
num_leaves=18
num_cat=0
split_feature=2 1 1 3 1 4 1 4 4 1 1 4 1 4 1 3 1
split_gain=2.53411 3.19053 2.39552 4.57422 2.80375 2.7756 2.14735 1.91421 1.55452 1.92674 1.33214 0.883852 0.626209 0.190685 0.121743 0.113339 0.0522055
threshold=1.5000000000000002 395.50000000000006 586.50000000000011 505.50000000000006 290.50000000000006 64.050000000000026 697.00000000000011 91.200000000000017 86.750000000000014 327.00000000000006 373.50000000000006 94.750000000000014 353.50000000000006 77.450000000000017 351.50000000000006 492.50000000000006 546.50000000000011
decision_type=8 8 10 10 10 2 10 2 2 10 10 2 10 2 10 8 10
left_child=1 15 3 4 5 -2 -4 8 9 -6 14 -7 -10 -8 -5 -1 -12
right_child=2 -3 6 10 7 11 13 -9 12 -11 16 -13 -14 -15 -16 -17 -18
leaf_value=-0.038389379097367247 0.063266908324400503 0.16906838944489755 0.13614296204996007 -0.023654215029708717 -0 -0.1067759746276388 0.013706411447893708 0.1498297041024762 0 0.14868529170358133 -0.10690646026093586 0 -0.076118848658467728 -0.045212112931330796 0.019408726818536094 0 -0.00030501817142803268
leaf_weight=0.70945146679878512 1.420509621500974 1.9223284572362898 1.9365691840648644 1.4995573312044128 0.96912601590156577 2.9629461988806729 1.3053583949804308 1.9201435446739197 0.8907459229230883 1.4426903426647184 5.40101258456707 0.66687960922718037 1.3241491615772245 0.74498946964740731 0.81660485267639149 0.86112532019615184 1.293933108448982
leaf_count=4 6 8 8 9 5 18 6 8 4 7 39 4 8 4 4 4 8
internal_value=0 0.855375 -0.0359319 -0.197363 0.174751 -0.303209 0.635167 0.639388 0.128374 0.768192 -0.745111 -0.848892 -0.287902 -0 -0 -0 -0.97166
internal_weight=0 3.49291 24.5952 20.6083 11.5972 5.05034 3.98692 6.54685 4.62671 2.41182 9.01111 3.62983 2.2149 2.05035 2.31616 1.57058 6.69495
internal_count=154 16 138 120 60 28 18 32 24 12 60 22 12 10 13 8 47
shrinkage=0.0984825


Tree=10
num_leaves=14
num_cat=0
split_feature=9 2 6 2 6 9 6 2 9 9 9 6 9
split_gain=3.90491 2.43267 3.00294 0.889148 0.988256 0.929471 0.815595 0.776558 0.717977 0.395406 0.134402 0.0275757 0.00562248
threshold=25.109029380331553 2.5000000000000004 74.500000000000014 2.5000000000000004 76.500000000000014 25.910066667748254 80.500000000000014 1.5000000000000002 28.273052064337652 19.656181603455455 27.513015863038152 76.500000000000014 23.586486485858604
decision_type=8 8 2 10 2 10 2 10 10 10 8 2 10
left_child=1 2 -1 4 5 -2 -6 12 -7 -3 11 -5 -4
right_child=3 9 7 10 6 8 -8 -9 -10 -11 -12 -13 -14
leaf_value=0.084082239787888008 0.066004176089265468 -0 -0 -0.041213244473043933 0.1324148991072836 -0.076650492426459604 0 -0.047692733126732022 0 -0.10712522466927772 0.016666766042150762 -0 0.0070646907245976252
leaf_weight=2.5425050482153955 1.8590802103281006 0.7581583559513082 0.78434379398822496 0.75651241093874 2.576950840651989 1.2953605204820635 1.4981496930122373 8.1697634682059288 0.75469051301479328 3.9136702194809914 0.77045711874961842 0.70855775475502014 1.0561585277318952
leaf_count=13 9 4 4 5 12 8 7 49 4 26 4 4 5
internal_value=0 -0.329208 -0.0445077 0.446238 0.604555 0.0522192 0.975052 -0.338031 -0.206292 -0.953262 -0 -0.27225 0
internal_weight=0 17.2246 12.5528 10.2198 7.98423 3.90913 4.0751 10.0103 2.05005 4.67183 2.23553 1.46507 1.8405
internal_count=154 101 71 53 40 21 19 58 12 30 13 9 9
shrinkage=0.0984825


Tree=11
num_leaves=20
num_cat=0
split_feature=4 5 11 9 4 11 9 9 5 4 4 9 4 9 11 9 9 9 4
split_gain=3.40739 1.74475 1.15192 1.77885 1.26944 0.908488 0.75527 0.705698 0.634703 0.933912 0.475228 1.99801 0.475091 0.422787 0.412633 0.400448 0.193424 0.117086 0.00885487
threshold=82.15000000000002 4.5000000000000009 10.000000000000002 28.273052064337652 93.450000000000017 22.000000000000004 21.440418569074154 22.848789956960854 9.5000000000000018 92.750000000000014 88.700000000000017 23.286271801202805 90.450000000000017 25.583833254847352 14.000000000000002 26.493207339833052 24.613604088566305 25.583833254847352 94.750000000000014
decision_type=2 10 2 8 2 2 10 10 10 2 2 10 2 10 2 10 10 8 2
left_child=1 5 8 4 -4 6 -1 -3 10 12 13 -12 -10 -2 -9 16 -8 18 -6
right_child=2 7 3 -5 17 -7 15 14 9 -11 11 -13 -14 -15 -16 -17 -18 -19 -20
leaf_value=0.17649344807453196 -0 -0.069770577099445591 -0.097101174527904496 0.021806051135288065 0.015493172477365849 -0 0.035144845539797749 0.062588838878841951 0.053516088502554841 0.12331095089628068 -0.077086113688448782 0.076078673552372869 -0.053493194913071702 -0.086023301119598453 -0 0.10522154780740675 -0.0031864936387895116 -0.036518289557294914 0
leaf_weight=1.4590974152088181 1.4438855424523374 1.1874927878379824 5.641149535775182 1.3492470383644111 0.71877931803464912 1.1633846014738081 1.4734178557991988 1.2114585489034655 0.70000961422920249 0.8309449404478072 1.4298375546932223 1.8062397837638853 0.83675292879343022 1.4141422212123869 0.91831332445144642 0.86228179931640603 1.0534353852272031 0.7435595765709877 0.68833942711353291
leaf_count=6 9 8 38 7 4 6 7 6 4 4 10 9 5 8 5 4 5 5 4
internal_value=0 0.46445 -0.280429 -0.525988 -0.73682 0.788993 0.978141 -0 -0 0.420921 -0.184529 0 -0 -0.486113 0.205404 0.427306 0 -0 0.0825462
internal_weight=0 9.32888 17.6029 9.14107 7.79183 6.01162 4.84823 3.31726 8.46181 2.36771 6.09411 3.23608 1.53676 2.85803 2.12977 3.38914 2.52685 2.15068 1.40712
internal_count=154 47 107 58 51 28 22 19 49 13 36 19 9 17 11 16 12 13 8
shrinkage=0.0984825


Tree=12
num_leaves=16
num_cat=0
split_feature=3 3 1 3 3 1 1 1 3 11 1 1 1 1 3
split_gain=3.96763 1.72031 1.36786 1.34824 1.34907 1.49772 1.08725 0.862769 0.996458 0.540252 0.45525 0.388627 0.219517 0.681953 0.0263109
threshold=757.00000000000011 509.00000000000006 290.50000000000006 444.00000000000006 482.50000000000006 317.00000000000006 419.50000000000006 539.00000000000011 671.50000000000011 1.0000000180025095e-35 248.50000000000003 936.50000000000011 373.50000000000006 351.50000000000006 432.50000000000006
decision_type=8 10 8 10 10 10 10 8 10 2 10 8 10 10 10
left_child=1 2 10 14 9 -6 -7 12 -9 -5 -1 -2 13 -3 -4
right_child=11 7 3 4 5 6 -8 8 -10 -11 -12 -13 -14 -15 -16
leaf_value=0 0.12604048196531761 -0.072795833640558083 -0 0 0.11644918112105462 -0.089530505823530337 0.00021480324067837465 0.057014596652454765 -0.066089113413726489 0.1096877410021144 -0.080267788362818726 0.028322718675663654 -0.085254638384418685 0.00455619483514038 -0.051085228430327229
leaf_weight=0.71030598133802891 2.0647925287485114 1.2467895671725249 0.76580770313739743 1.1447348892688749 0.79975287616252932 1.6766928657889368 0.8710426017642019 1.3802012056112301 1.1219194233417509 2.9451515823602676 1.7336399108171461 3.5745965242385864 4.4680554047226906 1.4366398453712461 0.83090348541736603
leaf_count=5 9 8 4 6 4 10 5 7 7 13 13 16 35 7 5
internal_value=0 -0.17064 0.0426411 0.271414 0.492029 0 -0.35659 -0.488857 0 0.87489 -0.539004 0.768461 -0.664982 -0.0906076 -0.356077
internal_weight=0 21.1316 11.478 9.03409 7.43737 3.34749 2.54774 9.65361 2.50212 4.08989 2.44395 5.63939 7.15148 2.68343 1.59671
internal_count=154 129 65 47 38 19 15 64 14 19 18 25 50 15 9
shrinkage=0.0984825


Tree=13
num_leaves=11
num_cat=0
split_feature=5 6 2 5 5 6 2 5 6 5
split_gain=4.99457 4.1045 1.64692 1.52094 1.07308 0.321621 0.23021 0.136213 0.0709738 0.031873
threshold=3.5000000000000004 75.500000000000014 1.5000000000000002 7.5000000000000009 9.5000000000000018 84.500000000000014 1.5000000000000002 10.500000000000002 76.500000000000014 8.5000000000000018
decision_type=10 2 10 8 10 2 8 10 2 10
left_child=5 3 -3 6 -4 -1 -2 9 -6 -5
right_child=1 2 4 7 8 -7 -8 -9 -10 -11
leaf_value=0.086776724138413155 0.12683180728633453 0 -0.110200191606336 -0 -0.03096409602207123 0 0.023410685915412427 0 0 -0.031799210222076109
leaf_weight=5.1868269294500378 0.96145685017108995 1.948748454451559 6.2258106172084808 0.8192936256527914 0.6815211996436118 1.5138081312179563 4.0440703108906746 1.1999260932207105 1.081114701926708 2.6280139237642288
leaf_count=25 4 10 45 5 5 7 23 6 7 17
internal_value=0 -0.253459 -0.716563 0.158767 -0.918356 0.744452 0.573007 -0.153047 -0 -0.265689
internal_weight=0 19.59 9.93719 9.65276 7.98845 6.70064 5.00553 4.64723 1.76264 3.44731
internal_count=154 122 67 55 57 32 27 28 12 22
shrinkage=0.0984825


Tree=14
num_leaves=15
num_cat=0
split_feature=5 9 3 9 3 8 9 3 3 3 9 3 3 3
split_gain=2.75214 1.22764 1.06719 1.07974 0.948866 1.03018 0.417407 2.13031 0.315756 0.217595 0.120183 0.0730396 0.0582416 0.0325198
threshold=3.5000000000000004 24.833478864435154 593.50000000000011 20.355313712062856 432.50000000000006 1.0000000180025095e-35 26.626811423291802 757.00000000000011 476.50000000000006 798.00000000000011 21.767419059674953 579.50000000000011 399.00000000000006 455.00000000000006
decision_type=10 8 10 10 8 10 10 10 10 8 10 10 10 10
left_child=1 9 3 13 12 -6 7 -4 -3 10 -1 -12 -5 -2
right_child=2 8 6 4 5 -7 -8 -9 -10 -11 11 -13 -14 -15
leaf_value=0 -0 0 -0.086408720284385121 -0 -0.083268204025391979 -0 0.049028017628328958 0.069806029264896499 0.12161804503457525 0.034197494235043542 -0 -0.050950326304265284 0.026470511556576214 0.01822674787179232
leaf_weight=1.1408518701791792 0.94294071197509999 0.89766433835029635 2.0680202990770336 0.45079895108937929 9.0501148849725706 2.0251061916351327 1.4288212954998014 1.0870992392301557 1.5617846995592115 1.3819075077772138 0.74690279364585854 0.85947366803884495 0.76973335444927216 0.91295860707759835
leaf_count=6 6 4 16 4 61 12 7 5 7 6 4 6 4 6
internal_value=0 0.367332 -0.355313 -0.492193 -0.605198 -0.701349 0 -0.130386 0.921971 0 -0.129348 -0.3186 0 0
internal_weight=0 6.58858 18.7356 14.1517 12.2958 11.0752 4.58394 3.15512 2.45945 4.12914 2.74723 1.60638 1.22053 1.8559
internal_count=154 33 121 93 81 73 28 21 11 22 16 10 8 12
shrinkage=0.0984825


Tree=15
num_leaves=15
num_cat=0
split_feature=1 11 4 2 4 1 4 2 4 4 11 1 4 1
split_gain=3.34804 3.79622 2.17827 1.30447 1.5396 1.50518 1.01494 0.773716 0.922377 2.01569 0.651043 0.32902 0.278747 0.00619934
threshold=586.50000000000011 18.000000000000004 87.200000000000017 1.5000000000000002 92.750000000000014 395.50000000000006 55.050000000000004 2.5000000000000004 90.450000000000017 84.550000000000011 1.0000000180025095e-35 299.50000000000006 94.100000000000009 348.00000000000006
decision_type=8 2 2 10 2 10 2 10 2 2 2 10 2 8
left_child=1 3 6 -1 5 7 -2 8 9 -5 -6 -9 -12 -14
right_child=2 -3 -4 4 10 -7 -8 11 -10 -11 12 -13 13 -15
leaf_value=0.077350737624583443 0 -0.10327291130672846 -0.04881084261982381 -0 0.11884009647211816 -0.07882844181674456 0.10876874499721222 0 -0.028923058699663502 0.12788733913182038 0.046369832278528082 -0.074861504198373674 -0.020210734567531936 -0
leaf_weight=1.9396765381097854 1.103122055530547 4.1355043351650229 0.74794377386569955 1.1191787645220745 0.83244463801383906 3.8905890583992004 4.519305631518364 0.67682091891765628 0.63555844128131855 1.845355689525604 1.1272769644856455 1.3645970299839971 0.60365997254848447 0.72165782749652863
leaf_count=9 5 32 4 7 4 32 20 4 4 9 7 9 4 4
internal_value=0 -0.204481 0.631697 0 -0.081517 -0.325025 0.895915 0 0.283937 0.62108 0.430015 -0.480901 0 -0.123468
internal_weight=0 18.8923 6.37037 14.7568 12.8171 9.5321 5.62243 5.64151 3.60009 2.96453 3.28504 2.04142 2.45259 1.32532
internal_count=154 125 29 93 84 65 25 33 20 16 19 13 15 8
shrinkage=0.0984825


Tree=16
num_leaves=16
num_cat=0
split_feature=5 3 3 3 3 3 6 5 6 3 6 3 3 5 3
split_gain=2.54057 1.60733 3.07493 1.52821 1.3568 1.17212 0.952434 0.707987 0.50505 0.409517 0.269826 0.149931 0.0780375 0.0556991 0.0416985
threshold=3.5000000000000004 509.00000000000006 614.50000000000011 451.50000000000006 476.50000000000006 517.00000000000011 77.500000000000014 7.5000000000000009 80.500000000000014 757.00000000000011 78.500000000000014 459.00000000000006 660.50000000000011 1.0000000180025095e-35 482.50000000000006
decision_type=10 8 10 8 8 10 2 10 2 10 2 10 10 8 8
left_child=4 3 -3 -2 13 -6 7 -5 9 -4 -7 -9 -10 -1 -8
right_child=1 2 8 6 5 10 14 11 12 -11 -12 -13 -14 -15 -16
leaf_value=-0.031710932202886871 -0.058472975658944167 -0.10583069071546104 -0 0.11286204232280082 0.12919810456711756 -0 -0.024899201534723289 -0 -0 0.069614515848076333 0.040465565596851084 0.027347352488697855 -0.053767963068136172 0 0
leaf_weight=0.6623761057853722 2.3700895607471475 5.0514326244592649 1.4408947974443438 1.7454809993505485 2.214626744389534 1.4756938442587855 0.61589272320270505 0.50776933133602176 0.64312946051359154 1.3624173104763029 1.6750426366925237 1.9079382643103595 0.94868230819702148 0.66591227054595958 1.0254821106791496
leaf_count=4 17 42 11 8 9 8 4 4 4 6 9 11 7 4 6
internal_value=0 -0.259965 -0.543434 0 0.453014 0.709759 0.341221 0.623585 0 0.319259 0.0774647 0 -0.363889 -0.110802 -0
internal_weight=0 17.6192 9.44656 8.17265 6.69365 5.36536 5.80256 4.16119 4.39512 2.80331 3.15074 2.41571 1.59181 1.32829 1.64137
internal_count=154 120 70 50 34 26 33 23 28 17 17 15 11 8 10
shrinkage=0.0984825


Tree=17
num_leaves=8
num_cat=0
split_feature=11 2 5 5 10 5 5
split_gain=1.6506 2.39867 0.536391 0.367039 0.263294 0.167307 0.12268
threshold=18.000000000000004 1.5000000000000002 4.5000000000000009 1.0000000180025095e-35 1.0000000180025095e-35 3.5000000000000004 3.5000000000000004
decision_type=2 10 10 8 2 10 10
left_child=1 -1 3 -3 6 -5 -2
right_child=4 2 -4 5 -6 -7 -8
leaf_value=0.10852335422086291 0 -0 -0.0099850038158938084 0.05279959299348385 -0.083812877002396119 0 -0.02446909103305453
leaf_weight=2.3211009129881921 0.8766425102949138 1.4286811649799371 11.491066634654997 3.2764162644743919 1.9634294956922527 1.6244291663169859 1.9729969799518585
leaf_count=11 4 8 75 16 17 9 14
internal_value=0 0.151658 0 0.256212 -0.494641 0.398723 -0.0217781
internal_weight=0 20.1417 17.8206 6.32953 4.81307 4.90085 2.84964
internal_count=154 119 108 33 35 25 18
shrinkage=0.0984825


Tree=18
num_leaves=16
num_cat=0
split_feature=9 4 4 2 5 2 4 7 4 4 4 4 4 4 4
split_gain=1.93418 3.50668 1.63746 0.877431 1.18668 0.797538 0.444609 0.370579 0.539314 0.342082 0.108239 0.0702829 0.0268743 0.00165608 0.157562
threshold=24.984494731561252 93.450000000000017 94.100000000000009 2.5000000000000004 7.5000000000000009 2.5000000000000004 78.850000000000009 1.0000000180025095e-35 88.300000000000026 86.300000000000026 75.350000000000009 70.700000000000017 91.950000000000017 84.550000000000011 91.950000000000017
decision_type=8 2 2 10 10 8 2 2 2 2 2 2 2 2 2
left_child=1 5 3 4 6 7 -2 9 10 -1 11 -9 -10 -5 -15
right_child=2 -3 -4 13 -6 -7 -8 8 12 -11 -12 -13 -14 14 -16
leaf_value=0.024093681625716283 0 0.069119754783565635 -0.056574719628183792 0 -0 -0.10021915672540455 0.10862728934626481 -0.022693981492124173 0.01030085282643768 -0.046762332819313031 -0.08700826515070656 0 -0.013156201800133891 -0.042709312151144027 0
leaf_weight=2.2172584161162381 0.88313004374503901 2.6665027737617484 1.0518387332558621 0.78725978732109103 1.3855622932314871 3.1226272024214277 3.9595711007714272 1.3057040199637415 1.4422565400600436 0.8825213611125946 1.9852126315236087 0.80767446756362893 0.56296610832214333 0.8101377338171003 0.54202170670032501
leaf_count=13 4 16 8 4 8 25 20 7 9 7 15 4 4 6 4
internal_value=0 -0.239149 0.337115 0.529128 0.718087 -0.495459 0.951471 -0.246372 -0.389479 0 -0.596391 -0.021419 0 -0 -0.0345344
internal_weight=0 14.9927 9.41952 8.36768 6.22826 12.3262 4.8427 9.20359 6.10381 3.09978 4.09859 2.11338 2.00522 2.13942 1.35216
internal_count=154 100 54 46 32 84 24 59 39 20 26 11 13 14 10
shrinkage=0.0984825


Tree=19
num_leaves=10
num_cat=0
split_feature=5 11 2 5 2 5 11 11 11
split_gain=3.0395 1.154 0.857673 0.728132 0.398509 0.710667 0.758223 0.0529705 0.00174893
threshold=4.5000000000000009 10.000000000000002 2.5000000000000004 7.5000000000000009 1.5000000000000002 9.5000000000000018 6.0000000000000009 1.0000000180025095e-35 18.000000000000004
decision_type=10 2 8 10 10 10 2 2 2
left_child=2 4 -1 8 -2 6 -6 -7 -3
right_child=1 3 -4 -5 5 7 -8 -9 -10
leaf_value=0.072653362358562387 0.066316197263146165 -0.0026090252238632548 0 -0.078744909346038033 -0.058355268632882609 0 0 0.050957488118884217 0
leaf_weight=6.1691921725869188 0.84241666644811442 2.4554856568574901 2.2842969596385965 3.7878533788025379 3.3222419768571854 1.1536200568079951 1.6314333304762838 1.2432004138827322 1.2159867659211157
leaf_count=30 4 17 13 32 24 6 11 8 9
internal_value=0 -0.189412 0.544782 -0.478586 0 -0 -0.290473 0.345005 -0
internal_weight=0 15.6522 8.45349 7.45933 8.19291 7.3505 4.95368 2.39682 3.67147
internal_count=154 111 43 58 53 49 35 14 26
shrinkage=0.0984825


Tree=20
num_leaves=17
num_cat=0
split_feature=3 3 9 9 3 9 3 9 3 9 9 9 9 9 9 3
split_gain=2.29762 1.17462 1.50308 0.973176 0.626014 0.52189 0.462932 0.558551 1.35881 0.369827 0.234258 0.0770757 0.240298 0.205972 0.0791375 0.0185233
threshold=798.00000000000011 509.00000000000006 25.109029380331553 21.247533264473603 530.50000000000011 26.035341778283904 480.50000000000006 26.307153419071302 497.00000000000006 23.370157272742755 26.626811423291802 25.583833254847352 23.465193784338904 24.538875214279056 20.024929616571104 650.00000000000011
decision_type=8 10 10 8 10 10 10 10 10 8 10 10 10 8 10 10
left_child=1 6 3 15 -4 9 11 8 -8 -2 -6 12 14 -14 -1 -3
right_child=5 2 4 -5 10 -7 7 -9 -10 -11 -12 -13 13 -15 -16 -17
leaf_value=0 0.003740168176680608 -0 -0.045168855981692617 -0.086326126090318256 0 0 0.063095157915930858 0.10437021493360457 -0.063295573242309999 0.12557576974055221 0.058832573422616059 -0.021860020713800075 0.069362367611202458 -0 -0.022355156330842101 0.015596365858935139
leaf_weight=0.998307645320898 1.6498663723468774 0.49881584942340645 0.887207351624966 4.4079329036176205 1.1490769162774088 0.9568582326173779 2.0615334808826451 1.1071697473525999 1.168364070355892 2.0067175924777985 1.8351074941456316 1.4154938906431196 0.87436524033546414 0.70082622766494762 1.4993995949625967 0.70213107019662857
leaf_count=6 8 5 7 37 7 4 11 5 9 9 12 9 4 4 12 5
internal_value=0 -0.0386489 -0.314377 -0.657662 0.0222479 0.723305 0.163289 0.407398 0 0.89445 0.378898 -0 0.0367136 0.390563 -0 0
internal_weight=0 19.3057 9.48027 5.60888 3.87139 4.61344 9.82546 4.33707 3.2299 3.65658 2.98418 5.48839 4.0729 1.57519 2.49771 1.20095
internal_count=154 133 73 47 26 21 60 25 20 17 19 35 26 8 18 10
shrinkage=0.0984825


Tree=21
num_leaves=15
num_cat=0
split_feature=1 4 2 1 1 4 1 1 5 1 1 5 1 5
split_gain=1.72485 2.28456 2.01173 1.78169 0.78273 0.680229 0.571509 0.36701 0.280841 0.256483 0.233427 0.214165 0.133201 7.93884e-05
threshold=539.00000000000011 85.950000000000017 2.5000000000000004 431.00000000000006 299.50000000000006 86.300000000000026 586.50000000000011 400.00000000000006 3.5000000000000004 299.50000000000006 936.50000000000011 3.5000000000000004 557.50000000000011 8.5000000000000018
decision_type=8 2 10 10 10 2 8 10 10 10 8 10 8 10
left_child=1 8 3 4 13 6 -2 -6 -1 -4 -8 -12 -7 -3
right_child=5 2 9 -5 7 12 10 -9 -10 -11 11 -13 -14 -15
leaf_value=-0 -0 0 -0 -0.057023092778760102 0.078427702340854666 0.024149569889630258 0.10983038643341832 0 -0.095393192717153241 -0.08348615875951175 0.037773440160400885 -0 -0.025587175980140108 -0.0011412132114591452
leaf_weight=1.5901226252317453 0.75247710198163797 0.50756405293941298 0.78555148839950495 1.1545417085289953 5.4833809733390808 0.65477080643176999 2.20750792324543 1.0935903117060659 2.9829741567373276 1.8168424889445303 2.3258243799209599 0.73907993733882893 1.3210886493325233 0.55477216094732285
leaf_count=9 5 4 6 11 28 4 11 8 26 15 10 4 8 5
internal_value=0 -0.136828 0.0529971 0.331176 0.553421 0.423143 0.591304 0.688351 -0.744083 -0.638367 0.711935 0.207364 -0 -0
internal_weight=0 15.9693 11.3962 8.79385 7.63931 8.00075 6.02489 6.57697 4.5731 2.60239 5.27241 3.0649 1.97586 1.06234
internal_count=154 112 77 56 45 42 30 36 35 21 25 14 12 9
shrinkage=0.0984825


Tree=22
num_leaves=18
num_cat=0
split_feature=5 6 3 3 3 8 4 4 6 6 4 4 4 3 3 4 4
split_gain=1.29526 1.42212 1.34367 0.91317 1.75014 1.01997 0.855402 0.839672 0.749052 0.641744 0.406734 0.321408 0.276117 0.566627 0.255877 0.0620994 0.0150711
threshold=4.5000000000000009 81.500000000000014 734.00000000000011 497.00000000000006 614.50000000000011 1.0000000180025095e-35 85.950000000000017 89.200000000000017 77.500000000000014 80.500000000000014 78.850000000000009 84.200000000000017 96.850000000000009 455.00000000000006 487.50000000000006 92.200000000000017 80.250000000000014
decision_type=10 2 8 8 10 10 2 2 2 2 2 2 2 10 10 2 2
left_child=1 2 10 6 5 -5 -2 9 12 -6 -1 16 13 -8 -3 -13 -12
right_child=3 14 -4 4 7 -7 8 -9 -10 -11 11 15 -14 -15 -16 -17 -18
leaf_value=-0.027364717656591556 -0.062257811013303709 0 0.12842393551408354 -0.099106949057168298 0.08515874290648312 0 -0 -0.053182858717029012 -0.009874789721816022 -0 0 -0.0095231232125467472 -0 0.085092595919905464 -0.056848261209057456 0.026178735522806092 0.08626945899091884
leaf_weight=0.65351869165897536 1.1253906823694677 1.341838523745537 1.9681037217378614 4.1420054100453854 1.5572046265006072 1.1406119689345358 0.79593771696090732 0.95735441893339135 1.0246592387557028 0.73383831977844227 0.70126231014728568 1.1520839035511015 0.69784674048423756 2.6058979406952858 0.96777635067701329 0.68512140959501255 0.89506223797798146
leaf_count=4 9 6 9 40 9 8 6 8 7 5 4 7 4 13 7 4 4
internal_value=0 0.298086 0.585727 -0.192447 -0.413021 -0.777044 0.00844359 0 0.275441 0.486051 0.0776263 0.330189 0.52267 0.639482 -0.183196 0 0.654637
internal_weight=0 8.36477 6.05515 14.7807 8.53101 5.28262 6.24973 3.2484 5.12434 2.29104 4.08705 3.43353 4.09968 3.40184 2.30961 1.83721 1.59632
internal_count=154 45 32 109 70 48 39 22 30 14 23 19 23 19 13 11 8
shrinkage=0.0984825


Tree=23
num_leaves=16
num_cat=0
split_feature=1 4 3 1 3 1 4 1 4 3 4 10 1 4 7
split_gain=0.585326 1.47345 1.61477 1.62616 0.861899 1.8396 0.835148 0.497291 0.420836 0.284054 0.277264 0.244769 0.0233999 0.0227149 1.17935e-06
threshold=586.50000000000011 91.200000000000017 509.00000000000006 290.50000000000006 476.50000000000006 373.50000000000006 87.200000000000017 697.00000000000011 93.200000000000017 505.50000000000006 88.300000000000026 1.0000000180025095e-35 336.50000000000006 55.050000000000004 1.0000000180025095e-35
decision_type=8 2 10 10 8 10 2 10 2 10 2 2 10 2 2
left_child=1 4 3 -3 -1 10 7 13 11 14 12 -4 -6 -2 -7
right_child=6 2 8 -5 5 9 -8 -9 -10 -11 -12 -13 -14 -15 -16
leaf_value=-0.093532023349112176 0 -0 -0.020753730464520968 0.11510089277783433 -0 0 -0.035507332211554367 -0 -0.060268636042931562 -0.072704307930547704 0.077113608847665147 0.042342499302526794 0.014700072169714539 0.073410923399461842 -0.0001425562988955564
leaf_weight=2.1447205245494887 1.1788220405578602 1.0942796394228929 0.65068868547678005 2.5729030817747116 1.1145301535725609 0.95324631780385949 0.68077358603477467 1.5438674688339231 1.2524326741695402 3.1488547883927822 1.159548372030258 1.1225932762026787 1.0138154253363607 3.1339696943759918 0.52640616893768311
leaf_count=17 5 8 5 11 7 6 4 9 13 31 7 7 5 15 4
internal_value=0 -0.0714024 0.239253 0.723395 -0.340957 -0.0927184 0.275711 0.459014 -0.142132 -0.557896 0.370372 0 0 0.632317 -0
internal_weight=0 16.754 6.6929 3.66718 10.0611 7.9164 6.53743 5.85666 3.02571 4.62851 3.28789 1.77328 2.12835 4.31279 1.47965
internal_count=154 121 44 19 77 60 33 29 25 41 19 12 12 20 10
shrinkage=0.0984825


Tree=24
num_leaves=13
num_cat=0
split_feature=0 11 5 10 11 11 5 5 2 2 5 5
split_gain=1.62142 0.931029 0.397818 0.710098 0.492467 0.367864 0.439858 0.263121 0.181017 0.0265692 0.0134714 0.300171
threshold=1.0000000180025095e-35 18.000000000000004 3.5000000000000004 1.0000000180025095e-35 6.0000000000000009 6.0000000000000009 7.5000000000000009 7.5000000000000009 2.5000000000000004 1.5000000000000002 5.5000000000000009 4.5000000000000009
decision_type=8 2 10 2 2 2 10 10 10 8 10 10
left_child=1 2 4 -4 -1 6 -5 10 -6 -3 11 -7
right_child=-2 9 3 5 8 7 -8 -9 -10 -11 -12 -13
leaf_value=-0 0.06223159219948099 -0 -0.054578412491888398 -0 0.073801623150518997 0 0.052320237373302166 -0.044100977270624911 0 -0.067593860024262764 0.0073952900362460458 -0.054417302440963586
leaf_weight=0.8629858940839833 3.0360599309206 0.8626978993415827 2.8305991999804947 1.645640544593334 1.5676797851920128 0.68258712440729163 2.3641188889741898 1.9249018430709834 1.0736209228634834 2.8373707942664623 1.679351359605789 0.95912926644086849
leaf_count=5 16 5 22 11 8 4 14 16 6 27 12 8
internal_value=0 -0.143177 -0 -0.118579 0.253403 0 0.242366 -0.156988 0.518478 -0.595992 0 -0.0475622
internal_weight=0 19.2907 15.5906 12.0863 3.50429 9.25573 4.00976 5.24597 2.6413 3.70007 3.32107 1.64172
internal_count=154 138 106 87 19 65 25 40 14 32 24 12
shrinkage=0.0984825


Tree=25
num_leaves=17
num_cat=0
split_feature=2 1 1 3 9 1 3 4 4 4 9 9 3 1 1 4
split_gain=1.28835 1.1532 0.691257 1.23776 1.47877 0.733432 0.58877 1.62653 0.703649 1.14173 0.433117 0.231648 0.185324 0.033263 0.222806 0.00892648
threshold=1.5000000000000002 351.50000000000006 586.50000000000011 505.50000000000006 25.109029380331553 697.00000000000011 476.50000000000006 93.450000000000017 90.450000000000017 84.200000000000017 24.984494731561252 21.767419059674953 964.00000000000011 365.00000000000006 454.50000000000006 91.200000000000017
decision_type=10 8 8 10 10 8 10 2 2 2 10 10 8 10 8 2
left_child=1 -1 3 6 -5 -4 7 15 9 -8 -9 -7 -13 -6 -15 -2
right_child=2 -3 5 4 13 11 8 10 -10 -11 -12 12 -14 14 -16 -17
leaf_value=-0 -0.08726689240636118 0.097180984288003869 0.075650307147321072 -0.093329508042415479 0.016505812586923289 0.026432541869625778 -0 0.071785494670171437 -0 0.11543017451564198 -0 -0.057278318751782561 0 -0.046326288282584741 0 -0
leaf_weight=0.74585430324077906 1.8122535273432752 2.5095121711492538 1.7194044589996327 3.4286919459700584 1.1139481067657473 1.6332468688488009 0.8114257752895363 1.252206049859524 0.85626567155122735 1.6878417953848837 0.83074983209371556 0.84065169095993075 1.347410976886749 0.97475618124008145 0.43727680668234842 0.72081068158149697
leaf_count=5 16 13 8 38 6 8 5 6 7 8 5 5 6 10 4 4
internal_value=0 0.634656 -0.021726 -0.168796 -0.52212 0.232946 0.0171447 -0.120629 0.392826 0.695642 0.344523 -0 -0.223751 0 -0.0255881 -0.749305
internal_weight=0 3.25537 19.4669 13.9262 5.95467 5.54071 7.97155 4.61602 3.35553 2.49927 2.08296 3.82131 2.18806 2.52598 1.41203 2.53306
internal_count=154 18 136 109 58 27 51 31 20 13 11 19 11 20 14 20
shrinkage=0.0984825


Tree=26
num_leaves=16
num_cat=0
split_feature=9 1 9 1 9 1 1 1 1 9 9 1 1 9 1
split_gain=0.93834 0.662248 0.849786 0.76026 1.02222 0.483768 0.681042 0.335291 0.410427 0.279349 0.193641 0.0668574 0.024359 0.00485547 0.00282086
threshold=22.174222813925706 411.50000000000006 26.493207339833052 373.50000000000006 25.646092055435002 400.00000000000006 728.50000000000011 586.50000000000011 443.50000000000006 23.286271801202805 28.562770539434354 697.00000000000011 303.00000000000006 24.833478864435154 340.00000000000006
decision_type=8 8 8 10 10 8 10 10 10 10 10 8 10 10 8
left_child=5 3 7 4 9 12 -7 8 13 -2 -6 -9 -1 -3 -14
right_child=1 2 -4 -5 10 6 -8 11 -10 -11 -12 -13 14 -15 -16
leaf_value=-0.015649222841114901 0 0.0070485632869553977 0.07612043130696397 -0.069591285110500264 -0 -0.079298998974036541 0 0.065612752887949544 -0.058576635930738218 0.058448913866942669 -0.065885024522668492 0 0.011269411505309994 -0 0
leaf_weight=0.6533861942589313 1.1585384979844109 0.91143234446644772 2.8878850303590298 1.4476861655712125 1.812138266861439 2.8444529175758366 0.84528377652168252 0.80676136910915341 1.2024842612445352 3.0161415301263332 0.94537463784217823 0.61739712953567516 0.70904344320297208 1.2124760225415228 1.1679399833083153
leaf_count=7 7 6 17 14 11 25 4 4 13 18 6 4 4 7 7
internal_value=0 0.12106 0.341923 -0.00554737 0.0528236 -0.335217 -0.564365 0 -0.0910458 0.434736 -0.296597 0.458773 0 0 0.0602279
internal_weight=0 16.0183 7.63844 8.37988 6.93219 6.22011 3.68974 4.75055 3.32639 4.17468 2.75751 1.42416 2.53037 2.12391 1.87698
internal_count=154 107 51 56 42 47 29 34 26 25 17 8 18 13 11
shrinkage=0.0984825


Tree=27
num_leaves=17
num_cat=0
split_feature=4 4 3 9 9 3 3 9 9 9 2 3 4 9 9 4
split_gain=0.640703 1.5445 0.968654 1.77628 0.871991 0.745359 0.591971 0.649992 0.370331 0.212827 0.137638 0.609635 0.0990568 0.0776093 0.049269 0.0501755
threshold=82.15000000000002 92.200000000000017 505.50000000000006 24.984494731561252 22.174222813925706 476.50000000000006 509.00000000000006 26.307153419071302 21.440418569074154 25.109029380331553 2.5000000000000004 501.50000000000006 91.200000000000017 20.355313712062856 21.440418569074154 89.200000000000017
decision_type=2 2 10 10 8 10 10 10 8 10 8 10 2 10 10 2
left_child=4 5 3 -3 8 -2 7 14 13 -4 11 -6 -8 -1 -7 -16
right_child=1 2 9 -5 10 6 12 -9 -10 -11 -12 -13 -14 -15 15 -17
leaf_value=-0 -0.078855408900561808 0.13123662458079602 -0.045999035937923392 -0 0 0 -0.043903897945538062 0.076753623310974975 -0.06096687230032545 0 0 0.088885161894222908 -0 0.026237591359447088 -0.035088682241260605 0
leaf_weight=1.0331173688173327 2.8819241002202016 1.7904855534434312 0.93910983204841603 0.97697275131940831 1.4718718230724332 0.92870588600635595 3.3162857647985224 1.1205984055995939 0.92498063296079613 0.90112584084272385 0.53719056397676457 2.6054784953594208 0.63731584325432766 1.0834344401955602 0.74692915380001035 0.48511102795600886
leaf_count=6 22 8 11 6 7 5 32 5 6 7 4 14 5 6 6 4
internal_value=0 -0.0857648 0.327889 0.72356 0.263182 -0.337099 -0.0621598 0.126151 -0 -0 0.549587 0.612329 -0.377056 0.029535 -0 -0.197081
internal_weight=0 14.7246 4.60769 2.76746 7.65607 10.1169 7.23495 3.28134 3.04153 1.84024 4.61454 4.07735 3.9536 2.11655 2.16075 1.23204
internal_count=154 111 32 14 43 79 57 20 18 18 25 21 37 12 15 10
shrinkage=0.0984825


Tree=28
num_leaves=15
num_cat=0
split_feature=11 3 9 9 11 3 3 3 3 9 9 9 3 11
split_gain=0.724926 0.504271 0.480824 1.31249 0.954316 0.649691 0.911624 0.668528 0.452711 0.340979 0.341226 0.288052 0.173991 0.0152633
threshold=18.000000000000004 692.00000000000011 25.377645199641954 26.983824134976256 1.0000000180025095e-35 497.00000000000006 473.50000000000006 734.00000000000011 583.50000000000011 20.652286124436952 28.562770539434354 25.109029380331553 650.00000000000011 6.0000000000000009
decision_type=2 8 8 10 2 10 10 10 10 10 10 10 10 2
left_child=2 9 5 4 -4 6 -1 11 -5 -2 -11 -7 -6 -9
right_child=1 -3 3 8 12 7 -8 13 -10 10 -12 -13 -14 -15
leaf_value=-0 0 0 -0 -0.06549627804465348 0.10478550790029044 -0.058652901830990187 0.096271360373275675 0.014709420905974026 0 -0.085031845887141133 -0 0 0 -0
leaf_weight=3.7204853072762543 0.53862167149782125 0.7654268443584441 0.72440111637115423 1.0161816105246546 2.6520016491413121 3.8011238425970078 1.1740198805928228 0.64774885028600671 1.1628005057573316 2.3466550707817082 0.6312810331583022 0.4934971928596496 0.50932803750038136 0.83456529676914204
leaf_count=22 4 4 5 7 13 40 6 4 6 26 4 4 4 5
internal_value=0 -0.369661 0.0896547 0.317657 0.698799 -0 0.222945 -0.263815 -0.0761911 -0.554992 -0.690052 -0.497771 0.947297 0
internal_weight=0 4.28198 16.7362 6.06471 3.88573 10.6714 4.89451 5.77694 2.17898 3.51656 2.97794 4.29462 3.16133 1.48231
internal_count=154 38 116 35 22 81 28 53 13 34 30 44 17 9
shrinkage=0.0984825


Tree=29
num_leaves=12
num_cat=0
split_feature=2 2 1 1 1 7 1 6 1 1 6
split_gain=1.36266 0.538985 0.543188 0.50996 1.49182 0.928288 0.303565 0.184874 0.126716 0.246165 0.132435
threshold=2.5000000000000004 1.5000000000000002 351.50000000000006 586.50000000000011 373.50000000000006 1.0000000180025095e-35 586.50000000000011 73.500000000000014 303.00000000000006 248.50000000000003 77.500000000000014
decision_type=10 10 8 10 10 2 8 2 10 10 2
left_child=1 2 -1 4 7 -5 -2 -3 9 -9 -10
right_child=6 3 -4 5 -6 -7 -8 8 10 -11 -12
leaf_value=-0 -0.073741685067022875 0.039134146166740318 0.059001415471901908 0.09562948811937147 -0.073871823578090412 -0 -0 0 0.023362476962980855 -0.056437823410353812 -0
leaf_weight=0.70255326479673852 3.5039133392274371 1.1276795044541339 2.7323281317949295 1.0820461511611947 3.4538833796977997 1.1594894230365753 0.98187205195426919 2.048728104680777 2.3169011622667317 1.102174140512943 0.49763491749763478
leaf_count=5 36 6 16 5 39 6 5 11 11 10 4
internal_value=0 0 0.360286 -0.0830168 -0.211186 0.235494 -0.609762 0 -0.0132575 -0.200218 0
internal_weight=0 16.2234 3.43488 12.7885 10.547 2.24154 4.48579 7.09312 5.96544 3.1509 2.81454
internal_count=154 113 21 92 81 11 41 42 36 21 15
shrinkage=0.0984825


Tree=30
num_leaves=16
num_cat=0
split_feature=5 6 8 3 3 9 9 3 3 3 3 9 3 9 3
split_gain=0.928726 0.974187 1.2757 0.989616 0.824755 0.699276 0.479291 0.290506 0.217498 0.173641 0.33799 0.115858 0.112451 0.0626488 0.148759
threshold=3.5000000000000004 77.500000000000014 1.0000000180025095e-35 593.50000000000011 476.50000000000006 24.833478864435154 22.900339238196903 550.00000000000011 432.50000000000006 480.50000000000006 505.50000000000006 26.895168374590554 497.00000000000006 21.513167169573155 692.00000000000011
decision_type=10 2 10 10 8 8 10 10 8 10 10 8 8 10 8
left_child=4 3 -3 6 -1 13 12 8 -8 -10 -11 -5 -2 -6 -15
right_child=1 2 -4 11 5 -7 7 -9 9 10 -12 -13 -14 14 -16
leaf_value=-0.041109669670069827 0.026733620630085993 -0.086188844539675166 0 0.084172965821493043 0.020642931413110265 0.077599250257430849 0 0 -0.08019448815084429 0.0048988196162890272 -0.053079636760057516 0 -0 -0.040546807691387743 0
leaf_weight=0.81122721731663006 1.4896087199449517 3.8802907709032288 0.88023652508854844 1.069392371922731 1.3100659251213076 2.6097433120012283 0.60870824754238118 1.0855011083185671 2.1632551476359367 1.0200723931193354 1.1180627942085264 0.70482736080884956 0.36078582704067241 0.86172330379486051 0.74682854115962993
leaf_count=6 8 42 7 7 6 13 4 7 14 6 14 4 4 8 4
internal_value=0 -0.228084 -0.59953 -0 0.204479 0.411793 -0.194323 -0.358891 -0.46454 -0.54426 -0 0.618192 0 0 -0.0460497
internal_weight=0 14.3807 4.76053 9.62021 6.33959 5.52836 7.84599 5.9956 4.9101 4.30139 2.13814 1.77422 1.85039 2.91862 1.60855
internal_count=154 117 49 68 37 31 57 45 38 34 20 11 12 18 12
shrinkage=0.0984825


Tree=31
num_leaves=13
num_cat=0
split_feature=6 1 1 1 10 7 1 1 6 6 1 1
split_gain=0.7729 0.775401 0.717128 0.549738 0.668976 0.39076 0.294401 0.22536 0.0511748 0.195831 0.0127947 0.248246
threshold=77.500000000000014 539.00000000000011 290.50000000000006 340.00000000000006 1.0000000180025095e-35 1.0000000180025095e-35 357.50000000000006 248.50000000000003 83.500000000000014 81.500000000000014 443.50000000000006 546.50000000000011
decision_type=2 8 8 10 2 2 10 10 2 2 10 10
left_child=2 5 7 4 -4 -2 -5 -1 9 -3 -8 -12
right_child=1 8 3 6 -6 -7 10 -9 -10 -11 11 -13
leaf_value=0 -0 0.0012518736983141308 -0 -0.022026042868409899 0.090282074831821255 -0.074829145677298287 0.027572537596787728 -0.053718890318744446 0.018074273144133943 -0.047453502270949188 -0.030279595409030406 0.032431109557838345
leaf_weight=0.59832933172583658 1.8758750334382028 1.2232013754546658 1.13195575773716 1.3307995200157163 2.5737516433000565 2.6754754856228828 3.0712502375245094 1.0935439839959142 1.4828949868679044 0.80614484846591938 0.81152870878577266 1.5135372057557104
leaf_count=5 19 9 6 8 12 28 23 11 7 6 11 9
internal_value=0 -0.222084 0.175225 0.305903 0.638294 -0.506058 0.0266202 -0.253251 0 -0 0.206115 0
internal_weight=0 8.06359 12.1247 10.4328 3.70571 4.55135 6.72712 1.69187 3.51224 2.02935 5.39632 2.32507
internal_count=154 69 85 69 18 47 51 16 22 15 43 20
shrinkage=0.0984825


end of trees

feature importances:
Simple_reaction_time_Ex5=94
BMIX4=88
Choice_reaction_time_Ex5=86
CASIX4=68
Olfaction_complete_Ex5_Ex4=37
new_BM_frequency=27
ECGage=25
Coffee_oz_Ex1=23
new_smoke=5
TBI_LOC=4
HYPBP1=4
Sleepy_complete=2

parameters:
[boosting: gbdt]
[objective: binary]
[metric: auc]
[tree_learner: serial]
[device_type: cpu]
[data: ]
[valid: ]
[num_iterations: 100]
[learning_rate: 0.0984825]
[num_leaves: 25]
[num_threads: 4]
[max_depth: 39]
[min_data_in_leaf: 4]
[min_sum_hessian_in_leaf: 0.001]
[bagging_fraction: 0.827927]
[pos_bagging_fraction: 1]
[neg_bagging_fraction: 1]
[bagging_freq: 1]
[bagging_seed: 3]
[feature_fraction: 0.45368]
[feature_fraction_bynode: 1]
[feature_fraction_seed: 2]
[early_stopping_round: 0]
[first_metric_only: 0]
[max_delta_step: 0]
[lambda_l1: 0.633939]
[lambda_l2: 0.0364375]
[min_gain_to_split: 0]
[drop_rate: 0.1]
[max_drop: 50]
[skip_drop: 0.5]
[xgboost_dart_mode: 0]
[uniform_drop: 0]
[drop_seed: 4]
[top_rate: 0.2]
[other_rate: 0.1]
[min_data_per_group: 100]
[max_cat_threshold: 32]
[cat_l2: 10]
[cat_smooth: 10]
[max_cat_to_onehot: 4]
[top_k: 20]
[monotone_constraints: ]
[feature_contri: ]
[forcedsplits_filename: ]
[forcedbins_filename: ]
[refit_decay_rate: 0.9]
[cegb_tradeoff: 1]
[cegb_penalty_split: 0]
[cegb_penalty_feature_lazy: ]
[cegb_penalty_feature_coupled: ]
[verbosity: 1]
[max_bin: 122]
[max_bin_by_feature: ]
[min_data_in_bin: 3]
[bin_construct_sample_cnt: 200000]
[histogram_pool_size: -1]
[data_random_seed: 1]
[output_model: LightGBM_model.txt]
[snapshot_freq: -1]
[input_model: ]
[output_result: LightGBM_predict_result.txt]
[initscore_filename: ]
[valid_data_initscores: ]
[pre_partition: 0]
[enable_bundle: 1]
[max_conflict_rate: 0]
[is_enable_sparse: 1]
[sparse_threshold: 0.8]
[use_missing: 1]
[zero_as_missing: 0]
[two_round: 0]
[save_binary: 0]
[header: 0]
[label_column: ]
[weight_column: ]
[group_column: ]
[ignore_column: ]
[categorical_feature: ]
[predict_raw_score: 0]
[predict_leaf_index: 0]
[predict_contrib: 0]
[num_iteration_predict: -1]
[pred_early_stop: 0]
[pred_early_stop_freq: 10]
[pred_early_stop_margin: 10]
[convert_model_language: ]
[convert_model: gbdt_prediction.cpp]
[num_class: 1]
[is_unbalance: 0]
[scale_pos_weight: 1]
[sigmoid: 1]
[boost_from_average: 1]
[reg_sqrt: 0]
[alpha: 0.9]
[fair_c: 1]
[poisson_max_delta_step: 0.7]
[tweedie_variance_power: 1.5]
[max_position: 20]
[lambdamart_norm: 1]
[label_gain: ]
[metric_freq: 1]
[is_provide_training_metric: 0]
[eval_at: ]
[multi_error_top_k: 1]
[num_machines: 1]
[local_listen_port: 12400]
[time_out: 120]
[machine_list_filename: ]
[machines: ]
[gpu_platform_id: -1]
[gpu_device_id: -1]
[gpu_use_dp: 0]

end of parameters

pandas_categorical:[]
