tree
version=v3
num_class=1
num_tree_per_iteration=1
label_index=0
max_feature_idx=11
objective=binary sigmoid:1
feature_names=Sleepy_complete Simple_reaction_time_Ex5 new_BM_frequency Choice_reaction_time_Ex5 CASIX4 Olfaction_complete_Ex5_Ex4 ECGage new_smoke TBI_LOC BMIX4 HYPBP1 Coffee_oz_Ex1
feature_infos=[0:1] [1:1347] [0:4] [1:1812] [2.5:98] [0:12] [72:90] [0:2] [0:1] [15.894779189005:39.3445072771772] [0:1] [0:64]
tree_sizes=1809 1863 1683 1977 1955 1945 2058 2235 1667 2102 1561 2033 2009 1076 1628 2100 1718 1359 1516 1077 1947 1419 1799 1972 1131 1582 1414 1958 1079 1715 1692 1171 1533 1857 1666

Tree=0
num_leaves=17
num_cat=0
split_feature=5 3 3 3 3 6 8 3 6 6 1 6 1 3 3 1
split_gain=11.5981 8.89919 5.35773 5.77011 5.28607 4.45033 1.93053 0.984959 0.727445 0.631147 0.478868 0.281089 0.281089 0.167902 1.11325 0.0662304
threshold=3.5000000000000004 732.00000000000011 492.50000000000006 464.50000000000006 491.50000000000006 77.500000000000014 1.0000000180025095e-35 839.00000000000011 75.500000000000014 75.500000000000014 350.50000000000006 79.500000000000014 325.50000000000006 615.50000000000011 790.00000000000011 351.50000000000006
decision_type=2 10 8 10 8 2 10 10 2 2 8 2 10 10 10 10
left_child=4 2 3 8 12 9 -4 -3 10 -5 -2 -8 -1 -6 -15 -14
right_child=1 7 6 5 13 -7 11 -9 -10 -11 -12 -13 15 14 -16 -17
leaf_value=-1.0170128924235895 -1.0072645366909727 -0.74593359260757441 -1.073164521159947 -0.90516405304746139 -0.74596071542640363 -0.96345217191589028 -0.9521897748496434 -0.9614111671546246 -1.0674283554992534 -0.67808179162742199 -0.93084975901197076 -1.0170128924235897 -0.93084975901197076 -0.9614111671546246 -0.83188095142406149 -0.9614111671546246
leaf_weight=0.80036216974258723 1.8008148819208201 1.2005432546138757 10.804889291524885 1.200543254613877 2.6011770516633987 1.2005432546138761 1.6007243394851678 1.0004527121782301 2.2009959667921066 1.0004527121782301 0.80036216974258412 0.80036216974258412 0.80036216974258401 0.80036216974258445 1.6007243394851682 0.80036216974258412
leaf_count=4 9 6 54 6 13 6 8 5 11 5 4 4 4 4 8 4
internal_value=0 -0.338492 -0.557761 0.00311106 1.09304 1.06572 -0.953103 1.48541 -0.620914 1.93235 -0 -0 -0 1.67725 0.839751 0.0936348
internal_weight=0 23.6107 21.4097 8.20371 7.40335 3.40154 13.206 2.201 4.80217 2.201 2.60118 2.40109 2.40109 5.00226 2.40109 1.60072
internal_count=155 118 107 41 37 17 66 11 24 11 13 12 12 25 12 8
shrinkage=1


Tree=1
num_leaves=18
num_cat=0
split_feature=3 9 2 9 9 9 3 9 3 3 3 9 9 9 3 3 3
split_gain=10.7715 6.4917 4.69436 3.71608 3.78568 2.58372 2.06863 3.06864 0.628842 1.90151 0.846679 0.601682 0.335531 0.332133 0.199085 0.164733 0.0781342
threshold=732.00000000000011 22.005452965299806 2.5000000000000004 23.273396940761852 21.415392498610153 20.652600158375005 483.50000000000006 26.434276811244054 537.50000000000011 556.00000000000011 514.50000000000011 26.710257569013354 28.325509700145506 26.434276811244054 582.50000000000011 483.50000000000006 790.00000000000011
decision_type=8 8 10 10 10 10 8 10 10 10 10 10 8 8 10 10 10
left_child=2 16 3 4 5 15 7 -5 10 -10 -8 14 -9 -3 -11 -1 -2
right_child=1 13 -4 6 -6 -7 8 12 9 11 -12 -13 -14 -15 -16 -17 -18
leaf_value=-0 -0 0.18577895209307313 -0.10773762305228372 0.16965329852680475 -0.11883518121678557 0.13203142546227334 0 -0.054934997843619791 0.1270470427554074 -0 -0.088923054036150667 0.033448041874320773 0.029694896087556395 0.033418337959014131 -0.076122986955862837 -0.070441491494862146 -0.060262155019038435
leaf_weight=0.78511691093445823 0.79888084530830272 4.0003666281700134 6.2262689173221579 2.0211699455976464 4.4605000913143158 1.211031302809715 1.2038386613130581 0.79661905765533403 1.2290372252464297 0.78784331679344211 1.5190225839614866 0.78784331679344155 0.8030071109533311 1.3023419231176374 1.1494796574115751 0.98802433907985676 0.822757989168167
leaf_count=4 4 19 32 10 23 6 6 4 6 4 8 4 4 6 6 5 4
internal_value=0 1.06797 -0.34356 -0.0428626 -0.609575 0.076822 0.306195 0.911347 -0 0.227959 -0.390825 -0.0321844 -0 1.6301 -0.508052 -0.445652 -0.383278
internal_weight=0 6.92435 23.9688 17.7425 7.44467 2.98417 10.2979 3.6208 6.67706 3.9542 2.72286 2.72517 1.59963 5.30271 1.93732 1.77314 1.62164
internal_count=155 33 122 90 38 15 52 18 34 20 14 14 8 25 10 9 8
shrinkage=0.0984825


Tree=2
num_leaves=17
num_cat=0
split_feature=5 9 2 9 7 5 9 9 9 5 9 5 5 9 9 9
split_gain=8.79638 10.5146 3.01508 2.34027 2.21445 8.84303 3.30118 1.98395 1.46103 0.992998 0.78634 0.456204 0.424183 0.352345 0.169557 0.165086
threshold=3.5000000000000004 23.273396940761852 2.5000000000000004 26.434276811244054 1.0000000180025095e-35 8.5000000000000018 26.266740508278154 23.563582090289454 21.415392498610153 6.5000000000000009 28.705562584356752 9.5000000000000018 6.5000000000000009 22.727536149279356 25.124080134986503 28.325509700145506
decision_type=2 8 8 10 2 2 10 8 10 2 8 2 2 10 8 10
left_child=1 13 4 -3 5 6 -2 11 -7 14 -5 -6 -4 -1 -9 -11
right_child=2 3 12 10 7 8 -8 9 -10 15 -12 -13 -14 -15 -16 -17
leaf_value=-0 0.19638814376326877 0.25951255037028087 -0 0 -0.1084980727958104 0 -0 -0.079975902470899862 -0.10506474955379209 0.044674229455793302 0.13626043376694691 -0 -0.097420314390770285 -0.08004880746892834 -0 -0
leaf_weight=1.4609826207160979 2.9721438586711932 2.7076147794723511 1.9089815318584433 1.2684183120727541 2.8245708644390102 1.0583024770021441 0.8463929295539856 1.0509147793054585 2.4442608058452606 2.9306443780660634 0.8266625553369521 0.92542323470115651 4.8423868864774704 1.1755842566490171 0.80759045481681824 0.77507294714450814
leaf_count=7 14 12 10 6 15 5 4 5 13 15 4 5 26 6 4 4
internal_value=0 1.00254 -0.238726 1.90601 -0 0.400829 1.49905 -0.332273 -0.620448 0 0.63738 -0.892531 -0.800531 -0.409581 -0.537533 0.345023
internal_weight=0 7.43926 23.3867 4.8027 16.6353 7.3211 3.81854 9.31422 3.50256 5.56422 2.09508 3.74999 6.75137 2.63657 1.85851 3.70572
internal_count=155 35 120 22 84 36 18 48 18 28 10 20 36 13 9 19
shrinkage=0.0984825


Tree=3
num_leaves=20
num_cat=0
split_feature=3 9 3 9 3 9 9 4 3 6 4 4 3 3 6 9 3 4 4
split_gain=5.66042 3.42258 2.39732 2.99665 2.28496 3.42223 2.10896 2.03603 1.59148 1.36625 1.31263 0.880684 0.79807 0.450854 0.376402 0.294094 0.292751 0.060553 0.0577063
threshold=732.00000000000011 22.005452965299806 492.50000000000006 25.124080134986503 464.50000000000006 22.727536149279356 26.434276811244054 81.950000000000017 839.00000000000011 78.500000000000014 91.700000000000017 92.750000000000014 479.50000000000006 451.50000000000006 73.500000000000014 19.853853889639502 398.50000000000006 94.100000000000009 76.750000000000014
decision_type=8 8 10 10 8 10 10 2 10 2 2 2 10 8 2 10 10 2 2
left_child=2 18 4 14 11 -6 8 -5 -3 12 -9 15 -7 -13 -4 -1 -17 -12 -2
right_child=1 6 3 7 5 9 -8 10 -10 -11 17 13 -14 -15 -16 16 -18 -19 -20
leaf_value=-0 -0.056077231991149203 0.17446867374991992 -0 0.14228349730597492 0.22412054664785983 -0 -0 -0.093826023047369006 0 -0.07709435854785246 0.027432471260988182 0.048468855565980032 0.10187565754432056 -0.042757988792497127 -0.1007807293488997 -0 -0.10254204268205412 -0 -0
leaf_weight=0.79717445373535634 0.79950490593910095 3.029828354716301 0.94225950539112002 0.80946660041808971 0.87099085748195715 0.8244255334138878 0.88309112191200245 1.7037326991558077 1.1010873615741728 1.1501923054456709 0.78878559172153451 1.2267160266637798 1.3065604418516157 0.73222857713699341 8.8850719481706601 0.84781356155872389 2.2466170787811279 0.80063781142234802 0.79315996170043934
leaf_count=4 4 13 5 4 4 4 4 9 5 6 4 6 6 4 49 4 12 4 4
internal_value=0 0.639135 -0.386059 -0.653784 -0 0.552227 1.08294 0 1.38828 0 -0.284949 -0.413716 0.543001 0 -0.953425 -0.693343 -0.834901 0.0462442 -0.361871
internal_weight=0 6.60667 23.9327 13.93 10.0027 4.15217 5.01401 4.10262 4.13092 3.28118 3.29316 5.85055 2.13099 1.95894 9.82733 3.89161 3.09443 1.58942 1.59266
internal_count=155 30 125 75 50 20 22 21 18 16 17 30 10 10 54 20 16 8 8
shrinkage=0.0984825


Tree=4
num_leaves=19
num_cat=0
split_feature=5 11 3 5 3 3 3 3 3 3 3 3 3 3 8 11 3 3
split_gain=5.66537 2.75374 1.46424 1.52196 3.60406 1.16731 2.90391 2.89651 0.80408 0.715864 0.612427 0.325637 0.162344 0.311978 0.0685588 0.0584991 0.0200377 0.00401653
threshold=5.5000000000000009 22.000000000000004 479.50000000000006 1.0000000180025095e-35 766.00000000000011 615.50000000000011 492.50000000000006 464.50000000000006 483.50000000000006 554.00000000000011 566.50000000000011 483.50000000000006 433.50000000000006 412.50000000000006 1.0000000180025095e-35 10.000000000000002 682.00000000000011 454.50000000000006
decision_type=2 2 8 2 10 10 8 10 10 10 10 10 10 10 8 2 10 10
left_child=2 5 -1 -4 8 6 7 12 14 -8 -11 -9 13 -2 -5 -7 -10 -14
right_child=1 -3 3 4 -6 15 9 11 16 10 -12 -13 17 -15 -16 -17 -18 -19
leaf_value=-0 -0.051404746347509203 -0.11071152938890086 0.13764642578413241 0 0.14341523425074001 0.057682316011878225 -0.10809313814755513 0.13328653712842195 -0.052867573341444825 0.032142486983683084 -0.06785273104434987 0.0025944634267070182 -0.071365835030522379 0.032889161985545645 0.049770709900881054 0 -0 -0
leaf_weight=1.8025506883859641 0.77702200412750355 3.3862668573856345 3.1223736703395844 1.1436799019575121 2.0727252960205078 1.7124357372522347 3.4633541405200967 1.5141613930463793 2.0366392284631734 0.79253585636615742 1.0676835775375364 1.5064339786767957 1.1890489310026171 0.77366749942302704 1.119614318013191 1.1708649843931196 0.8074321150779723 0.94841279089450814
leaf_count=9 4 19 14 5 9 9 20 7 11 4 6 7 7 4 5 6 4 5
internal_value=0 -0.298927 0.577787 0.730524 0.346966 -0.0668918 -0.239582 0.119506 -0 -0.808112 -0 0.907144 -0.357931 -0 0.313971 0.430639 -0.447708 -0.542383
internal_weight=0 18.3019 12.105 10.3025 7.18009 14.9156 12.0323 6.70875 5.10737 5.32357 1.86022 3.0206 3.68815 1.55069 2.26329 2.8833 2.84407 2.13746
internal_count=155 98 57 48 34 79 64 34 25 30 10 14 20 8 10 15 15 12
shrinkage=0.0984825


Tree=5
num_leaves=19
num_cat=0
split_feature=1 1 4 4 1 8 7 4 4 1 1 4 1 4 4 4 4 4
split_gain=6.47882 2.70072 1.95907 2.15052 1.73477 1.27151 0.569374 0.542119 0.899246 0.812186 0.842102 0.74796 0.392332 0.292287 0.886036 0.768678 0.459509 0.0802975
threshold=526.50000000000011 438.50000000000006 80.850000000000009 81.950000000000017 902.00000000000011 1.0000000180025095e-35 1.0000000180025095e-35 84.850000000000009 86.450000000000017 355.50000000000006 279.50000000000006 91.950000000000017 501.50000000000006 89.950000000000017 93.200000000000017 88.700000000000017 96.200000000000017 84.850000000000009
decision_type=8 8 2 2 10 10 2 2 2 10 10 2 10 2 2 2 2 2
left_child=1 2 -1 -4 -2 6 7 -5 -9 10 -10 -12 -3 15 -15 17 -16 -8
right_child=4 12 3 5 -6 -7 13 8 9 -11 11 -13 -14 14 16 -17 -18 -19
leaf_value=-0.095904462713974681 0.097087607943484575 -0.1095396805201731 0.1364119559388626 -0.053656302397720325 -0 0.080492257782835863 -0 0.11155682532360414 -0 -0.069025472019229067 -0 0.12439392286866993 -0 -0.095658700916583614 0.03151124758513392 0.051162076516727342 -0.057991950439970429 -0.067517112315437888
leaf_weight=1.9505220204591849 7.3717357814311963 3.326951175928115 1.1245741695165623 0.8720410913228952 1.0359926521778104 1.5102592408657081 0.80666968226432834 0.87685498595237732 1.1302814334630968 1.0674371421337125 0.71428765356540669 1.1293692439794538 0.91885422170162201 2.0683269649744034 1.2857754826545718 1.2021975666284559 0.89835928380489349 1.0586113333702085
leaf_count=11 33 19 5 5 5 8 4 4 6 6 4 5 5 12 6 6 5 6
internal_value=0 -0.22067 -0.0112019 0.0698524 0.804485 -0 -0.134631 0.00572257 0.234577 0 0.299433 0.769069 -0.938125 -0.331308 -0.506379 -0 -0 -0.477932
internal_weight=0 21.9414 17.6956 15.745 8.40773 14.6205 13.1102 5.79027 4.91823 4.04138 2.97394 1.84366 4.24581 7.31994 4.25246 3.06748 2.18413 1.86528
internal_count=155 117 93 82 38 77 69 30 25 21 15 9 24 39 23 16 11 10
shrinkage=0.0984825


Tree=6
num_leaves=20
num_cat=0
split_feature=1 1 1 4 11 11 1 4 4 4 7 1 4 7 4 4 7 4 4
split_gain=7.40134 1.97504 1.81867 2.21524 1.81031 3.35612 1.00887 1.50748 1.69763 0.867318 0.768972 2.22943 0.617664 1.99139 1.10099 0.922372 0.550408 0.522648 0.0122552
threshold=512.50000000000011 438.50000000000006 307.50000000000006 95.250000000000014 6.0000000000000009 10.000000000000002 580.00000000000011 76.750000000000014 61.20000000000001 80.850000000000009 1.0000000180025095e-35 697.00000000000011 92.750000000000014 1.0000000180025095e-35 94.100000000000009 82.450000000000017 1.0000000180025095e-35 90.450000000000017 87.450000000000017
decision_type=8 8 10 2 2 2 10 2 2 2 2 8 2 2 2 2 2 2 2
left_child=1 2 3 -1 16 17 7 8 -2 -9 -8 -12 13 15 -14 -7 -4 -6 -11
right_child=6 -3 4 -5 5 12 10 9 -10 18 11 -13 14 -15 -16 -17 -18 -19 -20
leaf_value=-0.11035753614259487 0.053455180610489691 -0.10652301306944686 -0 0.021389164809674982 0.18027116701887999 0.10212535403672904 0.1664686605160686 0.16059682469255734 -0.096628366295802973 -0 0.13195346788013915 -0.056862843846039381 0.11625068866839668 -0.097640459495747844 -0 -0 -0.095538167026834916 0.016896070438096943 0.011630833635840698
leaf_weight=3.522927716374407 0.97015635669231282 3.4268639832735053 1.6103571206331246 0.81766302883625019 1.2846594899892791 0.86874233186244987 2.1388642638921738 0.96250182390213035 1.4520884901285169 0.80127948522567716 1.1091497689485545 0.7745160460472108 0.85938389599323262 2.4306628704071045 1.1187167167663572 1.206645682454109 1.8282617628574369 1.4493833035230634 0.842215195298195
leaf_count=20 4 21 9 4 6 4 9 4 7 4 5 4 4 15 6 7 10 8 4
internal_value=0 -0.353218 -0.167143 -0.724034 0 0.25586 0.730454 0.248813 -0.113961 0.822837 1.16869 0.225383 -0.046818 -0.32666 0.270351 0.155418 -0.588729 1.19369 0
internal_weight=0 20.4243 16.9974 4.34059 12.6568 9.21819 9.05077 5.02824 2.42224 2.606 4.02253 1.88367 6.48415 4.50605 1.9781 2.07539 3.43862 2.73404 1.64349
internal_count=155 114 93 24 69 50 41 23 11 12 18 9 36 26 10 11 19 14 8
shrinkage=0.0984825


Tree=7
num_leaves=22
num_cat=0
split_feature=2 9 9 9 2 9 9 9 9 9 9 7 9 9 9 9 9 9 9 9 9
split_gain=3.63533 1.96191 1.37311 0.935065 0.830398 1.3344 1.38069 0.796873 0.666667 0.656628 0.607746 0.461431 1.26852 2.25278 0.704011 0.221365 0.0437964 0.119618 0.0907804 0.019509 0.00106851
threshold=1.5000000000000002 23.354631013915654 24.613604088566305 23.668209486925754 2.5000000000000004 25.124080134986503 25.596833488864153 28.325509700145506 29.245782271892704 23.563582090289454 25.830970842237853 1.0000000180025095e-35 22.005452965299806 22.441620734428003 22.880749138466303 26.266740508278154 19.690410800439853 21.415392498610153 22.441620734428003 26.710257569013354 24.176776131495405
decision_type=8 8 10 10 8 8 10 10 10 8 10 2 10 10 10 10 10 10 8 10 10
left_child=3 11 9 -1 5 -4 -7 15 -9 -3 -6 14 -13 -14 16 -8 -2 -18 -19 -17 -11
right_child=1 2 4 -5 10 6 7 8 -10 20 -12 12 13 -15 -16 19 17 18 -20 -21 -22
leaf_value=0 -0 -0 -0.041462683369219135 0.16207048473043753 0 0.14813511347455977 -0.05706645218932855 0.12553516845630147 0 0.10583281258227954 -0.088639426710988387 -0.10391817856378971 0.11647308808497564 -0.079698183876705464 -0.076095472992946667 0.013802134213791525 0.029208615961559801 -0.03375488786463262 0.0089340331867109619 -0.0042835895660940683 0
leaf_weight=1.1442791670560866 0.9865596145391482 1.234432741999625 2.5156658142805055 1.5645582824945448 1.3214802145957958 0.98246070742607206 0.80294401943683646 0.83174851536750816 1.2328439950942991 1.8635644763708117 1.6840899735689161 3.3147986531257629 0.84564264118671451 1.5195005387067793 1.1858594566583631 0.83152090013027213 1.8213101923465731 0.67757874727249112 0.80193641781806946 1.2644021958112714 0.99080047011375394
leaf_count=6 5 6 13 7 7 4 4 4 6 8 10 21 4 10 7 4 9 4 4 7 5
internal_value=0 -0.0936353 0.104181 1.11301 -0.0225376 0.076857 0.394752 0.0390019 0.595074 0.610299 -0.508327 -0.425635 -0.656386 -0 -0.0683535 -0.143537 0 0.114558 -0 0 0.87101
internal_weight=0 26.7091 15.556 2.70884 11.4672 8.46159 5.94592 4.96346 2.06459 4.0888 3.00557 11.1532 5.67994 2.36514 5.47324 2.89887 4.28738 3.30083 1.47952 2.09592 2.85436
internal_count=155 142 78 13 59 42 29 25 10 19 17 64 35 14 29 15 22 17 8 11 13
shrinkage=0.0984825


Tree=8
num_leaves=16
num_cat=0
split_feature=1 2 3 3 2 1 1 0 1 8 3 3 1 1 1
split_gain=4.36579 3.3471 2.1357 1.87543 1.00959 0.583648 1.84389 2.14167 0.549039 0.31839 0.248534 0.186035 0.947188 0.169101 0.0194628
threshold=526.50000000000011 2.5000000000000004 491.50000000000006 479.50000000000006 1.5000000000000002 739.50000000000011 608.00000000000011 1.0000000180025095e-35 566.50000000000011 1.0000000180025095e-35 971.50000000000011 458.00000000000006 325.50000000000006 333.50000000000006 294.50000000000006
decision_type=8 8 10 10 10 10 10 8 8 8 10 8 10 10 10
left_child=1 2 3 11 -4 6 7 8 -2 -9 -7 12 -1 -6 -3
right_child=5 14 4 -5 13 10 -8 9 -10 -11 -12 -13 -14 -15 -16
leaf_value=-0.018778419081328799 0 -0 0.017356117182012316 0.11887148757503464 -0 -0.02518959983437416 0.14772069448744085 0.14916475474531418 -0.062329046177876012 0 0.036510560700162932 -0.045590852797947945 0.077971687217702673 -0.060623674504226267 -0.10838956967205376
leaf_weight=1.4326422959566185 0.91986134648322915 1.2221122682094563 0.89764578640460779 1.8156461417675016 0.68375027179718006 1.2893201261758807 1.8550990074872968 0.97332954406738237 1.853124752640724 0.88526323437690735 1.1407883316278455 0.73864899575710274 1.421200096607208 6.5197551548480988 4.9534359499812126
leaf_count=8 4 7 5 8 4 6 8 4 9 4 5 4 7 39 33
internal_value=0 -0.369988 -0.0402339 0.388774 -0.40499 0.459761 0.616118 0.117357 -0.271989 1.02684 0 -0 0.0830362 -0.565502 -0.984822
internal_weight=0 19.6848 13.5093 5.40814 8.10115 8.91679 6.48668 4.63158 2.77299 1.85859 2.43011 3.59249 2.85384 7.20351 6.17555
internal_count=155 115 75 27 48 40 29 21 13 8 11 19 15 43 40
shrinkage=0.0984825


Tree=9
num_leaves=21
num_cat=0
split_feature=3 2 1 1 1 4 4 4 1 1 3 4 1 3 7 4 4 3 4 3
split_gain=4.58766 3.61026 1.07422 1.07254 1.68563 1.48029 0.731192 0.571694 0.873238 0.999929 0.52013 0.337181 0.712076 0.330162 0.778556 0.1956 0.193277 0.180235 0.0411645 0.000122085
threshold=732.00000000000011 2.5000000000000004 317.00000000000006 438.50000000000006 294.50000000000006 81.200000000000017 76.750000000000014 80.850000000000009 412.50000000000006 373.50000000000006 460.50000000000006 67.100000000000009 608.00000000000011 464.50000000000006 1.0000000180025095e-35 89.950000000000017 74.750000000000014 523.50000000000011 94.65000000000002 433.50000000000006
decision_type=10 8 10 10 8 2 2 2 8 8 8 2 10 10 2 2 2 8 2 10
left_child=1 3 10 4 18 6 -5 16 9 13 -3 -2 -13 19 -15 -11 -6 -17 -1 -9
right_child=11 2 -4 5 7 -7 -8 8 -10 15 -12 12 -14 14 -16 17 -18 -19 -20 -21
leaf_value=-0.059961573445390173 0 -0.062165397876214799 -0.10272122117870693 -0 0.032154996822894945 -0.091696092942326904 0.088874388353230346 0.0011632535397508906 0.14273524341345387 0.0096992628979008007 0.023995567507666331 0 0.1611451557936282 0.11121948800787201 0 -0.058847783944941244 -0.023796773361393565 0 -0 -0
leaf_weight=0.98229722678662112 0.93290746212005515 1.0726474225521081 3.8054488450288773 1.1869553327560423 1.0456645265221607 1.8309664428234098 0.90491628646850564 0.83861379325389396 1.4423164278268821 1.445001855492593 1.2809519618749616 0.92325165867805525 2.1975373923778534 2.484722763299942 1.8716440647840498 0.97590063512325242 1.2980925738811491 0.66417939960956585 0.81643210351467133 0.94299989938735973
leaf_count=6 4 7 27 7 5 11 4 4 7 7 6 4 9 11 10 6 7 4 4 5
internal_value=0 -0.0251498 -0.707991 0.166542 0.309182 -0.209669 0.129044 0.460643 0.558644 0.345736 -0 1.09811 1.29187 0.584128 0.744816 -0 0 -0.328785 -0.428198 0
internal_weight=0 24.8898 6.15905 18.7307 14.8079 3.92284 2.09187 13.0091 10.6654 9.22306 2.3536 4.0537 3.12079 6.13798 4.35637 3.08508 2.34376 1.64008 1.79873 1.78161
internal_count=155 138 40 98 76 22 11 66 54 47 13 17 13 30 21 17 12 10 10 9
shrinkage=0.0984825


Tree=10
num_leaves=15
num_cat=0
split_feature=9 6 9 9 9 2 6 2 9 9 9 9 6 9
split_gain=3.00179 1.60928 1.29615 0.754194 0.636469 1.55742 1.23772 1.07322 0.56669 0.978732 0.25444 0.866758 0.138132 0.384174
threshold=23.354631013915654 74.500000000000014 25.596833488864153 27.464165165246353 24.176776131495405 1.5000000000000002 83.500000000000014 1.5000000000000002 22.645647062339702 20.927116339025403 21.415392498610153 22.005452965299806 77.500000000000014 26.001652556707803
decision_type=8 2 10 10 8 10 2 10 10 10 10 10 2 10
left_child=8 2 -2 4 7 -6 12 -3 9 -1 -11 -12 -7 -14
right_child=1 3 -4 -5 5 6 -8 -9 -10 10 11 -13 13 -15
leaf_value=-0.060257021798536717 0 -0 -0.093191373724440266 0.089340651446047373 0.10592417486979329 -0 0.03640106245824834 0.090967790590097006 -0.087116603603361334 0.038261655855576247 -0.076805454711772678 0.019094708541068428 -0.079831110458426113 0
leaf_weight=3.5286329165101069 1.5697001069784193 0.89992676675319427 1.9039529263973234 2.5354493260383597 1.0900614857673652 1.3666382953524587 1.5192717015743253 2.2625381499528885 3.737971119582653 1.6064265370368955 1.3093540221452715 1.417912572622299 2.7055389732122426 0.68091922998428334
leaf_count=21 8 5 11 12 5 7 7 11 25 8 8 8 15 4
internal_value=0 0.164107 -0.354591 0.351072 0.154415 -0 -0.200749 0.52696 -0.485482 -0.212271 0 -0.0483579 -0.516845 -0.643537
internal_weight=0 16.534 3.47365 13.0603 10.5249 7.36243 6.27237 3.16246 11.6003 7.86233 4.33369 2.72727 4.7531 3.38646
internal_count=155 85 19 66 54 38 33 16 70 45 24 16 26 19
shrinkage=0.0984825


Tree=11
num_leaves=20
num_cat=0
split_feature=5 11 9 4 10 5 4 9 11 11 9 4 9 4 4 5 4 9 9
split_gain=6.40696 2.61444 1.88366 1.16339 1.80699 0.626007 2.53076 0.573443 0.323683 0.261809 0.38159 0.527361 0.309021 0.264133 0.242507 0.061006 0.220513 0.0205972 0.0118132
threshold=3.5000000000000004 22.000000000000004 20.927116339025403 76.750000000000014 1.0000000180025095e-35 7.5000000000000009 93.200000000000017 22.727536149279356 14.000000000000002 10.000000000000002 23.273396940761852 88.700000000000017 20.398333864395152 82.450000000000017 72.550000000000026 5.5000000000000009 88.700000000000017 24.046441235420655 25.124080134986503
decision_type=2 2 8 2 2 2 2 10 2 2 10 2 10 2 2 2 2 10 10
left_child=2 5 -1 4 -4 9 8 -8 -7 10 12 13 -2 -12 -6 -11 -17 -9 -19
right_child=1 -3 3 -5 14 6 7 17 -10 15 11 -13 -14 -15 -16 16 -18 18 -20
leaf_value=-0 0.018827143632244761 -0.10673296405296875 0.1201175597388171 0.13372682238937686 0 -0.086582481641828746 0.091396184262424088 -0.015945974503704875 -0 0 0.03789036697661774 0.090798769001110613 -0.051664571475452219 -0.034660714636060193 -0.059399107809196904 0 -0.053142263048179941 0.013844143410060182 -0
leaf_weight=1.1091758906841285 1.3357249721884783 3.5683762431144705 1.2187369465827951 4.0921793580055237 0.97377575933933247 4.2696473225951186 0.90655961632728599 0.59773775935173068 0.67140266299247731 1.0402711182832718 1.1084281057119372 1.354673773050308 0.9041929319500922 0.72778571397066094 0.77862933278083812 0.96497146785259236 0.96241885423660289 0.76230742037296273 0.7251967489719392
leaf_count=6 7 23 5 18 4 28 4 4 4 5 5 7 6 5 4 5 7 4 4
internal_value=0 -0.294352 0.755027 0.961477 0.1949 -0.0811044 -0.299029 0.280774 -0.776946 0.049984 0.223686 0.450555 -0 0 -0.173744 -0.0557226 -0.189248 -0 0.0510467
internal_weight=0 19.8997 8.1725 7.06332 2.97114 16.3313 7.93285 2.9918 4.94105 8.39847 5.43081 3.19089 2.23992 1.83621 1.75241 2.96766 1.92739 2.08524 1.4875
internal_count=155 118 37 31 13 95 48 16 32 47 30 17 13 10 8 17 12 12 8
shrinkage=0.0984825


Tree=12
num_leaves=20
num_cat=0
split_feature=11 1 1 1 1 1 3 3 8 11 11 8 3 3 1 3 3 1 1
split_gain=2.55052 1.88104 1.56905 1.4714 1.74623 1.34638 1.33374 1.52619 0.983945 1.40442 0.591904 0.778446 0.469427 0.391639 0.0700488 0.0249226 0.432913 0.199798 0.298954
threshold=22.000000000000004 526.50000000000011 739.50000000000011 438.50000000000006 307.50000000000006 580.00000000000011 483.50000000000006 473.50000000000006 1.0000000180025095e-35 1.0000000180025095e-35 1.0000000180025095e-35 1.0000000180025095e-35 520.00000000000011 458.00000000000006 351.50000000000006 537.50000000000011 584.50000000000011 368.00000000000006 407.50000000000006
decision_type=2 10 10 10 10 8 8 10 8 2 2 10 10 10 8 10 8 10 8
left_child=1 3 -3 4 8 -2 7 13 9 -1 -8 15 -5 14 -6 17 -17 -12 -19
right_child=5 2 -4 12 6 -7 10 -9 -10 -11 11 -13 -14 -15 -16 16 -18 18 -20
leaf_value=0 -0.10436457366483444 0.11428639146644387 -0 0 0.061046870639047061 0 -0.063395384171956629 0.15480492487351766 0 -0.10656816825748545 0 0.09350039213385801 -0.092181279454653792 -0.029680061175752195 0 0.05371462810873507 -0.0075327705069889988 -0.065068600773143637 0
leaf_weight=1.2178392186761002 3.4978781268000594 2.4970249682664862 1.8489128798246381 0.64323523640632574 0.99941322207450645 0.8340565264225005 1.0796166509389884 1.4783824086189268 1.2951834201812742 2.7445445731282234 0.93403793126344725 0.9707742482423779 2.2648153975605965 0.6645355075597762 0.65098468959331524 1.4312144517898555 0.56159391999244701 1.1466869562864299 0.6007489636540414
leaf_count=7 24 11 8 4 5 4 7 6 6 16 5 5 16 4 4 7 4 8 4
internal_value=0 0.0426118 0.648456 -0.0654354 0.0174057 -0.774849 0.289245 0.760804 -0.404921 -0.680533 0 0.150937 -0.724782 0 0.440943 -0 0.0595345 -0.080768 -0.349201
internal_weight=0 23.0295 4.34594 18.6836 15.7756 4.33193 10.518 3.79332 5.25757 3.96238 6.72467 5.64506 2.90805 2.31493 1.6504 4.67428 1.99281 2.68147 1.74744
internal_count=155 127 19 108 88 28 59 19 29 23 40 33 20 13 9 28 11 17 12
shrinkage=0.0984825


Tree=13
num_leaves=10
num_cat=0
split_feature=2 5 6 7 0 5 6 6 6
split_gain=2.6591 1.5608 2.56815 1.81744 1.33346 1.10641 0.549288 0.37192 0.844168
threshold=2.5000000000000004 5.5000000000000009 73.500000000000014 1.0000000180025095e-35 1.0000000180025095e-35 3.5000000000000004 81.500000000000014 78.500000000000014 84.500000000000014
decision_type=8 2 2 2 8 2 2 2 2
left_child=1 3 -3 -1 -2 7 -4 -5 -9
right_child=4 2 6 5 -6 -7 -8 8 -10
leaf_value=0.094017680745806839 -0.08342350907751736 0.098174699497193846 -0.011719261061007017 -0 0 -0.078379478524285923 -0.087962349685263355 0.091810725018515407 -0
leaf_weight=3.8128554672002846 5.2761480659246436 1.5835453197360028 8.6057277694344503 0.81587959825992606 0.82583925873041131 1.1676198616623876 1.8192588761448849 1.758332282304764 1.2818616628646848
leaf_count=17 38 8 51 4 4 7 12 8 6
internal_value=0 0.10384 -0.0889127 0.43652 -0.635446 0 -0.317338 0.297168 0.482299
internal_weight=0 20.8451 12.0085 8.83655 6.10199 5.02369 10.425 3.85607 3.04019
internal_count=155 113 71 42 42 25 63 18 14
shrinkage=0.0984825


Tree=14
num_leaves=16
num_cat=0
split_feature=5 9 3 3 3 8 3 3 3 3 3 3 3 3 3
split_gain=1.42811 2.41544 2.0208 3.06883 1.42263 1.19135 1.05456 0.868588 0.291084 0.207769 0.128993 0.241911 0.0928866 0.0350949 0.092366
threshold=3.5000000000000004 23.354631013915654 492.50000000000006 615.50000000000011 454.50000000000006 1.0000000180025095e-35 444.50000000000006 433.50000000000006 491.50000000000006 464.50000000000006 655.50000000000011 732.00000000000011 839.00000000000011 483.50000000000006 481.50000000000006
decision_type=2 10 8 10 10 10 10 10 10 10 10 10 10 10 10
left_child=1 7 4 5 -2 -4 -3 -1 9 -6 -5 -12 -13 14 -11
right_child=2 6 3 10 8 -7 -8 -9 -10 13 11 12 -14 -15 -16
leaf_value=0 -0.046860548702723201 0 -0.10888366307900663 0.030266531123315094 0 -0 0.10926987909475822 -0.072287445126798869 -0 0.0012809584936711075 -0.049286192647169075 0.025488400199075265 -0 0 0.12494946192307614
leaf_weight=0.74997061491012862 2.047356694936755 1.5361714512109754 6.2789162546396238 1.3313536942005155 0.69184370338916767 1.6291439682245252 2.7535041719675064 2.2391647920012474 0.71889909356832493 1.430421024560929 0.91605821996927284 1.4003190100193026 0.76357007026672352 0.96470727771520604 0.97218047082424164
leaf_count=4 14 7 48 7 4 10 12 12 4 7 7 6 4 5 4
internal_value=0 0.209823 -0.278308 -0.529164 0.0824877 -0.906507 0.741727 -0.343719 0.455184 0.560922 0.00664671 -0 0.0390321 0.663044 0.792402
internal_weight=0 7.27881 19.1448 12.3194 6.82541 7.90806 4.28968 2.98914 4.77805 4.05915 4.4113 3.07995 2.16389 3.36731 2.4026
internal_count=155 35 120 82 38 58 19 16 24 20 24 17 10 16 11
shrinkage=0.0984825


Tree=15
num_leaves=21
num_cat=0
split_feature=11 2 2 1 8 8 1 4 1 1 1 4 1 1 1 1 1 1 1 4
split_gain=2.78585 2.64634 1.54233 1.44003 1.54098 1.38986 0.844731 0.324784 0.662771 1.19557 0.541778 0.340571 0.273872 0.21471 0.163045 0.108042 0.0578048 0.145818 0.0849907 0.0552431
threshold=22.000000000000004 1.5000000000000002 2.5000000000000004 346.50000000000006 1.0000000180025095e-35 1.0000000180025095e-35 325.50000000000006 89.200000000000017 400.00000000000006 580.00000000000011 902.00000000000011 78.850000000000009 351.50000000000006 466.00000000000006 404.50000000000006 360.00000000000006 317.00000000000006 501.50000000000006 269.50000000000006 91.700000000000017
decision_type=2 8 8 10 8 8 10 2 10 10 10 2 10 10 10 10 8 10 8 2
left_child=1 -1 3 5 7 6 -3 8 -5 11 -11 -10 -2 -6 15 -9 18 -18 -4 -16
right_child=12 2 16 4 13 -7 -8 14 9 10 -12 -13 -14 -15 19 -17 17 -19 -20 -21
leaf_value=0.10596879478527066 -0 -0.098669444679214971 -0.032810711875458566 0.15449014597141561 0 0.052784970883770634 -0 0 -0.05715631306565834 0.11514414277012286 0 0 -0.097782343859360035 -0.070556605998860072 0 -0.03653557259966201 -0.085188496093151031 -0 0 0.044902941439223909
leaf_weight=2.3585263490676942 0.67641775310039465 2.2902756705880192 0.72926230728626129 1.2139358818530999 0.70523916184902258 0.87586952745914437 1.7412082925438879 0.8422147333621981 0.97488009184598901 1.5971113890409472 1.0968642085790632 0.85445097833871841 2.9608764722943306 0.78817207366228093 0.63339865952730168 0.74857912957668304 2.0617300719022755 0.72949753701686848 1.1413373351097107 1.0283833295106886
leaf_count=11 4 14 5 5 4 4 10 4 7 7 5 5 23 4 4 5 18 4 7 5
internal_value=0 0.0759289 -0.0118811 0.10767 0.345512 -0.270989 -0.605378 0.535488 0.709933 0.329738 0.787031 -0.00614287 -0.854265 -0.369215 0.0305829 -0 -0.539271 -0.709676 -0 0.312763
internal_weight=0 22.4109 20.0524 15.3906 10.4832 4.90735 4.03148 8.98982 5.73724 4.52331 2.69398 1.82933 3.63729 1.49341 3.25258 1.59079 4.66183 2.79123 1.8706 1.66178
internal_count=155 128 117 83 55 28 24 47 29 24 12 12 27 8 18 9 34 22 12 9
shrinkage=0.0984825


Tree=16
num_leaves=17
num_cat=0
split_feature=0 5 3 6 5 3 3 3 5 5 3 6 5 3 3 6
split_gain=3.68918 2.02838 1.20147 1.30092 0.744041 0.673146 0.663946 0.530797 0.426156 0.499921 0.403702 0.166122 0.0447382 0.0312438 0.0545753 0.00513081
threshold=1.0000000180025095e-35 7.5000000000000009 732.00000000000011 79.500000000000014 3.5000000000000004 483.50000000000006 487.50000000000006 464.50000000000006 5.5000000000000009 3.5000000000000004 481.50000000000006 79.500000000000014 7.5000000000000009 514.50000000000011 607.50000000000011 75.500000000000014
decision_type=8 2 10 2 2 8 10 10 2 2 10 2 2 10 10 2
left_child=1 2 3 8 -2 7 -5 -3 9 15 -10 -4 -6 -12 -15 -1
right_child=4 5 11 6 12 -7 -8 -9 10 -11 13 -13 -14 14 -16 -17
leaf_value=-0 0.11824466070395734 -0.048078847535068921 0.086682063312306393 -0 -0 -0.089443699842989527 -0.095590015399841188 0.015824115451750682 -0 -0.067745374883445023 0.092868862958673165 0 0.023472738048194507 -0 0.025736426004846637 0.0062689042174285869
leaf_weight=0.81151737272740021 2.1377501785755153 2.1046754419803597 1.2859566360712045 1.2708530426025393 0.4881271496415136 5.0371415987610826 2.4133411794900894 1.2424175292253492 0.944220751523972 1.1973606646060941 0.8375550061464313 1.7412451505661009 0.75109554827213276 0.9672572761774062 0.76269336044788349 1.2298169136047361
leaf_count=5 9 15 6 7 4 39 17 6 6 9 4 8 4 6 4 6
internal_value=0 -0.261468 -0 -0.181021 0.836814 -0.646946 -0.664735 -0.0608418 0 -0.160061 0.310577 0.529315 0 0.535229 0 0
internal_weight=0 21.8461 13.4618 10.4346 3.37697 8.38423 3.68419 3.34709 6.75042 3.23869 3.51173 3.0272 1.23922 2.56751 1.72995 2.04133
internal_count=155 138 78 64 17 60 24 21 40 20 20 14 8 14 10 11
shrinkage=0.0984825


Tree=17
num_leaves=13
num_cat=0
split_feature=5 2 11 8 11 10 5 10 11 11 8 5
split_gain=2.30469 1.7608 0.770082 0.824526 0.0742036 0.282416 0.407914 0.204171 0.131549 0.14337 0.0564076 0.0375935
threshold=1.0000000180025095e-35 2.5000000000000004 22.000000000000004 1.0000000180025095e-35 1.0000000180025095e-35 1.0000000180025095e-35 3.5000000000000004 1.0000000180025095e-35 14.000000000000002 6.0000000000000009 1.0000000180025095e-35 5.5000000000000009
decision_type=2 8 2 10 2 2 2 2 2 2 8 2
left_child=-1 2 3 4 7 6 -6 -2 9 -7 -3 -4
right_child=1 10 11 -5 5 8 -8 -9 -10 -11 -12 -13
leaf_value=0.071213202087652028 -0 -0.076209682411286256 -0 0.072538962582907499 0.063092483628551077 -0 -0 0.039193610425763678 0 -0.035060375450071284 -0 -0.071098587448883172
leaf_weight=3.4004177376627949 0.8424872606992766 3.8481966555118552 0.67750465869903509 1.6453497707843787 1.0516159832477554 1.9970515146851535 1.8542447388172147 1.5941919982433319 1.5592391267418859 4.2146963402628899 0.79995470494031884 1.3445706218481062
leaf_count=16 5 35 4 8 5 11 10 9 9 27 5 11
internal_value=0 -0.153992 -0 0.0770764 -0 -0.0433241 0.114618 0.147896 -0.183841 -0.251566 -0.696081 -0.575672
internal_weight=0 21.4291 16.781 14.7589 13.1135 10.6768 2.90586 2.43668 7.77099 6.21175 4.64815 2.02208
internal_count=155 139 99 84 76 62 15 14 47 38 40 15
shrinkage=0.0984825


Tree=18
num_leaves=15
num_cat=0
split_feature=9 5 7 2 9 4 9 4 4 5 9 9 9 4
split_gain=2.55231 2.31594 1.97789 0.690741 0.632846 0.427038 1.17964 0.496338 0.412539 0.322861 0.28842 0.276617 0.202269 0.502105
threshold=23.563582090289454 1.5000000000000002 1.0000000180025095e-35 2.5000000000000004 22.880749138466303 88.700000000000017 26.001652556707803 81.950000000000017 95.250000000000014 6.5000000000000009 27.464165165246353 26.266740508278154 19.690410800439853 88.250000000000014
decision_type=10 2 2 10 10 2 10 2 2 2 10 10 10 2
left_child=2 -2 4 5 12 7 -7 11 -4 -9 -8 -3 -1 -14
right_child=1 3 8 -5 -6 6 10 9 -10 -11 -12 -13 13 -15
leaf_value=-0 0.10989451017017206 -0 -0.086570646359537123 -0.062458388963287578 -0.061517466232603041 0.080028884353455496 -0.053778126534313263 0 -0 -0.070167759364051341 0 0.050787277921292395 0.065937997106386065 -0
leaf_weight=0.80557007342577136 2.4915274977684012 1.2679751589894279 5.2974649369716644 1.2353884279727925 1.032634451985359 2.6679751724004745 0.93079969286918596 0.96604596823453925 0.817917089909315 1.3321587443351743 0.86199334263801564 1.4716188907623289 2.0160019174218182 1.5391848534345625
leaf_count=5 11 7 40 11 9 13 6 6 6 10 4 7 10 10
internal_value=0 0.250448 -0.387232 0 0 0.137086 0.367152 -0 -0.776482 -0.399117 -0 0.211725 0.221483 0.341136
internal_weight=0 13.2255 11.5088 10.734 5.39339 9.49857 4.46077 5.0378 6.11538 2.2982 1.79279 2.73959 4.36076 3.55519
internal_count=155 75 80 64 34 53 23 30 46 16 10 14 25 20
shrinkage=0.0984825


Tree=19
num_leaves=10
num_cat=0
split_feature=5 11 5 2 11 8 11 5 5
split_gain=2.43236 2.06535 1.20833 1.23187 0.826416 0.815869 0.803034 0.252731 0.0320357
threshold=3.5000000000000004 10.000000000000002 8.5000000000000018 2.5000000000000004 1.0000000180025095e-35 1.0000000180025095e-35 6.0000000000000009 5.5000000000000009 4.5000000000000009
decision_type=2 2 2 10 2 10 2 2 2
left_child=6 2 3 7 -4 8 -1 -2 -3
right_child=1 5 4 -5 -6 -7 -8 -9 -10
leaf_value=-0 0 -0 0.016655466181432821 -0.021331952664228361 -0.058634982039963209 0 0.07012126626106259 0.085714260169296952 -0.069242815957599263
leaf_weight=0.91947217285633343 1.3314300104975716 0.90429308265447517 1.4067228659987452 0.69739910215139378 2.4343224912881851 0.90962781757116307 6.3919264078140259 3.7041829004883766 5.6152823828160763
leaf_count=5 8 6 9 7 19 6 30 20 45
internal_value=0 -0.0926953 0.166291 0.48967 -0.152946 -0.51055 0.578136 0.713325 -0.649055
internal_weight=0 17.0033 9.57406 5.73301 3.84105 7.4292 7.3114 5.03561 6.51958
internal_count=155 120 63 35 28 57 35 28 51
shrinkage=0.0984825


Tree=20
num_leaves=19
num_cat=0
split_feature=3 9 9 3 3 9 9 3 3 3 3 3 3 3 9 3 9 9
split_gain=1.77075 1.30552 0.69879 0.643766 0.66744 0.634107 1.99477 0.271407 0.407055 0.38483 0.240876 0.544325 0.265388 0.174736 0.0804022 0.0782062 0.0441016 0.000294372
threshold=732.00000000000011 23.273396940761852 22.005452965299806 492.50000000000006 454.50000000000006 22.727536149279356 19.690410800439853 433.50000000000006 479.50000000000006 646.50000000000011 554.00000000000011 514.50000000000011 537.50000000000011 451.50000000000006 24.685082273714453 655.50000000000011 20.927116339025403 25.307068770879756
decision_type=8 10 8 10 10 10 10 8 8 8 10 10 10 10 10 10 10 10
left_child=1 3 16 4 -1 6 -6 -3 13 10 11 -10 -13 -9 -12 -5 -2 -16
right_child=2 7 -4 15 5 -7 -8 8 9 -11 14 12 -14 -15 17 -17 -18 -19
leaf_value=-0.066559237829520224 0 0.049270390353073457 0.061937082252642141 -0.092197285270490079 -0.01477448175073603 -0.02229767005256655 0.14214504623820093 -0 0.042543407241617322 -0.038013294320217349 0.082543837234458281 -0.059369852772644748 0 -0.066560024754646882 -0 -0 -0.025238593843852047 0.001918581433477604
leaf_weight=1.3449536710977619 0.77593575417995342 1.0679363757371874 5.1275113821029663 2.758416805416346 0.59282787144184157 0.6279163360595702 1.2198187708854673 0.61386499553918739 1.9299459978938107 0.71197640150785435 0.8580650091171268 1.1818534992635252 0.89299413561820973 1.1632567495107649 0.9099231585860249 0.91067247837781884 0.63505592942237854 0.73919177800416946
leaf_count=12 4 6 23 27 4 4 5 4 11 5 4 11 6 8 6 7 4 4
internal_value=0 -0.155942 0.452074 -0.480221 -0 0.121325 0.586712 0.0222728 -0 0.0682227 0.216563 0 -0.289844 -0.453671 0.464153 -0.799959 -0 0
internal_weight=0 17.5236 6.5385 7.45461 3.78552 2.44056 1.81265 10.069 9.00107 7.22395 6.51197 4.00479 2.07485 1.77712 2.50718 3.66909 1.41099 1.64911
internal_count=155 124 31 59 25 13 9 65 59 47 42 28 17 12 14 34 8 10
shrinkage=0.0984825


Tree=21
num_leaves=14
num_cat=0
split_feature=5 2 1 5 4 1 7 5 5 5 4 1 1
split_gain=1.89485 1.6877 1.01191 0.81572 1.07003 0.754299 0.734068 0.656477 0.643947 0.393206 0.372346 0.342263 0.0833652
threshold=1.5000000000000002 2.5000000000000004 378.50000000000006 7.5000000000000009 95.250000000000014 336.50000000000006 1.0000000180025095e-35 6.5000000000000009 3.5000000000000004 6.5000000000000009 92.750000000000014 294.50000000000006 329.50000000000006
decision_type=2 8 8 2 2 8 2 2 2 2 2 8 10
left_child=2 3 -1 6 -5 -6 9 8 12 -2 -10 -3 -8
right_child=1 11 -4 4 5 -7 7 -9 10 -11 -12 -13 -14
leaf_value=-0 0.063647976786611396 -0 0.084843717594934892 -0.056775233773240924 0.091624870191221258 -0 0.029972990807796713 0.052883204985437138 -0.086121183644377292 -0 0 -0.092372709578209408 -0
leaf_weight=0.79732106626034083 3.2413734421134013 0.86567667126655523 3.1424487978219986 4.778102245181798 0.8855943381786342 0.52407678589224826 0.86356307566165902 1.1033299937844274 1.7212283313274386 1.1251456141471861 0.66237537562847126 2.8986086063086987 0.83588935434818268
leaf_count=5 15 6 15 36 4 5 4 6 14 6 4 31 4
internal_value=0 -0.168101 0.582135 -0 -0.303651 0.174027 0.158802 -0 -0.282098 0.470792 -0.633682 -0.767682 0
internal_weight=0 19.505 3.93977 15.7407 6.18777 1.40967 9.55291 5.18639 4.08306 4.36652 2.3836 3.76429 1.69945
internal_count=155 135 20 98 45 9 53 32 26 21 18 37 8
shrinkage=0.0984825


Tree=22
num_leaves=18
num_cat=0
split_feature=5 6 3 6 4 4 3 3 3 6 4 4 4 6 4 3 3
split_gain=1.12581 0.847472 0.684722 1.7619 0.854742 1.06774 0.584405 0.571978 1.00369 0.855784 0.380278 0.295004 0.198248 0.146612 0.126566 0.0779363 0.0484438
threshold=1.5000000000000002 84.500000000000014 732.00000000000011 79.500000000000014 81.450000000000017 74.750000000000014 464.50000000000006 491.50000000000006 481.50000000000006 77.500000000000014 93.200000000000017 96.200000000000017 86.950000000000017 85.500000000000014 95.250000000000014 426.50000000000006 790.00000000000011
decision_type=2 2 8 2 2 2 8 10 10 2 2 2 2 2 2 10 10
left_child=1 6 3 7 5 13 -1 8 10 11 15 -9 -11 -4 -12 -2 -8
right_child=2 -3 4 -5 -6 -7 16 9 -10 12 14 -13 -14 -15 -16 -17 -18
leaf_value=-0 -0 -0 -0 -0.09316568403573218 0.075437040253823778 -0.082688141613251151 0.11348927212962512 -0.069271843668041358 0.079983330569715044 0.042979359434468158 0.041662857639174454 -0 -0 0.049130488401207373 -0 -0.044334045049631614 0
leaf_weight=0.65242385864258157 0.56900271028280469 0.76668658852577187 0.95365391671657573 2.7676282934844485 1.6265670433640478 1.2517379522323606 1.7874871939420702 3.1566494740545754 1.7019956335425375 1.0049820058047774 1.094604931771755 0.7599348910152911 1.0469159409403799 1.1940357536077497 0.81278751790523518 1.8503063321113584 0.70445875823497761
leaf_count=4 4 4 4 25 8 7 8 28 8 6 6 6 10 5 5 13 4
internal_value=0 0.488452 -0.0963336 -0.224758 0.154615 -0 0.750017 -0.00333027 0.153541 -0.267325 -0 -0.570105 0.00691295 0.27034 0.197546 -0.352083 0.968926
internal_weight=0 3.91106 19.7908 14.7648 5.02599 3.39943 3.14437 11.9972 6.0287 5.96848 4.3267 3.91658 2.0519 2.14769 1.90739 2.41931 2.49195
internal_count=155 20 135 111 24 16 16 86 36 50 28 34 16 9 11 17 12
shrinkage=0.0984825


Tree=23
num_leaves=19
num_cat=0
split_feature=4 3 3 4 7 4 4 4 3 1 4 4 3 1 1 3 1 1
split_gain=0.685173 1.2684 0.915231 0.546693 0.472399 0.906353 0.649811 0.70511 0.3672 0.320287 0.157525 0.731115 0.0727824 0.322601 0.413839 0.0725271 0.0666413 0.00945625
threshold=91.200000000000017 479.50000000000006 483.50000000000006 97.750000000000014 1.0000000180025095e-35 86.450000000000017 82.450000000000017 78.850000000000009 595.00000000000011 279.50000000000006 83.350000000000009 61.20000000000001 580.50000000000011 355.50000000000006 407.50000000000006 398.50000000000006 580.00000000000011 373.50000000000006
decision_type=2 8 10 2 2 2 2 2 10 10 2 2 10 10 8 10 8 10
left_child=1 15 10 9 6 -6 7 16 -7 -2 11 -3 13 -11 17 -1 -4 -15
right_child=3 2 4 -5 5 8 -8 -9 -10 12 -12 -13 -14 14 -16 -17 -18 -19
leaf_value=-0 -0 0.084473965804727727 -0.028861846313511613 -0.0080569949121137678 -0.060381771453953119 -0.007311409275382757 -0.037482198827485796 0.078421135438487624 0.054630957895131206 0.083828838576242196 0.084272233860169785 -0.014588630502905037 0 0 0.067413894418359238 -0.084543989017225388 0.0028773010908796277 -0.013673042749253041
leaf_weight=0.68963438272476851 0.87263923138379951 0.91306251287460316 0.72983259707689119 0.56359019875526417 3.9168413504958153 0.56987724825739849 1.3263068310916422 1.7928657233715055 1.1459841951727865 2.5200825110077858 1.2787144929170606 1.445760056376457 1.0580710768699644 0.7382284700870515 0.83894686028361309 1.9090614467859266 0.93391872942447685 0.64370987191796303
leaf_count=4 6 4 7 4 28 6 10 9 7 13 6 8 7 5 5 15 4 7
internal_value=0 -0.0745931 0.0010774 0.285804 -0.102481 -0.31979 0.0223789 0.360844 0 0.411637 0.468229 0 0.49967 0.565863 0 -0.71873 -0 -0.050757
internal_weight=0 16.6519 14.0532 7.23527 10.4156 5.6327 4.78292 3.45662 1.71586 6.67168 3.63754 2.35882 5.79904 4.74097 2.22089 2.5987 1.66375 1.38194
internal_count=155 108 89 47 71 41 30 20 13 43 18 12 37 30 17 19 11 12
shrinkage=0.0984825


Tree=24
num_leaves=10
num_cat=0
split_feature=5 10 11 10 5 11 2 0 11
split_gain=0.97369 2.23993 1.14557 0.840032 0.341033 0.205131 0.167805 0.0603571 0.0205609
threshold=3.5000000000000004 1.0000000180025095e-35 1.0000000180025095e-35 1.0000000180025095e-35 1.0000000180025095e-35 14.000000000000002 1.5000000000000002 1.0000000180025095e-35 10.000000000000002
decision_type=2 2 2 2 2 2 10 10 2
left_child=1 -1 3 -2 5 -3 8 -8 -4
right_child=2 4 6 -5 -6 -7 7 -9 -10
leaf_value=0.095848219442342411 -0.016269991721980466 0.033508541344302811 0.0042557076407162631 0.058721571949079482 -0.034584896322277639 -0 -0.043911052878892132 -0 -0.016649943021975016
leaf_weight=2.8353555947542208 1.2672922685742372 1.8204407244920733 0.83362176641821573 2.6053570881485939 2.6859303563833237 0.90295807272195805 8.6551407016813737 0.79434160888195104 0.62606240808963776
leaf_count=14 8 9 5 16 14 5 73 6 5
internal_value=0 0.241963 -0.181657 0.185691 -0.0288876 0.0597071 -0.370163 -0.41928 -0
internal_weight=0 8.24468 14.7818 3.87265 5.40933 2.7234 10.9092 9.44948 1.45968
internal_count=155 42 113 24 28 14 89 79 10
shrinkage=0.0984825


Tree=25
num_leaves=16
num_cat=0
split_feature=1 9 4 2 3 9 4 3 1 1 1 9 9 4 4
split_gain=1.40924 1.34834 0.82929 0.725852 0.764903 1.20202 0.675871 0.285836 0.341897 0.475355 0.0973706 0.107706 0.0497154 0.0342302 0.191389
threshold=512.50000000000011 23.273396940761852 86.050000000000011 2.5000000000000004 556.00000000000011 26.001652556707803 95.250000000000014 732.00000000000011 803.50000000000011 549.50000000000011 434.50000000000006 23.443895372535355 24.796083049791452 76.750000000000014 81.200000000000017
decision_type=8 8 2 10 10 10 2 8 10 10 10 10 10 2 2
left_child=1 6 10 4 5 -4 -1 13 9 12 11 -3 -9 -2 -15
right_child=7 2 3 -5 -6 -7 -8 8 -10 -11 -12 -13 -14 14 -16
leaf_value=-0.073962738449966509 -0.018084917394835708 -0 0.11265382918251511 -0.020816588181772587 -0 0 0 0.018994858856393917 0 0.10117271223063498 -0 -0.053735279982408922 -0 0.047211141887112389 -0
leaf_weight=4.5417604856193075 0.5861541479825968 0.48089491575956417 2.3383816108107571 0.6869208738207816 1.029357276856899 1.5270365327596662 1.2386443726718424 1.2999639660120013 1.5846065133810041 1.8152811676263807 0.73685260862112034 1.9365015178918836 1.0233433991670606 0.85396640002727486 0.67236565798521042
leaf_count=43 4 4 12 7 7 10 9 7 7 9 7 15 5 4 5
internal_value=0 -0.195825 0 0.282068 0.480923 0.698813 -0.572484 0.328825 0.444309 0.59517 -0.346145 -0.442128 0 0 0.0920273
internal_weight=0 14.5164 8.73595 5.5817 4.89478 3.86542 5.7804 7.83568 5.7232 4.13859 3.15425 2.4174 2.32331 2.11249 1.52633
internal_count=155 114 62 36 29 22 52 41 28 21 26 19 12 13 9
shrinkage=0.0984825


Tree=26
num_leaves=14
num_cat=0
split_feature=1 1 1 7 9 1 9 9 1 1 9 1 1
split_gain=0.774044 1.2554 1.19762 0.679238 0.460367 0.459408 0.587977 0.337666 0.266728 0.212316 0.570767 0.113168 0.0514926
threshold=512.50000000000011 739.50000000000011 438.50000000000006 1.0000000180025095e-35 24.880309890215901 404.50000000000006 20.398333864395152 26.434276811244054 549.50000000000011 395.50000000000006 24.685082273714453 inf 421.50000000000006
decision_type=8 8 10 2 8 10 10 8 10 10 10 8 8
left_child=2 8 3 9 11 6 -5 -6 -2 10 -1 -3 -11
right_child=1 4 -4 5 7 -7 -8 -9 -10 12 -12 -13 -14
leaf_value=0.063164614860624121 0 -0.072272358448880872 -0.082186173448339742 0 0.056431288783282803 0 -0.050593388085928323 -0 0.085390348837647095 -0.025108428230345987 -0 -0 0.0052111765956634731
leaf_weight=2.6433684974908846 0.85817890614271108 0.92255826294422116 2.0889074280858031 0.36797332391142834 1.1657767295837405 1.1537686884403227 5.295980729162693 1.1423814743757246 2.6419935151934624 0.72704232484102205 1.4717833474278448 1.0245168507099152 0.62984894961118709
leaf_count=15 5 5 24 4 6 7 41 5 14 8 11 6 4
internal_value=0 0.251156 -0.140001 -0 -0 -0.229159 -0.379124 0.156013 0.702815 0.24076 0.357843 -0.450917 -0
internal_weight=0 7.75541 14.3787 12.2898 4.25523 6.81772 5.66395 2.30816 3.50017 5.47204 4.11515 1.94708 1.35689
internal_count=155 41 114 90 22 52 45 11 19 38 26 11 12
shrinkage=0.0984825


Tree=27
num_leaves=19
num_cat=0
split_feature=9 3 3 9 3 2 2 3 3 3 9 3 9 9 3 3 3 9
split_gain=1.15821 1.3225 1.58074 2.94425 0.436357 1.04924 0.318458 0.575931 0.467507 0.311048 0.580352 0.317201 0.612729 0.267027 0.131498 0.118106 0.0135859 0.00394624
threshold=23.563582090289454 464.50000000000006 497.00000000000006 22.645647062339702 732.00000000000011 1.5000000000000002 3.5000000000000004 790.00000000000011 655.50000000000011 537.50000000000011 25.124080134986503 514.50000000000011 25.673900324788551 23.273396940761852 807.50000000000011 479.50000000000006 501.50000000000006 24.796083049791452
decision_type=8 10 10 8 10 10 8 8 8 10 10 10 10 10 8 10 10 8
left_child=1 -1 3 -3 5 -4 7 8 9 11 17 12 -2 -7 -6 -14 -17 -11
right_child=6 2 4 -5 14 13 -8 -9 -10 10 -12 -13 15 -15 -16 16 -18 -19
leaf_value=-0.068444654013324349 0.061283862500005913 0.18122374228749871 0.021651614819387488 -0.012027922491811734 0.036736891799843616 -0.085117550401992009 -0 0.084800557884836605 -0.012649778555171895 0.0068681641357947144 0.10652072996686569 -0.031080498215949468 -0.02685954062682876 -0 -0 -0 0.017553576005942623 -0
leaf_weight=2.6175557039678115 2.1720573380589414 1.3065799735486503 0.63140624389052413 0.58191987872123729 1.0380791872739787 2.2906526215374474 0.7785166800022133 3.018806830048562 1.1489885672926909 0.77493514865636837 1.3720766976475713 0.77931275591254223 1.4261217191815379 0.4711848348379134 0.7452206388115884 0.51587941497564282 0.6844228208065033 0.45603205263614666
leaf_count=22 12 7 4 4 5 27 4 15 6 4 7 8 10 4 4 4 4 4
internal_value=0 -0.0530782 0.0978245 0.915307 -0.0831139 -0.363971 0.357874 0.40229 0.183389 0.304708 0.635945 0.0340861 0.223944 -0.725114 0.0995164 -0 0.0867893 0
internal_weight=0 9.6826 7.06504 1.8885 5.17654 3.39324 13.1272 12.3486 9.32983 8.18084 2.60304 5.57779 4.79848 2.76184 1.7833 2.62642 1.2003 1.23097
internal_count=155 77 55 11 44 35 78 74 59 53 15 38 30 31 9 18 8 8
shrinkage=0.0984825


Tree=28
num_leaves=10
num_cat=0
split_feature=11 9 9 3 3 9 3 3 9
split_gain=1.15807 1.01856 1.13911 0.718857 2.00216 0.664699 0.67276 0.539216 0.00456248
threshold=14.000000000000002 23.273396940761852 22.645647062339702 464.50000000000006 497.00000000000006 28.705562584356752 554.00000000000011 655.50000000000011 29.245782271892704
decision_type=2 8 10 10 10 10 10 10 8
left_child=1 2 3 -1 -5 6 -2 -6 -3
right_child=5 8 -4 4 7 -7 -8 -9 -10
leaf_value=-0.039117780794626321 -0.078056349324593557 0.041663580432503046 -0.080779545757668395 0.17836102874769516 -0.054284501206759213 0 -0 0.039251002060384739 0
leaf_weight=0.84388552606105915 2.970705483108758 9.097617067396639 1.6162127889692781 0.76410275697708163 1.0305497013032439 1.1189487278461454 1.958924990147352 1.3172476403415201 1.1429344564676291
leaf_count=8 29 53 15 4 12 5 16 7 6
internal_value=0 0.199078 -0.0542043 0.104612 0.445074 -0.301088 -0.494902 -0 0.398281
internal_weight=0 15.8125 5.572 3.95579 3.1119 6.04858 4.92963 2.3478 10.2406
internal_count=155 105 46 31 23 50 45 19 59
shrinkage=0.0984825


Tree=29
num_leaves=17
num_cat=0
split_feature=1 6 1 8 6 6 1 1 6 1 2 1 1 1 6 2
split_gain=1.3846 0.645239 0.644575 0.566261 0.814928 0.49093 0.483368 0.453345 0.426849 0.412182 0.386638 0.379899 0.258517 0.196679 0.0968157 0.045544
threshold=526.50000000000011 74.500000000000014 739.50000000000011 1.0000000180025095e-35 79.500000000000014 76.500000000000014 368.00000000000006 434.50000000000006 77.500000000000014 346.50000000000006 2.5000000000000004 248.50000000000003 866.00000000000011 360.00000000000006 81.500000000000014 1.5000000000000002
decision_type=10 2 10 8 2 2 8 10 2 10 8 8 10 10 2 10
left_child=3 -2 14 4 5 9 -5 -8 10 11 -7 -1 -4 -11 -3 -10
right_child=1 2 12 6 -6 8 7 -9 15 13 -12 -13 -14 -15 -16 -17
leaf_value=0 -0 0.11296167393476104 -0.022303168395966654 -0 -0.07295577142915538 0.08328436709904205 0.071968780091637985 -0 0 0.030015540154230223 -0 -0.080957530102073488 0.040473484227315538 -0.021712391335163391 0 -0.014292084977964609
leaf_weight=0.66628249734639977 0.64701604098081489 1.9060870856046681 0.7718022614717488 0.88385118544101826 2.6987803727388391 1.1965868622064586 1.8763687610626223 0.26221722736954678 0.69768558442592654 1.0707595236599448 0.68891252949833881 1.7771961800754068 1.2487454712390897 1.8939604349434374 0.78612824529409397 2.1260740458965302
leaf_count=5 4 9 4 6 26 8 9 4 4 6 6 15 6 19 5 19
internal_value=0 0.465454 0.618082 -0.116527 -0.232878 -0.0327877 0.166494 0.511097 0.119997 -0.282173 0.507591 -0.583966 0 -0 0.949282 -0
internal_weight=0 5.35978 4.71276 15.8387 12.8162 10.1175 3.02244 2.13859 4.70926 5.4082 1.8855 2.44348 2.02055 2.96472 2.69222 2.82376
internal_count=155 28 24 127 108 82 19 13 37 45 14 20 10 25 14 23
shrinkage=0.0984825


Tree=30
num_leaves=17
num_cat=0
split_feature=9 5 3 3 3 9 5 9 3 6 3 6 3 5 5 9
split_gain=0.817 1.21139 0.896329 0.822169 1.43809 2.13975 0.687933 0.535799 0.500739 0.313549 0.208866 0.194616 0.162473 0.10558 0.00520707 0.00278571
threshold=25.124080134986503 7.5000000000000009 479.50000000000006 497.00000000000006 464.50000000000006 22.727536149279356 1.5000000000000002 23.668209486925754 732.00000000000011 73.500000000000014 454.50000000000006 81.500000000000014 839.00000000000011 5.5000000000000009 6.5000000000000009 23.096130034955053
decision_type=8 2 8 10 10 10 2 10 10 2 10 2 10 2 2 8
left_child=3 2 -2 4 7 -6 -5 11 9 -8 -3 -1 -10 -4 -15 -7
right_child=1 10 13 6 5 15 8 -9 12 -11 -12 -13 -14 14 -16 -17
leaf_value=-0.073683272622626306 -0 0 0.086623330511642768 0 0.15712350304510475 -0.0066628286635402713 -0 0 0.022058118168517292 -0.078896177788796526 -0.05460777227932527 -0 -0.039805227945384464 -0 0.0081588144164335338 0
leaf_weight=1.6755962856113935 0.94426345825195201 0.57152038812637318 3.3267982602119446 0.99096283316612244 1.2831983901560309 0.57216946035623517 0.71698805689811695 1.165234677493572 0.92215102910995461 4.0425723120570183 1.0514979697763918 0.54660089313983917 0.66372694820165634 0.75575266778469052 0.72224049642682064 0.61989764124155056
leaf_count=17 6 4 17 6 7 5 5 7 4 45 10 4 4 6 4 4
internal_value=0 0.263488 0.5259 -0.151218 0.039434 0.696743 -0.388998 -0.258026 -0.531611 -0.693158 -0.275148 -0.581505 -0 0.718095 0 -0
internal_weight=0 7.37207 5.74905 13.1991 5.8627 2.47527 7.3364 3.38743 6.34544 4.75956 1.62302 2.2222 1.58588 4.80479 1.47799 1.19207
internal_count=155 47 33 108 44 16 64 28 58 50 14 21 8 27 10 9
shrinkage=0.0984825


Tree=31
num_leaves=11
num_cat=0
split_feature=1 6 6 1 1 1 6 6 1 1
split_gain=0.490549 1.57121 0.377292 0.502121 0.321672 0.702103 0.216253 0.0631992 0.0522741 0.0372998
threshold=526.50000000000011 77.500000000000014 74.500000000000014 739.50000000000011 373.50000000000006 300.50000000000006 86.500000000000014 76.500000000000014 866.00000000000011 404.50000000000006
decision_type=8 2 2 10 10 10 2 2 10 10
left_child=1 4 -2 6 5 -1 7 -4 -5 -6
right_child=2 -3 3 8 9 -7 -8 -9 -10 -11
leaf_value=-0.0035190172681102204 -0.010262502697621273 -0.057403085221625981 0 -0.025128624675634929 -0.024520586555439081 0.050712057709230665 0 0.06269766232062994 0 0
leaf_weight=1.2747067809104935 0.90614686161279479 5.2250379845499992 0.66272753477096547 0.76647309958934817 0.72249535843729995 3.9681147187948227 1.0816518813371656 3.3519759476184845 1.5981548056006429 1.3607205338776109
leaf_count=10 6 51 4 4 8 28 6 17 8 13
internal_value=0 -0.145322 0.163527 0.280946 0.081984 0.261645 0.461648 0.568685 -0 -0.0678176
internal_weight=0 12.5511 8.36713 7.46098 7.32604 5.24282 5.09636 4.0147 2.36463 2.08322
internal_count=155 110 45 39 59 38 27 21 12 21
shrinkage=0.0984825


Tree=32
num_leaves=15
num_cat=0
split_feature=1 1 2 6 0 1 1 1 6 1 1 1 1 1
split_gain=0.368628 0.903285 0.732699 0.722373 0.3507 0.568347 0.634007 0.515836 0.205873 0.194672 0.0449013 0.0145287 0.00823619 0.00143096
threshold=279.50000000000006 373.50000000000006 2.5000000000000004 77.500000000000014 1.0000000180025095e-35 608.00000000000011 438.50000000000006 421.50000000000006 80.500000000000014 648.50000000000011 526.50000000000011 404.50000000000006 331.50000000000006 307.50000000000006
decision_type=8 8 10 2 8 10 10 10 2 8 10 10 10 10
left_child=-1 2 3 -2 5 6 7 11 -7 10 -6 -3 -5 -4
right_child=1 4 13 12 9 8 -8 -9 -10 -11 -12 -13 -14 -15
leaf_value=-0.036557399331167507 0.081540899832946476 -0.0283281149017185 0 0.0088764197218124379 0 0.045314226900323246 -0.06481816322315645 0.05913443774723344 -0 -0 0.063359612746390931 -0 -0 -0.0046708622977723923
leaf_weight=1.7779755070805574 3.5582015663385418 2.4609075449407074 0.47016808763146378 0.9774016477167603 0.37294359877705691 1.0120697543025019 3.309557493776083 0.86145650595426559 1.4458819478750227 1.6076055169105528 0.78953616321086884 0.59853608906269051 0.95793820917606365 0.59969992935657501
leaf_count=14 22 21 4 6 4 6 32 6 8 8 4 5 7 8
internal_value=0 0.0795862 0.39104 0.561241 -0.0344206 -0.164513 -0.334981 -0 0.0803683 0.190927 0.4977 -0.2491 0 -0
internal_weight=0 19.0219 6.56341 5.49354 12.4585 9.68841 7.23046 3.9209 2.45795 2.77009 1.16248 3.05944 1.93534 1.06987
internal_count=155 141 47 35 94 78 64 32 14 16 8 26 13 12
shrinkage=0.0984825


Tree=33
num_leaves=18
num_cat=0
split_feature=3 3 3 1 4 1 1 4 4 4 1 4 1 1 4 4 4
split_gain=0.302148 0.949021 0.570241 0.403275 0.499405 0.73761 0.61673 0.331283 0.52598 0.243739 0.168461 0.972852 0.533256 0.1678 0.156039 0.079476 0.0146215
threshold=464.50000000000006 514.50000000000011 433.50000000000006 355.50000000000006 74.350000000000009 608.00000000000011 373.50000000000006 95.250000000000014 80.500000000000014 76.750000000000014 350.50000000000006 84.850000000000009 404.50000000000006 395.50000000000006 76.750000000000014 61.20000000000001 93.200000000000017
decision_type=8 10 10 8 2 10 10 2 2 2 8 2 8 10 2 2 2
left_child=2 10 16 -3 -5 6 -6 8 9 -8 11 -2 -12 -10 15 -14 -1
right_child=1 3 -4 4 5 -7 7 -9 13 -11 12 -13 14 -15 -16 -17 -18
leaf_value=-0 -0 -0.060334248019184411 -0.056829201261467358 -0.057968886614498776 0.070916757991704771 0.074339377563572603 -0.024310612273658605 0 -0 0.048705560309606419 -0.037330087272767633 0.10059852433225018 0.025877968850193202 -0.070383987466285977 0.052395169863343201 -0.0099036271556063957 0.013611196447021481
leaf_weight=0.81782655417919459 0.36355794221163096 1.1913336999714346 2.2951380424201488 1.188639812171459 0.80334788560867298 1.3896086513996122 0.64311893284320809 0.66010722517967213 0.50958414375782046 0.79077992588281631 0.79405413195490815 1.9767535254359245 0.99394471943378482 2.3253328371793032 2.0767512023448944 0.78743326663970947 0.72901200503110875
leaf_count=8 4 12 20 9 4 8 5 5 5 4 7 12 5 25 13 5 4
internal_value=0 0.0762096 -0.230544 -0.0776695 0 0.102322 -0 -0.191068 -0.34504 0 0.374819 0.688843 0.0775134 -0.601405 0.336923 0 0
internal_weight=0 16.4943 3.84198 9.50185 8.31052 7.12188 5.73227 4.92892 4.26882 1.4339 6.99249 2.34031 4.65218 2.83492 3.85813 1.78138 1.54684
internal_count=155 123 32 77 65 56 48 44 39 9 46 16 30 30 23 10 12
shrinkage=0.0984825


Tree=34
num_leaves=16
num_cat=0
split_feature=9 9 3 3 3 3 3 9 9 3 0 9 3 9 9
split_gain=0.496883 0.507042 0.752503 2.40569 0.383846 0.238715 0.416314 0.763306 0.260427 0.159066 0.0818577 0.222642 0.0336107 0.0239866 0.00348287
threshold=23.668209486925754 22.645647062339702 497.00000000000006 464.50000000000006 580.50000000000011 615.50000000000011 483.50000000000006 26.001652556707803 26.434276811244054 655.50000000000011 1.0000000180025095e-35 24.880309890215901 766.00000000000011 28.325509700145506 26.710257569013354
decision_type=8 10 8 10 10 8 10 10 10 8 8 10 8 8 8
left_child=1 2 3 -1 -3 6 7 -2 -8 -4 11 -7 -11 -9 -10
right_child=5 4 9 -5 -6 10 8 13 14 12 -12 -13 -14 -15 -16
leaf_value=-0.031281037716745348 0.074390066709623157 -0.074454680398473416 -0.053759182517866475 0.14229645237309069 -0 -0.0029805677297177419 -0.03688798491836414 -0.018261274133159675 0.0068406232988363468 0.0051339150827810652 0.061453935945485184 0.041349565981477127 -0.015813772049852393 0 -0
leaf_weight=0.7784123979508899 1.8974097445607161 1.7406931798905136 1.1174341272562744 1.3484376445412634 1.0921397544443605 1.1845780313014995 2.3630631789565086 0.66119306534528699 0.6854404620826241 0.91660341620445285 1.7704557478427885 1.2201626263558862 1.1666577160358427 0.7079984024167062 1.1191954053938389
leaf_count=8 11 21 16 7 9 7 22 6 4 6 9 7 8 4 10
internal_value=0 -0.12342 0 0.512291 -0.469287 0.18135 0 0.320881 -0.134645 -0.238907 0.384214 0 -0 -0 0
internal_weight=0 8.16038 5.32755 2.12685 2.83283 11.6095 7.4343 3.2666 4.1677 3.2007 4.1752 2.40474 2.08326 1.36919 1.80464
internal_count=155 75 45 15 30 80 57 21 36 30 23 14 14 10 14
shrinkage=0.0984825


end of trees

feature importances:
Choice_reaction_time_Ex5=123
Simple_reaction_time_Ex5=98
BMIX4=98
CASIX4=71
Olfaction_complete_Ex5_Ex4=40
ECGage=33
new_BM_frequency=23
Coffee_oz_Ex1=22
TBI_LOC=13
new_smoke=12
Sleepy_complete=6
HYPBP1=5

parameters:
[boosting: gbdt]
[objective: binary]
[metric: auc]
[tree_learner: serial]
[device_type: cpu]
[data: ]
[valid: ]
[num_iterations: 100]
[learning_rate: 0.0984825]
[num_leaves: 25]
[num_threads: 4]
[max_depth: 39]
[min_data_in_leaf: 4]
[min_sum_hessian_in_leaf: 0.001]
[bagging_fraction: 0.827927]
[pos_bagging_fraction: 1]
[neg_bagging_fraction: 1]
[bagging_freq: 1]
[bagging_seed: 3]
[feature_fraction: 0.45368]
[feature_fraction_bynode: 1]
[feature_fraction_seed: 2]
[early_stopping_round: 0]
[first_metric_only: 0]
[max_delta_step: 0]
[lambda_l1: 0.633939]
[lambda_l2: 0.0364375]
[min_gain_to_split: 0]
[drop_rate: 0.1]
[max_drop: 50]
[skip_drop: 0.5]
[xgboost_dart_mode: 0]
[uniform_drop: 0]
[drop_seed: 4]
[top_rate: 0.2]
[other_rate: 0.1]
[min_data_per_group: 100]
[max_cat_threshold: 32]
[cat_l2: 10]
[cat_smooth: 10]
[max_cat_to_onehot: 4]
[top_k: 20]
[monotone_constraints: ]
[feature_contri: ]
[forcedsplits_filename: ]
[forcedbins_filename: ]
[refit_decay_rate: 0.9]
[cegb_tradeoff: 1]
[cegb_penalty_split: 0]
[cegb_penalty_feature_lazy: ]
[cegb_penalty_feature_coupled: ]
[verbosity: 1]
[max_bin: 122]
[max_bin_by_feature: ]
[min_data_in_bin: 3]
[bin_construct_sample_cnt: 200000]
[histogram_pool_size: -1]
[data_random_seed: 1]
[output_model: LightGBM_model.txt]
[snapshot_freq: -1]
[input_model: ]
[output_result: LightGBM_predict_result.txt]
[initscore_filename: ]
[valid_data_initscores: ]
[pre_partition: 0]
[enable_bundle: 1]
[max_conflict_rate: 0]
[is_enable_sparse: 1]
[sparse_threshold: 0.8]
[use_missing: 1]
[zero_as_missing: 0]
[two_round: 0]
[save_binary: 0]
[header: 0]
[label_column: ]
[weight_column: ]
[group_column: ]
[ignore_column: ]
[categorical_feature: ]
[predict_raw_score: 0]
[predict_leaf_index: 0]
[predict_contrib: 0]
[num_iteration_predict: -1]
[pred_early_stop: 0]
[pred_early_stop_freq: 10]
[pred_early_stop_margin: 10]
[convert_model_language: ]
[convert_model: gbdt_prediction.cpp]
[num_class: 1]
[is_unbalance: 0]
[scale_pos_weight: 1]
[sigmoid: 1]
[boost_from_average: 1]
[reg_sqrt: 0]
[alpha: 0.9]
[fair_c: 1]
[poisson_max_delta_step: 0.7]
[tweedie_variance_power: 1.5]
[max_position: 20]
[lambdamart_norm: 1]
[label_gain: ]
[metric_freq: 1]
[is_provide_training_metric: 0]
[eval_at: ]
[multi_error_top_k: 1]
[num_machines: 1]
[local_listen_port: 12400]
[time_out: 120]
[machine_list_filename: ]
[machines: ]
[gpu_platform_id: -1]
[gpu_device_id: -1]
[gpu_use_dp: 0]

end of parameters

pandas_categorical:[]
