tree
version=v3
num_class=1
num_tree_per_iteration=1
label_index=0
max_feature_idx=11
objective=binary sigmoid:1
feature_names=Sleepy_complete Simple_reaction_time_Ex5 new_BM_frequency Choice_reaction_time_Ex5 CASIX4 Olfaction_complete_Ex5_Ex4 ECGage new_smoke TBI_LOC BMIX4 HYPBP1 Coffee_oz_Ex1
feature_infos=[0:1] [226:1075] [0:4] [60:1329] [2.5:99] [0:12] [72:90] [0:2] [0:1] [14.6411231134028:33.738952304877699] [0:1] [0:60]
tree_sizes=2012 2032 1282 1980 1707 1554 1611 2041 1528 1655 1260 1818 1566 950 1661 1643 1727 1342 1648 925 1726 1798 1525 1823

Tree=0
num_leaves=19
num_cat=0
split_feature=5 1 1 6 1 3 6 3 1 6 5 6 3 5 1 3 1 3
split_gain=11.7659 5.94941 6.06243 3.19918 3.38295 5.39385 4.17581 3.52039 2.73147 4.21569 1.89939 1.2754 0.965114 0.962107 0.815675 0.521196 0.513562 0.34288
threshold=3.5000000000000004 515.00000000000011 849.00000000000011 79.500000000000014 286.00000000000006 497.00000000000006 77.500000000000014 614.00000000000011 349.00000000000006 74.500000000000014 6.5000000000000009 79.500000000000014 509.00000000000006 2.5000000000000004 541.00000000000011 477.00000000000006 729.00000000000011 503.50000000000006
decision_type=2 8 10 2 10 8 2 8 10 2 2 2 10 2 10 10 10 8
left_child=1 11 13 4 -2 6 8 12 -6 -10 -9 15 17 -3 -5 -1 -16 -7
right_child=3 2 -4 14 5 7 -8 10 9 -11 -12 -13 -14 -15 16 -17 -18 -19
leaf_value=-0.98082925301172641 -1.0922971408680218 -0.69175842344919558 -0.98082925301172641 -1.1027563340159641 -0.72696580786501119 -1.0350618348651481 -1.0350618348651481 -0.84194447034452291 -0.78902899726187081 -1.0507226147347843 -0.98082925301172641 -1.0613182182522218 -1.0816676562117655 -0.94817458412291455 -0.98059697358969589 -0.88481298542578335 -1.0507226147347843 -0.94817458412291455
leaf_weight=0.79338842630386641 2.7768594920635286 2.380165278911591 0.99173553287982918 4.9586776643991461 1.5867768526077246 0.7933884263038623 0.79338842630386341 1.1900826394557964 0.99173553287982907 0.99173553287982941 1.7851239591836927 1.1900826394557951 4.7603305578231812 0.79338842630386341 0.99173553287982907 0.99173553287982941 0.99173553287982941 0.79338842630386364
leaf_count=4 14 12 5 25 8 4 4 6 5 5 9 6 24 4 5 5 5 4
internal_value=0 1.05169 1.81801 -0.407308 -0.121365 0.039926 0.99227 -0.340242 1.51302 0.316246 0.423407 -0 -0.797885 2.49297 -0.990389 0.500404 -0.0462071 -0
internal_weight=0 7.1405 4.16529 23.405 16.4628 13.686 4.36364 9.32231 3.57025 1.98347 2.97521 2.97521 6.34711 3.17355 6.94215 1.78512 1.98347 1.58678
internal_count=154 36 21 118 83 69 22 47 18 10 15 15 32 16 35 9 10 8
shrinkage=1


Tree=1
num_leaves=20
num_cat=0
split_feature=2 3 3 9 9 9 9 3 9 9 3 9 9 3 3 3 9 3 3
split_gain=18.5692 6.83713 3.6093 3.49577 2.80826 2.75419 4.71651 1.48073 0.973992 3.12284 0.940231 1.20785 0.919237 0.320996 0.0933684 0.0782731 0.0768203 0.0632081 0.0459369
threshold=1.5000000000000002 742.50000000000011 505.50000000000006 27.254980117197253 23.644845927168252 22.042117876149053 26.059449350038602 452.50000000000006 24.253298071060453 20.854064094833003 477.00000000000006 26.493207339833052 22.815543116602104 807.50000000000011 485.00000000000006 433.00000000000006 28.370175299053553 843.50000000000011 501.50000000000006
decision_type=8 8 10 8 10 8 10 8 10 10 10 10 10 10 10 10 10 10 10
left_child=4 2 7 -4 -1 17 -7 15 9 14 -10 18 -11 -8 -9 -2 -5 -3 -12
right_child=1 5 3 16 -6 6 13 8 10 12 11 -13 -14 -15 -16 -17 -18 -19 -20
leaf_value=0.0022960549269240792 -0 -0 -0.12487426934660341 -0 0.27842095832552954 0.16678969240379263 -0.06028199239222394 -0 -0.085385894204320703 0.2246163099641571 -0 0.10106070586621074 0.020838020675905164 0 -0.054095584991993684 -0.096205162013876314 0.029866285811688518 -0.050357413240548037 -0.04800401685330892
leaf_weight=0.97781808674335779 0.9928898364305544 0.78301861882209667 8.2403266280889476 0.97044003009796209 2.4281097501516342 3.3057427257299423 0.82028959691524495 0.77180476486683003 1.3569628000259402 0.8738244473934178 0.78828392922878276 0.97426366806030251 1.444237485527992 1.0333048850297926 0.78730365633964539 1.6013645529747007 0.79884232580661774 0.77324734628200531 0.76103353500366211
leaf_count=5 5 4 43 5 12 16 4 4 7 4 4 5 7 5 4 8 4 4 4
internal_value=0 -0.248978 -0.553706 -0.988256 2.21509 0.579066 0.96812 -0.0705102 0.0782448 0.483396 -0.165441 0 1.28407 -0 -0.311854 -0.751239 0 -0.305342 -0.300861
internal_weight=0 27.0772 20.3616 10.0096 3.40593 6.7156 5.15934 10.352 7.75771 3.87717 3.88054 2.52358 2.31806 1.85359 1.55911 2.59425 1.76928 1.55627 1.54932
internal_count=154 137 104 52 17 33 25 52 39 19 20 13 11 9 8 13 9 8 8
shrinkage=0.0984825


Tree=2
num_leaves=12
num_cat=0
split_feature=2 5 9 7 9 9 7 9 9 9 9
split_gain=10.706 6.55837 4.67998 1.12761 1.08687 0.99489 3.89199 0.981929 0.585105 0.321992 0.0244925
threshold=1.5000000000000002 3.5000000000000004 24.796083049791452 1.0000000180025095e-35 23.644845927168252 22.996648196238453 1.0000000180025095e-35 22.285899013715952 19.919454223318954 22.996648196238453 23.644845927168252
decision_type=8 2 8 2 10 8 2 10 10 10 10
left_child=4 2 9 -4 -1 6 8 -8 -3 -2 -11
right_child=1 5 3 -5 -6 -7 7 -9 -10 10 -12
leaf_value=0.0016873367447639701 -0.043530775374260242 0 0.1890386793637471 0.014120042638257658 0.21191170099737131 -0.070925023632924689 -0.091163354652450942 0 0.11120025066678078 0.016479456501313813 -0
leaf_weight=0.98082171380520156 1.7663862407207518 0.72850310802460017 2.1481456607580185 1.4746439903974535 2.2504327148199081 12.152469247579573 3.9524239897727966 1.3740755915641782 1.6684506982564924 0.83827464282512643 0.96394279599189758
leaf_count=5 9 4 10 7 10 64 21 7 8 4 5
internal_value=0 -0.210776 0.56446 1.37841 1.70524 -0.523623 -0.130729 -0.673974 0.807967 -0.0915869 0
internal_weight=0 27.0673 7.19139 3.62279 3.23125 19.8759 7.72345 5.3265 2.39695 3.5686 1.80222
internal_count=154 139 35 17 15 104 40 28 12 18 9
shrinkage=0.0984825


Tree=3
num_leaves=20
num_cat=0
split_feature=3 9 3 3 3 6 3 3 6 9 6 3 6 4 6 6 4 4 9
split_gain=6.62486 4.46359 6.4759 2.76009 2.07369 4.35411 2.051 1.88518 1.39851 1.35473 1.07801 0.73894 2.4566 0.582691 0.509962 0.600579 0.251901 0.328396 0.197926
threshold=1246.5000000000002 25.501973583674054 497.00000000000006 568.00000000000011 447.00000000000006 77.500000000000014 742.50000000000011 709.00000000000011 82.500000000000014 25.829876360507253 73.500000000000014 485.00000000000006 73.500000000000014 86.850000000000009 82.500000000000014 77.500000000000014 91.600000000000009 94.65000000000002 22.669450724837706
decision_type=8 10 10 10 10 2 8 10 2 10 2 10 2 2 2 2 2 2 8
left_child=1 2 4 9 18 11 10 -5 -8 -3 -4 12 -6 -11 15 -2 -15 -18 -1
right_child=14 3 6 7 5 -7 8 -9 -10 13 -12 -13 -14 16 -16 -17 17 -19 -20
leaf_value=-0.074889846549928391 0.091669696786687196 0.10365509311439908 0 0.19112677276800918 -0 -0.076353267022020624 0.074390658245624394 0 -0.079061788570260957 0 -0.1208713248717346 0 0.19982492307031646 -0.086176264226970334 0.21423758401642881 -0 0.016556721140111162 -0.05634279672094699 -0
leaf_weight=1.1303629130125139 1.3329119235277174 0.89546889066696067 0.73134385049342832 1.5298994630575182 0.75783377885818559 1.1482389420270918 1.0550725013017666 1.2028377354145048 1.1671750694513319 1.0260054767131803 8.889255076646803 1.0681844502687452 2.0960306823253632 1.4745418131351473 1.1413828730583189 0.79650568962097157 0.82375970482826211 0.89260201156139374 0.76854427158832561
leaf_count=6 6 4 4 7 4 6 5 6 6 5 50 5 10 8 5 4 4 5 4
internal_value=0 -0.191202 -0.471222 0.398906 0.22189 0.616643 -0.931894 1.204 -0 -0 -1.13166 1.18769 1.47905 -0.275299 1.30701 0.520097 -0.529559 -0 -0.496348
internal_weight=0 26.6572 18.812 7.84512 6.9692 5.07029 11.8428 2.73274 2.22225 5.11238 9.6206 3.92205 2.85386 4.21691 3.2708 2.12942 3.1909 1.71636 1.89891
internal_count=154 139 100 39 35 25 65 13 11 26 54 19 14 22 15 10 17 9 10
shrinkage=0.0984825


Tree=4
num_leaves=16
num_cat=0
split_feature=5 3 3 11 8 11 3 5 3 3 5 3 3 3 3
split_gain=7.37427 4.52982 2.28688 4.5822 1.86246 1.62676 1.44612 1.10731 0.649561 0.748692 0.587377 1.19446 0.999086 0.0632131 0.054987
threshold=4.5000000000000009 497.00000000000006 460.50000000000006 18.000000000000004 1.0000000180025095e-35 14.000000000000002 489.50000000000006 7.5000000000000009 540.00000000000011 583.50000000000011 7.5000000000000009 568.00000000000011 677.50000000000011 544.50000000000011 433.00000000000006
decision_type=2 10 10 2 10 2 8 2 10 10 2 10 10 10 10
left_child=5 2 7 -4 10 6 -1 -2 -8 -10 11 -3 -13 -6 -9
right_child=1 4 3 -5 13 -7 8 14 9 -11 -12 12 -14 -15 -16
leaf_value=-0.021612578080067859 0.035929321914444395 -0.094601685284917206 0.15043593907538444 -0.061985156893237317 -0 0.14871852707679123 0.123471928344611 -0 -0.033444586621777107 0.051866309337469198 -0.11295152634397952 0.054330494333737003 -0.048759199177902189 0.028257816721718301 -0.08305628541731222
leaf_weight=1.3919530361890808 1.2677864730358153 2.1643578410148585 3.0396697223186497 0.9318857342004776 0.88174450397491522 3.0467512011528015 1.8416310399770734 0.96010638773441348 0.6847152411937717 2.6920579224824905 4.9434729367494583 1.6172225624322893 1.9861687570810316 0.7814222425222398 1.4256961494684217
leaf_count=7 6 13 14 5 5 14 8 5 4 13 29 8 11 4 8
internal_value=0 -0.24009 0.311513 0.862145 -0.630985 0.813856 0.391058 -0.117846 0.674938 0.163522 -0.7954 -0.379586 -0 0.0492437 -0.637679
internal_weight=0 19.9995 7.62514 3.97156 12.3744 9.65711 6.61036 3.65359 5.2184 3.37677 10.7112 5.76775 3.60339 1.66317 2.3858
internal_count=154 108 38 19 70 46 32 19 25 17 61 32 19 9 13
shrinkage=0.0984825


Tree=5
num_leaves=15
num_cat=0
split_feature=1 1 1 1 4 1 1 4 4 4 4 4 1 4
split_gain=8.38562 1.79358 1.37861 3.21849 1.08815 1.02216 0.544411 1.26076 0.266333 0.139035 0.159368 0.10036 0.0381403 0.0132491
threshold=581.50000000000011 769.50000000000011 295.50000000000006 398.00000000000006 94.65000000000002 331.50000000000006 525.00000000000011 80.950000000000017 87.850000000000009 90.450000000000017 88.15000000000002 93.450000000000017 362.00000000000006 75.950000000000017
decision_type=8 10 10 10 2 10 8 2 2 2 2 2 10 2
left_child=2 -2 -1 4 5 -4 7 -5 -8 10 -7 -11 -6 -3
right_child=1 13 3 6 12 9 8 -9 -10 11 -12 -13 -14 -15
leaf_value=-0.1078809408803911 0.10995717781557235 -0.0042512071748410591 0.050520650526210492 0 0 -0.027756363608777083 -0.0531697541268586 -0.091602582020953102 0.0045740841538513179 -0.072694081447803274 0.018348422261014123 -0 0.12036589748062 0.010966409494417476
leaf_weight=2.9101986736059251 5.5664040297269812 1.1982889473438265 2.209931284189226 1.1911226361989937 1.0110179483890531 1.5930318385362627 0.86609485745430115 6.8282632976770401 1.4755400866270063 1.1939939111471178 0.8258620649576186 0.89690692722797372 0.85242502391338337 0.84650982916355122
leaf_count=16 25 6 11 6 5 9 5 40 7 7 4 5 4 4
internal_value=0 0.823872 -0.38674 -0.242578 0.15289 -0 -0.630546 -0.762061 -0 -0.307906 -0 -0.51765 0.823891 0
internal_weight=0 7.6112 21.8544 18.9442 8.58317 6.71973 10.361 8.01939 2.34163 4.50979 2.41889 2.0909 1.86344 2.0448
internal_count=154 35 119 103 45 36 58 46 12 25 13 12 9 10
shrinkage=0.0984825


Tree=6
num_leaves=15
num_cat=0
split_feature=1 1 1 1 1 4 1 1 11 1 1 11 1 1
split_gain=3.45431 2.25781 2.05285 2.39847 0.901434 0.800676 0.750347 1.65691 1.19594 0.953895 0.243024 0.215034 0.206855 0.146734
threshold=581.50000000000011 769.50000000000011 442.50000000000006 295.50000000000006 331.50000000000006 75.950000000000017 345.50000000000006 375.50000000000006 30.000000000000004 435.00000000000006 769.50000000000011 14.000000000000002 503.50000000000006 541.00000000000011
decision_type=8 10 8 8 8 2 8 8 2 10 8 2 10 10
left_child=2 10 3 -1 -5 -3 11 -8 9 -9 -2 -6 -4 -14
right_child=1 5 12 4 6 -7 7 8 -10 -11 -12 -13 13 -15
leaf_value=-0.098142856186648433 0.1394940350449746 -0.079964307777099744 -0.10412122419601923 0.063271124132861775 -0.080148312460733021 0.016616360299795175 0.075839125121715048 -0.063462770466502269 0.064929411988610269 0.0062779222567696941 0.036432833621997868 -0 0 -0.040807976765817711
leaf_weight=2.2375557273626372 2.0511234104633322 1.1717501580715177 3.0654646754264823 2.4955536276102057 1.2692606300115579 0.8197883367538451 2.8224223107099524 4.1194159239530572 1.0732353478670118 0.91551445424556721 3.0238107293844223 0.83795458078384388 1.4084402620792391 1.6756922602653501
leaf_count=13 9 6 19 12 7 4 14 25 5 5 13 5 8 9
internal_value=0 0.547157 -0.248724 -0.0149292 0.102892 -0.0999031 -0 0.105912 -0.100558 -0.391105 0.924008 -0.550554 -0.742202 -0.217218
internal_weight=0 7.06647 21.9205 15.7709 13.5334 1.99154 11.0378 8.93059 6.10817 5.03493 5.07493 2.10722 6.1496 3.08413
internal_count=154 32 122 86 73 10 61 49 35 30 22 12 36 17
shrinkage=0.0984825


Tree=7
num_leaves=20
num_cat=0
split_feature=2 7 9 9 9 9 2 9 9 9 9 9 9 9 9 9 9 9 9
split_gain=6.07927 1.41159 1.91938 1.13432 0.843482 1.02834 0.419255 0.37522 0.276787 0.164175 0.0729799 0.0729036 0.329511 0.0689222 0.0323305 0.427903 0.0788816 0.0266221 0.0167361
threshold=1.5000000000000002 1.0000000180025095e-35 27.513015863038152 21.354001432033552 21.077129486493604 24.606387316789156 2.5000000000000004 23.644845927168252 22.815543116602104 24.695767911384603 19.919454223318954 24.041040651379653 22.541173137485554 23.530707336438955 24.253298071060453 24.880309890215901 25.682478091768804 21.507576917109102 27.254980117197253
decision_type=8 2 10 10 10 10 8 10 10 10 8 8 10 10 10 10 10 10 10
left_child=7 3 4 10 -3 11 8 -1 -5 -8 -2 12 17 -14 -10 -16 -17 -6 -18
right_child=1 2 -4 6 5 -7 9 -9 14 -11 -12 -13 13 -15 15 16 18 -19 -20
leaf_value=0 0 -0.10399687102190334 0.049714886652290222 -0.025970522525136937 0.021335836840813114 -0.065027327682929056 -0 0.15580236998820257 0.040067085145808451 -0.067742474556486451 0.087682001263161113 0.027006915672873538 -0.038483214910134546 -0 -0.04567351776159944 0.051967589182770356 -0 -0 0.010417539127819151
leaf_weight=0.97894367575645747 0.62436963617801788 2.8463133573532096 1.6828665286302573 0.6484746187925311 0.78381185233592832 3.8742268830537796 0.73341687023639746 2.4300286918878555 1.7186774909496305 1.1352854967117307 1.6887825578451154 0.76570159196853615 2.5775129050016408 0.78646782040595986 0.81441214680671681 1.126353904604912 0.97580152750015281 1.3714635819196699 1.4592516869306562
leaf_count=5 4 17 8 4 4 22 4 10 8 7 8 4 14 5 5 6 5 7 7
internal_value=0 -0.110859 -0.326173 0.120917 -0.483417 -0.257619 -0 1.29722 0.0654297 -0.452583 0.742282 -0 -0.0475867 -0.311625 0.20521 0 0.260898 0.0736132 0
internal_weight=0 25.6132 14.6884 10.9248 13.0055 10.1592 8.61167 3.40897 6.74297 1.8687 2.31315 6.28496 5.51926 3.36398 6.0945 4.37582 3.56141 2.15528 2.43505
internal_count=154 139 81 58 73 56 46 15 35 11 12 34 30 19 31 23 18 11 12
shrinkage=0.0984825


Tree=8
num_leaves=15
num_cat=0
split_feature=1 3 1 2 3 3 1 0 1 2 1 1 3 1
split_gain=5.97823 5.90094 2.87416 2.69366 1.22912 0.971972 0.736697 0.585526 0.354537 0.285437 0.128698 0.0788485 0.00922513 0.00332327
threshold=581.50000000000011 509.00000000000006 286.00000000000006 2.5000000000000004 485.00000000000006 742.50000000000011 769.50000000000011 1.0000000180025095e-35 420.50000000000006 1.5000000000000002 375.50000000000006 628.00000000000011 1162.0000000000002 349.00000000000006
decision_type=8 10 8 10 10 8 10 10 10 8 10 10 10 8
left_child=1 2 -1 4 -4 -2 11 9 10 -3 -6 -7 -8 -5
right_child=5 7 3 13 8 6 12 -9 -10 -11 -12 -13 -14 -15
leaf_value=-0.088664688865666377 -0 -0 0.1206091003329563 -0 0 0.057670400988320068 -0 -0 0.054409269044968192 -0.10338482266820474 -0.040796124970614064 0.17183502746490631 0.010182160607854526 -0.051901833823722703
leaf_weight=1.8983399868011517 0.81599870324134716 0.82276527583598624 3.367511048913002 1.5780235975980761 1.02119916677475 3.9555067867040634 0.97022297978401151 0.7377067208290109 1.14624248445034 8.4036770090460777 0.71354435384273518 1.2217889428138731 0.82656264305114735 0.8501034528017043
leaf_count=12 4 4 16 8 5 17 5 4 6 55 4 5 4 5
internal_value=0 -0.359245 0.108974 0.405391 0.785986 0.660264 0.790782 -0.918142 0.0470286 -0.986576 -0 0.991031 0 -0.313944
internal_weight=0 20.5391 10.575 8.67662 6.2485 7.79008 6.97408 9.96415 2.88099 9.22644 1.73474 5.1773 1.79679 2.42813
internal_count=154 119 56 44 31 35 31 63 15 59 9 22 9 13
shrinkage=0.0984825


Tree=9
num_leaves=16
num_cat=0
split_feature=2 1 1 1 4 3 3 1 4 4 4 1 4 3 2
split_gain=5.27976 4.27638 4.02637 2.66002 1.46424 2.17305 1.00723 2.13454 0.807853 0.761756 0.647864 0.622149 0.343545 0.246778 0.0148738
threshold=1.5000000000000002 581.50000000000011 375.50000000000006 286.00000000000006 92.200000000000017 497.00000000000006 768.50000000000011 849.00000000000011 80.950000000000017 89.450000000000017 88.450000000000017 381.50000000000006 75.950000000000017 503.50000000000006 2.5000000000000004
decision_type=8 8 10 8 2 10 8 10 2 2 2 8 2 8 10
left_child=11 2 3 -2 9 -6 -3 -8 12 10 13 -1 -4 -5 -11
right_child=1 6 8 4 5 -7 7 -9 -10 14 -12 -13 -14 -15 -16
leaf_value=0.0034150480069719967 -0.086465381466495309 -0 -0.054090773805382998 -0.041399080733087928 0.1551324551492427 -0 0.10725180055293981 -0 -0.098191440954824974 -0 0.10390458546355341 0.14666002862316221 0.024341335553524877 0.037262769815745458 -0.062819480742343697
leaf_weight=1.4223732054233575 1.9192431569099468 1.0090007185935963 0.93969108164310244 0.72003790736198525 1.9074377417564394 0.98005472123622883 4.5395112335681915 1.1722093224525449 6.8875700086355209 0.87866795063018766 0.88834401965141285 2.6915894448757172 0.76694491505622864 0.75357429683208466 0.93455007672309887
leaf_count=7 13 5 6 4 8 6 19 6 47 5 4 11 4 4 5
internal_value=0 -0.0613433 -0.343865 0.0610786 0.408757 0.952073 0.581564 0.756843 -0.839 0 0.398856 1.14377 -0 -0 -0.453381
internal_weight=0 24.2968 17.5761 8.98191 7.06267 2.88749 6.72072 5.71172 8.59421 4.17517 2.36196 4.11396 1.70664 1.47361 1.81322
internal_count=154 136 106 49 36 14 30 25 57 22 12 18 10 8 10
shrinkage=0.0984825


Tree=10
num_leaves=12
num_cat=0
split_feature=2 7 9 6 9 9 8 9 7 9 9
split_gain=6.6391 1.20529 1.51606 1.51505 2.00441 0.983006 0.837481 0.43374 0.238559 0.0147522 0.00550816
threshold=1.5000000000000002 1.0000000180025095e-35 28.030627081906406 77.500000000000014 24.253298071060453 26.493207339833052 1.0000000180025095e-35 28.030627081906406 1.5000000000000002 26.946435669954553 24.695767911384603
decision_type=8 2 10 2 10 8 10 10 2 10 10
left_child=-1 3 6 4 -2 -5 8 -7 -3 -6 -8
right_child=1 2 -4 5 9 7 10 -9 -10 -11 -12
leaf_value=0.13174333740262781 0.1161366471191905 -0.067298154245464398 0.038231143625664099 -0.057434920837690397 0 0.06457397444799573 -0 -0 -0 -0.010382166520693051 0.0080122126831155688
leaf_weight=3.1135796457529095 2.1698804199695587 9.8270604163408226 1.2509229034185416 4.156552717089653 1.1623056679964068 0.99127534031868003 1.1242386698722846 1.0768539905548093 0.73346689343452531 1.2909564971923826 0.79574789106845845
leaf_count=13 10 60 6 25 7 5 7 6 4 7 4
internal_value=0 -0.201814 -0.400453 0 0.477817 -0.268454 -0.531046 0.0620508 -0.641978 -0 0
internal_weight=0 24.5793 13.7314 10.8478 4.62314 6.22468 12.4805 2.06813 10.5605 2.45326 1.91999
internal_count=154 141 81 60 24 36 75 11 64 14 11
shrinkage=0.0984825


Tree=11
num_leaves=18
num_cat=0
split_feature=5 9 5 4 9 4 4 11 4 4 11 5 4 4 5 4 4
split_gain=5.06789 1.79788 1.54533 1.33562 1.64664 1.2712 1.41588 0.780473 1.02099 0.818644 0.647319 0.572891 0.375248 0.237571 0.118894 0.0688806 0.0508524
threshold=6.5000000000000009 23.530707336438955 1.0000000180025095e-35 89.200000000000017 21.354001432033552 93.450000000000017 79.40000000000002 30.000000000000004 84.450000000000017 78.40000000000002 14.000000000000002 3.5000000000000004 89.200000000000017 70.700000000000017 1.5000000000000002 87.850000000000009 95.750000000000014
decision_type=2 10 2 2 8 2 2 2 2 2 2 2 2 2 2 2 2
left_child=1 3 -3 4 -1 6 -2 8 9 13 16 14 -10 -4 -6 -9 -7
right_child=5 2 7 -5 11 10 -8 15 12 -11 -12 -13 -14 -15 -16 -17 -18
leaf_value=0.10292275321417714 0 0.16810864709389819 0.039887134535651084 -0.083556509648849489 -0 0.03655301396790421 -0.090631069991935695 -0.03082964709139191 -0.051362801660840889 0.13083026337037659 -0.061359909115758296 -0.07032655317110971 0.029969148842679299 -0 0.031640675017949912 0 0
leaf_weight=1.6189487129449869 1.0807953029870967 1.4258526414632786 1.4562530964612945 1.5793808624148367 0.90756689012050706 1.6853191405534751 6.9111198633909225 0.66643765568733193 0.90422705560922645 1.9843011498451233 1.151053614914417 1.1087521314620969 1.2527164220809934 0.84060260653495777 1.1153861433267591 0.93879635632038116 0.64288162440061558
leaf_count=8 6 6 6 10 5 9 45 4 6 9 9 7 6 4 5 5 4
internal_value=0 0.343734 0.621267 -0 0.189812 -0.527071 -0.746013 0.34351 0.517493 0.798784 -0 -0.0591628 -0 0.0558921 0 -0 0.280718
internal_weight=0 15.7992 9.46919 6.33003 4.75065 11.4712 7.99192 8.04333 6.4381 4.28116 3.47925 3.13171 2.15694 2.29686 2.02295 1.60523 2.3282
internal_count=154 81 46 35 25 73 51 40 31 19 22 17 12 10 10 9 13
shrinkage=0.0984825


Tree=12
num_leaves=15
num_cat=0
split_feature=3 3 1 1 3 10 1 3 3 3 11 3 1 3
split_gain=2.32352 2.51616 2.87196 0.832509 1.13632 0.740505 0.70602 0.618822 0.971854 0.419611 0.407902 0.230602 0.0530407 0.0233069
threshold=742.50000000000011 492.50000000000006 286.00000000000006 335.50000000000006 441.50000000000006 1.0000000180025095e-35 365.50000000000006 978.00000000000011 843.50000000000011 533.00000000000011 1.0000000180025095e-35 485.00000000000006 313.50000000000006 583.50000000000011
decision_type=8 10 8 10 10 2 10 10 8 10 2 10 8 10
left_child=1 2 -1 10 -5 -2 9 8 -7 -3 -4 -6 -12 -11
right_child=5 6 3 4 11 7 -8 -9 -10 13 12 -13 -14 -15
leaf_value=-0.084923539237548154 0.077125752503306583 -0.057254533443677168 0.058047016905123282 -0 0.14662535566656504 0.020086647918808792 -0.074345360561589302 0.062778738390018726 -0.071230244839683751 0 -0.039531342713450608 0 -0 0.032379605669743204
leaf_weight=2.0013729035854384 2.7421673238277426 1.0227330550551408 0.94160053133964661 0.86126482486724876 1.5844985693693163 1.3910273611545565 8.2272565215826017 1.3600423485040662 1.8059781342744825 0.68947914987802483 0.71554166078567472 0.86803047358989693 1.2046602964401245 0.74923412501811981
leaf_count=15 12 7 4 5 7 7 60 6 9 4 4 4 6 4
internal_value=0 -0.283964 0.0671032 0.47365 0.815153 0.362442 -0.610957 0 -0.126024 -0 0 1.1623 -0.186591 0.204389
internal_weight=0 18.8657 8.17697 6.1756 3.31379 7.29922 10.6887 4.55705 3.19701 2.46145 2.8618 2.45253 1.9202 1.43871
internal_count=154 120 45 30 16 34 75 22 16 15 14 11 10 8
shrinkage=0.0984825


Tree=13
num_leaves=9
num_cat=0
split_feature=2 5 6 6 6 6 6 6
split_gain=3.13981 2.49014 2.44523 1.51834 0.47257 0.256887 0.30793 0.0811662
threshold=1.5000000000000002 4.5000000000000009 76.500000000000014 81.500000000000014 78.500000000000014 79.500000000000014 86.500000000000014 81.500000000000014
decision_type=8 2 2 2 2 2 2 2
left_child=3 4 -3 -1 -2 -6 7 -7
right_child=1 2 -4 -5 5 6 -8 -9
leaf_value=0.14056655763596979 0.048317818715227709 0 -0.079732392263074325 -0 -0.050711738962180522 0 -0 0.046753399458805162
leaf_weight=1.9186114221811326 3.5361627787351626 6.8713475540280324 7.9546592086553574 1.1087508052587507 0.74412328004837025 1.1888793334364893 0.99120432138442971 1.9114776104688642
leaf_count=8 17 43 56 5 4 7 5 9
internal_value=0 -0.172322 -0.433476 0.896898 0.214646 0 0.109966 0.337758
internal_weight=0 23.1979 14.826 3.02736 8.37185 4.83568 4.09156 3.10036
internal_count=154 141 99 13 42 25 21 16
shrinkage=0.0984825


Tree=14
num_leaves=16
num_cat=0
split_feature=5 3 3 9 10 9 3 9 3 9 5 9 3 9 3
split_gain=4.1819 1.94288 1.98937 1.87025 1.84932 1.12253 1.03621 0.612761 0.525872 0.82797 0.448525 0.389954 0.276066 0.20868 0.171168
threshold=3.5000000000000004 492.50000000000006 650.00000000000011 25.829876360507253 1.0000000180025095e-35 25.829876360507253 467.00000000000006 22.815543116602104 489.50000000000006 26.493207339833052 7.5000000000000009 23.530707336438955 959.50000000000011 19.919454223318954 599.00000000000011
decision_type=2 8 10 10 2 10 10 10 8 10 2 10 8 10 10
left_child=4 3 5 6 -1 -3 11 -4 -6 12 -9 13 14 -2 -10
right_child=1 2 7 -5 8 -7 -8 10 9 -11 -12 -13 -14 -15 -16
leaf_value=0.13390444958922773 0 -0.11098640366488444 -0.064327326798029785 -0.080467090091078372 -0.023869513859934081 -0 0.088481082453747084 0.046515262725286326 0 0.10229419125818016 -0 0.044580372214387605 0.035472061931725717 -0.059059038958016549 -0.053037982112192662
leaf_weight=2.1215774863958385 0.59443099796772303 5.5842898860573751 1.2370726019144056 1.5317981466650961 1.2523915767669676 1.5977233499288557 2.2693172991275787 2.2852718830108647 0.64777398109436057 1.1884910166263578 1.181082062423229 1.0283202007412908 1.4197399318218229 1.0214614793658254 0.85419487953186035
leaf_count=9 4 43 10 10 7 10 10 12 4 5 7 5 6 7 5
internal_value=0 -0.336968 -0.58117 0.0162815 0.538853 -0.912925 0.408251 -0 0.0897124 0.345021 0.140775 -0 0 -0.322424 -0.238011
internal_weight=0 18.3308 11.8854 6.44533 7.48417 7.18201 4.91353 4.70343 5.36259 4.1102 3.46635 2.64421 2.92171 1.61589 1.50197
internal_count=154 118 82 36 36 53 26 29 27 20 19 16 15 11 9
shrinkage=0.0984825


Tree=15
num_leaves=16
num_cat=0
split_feature=2 1 11 1 4 4 1 1 1 4 1 11 4 4 1
split_gain=2.75751 1.94827 1.8736 1.04471 2.27095 1.09237 1.06897 0.839071 0.731036 0.715597 0.266724 0.799429 0.0351679 0.180086 0.00733322
threshold=1.5000000000000002 581.50000000000011 18.000000000000004 398.00000000000006 80.950000000000017 74.90000000000002 295.50000000000006 381.50000000000006 729.00000000000011 85.200000000000017 335.50000000000006 14.000000000000002 74.350000000000009 81.450000000000017 313.50000000000006
decision_type=8 8 2 10 2 2 10 8 8 2 10 2 2 2 10
left_child=7 2 3 6 5 -5 -2 -1 9 -3 14 -12 -10 -14 -8
right_child=1 8 -4 4 -6 -7 10 -9 12 -11 11 -13 13 -15 -16
leaf_value=0 -0.063642138882282262 0.13313839298460434 -0.099733428440598029 -0 -0.096124265816361992 0.11844834384874361 0.0077345871918783511 0.11092726682996476 0.010574251951802291 0 0.066321498772696164 -0 -0.035662670284086456 0 -0.0039134095107006836
leaf_weight=1.0308103561401396 1.2279180958867089 0.98159927129745439 3.6502986922860137 0.51307383924722649 3.4465028941631317 0.80085629969835281 0.8302508890628818 2.3908040821552277 2.2674265056848526 1.0750370919704435 3.5573998093605042 0.49310926347970951 1.402520224452019 0.853472501039505 1.2221418321132658
leaf_count=5 10 4 28 4 30 4 4 10 10 5 18 4 7 4 7
internal_value=0 -0.152086 -0.360582 -0.108987 -0.493031 0.296655 0.055558 0.804903 0.25013 0.739623 0.303015 0.450766 0 -0.0612751 0
internal_weight=0 22.3216 15.7416 12.0913 4.76043 1.31393 7.33082 3.42161 6.58006 2.05664 6.1029 4.05051 4.52342 2.25599 2.05239
internal_count=154 139 109 81 38 8 43 15 30 9 33 22 21 11 11
shrinkage=0.0984825


Tree=16
num_leaves=17
num_cat=0
split_feature=5 6 0 3 3 3 3 6 3 3 6 6 6 3 3 3
split_gain=1.73369 1.18336 2.08331 1.12498 1.21916 0.535292 0.468293 0.603855 0.402638 0.231826 0.398337 0.180851 0.216417 0.103908 0.0381555 0.0285888
threshold=7.5000000000000009 80.500000000000014 1.0000000180025095e-35 477.00000000000006 460.50000000000006 742.50000000000011 843.50000000000011 75.500000000000014 843.50000000000011 477.00000000000006 78.500000000000014 74.500000000000014 73.500000000000014 433.00000000000006 509.00000000000006 460.50000000000006
decision_type=2 2 8 10 10 8 8 2 10 10 2 2 2 10 10 10
left_child=1 6 5 4 13 -3 7 11 -5 15 14 12 -1 -2 -11 -9
right_child=3 2 -4 8 -6 -7 -8 9 -10 10 -12 -13 -14 -15 -16 -17
leaf_value=0.050068664039191461 -0 -0.096509454323216046 0.053566127215003118 -0.082258563154899447 0.084309172299867632 -0 -0 0 -0 0.0089005091880282015 0.056069045552237684 0.12325731011735507 -0 -0.060526808586003601 -0.015590308987210142 -0.020657349666216095
leaf_weight=1.464521117508415 0.80207221210002844 2.2691365107893939 1.740315109491348 3.9214891120791435 1.1695534288883207 1.095691382884979 2.1116355955600747 0.94232521951198556 0.69623245298862446 0.77015342563390721 2.0308428779244423 1.6258066594600675 1.3718164339661598 1.1263819858431814 1.223202973604202 0.61334140598773956
leaf_count=8 5 17 8 32 5 5 10 5 4 4 12 8 9 9 9 4
internal_value=0 0.170031 -0.153503 -0.398923 0 -0.702558 0.357988 0.448855 -0.711887 0.0843064 0.258692 0.759425 0.24436 -0.413105 -0 -0
internal_weight=0 17.2588 5.10514 7.71573 3.09801 3.36483 12.1536 10.042 4.61772 5.57987 4.0242 4.46214 2.83634 1.92845 1.99336 1.55567
internal_count=154 99 30 55 19 22 69 59 36 34 25 25 17 14 13 9
shrinkage=0.0984825


Tree=17
num_leaves=13
num_cat=0
split_feature=5 2 5 10 11 11 2 11 10 11 11 11
split_gain=3.6528 1.12247 1.06109 1.80257 0.617592 0.591783 0.174995 0.152244 0.00730335 0.00474004 0.00147812 0.133653
threshold=7.5000000000000009 1.5000000000000002 3.5000000000000004 1.0000000180025095e-35 1.0000000180025095e-35 22.000000000000004 2.5000000000000004 10.000000000000002 1.0000000180025095e-35 10.000000000000002 6.0000000000000009 10.000000000000002
decision_type=2 8 2 2 2 2 8 2 2 2 2 2
left_child=1 -1 3 -3 -2 6 7 8 -4 -8 -5 -12
right_child=4 2 5 10 -6 -7 9 -9 -10 -11 11 -13
leaf_value=0.074563125262632701 -0 0.11211533068701571 0 -0 -0.079130757966016457 -0.07411575801450121 -0.043594036898233407 -0 0.030828799241217411 -0 0.024829641945293777 -0
leaf_weight=2.9366716444492402 1.3103040531277645 1.9807332530617694 0.65147522091865551 1.6337329894304273 5.6996957063674927 1.4649334773421285 0.81257486343383756 2.1648236438632011 1.728202149271965 0.93793179839849472 2.0894064083695416 1.5048544034361837
leaf_count=13 8 9 4 9 46 11 6 13 10 7 10 8
internal_value=0 0.181493 0.0247498 0.334719 -0.661751 -0.182108 -0 0.0540336 0.261816 -0.300741 0 0.0201771
internal_weight=0 17.9053 14.9687 7.20873 7.01 7.75994 6.29501 4.5445 2.37968 1.75051 5.22799 3.59426
internal_count=154 100 87 36 54 51 40 27 14 13 27 18
shrinkage=0.0984825


Tree=18
num_leaves=16
num_cat=0
split_feature=5 9 9 2 9 9 9 4 4 4 9 9 4 9 9
split_gain=1.1974 1.79138 1.23895 1.02604 0.936301 0.519218 0.509218 1.20753 0.735764 0.284832 0.241908 0.210647 0.122825 0.100952 0.000251054
threshold=3.5000000000000004 23.530707336438955 27.721811111375604 1.5000000000000002 24.606387316789156 28.030627081906406 20.854064094833003 91.200000000000017 80.550000000000026 84.65000000000002 28.562770539434354 22.815543116602104 89.200000000000017 22.285899013715952 21.077129486493604
decision_type=2 8 10 8 8 10 8 2 2 2 10 10 2 8 8
left_child=1 13 -3 -2 6 -6 9 8 11 -5 -7 -8 -10 14 -1
right_child=3 2 -4 4 5 10 7 -9 12 -11 -12 -13 -14 -15 -16
leaf_value=-0.0020551942690198791 0.038344769848799871 0.091661713329697719 -0 0 -0.072125940890210669 0.032585896757030407 -0 0.075237921317346246 -0.071187066747866248 -0.070882073363253986 -0.042910331408319943 0.045565249730700488 -0 -0.051913681944849459 0
leaf_weight=0.54003580659628192 2.0246965587139156 4.1914345100522041 1.2429903149604795 0.66350373625754899 4.7948359996080407 0.75545209646224942 0.77597341686487264 2.0341592058539391 1.6056541353464129 1.4145605862140653 0.78111523389816284 1.1438277065753935 0.82529339194297791 0.84132640063762654 0.83085724711418163
leaf_count=4 9 19 6 4 35 4 5 12 17 13 5 6 6 5 4
internal_value=0 0.31763 0.665578 -0.158278 -0.276742 -0.570444 -0 0.0812484 -0.0971502 -0.469867 -0 0.14654 -0.54585 -0.252138 -0
internal_weight=0 7.64664 5.43442 16.8191 14.7944 6.3314 8.46297 6.38491 4.35075 2.07806 1.53657 1.9198 2.43095 2.21222 1.37089
internal_count=154 38 25 116 107 44 63 46 34 17 9 11 23 13 8
shrinkage=0.0984825


Tree=19
num_leaves=8
num_cat=0
split_feature=2 5 11 11 11 11 11
split_gain=1.61234 2.12711 1.63785 1.41875 0.0119251 0.204948 0.00441616
threshold=1.5000000000000002 3.5000000000000004 14.000000000000002 6.0000000000000009 1.0000000180025095e-35 6.0000000000000009 10.000000000000002
decision_type=8 2 2 2 2 2 2
left_child=-1 3 4 -2 -3 -6 -7
right_child=1 2 -4 -5 5 6 -8
leaf_value=0.075514444552929244 -0.029571583091094318 0.00082790276701738053 -0.072211974919273683 0.060331059587698459 -0.035129883237292527 0.0039687065141963311 -0
leaf_weight=2.6581537425518063 1.308291465044024 2.1234291866421682 5.2868669629096976 5.9310151040554047 1.6667612865567205 2.6829137429594994 2.3912057727575302
leaf_count=13 8 13 45 28 14 17 16
internal_value=0 -0.0427352 -0.293749 0.359823 -0 -0.0416777 0
internal_weight=0 21.3905 14.1512 7.23931 8.86431 6.74088 5.07412
internal_count=154 141 105 36 60 47 33
shrinkage=0.0984825


Tree=20
num_leaves=17
num_cat=0
split_feature=3 9 9 3 9 3 3 9 9 3 3 3 3 9 9 3
split_gain=1.40753 2.12817 1.58078 3.2071 0.753244 0.417637 0.370805 0.347356 0.287384 0.268155 0.228517 0.107914 0.746297 0.074865 0.0678031 0.0496271
threshold=485.00000000000006 26.059449350038602 24.963498707667753 742.50000000000011 29.078282648490653 709.00000000000011 406.00000000000006 26.493207339833052 21.691986679452654 843.50000000000011 497.00000000000006 583.50000000000011 509.00000000000006 27.721811111375604 19.919454223318954 978.00000000000011
decision_type=10 10 10 8 10 10 8 10 8 10 10 10 8 10 8 10
left_child=1 6 3 10 -3 7 -1 -4 14 -5 -2 12 -9 -7 -8 -11
right_child=2 4 5 9 -6 13 8 11 -10 15 -12 -13 -14 -15 -16 -17
leaf_value=-0 -0 -0.092236619422944935 -0 0.070755708147737684 0 0 0.024526896032229548 0.081855935090989873 0.079431589050250537 -0.016869796315483111 -0.099665974955546119 0.086041882805355852 -0.033770345485034534 -0.032409626138581442 -0 0.015562234132557704
leaf_weight=0.59455173462629485 0.93898941576480577 1.2146313861012461 0.87109316140413229 0.89035628736019246 0.88903172314167012 0.79658228158950783 1.0567193031311031 0.90367309004068386 5.3517031148076057 0.58536386489868153 4.8172596506774426 1.3526701107621191 0.78700321912765503 0.65483444929122925 0.938114494085312 1.2203176319599149
leaf_count=4 5 7 7 4 5 4 6 5 26 4 48 7 7 4 5 6
internal_value=0 0.324715 -0.159466 -0.453483 -0.401022 0.186257 0.597389 0.391336 0.660179 0.277384 -0.904826 0.556098 0 -0 0 0
internal_weight=0 10.0448 13.8181 8.45229 2.10366 5.36586 7.94109 3.91444 7.34654 2.69604 5.75625 3.04335 1.69068 1.45142 1.99483 1.80568
internal_count=154 53 101 67 12 34 41 26 37 14 53 19 12 8 11 10
shrinkage=0.0984825


Tree=21
num_leaves=18
num_cat=0
split_feature=1 2 5 1 4 4 1 1 4 1 4 5 4 5 5 1 1
split_gain=1.02216 0.90112 0.69075 1.98094 2.37068 1.23848 0.791446 0.642217 0.445328 0.317578 0.264586 0.254036 0.412483 0.573772 0.207111 0.054263 0.0288584
threshold=286.00000000000006 1.5000000000000002 4.5000000000000009 398.00000000000006 80.550000000000026 75.950000000000017 696.50000000000011 515.00000000000011 72.450000000000017 547.50000000000011 82.90000000000002 5.5000000000000009 93.450000000000017 10.500000000000002 7.5000000000000009 340.50000000000006 902.00000000000011
decision_type=8 8 2 8 2 2 8 8 2 10 2 2 2 2 2 10 8
left_child=-1 10 5 11 6 8 9 -7 16 -5 -2 -4 14 -14 15 -13 -3
right_child=1 2 3 4 -6 7 -8 -9 -10 -11 -12 12 13 -15 -16 -17 -18
leaf_value=-0.074339571867657855 0 0.015941029022314063 -0 0 -0.098721908909404577 0 -0.033506115734982848 0.10762079626818639 -0.072180240191866279 0.10863253447932654 0.082050376503675859 0 0.095991963933337851 -0 -0.021556169449383964 0.052236627818125395 -0
leaf_weight=1.6279892623424554 0.97291617095470717 1.0649939477443728 0.9884794726967786 0.55324097722768895 4.3983222767710686 1.7418652921915057 0.66804418712854363 1.8466608077287672 0.81513375043868996 0.81477878987789154 1.74920979142189 0.68416576087474845 1.4770179614424708 0.70662204921245564 1.422809801995754 0.64409584552049637 1.1224702000617979
leaf_count=15 5 5 7 4 45 10 4 8 4 4 8 4 7 5 10 4 5
internal_value=0 0.0582964 -0 -0.158291 -0.568851 0.239515 0.0630488 0.665729 -0.0631459 0.715073 0.594479 0.182082 0.30141 0.623877 0 0.317071 0
internal_weight=0 21.6708 18.9487 12.3576 6.43439 6.59112 2.03606 3.58853 3.0026 1.36802 2.72213 5.92319 4.93471 2.18364 2.75107 1.32826 2.18746
internal_count=154 139 126 94 57 32 12 18 14 8 13 37 30 12 18 8 10
shrinkage=0.0984825


Tree=22
num_leaves=15
num_cat=0
split_feature=3 3 6 3 5 6 5 3 5 4 4 4 3 3
split_gain=1.50896 3.41824 1.29602 1.00979 0.728421 0.94138 0.538995 0.507787 0.446047 0.307905 0.196484 0.126666 0.0958011 0.255664
threshold=509.00000000000006 583.50000000000011 78.500000000000014 441.50000000000006 7.5000000000000009 80.500000000000014 1.5000000000000002 503.50000000000006 5.5000000000000009 75.950000000000017 85.200000000000017 88.450000000000017 467.00000000000006 456.50000000000006
decision_type=10 8 2 8 2 2 2 8 2 2 2 2 10 10
left_child=2 -2 3 -1 5 6 -3 -4 -8 -9 -6 -7 13 -5
right_child=1 4 7 12 10 11 8 9 -10 -11 -12 -13 -14 -15
leaf_value=-0 -0.098047912177748123 0 -0.063648318967132717 0.043584165354087281 0 -0.028971703667380385 0.12535722390118823 -0 0 0.062227068745302837 -0.051047941788794945 0.0038551973805652428 0.10302671528986752 -0
leaf_weight=1.4809256121516234 3.3219846375286552 1.0111571103334434 1.1508014388382428 3.0407719984650625 0.54301991313695885 1.4150755703449251 1.7078656107187273 1.5146966576576235 1.3972721025347707 0.76455309987068165 0.9800189696252346 0.64784294739365567 3.3119828179478645 0.75918424874544133
leaf_count=11 35 5 10 16 4 9 8 7 10 4 9 4 17 5
internal_value=0 -0.119738 0.365382 0.580309 0.179007 0.380473 0.665853 -0 0.870419 0.0716472 -0.221657 -0 0.740126 0.300761
internal_weight=0 11.0242 12.0229 8.59286 7.70225 6.17921 4.11629 3.43005 3.10514 2.27925 1.52304 2.06292 7.11194 3.79996
internal_count=154 84 70 49 49 36 23 21 18 11 13 13 38 21
shrinkage=0.0984825


Tree=23
num_leaves=18
num_cat=0
split_feature=1 1 3 1 1 3 7 4 3 4 4 3 4 1 3 3 1
split_gain=0.871569 0.93033 1.4185 1.09737 0.805792 1.82553 1.21005 0.352236 0.261536 0.214734 0.338747 0.638465 0.0986581 0.0567497 0.0489469 0.0130605 0.0018348
threshold=503.50000000000006 375.50000000000006 481.50000000000006 295.50000000000006 769.50000000000011 790.00000000000011 1.0000000180025095e-35 81.450000000000017 677.50000000000011 84.450000000000017 92.200000000000017 497.00000000000006 89.450000000000017 333.50000000000006 472.50000000000006 599.00000000000011 349.00000000000006
decision_type=8 10 10 8 8 10 2 2 8 2 2 10 2 10 10 10 10
left_child=1 3 -3 -1 5 8 -6 -4 15 -5 12 14 -11 -14 -12 -2 -13
right_child=4 2 7 9 6 -7 -8 -9 -10 10 11 16 13 -15 -16 -17 -18
leaf_value=-0.072743287961771541 0 0.008150144324110889 -0 0.070858553186516876 0.040601291245729393 0.12550757121346523 -0.0534601416058538 -0.09750433896558458 -0.045204513820408646 0 0 0 -0 -0.047425443103435189 0.099014243106621019 0.024714709937932618 -0.0055625897846480745
leaf_weight=1.5947086289525039 0.55273271352052455 0.91114041209220786 0.83147988468408573 0.77903658151626654 2.2052226662635812 1.7443758696317671 2.7770073041319847 3.3564270250499249 0.90702628344297409 1.2337246462702753 0.86549936234951041 0.5094119533896444 0.72653175890445676 0.8235551118850708 0.93517479300498962 1.167424105107784 0.53867560625076283
leaf_count=15 4 5 6 4 10 8 15 39 8 7 4 4 4 6 4 7 4
internal_value=0 -0.219161 -0.551427 -0 0.166703 0.491937 -0 -0.838994 -0 0.179356 0 0.319608 -0.124943 -0.299892 0.712716 0.189015 -0
internal_weight=0 13.1054 5.09905 8.00632 9.35379 4.37156 4.98223 4.18791 2.62718 6.41161 5.63257 2.84876 2.78381 1.55009 1.80067 1.72016 1.04809
internal_count=154 102 50 52 52 27 25 45 19 37 33 16 17 10 8 11 8
shrinkage=0.0984825


end of trees

feature importances:
Choice_reaction_time_Ex5=81
BMIX4=65
Simple_reaction_time_Ex5=60
CASIX4=46
Olfaction_complete_Ex5_Ex4=26
ECGage=24
Coffee_oz_Ex1=20
new_BM_frequency=16
new_smoke=6
HYPBP1=4
Sleepy_complete=2
TBI_LOC=2

parameters:
[boosting: gbdt]
[objective: binary]
[metric: auc]
[tree_learner: serial]
[device_type: cpu]
[data: ]
[valid: ]
[num_iterations: 100]
[learning_rate: 0.0984825]
[num_leaves: 25]
[num_threads: 4]
[max_depth: 39]
[min_data_in_leaf: 4]
[min_sum_hessian_in_leaf: 0.001]
[bagging_fraction: 0.827927]
[pos_bagging_fraction: 1]
[neg_bagging_fraction: 1]
[bagging_freq: 1]
[bagging_seed: 3]
[feature_fraction: 0.45368]
[feature_fraction_bynode: 1]
[feature_fraction_seed: 2]
[early_stopping_round: 0]
[first_metric_only: 0]
[max_delta_step: 0]
[lambda_l1: 0.633939]
[lambda_l2: 0.0364375]
[min_gain_to_split: 0]
[drop_rate: 0.1]
[max_drop: 50]
[skip_drop: 0.5]
[xgboost_dart_mode: 0]
[uniform_drop: 0]
[drop_seed: 4]
[top_rate: 0.2]
[other_rate: 0.1]
[min_data_per_group: 100]
[max_cat_threshold: 32]
[cat_l2: 10]
[cat_smooth: 10]
[max_cat_to_onehot: 4]
[top_k: 20]
[monotone_constraints: ]
[feature_contri: ]
[forcedsplits_filename: ]
[forcedbins_filename: ]
[refit_decay_rate: 0.9]
[cegb_tradeoff: 1]
[cegb_penalty_split: 0]
[cegb_penalty_feature_lazy: ]
[cegb_penalty_feature_coupled: ]
[verbosity: 1]
[max_bin: 122]
[max_bin_by_feature: ]
[min_data_in_bin: 3]
[bin_construct_sample_cnt: 200000]
[histogram_pool_size: -1]
[data_random_seed: 1]
[output_model: LightGBM_model.txt]
[snapshot_freq: -1]
[input_model: ]
[output_result: LightGBM_predict_result.txt]
[initscore_filename: ]
[valid_data_initscores: ]
[pre_partition: 0]
[enable_bundle: 1]
[max_conflict_rate: 0]
[is_enable_sparse: 1]
[sparse_threshold: 0.8]
[use_missing: 1]
[zero_as_missing: 0]
[two_round: 0]
[save_binary: 0]
[header: 0]
[label_column: ]
[weight_column: ]
[group_column: ]
[ignore_column: ]
[categorical_feature: ]
[predict_raw_score: 0]
[predict_leaf_index: 0]
[predict_contrib: 0]
[num_iteration_predict: -1]
[pred_early_stop: 0]
[pred_early_stop_freq: 10]
[pred_early_stop_margin: 10]
[convert_model_language: ]
[convert_model: gbdt_prediction.cpp]
[num_class: 1]
[is_unbalance: 0]
[scale_pos_weight: 1]
[sigmoid: 1]
[boost_from_average: 1]
[reg_sqrt: 0]
[alpha: 0.9]
[fair_c: 1]
[poisson_max_delta_step: 0.7]
[tweedie_variance_power: 1.5]
[max_position: 20]
[lambdamart_norm: 1]
[label_gain: ]
[metric_freq: 1]
[is_provide_training_metric: 0]
[eval_at: ]
[multi_error_top_k: 1]
[num_machines: 1]
[local_listen_port: 12400]
[time_out: 120]
[machine_list_filename: ]
[machines: ]
[gpu_platform_id: -1]
[gpu_device_id: -1]
[gpu_use_dp: 0]

end of parameters

pandas_categorical:[]
