tree
version=v3
num_class=1
num_tree_per_iteration=1
label_index=0
max_feature_idx=11
objective=binary sigmoid:1
feature_names=Sleepy_complete Simple_reaction_time_Ex5 new_BM_frequency Choice_reaction_time_Ex5 CASIX4 Olfaction_complete_Ex5_Ex4 ECGage new_smoke TBI_LOC BMIX4 HYPBP1 Coffee_oz_Ex1
feature_infos=[0:1] [1:1075] [0:4] [60:1295] [2.5:99] [0:12] [72:90] [0:2] [0:1] [14.6411231134028:39.3445072771772] [0:1] [0:52]
tree_sizes=1622 1541 1465 1635

Tree=0
num_leaves=15
num_cat=0
split_feature=1 3 1 6 3 5 5 1 1 1 1 3 1 1
split_gain=15.52 6.52872 5.84682 7.95702 4.48254 2.55368 1.63412 1.92809 1.17313 0.94423 0.560135 0.373713 0.299911 0.0912345
threshold=581.50000000000011 497.00000000000006 286.00000000000006 77.500000000000014 464.50000000000006 5.5000000000000009 6.5000000000000009 515.00000000000011 880.50000000000011 412.50000000000006 237.00000000000003 444.50000000000006 332.50000000000006 636.00000000000011
decision_type=8 10 8 2 10 10 10 10 10 10 10 10 10 10
left_child=1 2 10 4 11 8 7 9 -2 -3 -1 -4 -5 -7
right_child=5 6 3 12 -6 13 -8 -9 -10 -11 -12 -13 -14 -15
leaf_value=-0.98082925301172641 -0.7772126059833544 -0.98082925301172641 -0.98082925301172641 -0.98082925301172641 -0.73251088547547227 -0.98082925301172641 -1.0959397057029581 -0.92223871930624646 -0.98059697358969589 -1.0702590733684467 -1.0883663880935699 -0.92223871930624646 -1.0689639226504375 -0.94817458412291455
leaf_weight=0.7933884263038683 3.570247918367385 1.3884297460317601 0.99173553287983052 0.79338842630386386 2.3801652789115906 0.99173553287982907 8.1322313696145994 1.1900826394557951 0.99173553287982918 3.5702479183673859 2.3801652789115906 1.1900826394557951 1.3884297460317609 0.79338842630386353
leaf_count=4 18 7 5 4 12 5 41 6 5 18 12 6 7 4
internal_value=0 -0.397725 0.173773 0.751203 1.54256 1.35329 -0.838309 -0.294349 1.76002 -0.637471 -0.850375 0.165022 -0.615827 0
internal_weight=0 24.1983 9.91736 6.7438 4.56198 6.34711 14.281 6.14876 4.56198 4.95868 3.17355 2.18182 2.18182 1.78512
internal_count=154 122 50 34 23 32 72 31 23 25 16 11 11 9
shrinkage=1


Tree=1
num_leaves=15
num_cat=0
split_feature=3 9 3 2 3 0 3 9 9 3 9 3 3 3
split_gain=11.5438 3.86533 5.83002 3.68483 2.90175 2.36781 4.22999 1.95691 1.30205 1.199 1.70898 0.752665 0.578105 0.245492
threshold=714.50000000000011 25.259212022841954 497.00000000000006 2.5000000000000004 564.50000000000011 1.0000000180025095e-35 824.50000000000011 24.253298071060453 25.736407940350201 453.00000000000006 22.815543116602104 477.00000000000006 517.00000000000011 528.50000000000011
decision_type=8 10 10 10 10 10 10 10 10 10 10 10 10 8
left_child=1 2 3 9 8 6 -2 -7 -3 -1 -11 -10 -13 -14
right_child=5 4 -4 -5 -6 7 -8 -9 11 10 -12 12 13 -15
leaf_value=-0 0.21179483607702893 0.056671071772248546 -0.11510513814155944 -0.10046595595947445 0.11303480638558056 -0.074108903705276147 0 0.12114338238217154 -0.098099413941475047 0.18118133599916497 0 0.02952902142233128 -0.075555507260572793 -0
leaf_weight=1.5524391382932723 3.1503790020942679 1.1957148462533931 9.5196337550878507 1.9527521878480907 2.1244527846574783 1.0159780532121656 1.3899770826101301 0.86298298835754383 1.7716894000768659 1.299811899662018 1.2400394082069395 1.394303694367409 1.1442928016185756 0.76399630308151245
leaf_count=8 15 6 50 10 11 5 7 4 9 6 6 7 6 4
internal_value=0 -0.379243 -0.680482 0 0.104638 1.12298 1.51531 0 -0.15287 0.625372 1.04506 -0.451411 -0 -0.480755
internal_weight=0 23.9591 15.5647 6.04504 8.39445 6.41932 4.54036 1.87896 6.27 4.09229 2.53985 5.07428 3.30259 1.90829
internal_count=154 123 80 30 43 31 22 9 32 20 12 26 17 10
shrinkage=0.0984825


Tree=2
num_leaves=14
num_cat=0
split_feature=5 2 9 9 9 9 5 9 5 9 9 9 9
split_gain=9.70572 9.10812 3.131 1.04342 0.890072 0.794908 0.591835 0.334747 0.937636 0.596846 0.329663 0.084397 0.0778104
threshold=4.5000000000000009 1.5000000000000002 23.337480115936053 21.018032541502603 28.705562584356752 26.694924222752554 7.5000000000000009 24.613604088566305 6.5000000000000009 27.977581019429156 22.645647062339702 21.488933019071201 23.530707336438955
decision_type=10 10 8 10 8 10 10 10 10 10 10 10 8
left_child=2 12 11 -3 5 -4 7 8 -5 -9 -8 -1 -2
right_child=1 3 4 6 -6 -7 10 9 -10 -11 -12 -13 -14
leaf_value=0.023745253170905752 0.050085132696320311 -0.11078876106713934 0.11801189286615268 -1.333422178797495e-05 0.25007150276295681 0 -0 -0.051409023521288198 0.096819561391642897 0 -0.059296769620688736 -0 0.24717356408480742
leaf_weight=1.4153122007846843 1.2119994461536436 3.1786176711320904 3.1339751332998285 1.8364066183567076 1.3096967637538908 1.2234802544116972 1.5495639890432338 3.2145993709564209 0.98267650604248036 1.0104153603315351 7.5771434605121613 1.7699894011020658 0.83276145160198212
leaf_count=7 6 17 15 9 6 6 8 17 5 5 40 9 4
internal_value=0 -0.262604 0.973041 -0.500988 1.42286 0.924761 -0.336969 -0.0152813 0.128773 -0.26044 -0.51502 0 1.65789
internal_weight=0 21.3942 8.85245 19.3494 5.66715 4.35746 16.1708 7.0441 2.81908 4.22501 9.12671 3.1853 2.04476
internal_count=154 111 43 101 27 21 84 36 14 22 48 16 10
shrinkage=0.0984825


Tree=3
num_leaves=16
num_cat=0
split_feature=3 3 9 4 6 6 6 4 4 9 6 6 9 6 3
split_gain=8.04177 5.44114 3.93961 3.92485 3.87413 3.07894 1.78812 1.71699 1.27486 1.20286 2.11452 0.920111 0.631901 0.353814 0.0183363
threshold=742.50000000000011 483.50000000000006 25.259212022841954 85.850000000000009 77.500000000000014 74.500000000000014 74.500000000000014 84.550000000000026 93.450000000000017 20.319431338894351 75.500000000000014 74.500000000000014 25.453814841879854 79.500000000000014 470.00000000000006
decision_type=8 10 10 2 2 2 2 2 2 8 2 2 8 2 10
left_child=1 3 6 -1 5 8 -3 -4 -5 -2 -11 -9 -10 -13 -7
right_child=9 2 7 4 -6 14 -8 11 12 10 -12 13 -14 -15 -16
leaf_value=-0.095580123331409153 -0 -0 0.088436104456505418 -0.064200596453230785 -0.073145232475996677 0.071421879744149055 -0.12291803956629044 -0.090987227490940001 0.12837580101293239 0 0.14517239577519184 0.036009934222277634 0 -0.045452509773643603 0.23996335513886441
leaf_weight=1.735076665878301 0.82771569490432639 1.5219763666391362 1.4362013041973103 0.9482756555080416 1.1202659010887144 1.5846260190010073 9.0895484089851362 1.661817714571953 0.83942964673042253 1.3214631825685499 3.7494006305932999 1.3611604273319247 0.7323124259710313 0.74736584722995747 1.3348933458328245
leaf_count=9 4 8 7 5 6 8 50 9 4 6 17 7 4 4 6
internal_value=0 -0.378099 -0.731722 0.220409 0.63514 1.03773 -1.08037 -0 0 0.909469 1.09394 -0.372946 0.729738 0 1.74257
internal_weight=0 24.1129 15.8181 8.29488 6.5598 5.43954 10.6115 5.20655 2.52002 5.89858 5.07086 3.77034 1.57174 2.10853 2.91952
internal_count=154 127 85 42 33 27 58 27 13 27 23 20 8 11 14
shrinkage=0.0984825


end of trees

feature importances:
BMIX4=16
Choice_reaction_time_Ex5=14
Simple_reaction_time_Ex5=8
ECGage=7
Olfaction_complete_Ex5_Ex4=5
CASIX4=3
new_BM_frequency=2
Sleepy_complete=1

parameters:
[boosting: gbdt]
[objective: binary]
[metric: auc]
[tree_learner: serial]
[device_type: cpu]
[data: ]
[valid: ]
[num_iterations: 100]
[learning_rate: 0.0984825]
[num_leaves: 25]
[num_threads: 4]
[max_depth: 39]
[min_data_in_leaf: 4]
[min_sum_hessian_in_leaf: 0.001]
[bagging_fraction: 0.827927]
[pos_bagging_fraction: 1]
[neg_bagging_fraction: 1]
[bagging_freq: 1]
[bagging_seed: 3]
[feature_fraction: 0.45368]
[feature_fraction_bynode: 1]
[feature_fraction_seed: 2]
[early_stopping_round: 0]
[first_metric_only: 0]
[max_delta_step: 0]
[lambda_l1: 0.633939]
[lambda_l2: 0.0364375]
[min_gain_to_split: 0]
[drop_rate: 0.1]
[max_drop: 50]
[skip_drop: 0.5]
[xgboost_dart_mode: 0]
[uniform_drop: 0]
[drop_seed: 4]
[top_rate: 0.2]
[other_rate: 0.1]
[min_data_per_group: 100]
[max_cat_threshold: 32]
[cat_l2: 10]
[cat_smooth: 10]
[max_cat_to_onehot: 4]
[top_k: 20]
[monotone_constraints: ]
[feature_contri: ]
[forcedsplits_filename: ]
[forcedbins_filename: ]
[refit_decay_rate: 0.9]
[cegb_tradeoff: 1]
[cegb_penalty_split: 0]
[cegb_penalty_feature_lazy: ]
[cegb_penalty_feature_coupled: ]
[verbosity: 1]
[max_bin: 122]
[max_bin_by_feature: ]
[min_data_in_bin: 3]
[bin_construct_sample_cnt: 200000]
[histogram_pool_size: -1]
[data_random_seed: 1]
[output_model: LightGBM_model.txt]
[snapshot_freq: -1]
[input_model: ]
[output_result: LightGBM_predict_result.txt]
[initscore_filename: ]
[valid_data_initscores: ]
[pre_partition: 0]
[enable_bundle: 1]
[max_conflict_rate: 0]
[is_enable_sparse: 1]
[sparse_threshold: 0.8]
[use_missing: 1]
[zero_as_missing: 0]
[two_round: 0]
[save_binary: 0]
[header: 0]
[label_column: ]
[weight_column: ]
[group_column: ]
[ignore_column: ]
[categorical_feature: ]
[predict_raw_score: 0]
[predict_leaf_index: 0]
[predict_contrib: 0]
[num_iteration_predict: -1]
[pred_early_stop: 0]
[pred_early_stop_freq: 10]
[pred_early_stop_margin: 10]
[convert_model_language: ]
[convert_model: gbdt_prediction.cpp]
[num_class: 1]
[is_unbalance: 0]
[scale_pos_weight: 1]
[sigmoid: 1]
[boost_from_average: 1]
[reg_sqrt: 0]
[alpha: 0.9]
[fair_c: 1]
[poisson_max_delta_step: 0.7]
[tweedie_variance_power: 1.5]
[max_position: 20]
[lambdamart_norm: 1]
[label_gain: ]
[metric_freq: 1]
[is_provide_training_metric: 0]
[eval_at: ]
[multi_error_top_k: 1]
[num_machines: 1]
[local_listen_port: 12400]
[time_out: 120]
[machine_list_filename: ]
[machines: ]
[gpu_platform_id: -1]
[gpu_device_id: -1]
[gpu_use_dp: 0]

end of parameters

pandas_categorical:[]
